{
  "layers": [
    {
      "weight": [
        [
          0.3332703709602356,
          0.5841777920722961,
          -0.40218374133110046,
          1.2918001413345337,
          0.5705367922782898
        ],
        [
          0.1650492399930954,
          -0.33544594049453735,
          0.3359220623970032,
          -0.14520181715488434,
          -1.348117709159851
        ],
        [
          0.41990381479263306,
          -0.2019321620464325,
          0.338146448135376,
          -0.022452736273407936,
          -0.016401536762714386
        ],
        [
          0.06984398514032364,
          0.13344691693782806,
          -0.10505890101194382,
          -0.14124290645122528,
          -0.5693128705024719
        ],
        [
          0.20421195030212402,
          -0.10039474815130234,
          -0.2553545832633972,
          -0.030109578743577003,
          -1.744040608406067
        ],
        [
          0.048360761255025864,
          0.4206281304359436,
          0.006876334082335234,
          0.11177491396665573,
          -1.455199956893921
        ],
        [
          0.41684743762016296,
          -0.4187079966068268,
          0.5736821293830872,
          0.1112426221370697,
          -0.7882059216499329
        ],
        [
          0.299407422542572,
          0.17349323630332947,
          0.7976945042610168,
          0.5460046529769897,
          -0.44849950075149536
        ],
        [
          0.09226997941732407,
          -0.17393562197685242,
          -0.1713331788778305,
          1.2132233381271362,
          0.8721306920051575
        ],
        [
          0.20584112405776978,
          0.37287524342536926,
          0.0898854061961174,
          -0.09442700445652008,
          -1.6297225952148438
        ],
        [
          -0.15557357668876648,
          -0.1316850632429123,
          0.20963169634342194,
          0.7304996848106384,
          0.802137553691864
        ],
        [
          0.19071641564369202,
          0.3390304744243622,
          -0.1731271743774414,
          0.22238720953464508,
          -1.0816997289657593
        ],
        [
          0.14341145753860474,
          -0.8017059564590454,
          0.10413746535778046,
          -0.902125358581543,
          -0.8525245189666748
        ],
        [
          0.2103426307439804,
          0.3741022050380707,
          0.02171352691948414,
          -0.5009715557098389,
          -1.6749598979949951
        ],
        [
          0.3911321759223938,
          0.07473862171173096,
          1.0081441402435303,
          -0.33496594429016113,
          -1.2372337579727173
        ],
        [
          -0.5519545674324036,
          0.04654552787542343,
          0.11256342381238937,
          0.41087695956230164,
          1.180285096168518
        ],
        [
          -0.05425981804728508,
          -0.676916778087616,
          2.151305913925171,
          -0.0642620399594307,
          0.6138161420822144
        ],
        [
          0.06042008101940155,
          -0.08463560044765472,
          -0.8835813999176025,
          -0.2142201066017151,
          -0.6897521018981934
        ],
        [
          0.17772464454174042,
          -0.128021702170372,
          0.043904174119234085,
          -0.20053118467330933,
          -1.3591471910476685
        ],
        [
          0.20533446967601776,
          0.44705286622047424,
          0.034742940217256546,
          -0.4297681748867035,
          -1.7137465476989746
        ],
        [
          -0.05168348178267479,
          -0.5963612794876099,
          0.5406641960144043,
          -0.8499225974082947,
          -0.6336307525634766
        ],
        [
          -0.04833844304084778,
          -0.9745483994483948,
          -0.8566938042640686,
          -0.6952871680259705,
          -1.1366130113601685
        ],
        [
          0.4714440405368805,
          -0.07313938438892365,
          0.3774334192276001,
          -0.49414896965026855,
          -1.026660442352295
        ],
        [
          0.2107428014278412,
          0.08722775429487228,
          -0.020606525242328644,
          -0.3944641351699829,
          -1.5716370344161987
        ],
        [
          0.1973620057106018,
          -0.4085942506790161,
          -0.11476705223321915,
          -0.9268802404403687,
          -1.5528603792190552
        ],
        [
          0.16088265180587769,
          -0.2283703237771988,
          -0.7747179865837097,
          0.012945017777383327,
          -1.319887638092041
        ],
        [
          0.3892124891281128,
          0.02062203921377659,
          -0.440308541059494,
          0.09224818646907806,
          -0.671678364276886
        ],
        [
          0.1562701314687729,
          -0.6103919148445129,
          -0.729544460773468,
          -0.3475976586341858,
          -1.3877203464508057
        ],
        [
          0.18548868596553802,
          -0.8477707505226135,
          0.46486175060272217,
          -1.0780164003372192,
          -1.0724153518676758
        ],
        [
          0.16791841387748718,
          0.1651706099510193,
          0.6316100358963013,
          -0.07135479897260666,
          -1.3265570402145386
        ],
        [
          0.035458073019981384,
          -0.9658580422401428,
          0.06205171346664429,
          -0.9315225481987,
          0.06679248809814453
        ],
        [
          -0.04053784906864166,
          0.6094432473182678,
          -0.2135729044675827,
          0.5044171214103699,
          -1.0243258476257324
        ],
        [
          0.4599577784538269,
          -0.33050140738487244,
          -0.17725616693496704,
          -0.34611785411834717,
          -0.11334995925426483
        ],
        [
          0.13738015294075012,
          -0.5098884701728821,
          0.7121285200119019,
          -0.3996984362602234,
          -1.1680097579956055
        ],
        [
          0.06412829458713531,
          0.3551892936229706,
          0.162678062915802,
          0.16580559313297272,
          -1.2493810653686523
        ],
        [
          0.17853012681007385,
          -0.5279269814491272,
          0.18703991174697876,
          -0.15193058550357819,
          -1.6927589178085327
        ],
        [
          0.1268520951271057,
          -0.1830735206604004,
          -0.07952931523323059,
          -0.063820481300354,
          -0.14275866746902466
        ],
        [
          0.2603371739387512,
          -0.02415342815220356,
          -0.2565971314907074,
          0.12636950612068176,
          -0.1561494916677475
        ],
        [
          -0.1152685359120369,
          -0.4874154031276703,
          0.8668172955513,
          0.41597190499305725,
          0.305758535861969
        ],
        [
          0.07342846691608429,
          -0.08366639167070389,
          -0.0707111731171608,
          -0.11472928524017334,
          -0.46144384145736694
        ],
        [
          -0.20160523056983948,
          -0.7166538238525391,
          0.8804430365562439,
          -0.20048955082893372,
          0.29202038049697876
        ],
        [
          -0.08180169016122818,
          -0.7470979690551758,
          -1.9046698808670044,
          -0.3612515330314636,
          -0.30856844782829285
        ],
        [
          0.3211781680583954,
          -0.3066510260105133,
          -0.7526700496673584,
          -0.5497666001319885,
          -0.20036691427230835
        ],
        [
          0.45967406034469604,
          0.13146989047527313,
          -0.19641312956809998,
          0.2513989508152008,
          -0.7410063147544861
        ],
        [
          0.1973118633031845,
          0.5326856374740601,
          -0.10294923186302185,
          -0.2890455424785614,
          -1.7181810140609741
        ],
        [
          0.2071191519498825,
          0.4454389810562134,
          0.176555335521698,
          -0.4744936525821686,
          -1.7098454236984253
        ],
        [
          -0.3528009355068207,
          -0.7819845080375671,
          -0.3558817505836487,
          0.05331316217780113,
          1.3055685758590698
        ],
        [
          0.1983741968870163,
          -0.19288097321987152,
          -0.24208799004554749,
          -0.8979133367538452,
          -1.5366244316101074
        ],
        [
          0.18135449290275574,
          -0.546570360660553,
          -0.17611128091812134,
          -0.9766942262649536,
          -1.199196696281433
        ],
        [
          -0.11537891626358032,
          -1.16793954372406,
          0.7608225345611572,
          -0.5813511610031128,
          0.2380337119102478
        ],
        [
          0.07573754340410233,
          -0.8060850501060486,
          -0.15999530255794525,
          -0.2649928033351898,
          -0.9271124005317688
        ],
        [
          -0.15174254775047302,
          0.0324787013232708,
          0.16165827214717865,
          0.41576164960861206,
          0.8978593349456787
        ],
        [
          0.29621458053588867,
          -1.0348234176635742,
          0.3277813792228699,
          -0.8002443909645081,
          -0.39896419644355774
        ],
        [
          0.42971178889274597,
          -0.011716105975210667,
          -0.07341505587100983,
          0.0070226541720330715,
          -1.0937089920043945
        ],
        [
          0.17593412101268768,
          -0.5768120884895325,
          0.06364228576421738,
          1.0632352828979492,
          0.954025149345398
        ],
        [
          0.202923983335495,
          -0.4488615393638611,
          0.10982571542263031,
          -0.2533247172832489,
          -1.7605183124542236
        ],
        [
          0.13614855706691742,
          -0.729624330997467,
          -0.09421957284212112,
          -0.9064476490020752,
          -1.2454153299331665
        ],
        [
          0.12088343501091003,
          -0.8290615081787109,
          0.7422534823417664,
          -0.12862862646579742,
          -0.717536449432373
        ],
        [
          0.05849817395210266,
          -0.6689338684082031,
          -0.3701462149620056,
          -1.0082751512527466,
          -0.7050210237503052
        ],
        [
          -0.20048250257968903,
          -0.7664148807525635,
          -0.8429476022720337,
          -0.2980344593524933,
          -0.002602270105853677
        ],
        [
          0.14398090541362762,
          -0.27668169140815735,
          -0.27665451169013977,
          -0.4727732539176941,
          -1.5423164367675781
        ],
        [
          0.3262231647968292,
          -0.4154565632343292,
          0.2302512526512146,
          -0.3058341443538666,
          -0.5448994040489197
        ],
        [
          0.37148749828338623,
          0.13611561059951782,
          -0.8331384658813477,
          0.677132785320282,
          0.8599412441253662
        ],
        [
          0.10992705821990967,
          0.07588957250118256,
          0.5523560643196106,
          -0.21358199417591095,
          -0.5173442363739014
        ]
      ],
      "bias": [
        0.28930726647377014,
        -0.8496997952461243,
        0.6443337798118591,
        0.6786174178123474,
        -0.9224148392677307,
        -0.5789615511894226,
        -0.7269755601882935,
        -0.9248672723770142,
        0.4130263924598694,
        -0.8064829707145691,
        1.7735625505447388,
        -0.24793216586112976,
        -0.9337179064750671,
        -1.2771698236465454,
        -0.006070169620215893,
        0.35237717628479004,
        1.207717776298523,
        0.4803787171840668,
        -1.208013653755188,
        -0.9991774559020996,
        0.9539939165115356,
        0.9861698746681213,
        -0.6582154631614685,
        -1.490907073020935,
        -1.2007653713226318,
        -0.5045607089996338,
        0.49209433794021606,
        -0.6923540830612183,
        -0.9258195757865906,
        -0.336453914642334,
        0.8417059779167175,
        0.6616227626800537,
        0.7792986035346985,
        0.054259177297353745,
        -0.5353845357894897,
        -0.4898352324962616,
        0.9514123797416687,
        0.4099195897579193,
        0.9239715933799744,
        0.9325000047683716,
        1.0745165348052979,
        0.8782421946525574,
        -0.01893927901983261,
        -0.25710850954055786,
        -0.6794928908348083,
        -0.9919634461402893,
        2.456892490386963,
        -1.348455548286438,
        -1.420818567276001,
        1.4038796424865723,
        0.5445975065231323,
        1.561417579650879,
        -0.05917442589998245,
        -0.37607720494270325,
        0.357536643743515,
        -1.0559117794036865,
        -0.2804131805896759,
        0.4637916386127472,
        0.289431631565094,
        0.6227489113807678,
        -0.09679540991783142,
        -0.7389362454414368,
        1.0473278760910034,
        0.6792880892753601
      ]
    },
    {
      "weight": [
        [
          -0.10736681520938873,
          0.9386253356933594,
          -0.08309255540370941,
          0.4104212820529938,
          1.2937439680099487,
          0.6367273330688477,
          0.06387745589017868,
          -0.004760608542710543,
          -0.24917881190776825,
          1.3912230730056763,
          1.0312875509262085,
          0.2819708585739136,
          0.5098461508750916,
          1.418830394744873,
          0.23006771504878998,
          -0.24780136346817017,
          -0.9405871629714966,
          0.6091039776802063,
          0.983972430229187,
          1.4632903337478638,
          -1.1083303689956665,
          -0.8704747557640076,
          -0.020169610157608986,
          1.153057336807251,
          0.9518375992774963,
          0.9104748368263245,
          0.07214666903018951,
          0.8787136077880859,
          0.6400746703147888,
          0.8668814897537231,
          0.11901471018791199,
          0.4843856692314148,
          -0.01651414856314659,
          0.7741658687591553,
          0.5045313835144043,
          0.8711504936218262,
          0.050133947283029556,
          -0.016927309334278107,
          0.43740570545196533,
          0.49009302258491516,
          0.7011100053787231,
          -0.8675191402435303,
          -0.009176465682685375,
          -0.034349679946899414,
          1.2229652404785156,
          0.7351620197296143,
          0.6695123910903931,
          0.8983564376831055,
          0.5853022933006287,
          -0.9754575490951538,
          0.42024701833724976,
          0.8275558352470398,
          -0.006035852711647749,
          0.15024156868457794,
          -0.24624858796596527,
          1.1674162149429321,
          0.7680383920669556,
          0.5458582639694214,
          0.4381852447986603,
          0.6498671174049377,
          0.9720877408981323,
          -0.01604248397052288,
          -0.18116042017936707,
          0.26867052912712097
        ],
        [
          0.29435235261917114,
          -0.5980644226074219,
          0.17976394295692444,
          0.27728766202926636,
          -0.676300048828125,
          -0.4076395630836487,
          0.12057781219482422,
          0.07457076013088226,
          0.3179379999637604,
          -0.5362589359283447,
          -0.8826724886894226,
          -0.12250687181949615,
          -0.3203785717487335,
          -0.8300675749778748,
          0.13170503079891205,
          -0.7586395144462585,
          1.227462649345398,
          0.20972147583961487,
          -0.8519772887229919,
          -0.8631891012191772,
          2.0651187896728516,
          1.7511030435562134,
          0.20149168372154236,
          -0.8347140550613403,
          -0.40047791600227356,
          -0.2623796761035919,
          0.09941805899143219,
          -0.26075685024261475,
          -0.3542230427265167,
          -0.4213375449180603,
          0.18065692484378815,
          0.18341216444969177,
          0.2528423070907593,
          -0.04694405198097229,
          -0.3967987298965454,
          -0.3320275545120239,
          0.21316410601139069,
          0.09212416410446167,
          -0.2417101263999939,
          0.36952054500579834,
          -0.965752899646759,
          1.6681907176971436,
          0.17019414901733398,
          0.16419725120067596,
          -0.5530954003334045,
          -0.6611343026161194,
          -0.9266456961631775,
          -0.6033394932746887,
          -0.48506852984428406,
          1.492993950843811,
          0.12172231823205948,
          -1.0294880867004395,
          0.08705251663923264,
          0.026201743632555008,
          0.28738871216773987,
          -0.47074297070503235,
          -0.13572940230369568,
          0.281945139169693,
          0.006336437538266182,
          -0.9048711061477661,
          -0.2511579990386963,
          0.08074358105659485,
          0.2551831901073456,
          0.11236171424388885
        ],
        [
          -0.026747718453407288,
          0.6694647669792175,
          -0.02264358662068844,
          0.3436310589313507,
          1.2957863807678223,
          0.4918670356273651,
          0.20113691687583923,
          0.07437854260206223,
          -0.2826126217842102,
          1.3688007593154907,
          0.8285754323005676,
          0.3940574526786804,
          0.6827100515365601,
          1.2867738008499146,
          0.24261532723903656,
          -0.20289695262908936,
          -0.6452047824859619,
          0.5095131993293762,
          0.9570913314819336,
          1.3616136312484741,
          -1.1031237840652466,
          -0.6139786243438721,
          0.2016613930463791,
          1.198182225227356,
          0.8774964809417725,
          0.8335338830947876,
          0.029378261417150497,
          0.9895551800727844,
          0.42193204164505005,
          0.7353882193565369,
          0.00867538433521986,
          0.493544340133667,
          0.18081507086753845,
          0.7076178789138794,
          0.634213924407959,
          1.015298843383789,
          0.17729082703590393,
          0.016179675236344337,
          0.4184876084327698,
          0.46369272470474243,
          0.5377513766288757,
          -0.7882246971130371,
          0.023828575387597084,
          0.014505653642117977,
          1.2721248865127563,
          0.6817545294761658,
          0.5854671001434326,
          1.0024843215942383,
          0.7056159973144531,
          -0.8341451287269592,
          0.49233725666999817,
          0.5645219087600708,
          -0.015596727840602398,
          0.07585963606834412,
          -0.2737851142883301,
          1.062554121017456,
          0.6624153852462769,
          0.3246254026889801,
          0.3264431953430176,
          0.3923918306827545,
          0.7351453304290771,
          0.11878515034914017,
          0.05969511717557907,
          0.13895589113235474
        ],
        [
          -0.04420014098286629,
          0.054708391427993774,
          -0.07530532032251358,
          -0.0706297755241394,
          0.07101070135831833,
          -0.11491802334785461,
          0.0016908330144360662,
          0.09773944318294525,
          0.014273005537688732,
          0.02798747830092907,
          -0.08061778545379639,
          -0.013888699002563953,
          -0.00623534107580781,
          0.030679285526275635,
          0.03473125025629997,
          0.10109353065490723,
          -0.10638511180877686,
          0.003746911883354187,
          -0.07441099733114243,
          -0.10488835722208023,
          -0.016015177592635155,
          -0.12129554152488708,
          0.07342074066400528,
          0.014476850628852844,
          -0.07717280834913254,
          0.059210967272520065,
          -0.13135799765586853,
          -0.05668514594435692,
          -0.037908803671598434,
          -0.11804557591676712,
          -0.09379249066114426,
          -0.029001781716942787,
          0.08074295520782471,
          0.10816458612680435,
          0.07307330518960953,
          -0.08592548221349716,
          -0.09607560187578201,
          0.09594874829053879,
          0.03681910037994385,
          -0.008040245622396469,
          0.009062526747584343,
          -0.10046209394931793,
          -0.04774114117026329,
          0.10666151344776154,
          -0.03851431608200073,
          -0.020183980464935303,
          -0.11063367873430252,
          -0.07823847234249115,
          -0.014140717685222626,
          -0.08756491541862488,
          -0.028869593515992165,
          0.04411923885345459,
          -0.13584403693675995,
          0.023157846182584763,
          -0.09408698976039886,
          -0.07175511121749878,
          0.0341762937605381,
          0.0876702144742012,
          -0.04832802712917328,
          -0.057326603680849075,
          -0.12682101130485535,
          -0.07791708409786224,
          -0.12064818292856216,
          -0.041974227875471115
        ],
        [
          0.004521255847066641,
          -0.13799889385700226,
          0.08815615624189377,
          0.023523079231381416,
          -0.15088212490081787,
          -0.09055642783641815,
          0.020593712106347084,
          -0.04608190804719925,
          -0.03609223663806915,
          -0.07993912696838379,
          0.04494722932577133,
          -0.08992587774991989,
          0.08229614049196243,
          -0.011032718233764172,
          0.00466659851372242,
          0.0687190592288971,
          -0.0582541786134243,
          -0.10120892524719238,
          -0.04022876173257828,
          0.0735573098063469,
          -0.1183561459183693,
          -0.004749459680169821,
          -0.14266538619995117,
          0.04409913718700409,
          0.00765314931049943,
          -0.02145618014037609,
          0.03290195018053055,
          -0.027301019057631493,
          0.04838543012738228,
          -0.11869444698095322,
          -0.03918962925672531,
          0.022669294849038124,
          0.10378806293010712,
          0.028899503871798515,
          -0.12994666397571564,
          0.061822403222322464,
          -0.04914801940321922,
          -0.046591706573963165,
          -0.13763801753520966,
          -0.05616827309131622,
          0.057746339589357376,
          -0.007465629372745752,
          -0.092215396463871,
          0.01807386241853237,
          -0.07041263580322266,
          0.09439222514629364,
          -0.13537973165512085,
          -0.0585101880133152,
          -0.13986404240131378,
          -0.08225401490926743,
          0.005563043057918549,
          0.06311362236738205,
          0.0009848498739302158,
          0.10248265415430069,
          0.003045945195481181,
          0.03819902241230011,
          0.0645870715379715,
          0.06924665719270706,
          -0.09765597432851791,
          0.08890164643526077,
          0.046187810599803925,
          -0.07823397219181061,
          -0.08047883957624435,
          -0.12640708684921265
        ],
        [
          -0.01962709240615368,
          0.6084008812904358,
          0.10818582028150558,
          0.4553472697734833,
          1.037549376487732,
          0.5916630625724792,
          0.09617358446121216,
          0.14161363244056702,
          -0.1672908067703247,
          1.126850962638855,
          0.8848623037338257,
          0.4028874933719635,
          0.6129955053329468,
          1.2549967765808105,
          0.13640090823173523,
          -0.21360746026039124,
          -0.6755584478378296,
          0.5346207618713379,
          0.9101267457008362,
          1.4742480516433716,
          -1.046207070350647,
          -0.5846354365348816,
          0.15996025502681732,
          1.085745930671692,
          0.8442003726959229,
          0.7307291626930237,
          0.19374717772006989,
          0.7335581183433533,
          0.3591132164001465,
          0.7511575818061829,
          0.10165203362703323,
          0.5329561233520508,
          -0.0335308201611042,
          0.5662644505500793,
          0.589986264705658,
          0.983637809753418,
          0.14063745737075806,
          0.07921489328145981,
          0.47082269191741943,
          0.48823559284210205,
          0.462666779756546,
          -0.8226509690284729,
          0.14275677502155304,
          0.013326696120202541,
          1.1012499332427979,
          0.7082674503326416,
          0.5664156675338745,
          0.875398576259613,
          0.537896990776062,
          -0.8674696087837219,
          0.5705761313438416,
          0.5473518371582031,
          0.07361922413110733,
          0.20672468841075897,
          -0.22935591638088226,
          1.2031952142715454,
          0.683508574962616,
          0.3793189525604248,
          0.33959057927131653,
          0.416323721408844,
          0.6496239304542542,
          0.14354084432125092,
          -0.0031495147850364447,
          0.03586612269282341
        ],
        [
          -0.1302529275417328,
          0.8232420682907104,
          0.10294397920370102,
          0.46724987030029297,
          1.0631721019744873,
          0.49673742055892944,
          0.0859217569231987,
          0.06038692966103554,
          -0.3211113214492798,
          1.2530027627944946,
          0.7773447632789612,
          0.275907039642334,
          0.5760553479194641,
          1.3104182481765747,
          0.21054230630397797,
          -0.13163653016090393,
          -0.7078312635421753,
          0.3389822244644165,
          0.918372631072998,
          1.395658016204834,
          -1.0608611106872559,
          -0.5033715963363647,
          0.05742189288139343,
          1.2610585689544678,
          1.02278470993042,
          0.6837446689605713,
          0.18696019053459167,
          0.7293403744697571,
          0.39215704798698425,
          0.6505024433135986,
          -0.05053342133760452,
          0.5511775612831116,
          0.03532134369015694,
          0.7032832503318787,
          0.4087584912776947,
          0.9404524564743042,
          0.026441063731908798,
          -0.03592774644494057,
          0.43956121802330017,
          0.4304226338863373,
          0.638923168182373,
          -0.8401081562042236,
          -0.006506876088678837,
          0.12149767577648163,
          1.195488691329956,
          0.6519439816474915,
          0.5844977498054504,
          0.7984214425086975,
          0.6522995829582214,
          -0.7694429755210876,
          0.42054006457328796,
          0.7059820890426636,
          0.13299612700939178,
          0.2551276981830597,
          -0.2108851969242096,
          1.0121873617172241,
          0.7036600708961487,
          0.41389158368110657,
          0.44520866870880127,
          0.40954044461250305,
          0.8277233839035034,
          0.02754024788737297,
          0.0407395139336586,
          0.1446232944726944
        ],
        [
          -0.27641409635543823,
          0.754796028137207,
          -0.10809874534606934,
          0.52349454164505,
          1.1317847967147827,
          0.657877504825592,
          0.06662146747112274,
          -0.08373499661684036,
          -0.35529088973999023,
          1.2163513898849487,
          1.0423524379730225,
          0.22978124022483826,
          0.5222060680389404,
          1.3449513912200928,
          0.17467957735061646,
          -0.1800428032875061,
          -0.8705169558525085,
          0.6419616937637329,
          0.9947553277015686,
          1.3999340534210205,
          -1.1799362897872925,
          -0.7279637455940247,
          -0.02179349586367607,
          1.2447501420974731,
          1.0768948793411255,
          0.9306128621101379,
          0.20742979645729065,
          1.0519555807113647,
          0.4947107136249542,
          0.7447567582130432,
          0.11461029946804047,
          0.5384733080863953,
          -0.06784779578447342,
          0.8281984329223633,
          0.6652655005455017,
          0.9794798493385315,
          0.03575985133647919,
          -0.12651434540748596,
          0.5687787532806396,
          0.5511941909790039,
          0.6507091522216797,
          -0.8911124467849731,
          -0.07568659633398056,
          -0.005475600250065327,
          1.3508081436157227,
          0.6539728045463562,
          0.7687604427337646,
          0.8510326147079468,
          0.6232324838638306,
          -0.9743635654449463,
          0.5415574908256531,
          0.9388049244880676,
          0.061861950904130936,
          0.22241248190402985,
          -0.18561740219593048,
          1.0863313674926758,
          0.6851716637611389,
          0.4896417558193207,
          0.4551887810230255,
          0.48024892807006836,
          0.8096466660499573,
          -0.01217364240437746,
          -0.05004189908504486,
          0.191477432847023
        ],
        [
          -0.044386789202690125,
          -0.051403120160102844,
          -0.04334099218249321,
          -0.0588311105966568,
          0.11240285634994507,
          0.06620566546916962,
          0.11287195980548859,
          0.0003992021083831787,
          0.025208860635757446,
          0.04334558546543121,
          -0.1279507279396057,
          0.01116207242012024,
          -0.018931081518530846,
          -0.07008175551891327,
          -0.10569369792938232,
          0.09990128129720688,
          0.09142141044139862,
          0.04742124676704407,
          0.11928121745586395,
          -0.05072598159313202,
          -0.030800655484199524,
          0.03742797300219536,
          -0.020653322339057922,
          -0.0245293527841568,
          -0.1033201813697815,
          0.0335826575756073,
          -0.07554090023040771,
          0.004545778036117554,
          0.11152118444442749,
          -0.038476914167404175,
          -0.049522556364536285,
          0.06535513699054718,
          -0.0562257245182991,
          -0.02056553028523922,
          0.10504069924354553,
          -0.05124671757221222,
          -0.09978285431861877,
          -0.06995546817779541,
          -0.03465570509433746,
          -0.06901192665100098,
          -0.07533281296491623,
          0.04041459411382675,
          0.021242216229438782,
          -0.04000769555568695,
          -0.09711392223834991,
          -0.03935748338699341,
          -0.06427061557769775,
          -0.04067736864089966,
          -0.112765371799469,
          0.016484171152114868,
          -0.10183793306350708,
          -0.1075015589594841,
          -0.11286399513483047,
          0.052172958850860596,
          -0.0826701894402504,
          -0.051593855023384094,
          0.08820787072181702,
          0.0563628189265728,
          0.0617276094853878,
          -0.1265638768672943,
          -0.09761422872543335,
          -0.04718887805938721,
          0.10326220095157623,
          0.002203538781031966
        ],
        [
          -0.09348714351654053,
          -0.004533314611762762,
          -0.10239983350038528,
          -0.027387410402297974,
          -0.039687927812337875,
          0.10289173573255539,
          0.03340104594826698,
          -0.021796390414237976,
          0.01580006070435047,
          -0.041399236768484116,
          0.04379649832844734,
          0.04412943497300148,
          0.03356826305389404,
          -0.04872211813926697,
          0.10664384067058563,
          -0.023362278938293457,
          -0.053980618715286255,
          0.07828925549983978,
          0.0965661033987999,
          0.1243949681520462,
          0.037032291293144226,
          -0.042611733078956604,
          0.0634865015745163,
          0.10724431276321411,
          -0.12260426580905914,
          -0.020801901817321777,
          -0.09056166559457779,
          0.01797906495630741,
          0.05169810354709625,
          -0.031139526516199112,
          -0.010457143187522888,
          0.050947804003953934,
          -0.02100871503353119,
          -0.11028841882944107,
          0.09470102936029434,
          -0.0682302936911583,
          -0.013732314109802246,
          0.011790797114372253,
          -0.012828141450881958,
          -0.12290173023939133,
          0.05203394964337349,
          -0.056778937578201294,
          -0.06483244895935059,
          0.02986443042755127,
          -0.07054872065782547,
          -0.057769954204559326,
          -0.047434788197278976,
          -0.04695969820022583,
          -0.0522046834230423,
          -0.03902677446603775,
          0.02716843970119953,
          -0.10646822303533554,
          -0.07566003501415253,
          0.0018239319324493408,
          0.012067487463355064,
          0.06372057646512985,
          -0.09312146157026291,
          0.034583572298288345,
          0.07104872167110443,
          0.06940752267837524,
          -0.12174365669488907,
          -0.04770052433013916,
          -0.10744570195674896,
          -0.08441741019487381
        ],
        [
          -0.12132076174020767,
          0.8551772236824036,
          -0.007405100390315056,
          0.22515670955181122,
          1.2484196424484253,
          0.7256454229354858,
          0.11498258262872696,
          -0.02834404446184635,
          -0.5389150977134705,
          1.1954269409179688,
          0.38649818301200867,
          0.3900173306465149,
          0.7474167943000793,
          1.2335845232009888,
          0.14186038076877594,
          -0.712748110294342,
          -2.3982999324798584,
          0.4205225706100464,
          1.0573995113372803,
          1.66629958152771,
          -2.933889389038086,
          -2.816256046295166,
          0.09697311371564865,
          0.9499066472053528,
          1.1979843378067017,
          0.6892709732055664,
          0.11461129784584045,
          0.8893061876296997,
          0.4871354401111603,
          0.8141098022460938,
          -0.03266407549381256,
          0.7028157711029053,
          -0.0766712948679924,
          0.6903831362724304,
          0.563051700592041,
          0.9190683364868164,
          -0.22486825287342072,
          0.025300977751612663,
          -0.12342119216918945,
          0.3644324243068695,
          -0.563953697681427,
          -3.053234577178955,
          -0.10128753632307053,
          0.09115622192621231,
          1.5450167655944824,
          0.8877385854721069,
          -0.8676567077636719,
          1.060158610343933,
          0.7242960333824158,
          -2.9604365825653076,
          0.35479727387428284,
          -0.27054598927497864,
          -0.046935588121414185,
          0.09242419898509979,
          -0.4385693371295929,
          1.218050241470337,
          0.7686682343482971,
          0.31669262051582336,
          0.1521090567111969,
          -0.46883895993232727,
          0.8526398539543152,
          0.10632451623678207,
          -0.0674571618437767,
          0.13076390326023102
        ],
        [
          -0.0983068197965622,
          -0.1477811485528946,
          0.0054116519168019295,
          0.0011487301671877503,
          -0.12964332103729248,
          0.03035246953368187,
          0.0879698246717453,
          -0.009329945780336857,
          -0.10602010041475296,
          0.05830620601773262,
          0.018112901598215103,
          0.0534200593829155,
          -0.11434720456600189,
          0.04974229633808136,
          -0.10882457345724106,
          0.06444822251796722,
          -0.09296049922704697,
          0.042055897414684296,
          0.0013880303595215082,
          -0.004491202998906374,
          -0.04707099124789238,
          0.02779928408563137,
          -0.06496560573577881,
          -0.13182558119297028,
          -0.0606321319937706,
          0.07466908544301987,
          -0.060659509152173996,
          0.018706636503338814,
          -0.07081493735313416,
          0.05527535825967789,
          0.045612070709466934,
          -0.0055210948921740055,
          -0.09104244410991669,
          -0.1358795166015625,
          -0.03616611286997795,
          -0.09724857658147812,
          0.04624217003583908,
          -0.14178618788719177,
          0.017614075914025307,
          0.08656015247106552,
          0.01853373646736145,
          0.018565209582448006,
          -0.13764584064483643,
          0.09958217293024063,
          -0.05605049431324005,
          -0.14532063901424408,
          0.0462099052965641,
          -0.06387361884117126,
          -0.021111460402607918,
          0.07645731419324875,
          -0.1141071617603302,
          -0.13985008001327515,
          -0.0007589886663481593,
          -0.0306292325258255,
          0.0018759133527055383,
          -0.12383639812469482,
          -0.020666800439357758,
          -0.08869998902082443,
          -0.08770207315683365,
          -0.13365326821804047,
          0.045950401574373245,
          0.008963219821453094,
          -0.138179212808609,
          0.030639633536338806
        ],
        [
          -0.017285235226154327,
          0.7430570721626282,
          -0.0210475642234087,
          0.44223886728286743,
          1.2691295146942139,
          0.6533473134040833,
          0.008405154570937157,
          0.1959708333015442,
          -0.2360001802444458,
          1.3161404132843018,
          0.8822273015975952,
          0.41782358288764954,
          0.4678862392902374,
          1.4771144390106201,
          0.10111270099878311,
          -0.1511673927307129,
          -0.7500786185264587,
          0.44124454259872437,
          0.8672078847885132,
          1.3624235391616821,
          -1.0125312805175781,
          -0.6227242350578308,
          0.23814910650253296,
          1.2555742263793945,
          1.0352051258087158,
          0.8513665199279785,
          0.20743189752101898,
          0.8483332395553589,
          0.4835418462753296,
          0.7249131202697754,
          -0.07572881132364273,
          0.3484426736831665,
          0.07379118353128433,
          0.6138719916343689,
          0.5273157954216003,
          0.8495217561721802,
          0.08656632155179977,
          0.1401437520980835,
          0.4061439037322998,
          0.4787451922893524,
          0.6541985273361206,
          -0.8667413592338562,
          -0.045209240168333054,
          -0.0023099298123270273,
          1.1062722206115723,
          0.5785046219825745,
          0.5401626825332642,
          0.8134923577308655,
          0.5338863730430603,
          -0.8996565937995911,
          0.4154382348060608,
          0.74225914478302,
          0.022645657882094383,
          0.060836225748062134,
          -0.1000695452094078,
          1.075661540031433,
          0.8433181047439575,
          0.49362489581108093,
          0.4943179786205292,
          0.4076068103313446,
          0.8602786660194397,
          0.17502114176750183,
          -0.10328983515501022,
          0.27392786741256714
        ],
        [
          0.2747849225997925,
          -0.004965569358319044,
          -0.0345490500330925,
          -1.7039161920547485,
          -0.5927671790122986,
          -0.2713089883327484,
          0.030269857496023178,
          -0.07427158951759338,
          0.46017131209373474,
          -0.9743378162384033,
          1.2938625812530518,
          -0.18232683837413788,
          -0.6526033878326416,
          -0.6735109686851501,
          -0.03190717473626137,
          1.4227564334869385,
          -0.28288623690605164,
          -0.8053350448608398,
          0.0660746693611145,
          -0.7473531365394592,
          -1.9258317947387695,
          -0.7403254508972168,
          -0.030149199068546295,
          0.048198722302913666,
          0.07453097403049469,
          -0.4511876404285431,
          -0.11051587760448456,
          1.1552562713623047,
          -0.15131919085979462,
          -0.1881643831729889,
          0.024588122963905334,
          0.3851378858089447,
          -0.12430528551340103,
          0.2633492350578308,
          -0.2884143888950348,
          0.18088848888874054,
          -0.23550838232040405,
          -0.10499311238527298,
          0.8003312945365906,
          -0.9727365374565125,
          0.556999921798706,
          -0.014902038499712944,
          0.02512986585497856,
          -0.20886169373989105,
          -0.5789840817451477,
          0.03560187295079231,
          1.922484040260315,
          -0.09425351023674011,
          0.10431096702814102,
          0.11845898628234863,
          -0.1836434304714203,
          1.437000036239624,
          -0.004185195546597242,
          -0.21511347591876984,
          0.2460833340883255,
          0.5875640511512756,
          -1.843575119972229,
          -0.04423326253890991,
          0.2055002897977829,
          0.99396812915802,
          0.5149409770965576,
          0.07864533364772797,
          0.12155270576477051,
          -0.1577293574810028
        ],
        [
          -0.14813515543937683,
          0.6927469372749329,
          0.037926267832517624,
          0.349453866481781,
          1.0649536848068237,
          0.6570823788642883,
          0.1886187046766281,
          -0.032739993184804916,
          -0.2097960263490677,
          1.315619945526123,
          0.9076917171478271,
          0.3817746043205261,
          0.6826883554458618,
          1.338852047920227,
          0.2702479362487793,
          -0.06517407298088074,
          -0.7854995131492615,
          0.3670939803123474,
          0.9047620892524719,
          1.4546149969100952,
          -1.0698411464691162,
          -0.6275632977485657,
          0.11278035491704941,
          1.2273597717285156,
          0.9040812849998474,
          0.8784739375114441,
          0.19080057740211487,
          0.7732848525047302,
          0.47519925236701965,
          0.6996011734008789,
          0.07033517956733704,
          0.5627647638320923,
          0.09254950284957886,
          0.6330190300941467,
          0.647083580493927,
          0.8355371952056885,
          0.027354421094059944,
          0.06457886844873428,
          0.3544544279575348,
          0.3878471851348877,
          0.4776030480861664,
          -0.7636059522628784,
          0.062201905995607376,
          0.11389657855033875,
          1.0763726234436035,
          0.512257993221283,
          0.611551821231842,
          0.9531039595603943,
          0.4880272448062897,
          -0.8269931077957153,
          0.36632317304611206,
          0.6372784972190857,
          0.18362396955490112,
          0.24252653121948242,
          -0.24622775614261627,
          1.1674237251281738,
          0.8151240944862366,
          0.4132426381111145,
          0.4989323318004608,
          0.4568879306316376,
          0.7493513226509094,
          0.004953193478286266,
          -0.02653873711824417,
          0.18801885843276978
        ],
        [
          -0.12335677444934845,
          0.7266340851783752,
          -0.06462233513593674,
          0.47460421919822693,
          1.0991336107254028,
          0.6266986727714539,
          0.05618733540177345,
          -0.031675681471824646,
          -0.31258031725883484,
          1.3283885717391968,
          1.0007857084274292,
          0.3213658630847931,
          0.5146217942237854,
          1.4937938451766968,
          0.1746799647808075,
          -0.21306103467941284,
          -1.0388787984848022,
          0.5276568531990051,
          0.829006016254425,
          1.4750005006790161,
          -0.9888337850570679,
          -0.8592085242271423,
          -0.014205916784703732,
          1.1258585453033447,
          1.1017780303955078,
          0.9664320945739746,
          0.08565625548362732,
          1.0290679931640625,
          0.4561854898929596,
          0.666311502456665,
          0.039322882890701294,
          0.5686338543891907,
          0.12482798844575882,
          0.7066272497177124,
          0.665932297706604,
          1.0148744583129883,
          0.1132444515824318,
          -0.11886568367481232,
          0.6388103365898132,
          0.28477388620376587,
          0.770168662071228,
          -0.9077159762382507,
          -0.11737526953220367,
          0.09049402922391891,
          1.2237401008605957,
          0.5666617751121521,
          0.5221382975578308,
          0.9113497734069824,
          0.7277366518974304,
          -1.1203562021255493,
          0.5742743015289307,
          0.6774414777755737,
          0.015598662197589874,
          0.1440490484237671,
          -0.3330094814300537,
          1.0369089841842651,
          0.752081036567688,
          0.31845343112945557,
          0.3569723069667816,
          0.5236712098121643,
          0.752329409122467,
          -0.0348186232149601,
          -0.14109623432159424,
          0.12152877449989319
        ],
        [
          -0.06900182366371155,
          -0.00671278266236186,
          -0.033409878611564636,
          0.019541841000318527,
          -0.0032751159742474556,
          -0.07304346561431885,
          -0.05867080017924309,
          -0.009747539646923542,
          -0.07799816131591797,
          0.001769532565958798,
          -0.020256273448467255,
          0.04036548733711243,
          0.011303597129881382,
          0.08158987760543823,
          -0.020671173930168152,
          -0.10206372290849686,
          0.039657700806856155,
          -0.0967567190527916,
          -0.029257263988256454,
          -0.051582545042037964,
          -0.06142350658774376,
          -0.060425713658332825,
          0.09865903854370117,
          0.0601910725235939,
          0.01868279092013836,
          0.10702905058860779,
          -0.1237449198961258,
          0.009058307856321335,
          0.06270803511142731,
          0.07142970710992813,
          -0.11520855128765106,
          0.03192902356386185,
          -0.08737513422966003,
          -0.020418571308255196,
          -0.03904254734516144,
          -0.11747970432043076,
          -0.13572454452514648,
          -0.09214820712804794,
          0.056721314787864685,
          0.043572623282670975,
          -0.12200742214918137,
          -0.05892567336559296,
          -0.00747545063495636,
          -0.1183905228972435,
          0.05836385115981102,
          0.09704675525426865,
          0.011139039881527424,
          -0.10613381862640381,
          0.014584625139832497,
          0.029930291697382927,
          0.084490567445755,
          -0.07782577723264694,
          -0.12875163555145264,
          0.03912915289402008,
          -0.0006278874934650958,
          -0.05296951159834862,
          -0.06717122346162796,
          -0.07911210507154465,
          0.08700086176395416,
          -0.034420665353536606,
          0.07587334513664246,
          0.09609600156545639,
          0.007744245696812868,
          0.010506999678909779
        ],
        [
          -0.0599774569272995,
          0.7948604822158813,
          -0.05731910467147827,
          0.4700790047645569,
          1.1244531869888306,
          0.6146302819252014,
          0.10467880964279175,
          0.0366077683866024,
          -0.25264114141464233,
          1.3179292678833008,
          0.6872181296348572,
          0.2170398235321045,
          0.5342791676521301,
          1.319185495376587,
          0.22943507134914398,
          -0.09711703658103943,
          -0.6572498679161072,
          0.5839266777038574,
          0.810162365436554,
          1.3026169538497925,
          -1.060168743133545,
          -0.7179009318351746,
          0.02686530351638794,
          1.0690644979476929,
          0.8527207970619202,
          0.8276877999305725,
          0.18390510976314545,
          0.967089056968689,
          0.5722946524620056,
          0.6756783127784729,
          0.057964641600847244,
          0.36149728298187256,
          0.1089213639497757,
          0.5422713160514832,
          0.5843333601951599,
          0.9001799821853638,
          0.10486140847206116,
          0.10499132424592972,
          0.3691689372062683,
          0.4826359748840332,
          0.5989589691162109,
          -0.6883354187011719,
          0.07101748138666153,
          0.1764468103647232,
          1.2537741661071777,
          0.6683619022369385,
          0.6175535321235657,
          0.8097780346870422,
          0.6694313287734985,
          -0.839849054813385,
          0.5335365533828735,
          0.7450851202011108,
          0.10015441477298737,
          0.09980088472366333,
          -0.15546390414237976,
          1.117682695388794,
          0.7664558291435242,
          0.3805014491081238,
          0.4715418517589569,
          0.5624426603317261,
          0.6947026252746582,
          0.06197892129421234,
          -0.048062749207019806,
          0.07558886706829071
        ],
        [
          -0.04225245490670204,
          0.6987645626068115,
          -0.01226221863180399,
          0.3942125737667084,
          1.1198956966400146,
          0.7052139043807983,
          0.15279540419578552,
          0.20249202847480774,
          -0.22178876399993896,
          1.299748182296753,
          0.8600867986679077,
          0.3344225585460663,
          0.4773712158203125,
          1.3040250539779663,
          0.1576087474822998,
          -0.18237543106079102,
          -0.6250370144844055,
          0.5265166759490967,
          0.9915590286254883,
          1.4219281673431396,
          -1.073746919631958,
          -0.7680133581161499,
          0.022931396961212158,
          1.1165940761566162,
          1.01570725440979,
          0.879623293876648,
          0.22016671299934387,
          0.8284348249435425,
          0.47213128209114075,
          0.6800429821014404,
          0.032222311943769455,
          0.5004749894142151,
          0.055821217596530914,
          0.6818763017654419,
          0.5584104061126709,
          0.9412192702293396,
          0.0313095897436142,
          -0.016927570104599,
          0.47985750436782837,
          0.3746442496776581,
          0.5071585774421692,
          -0.7507750391960144,
          0.050812315195798874,
          0.07955675572156906,
          1.134568452835083,
          0.6238000988960266,
          0.44032278656959534,
          0.8840985298156738,
          0.6071913242340088,
          -0.823283314704895,
          0.47890394926071167,
          0.6497050523757935,
          0.10253278911113739,
          0.24543803930282593,
          -0.21743565797805786,
          1.174833059310913,
          0.7905359268188477,
          0.342023104429245,
          0.43167203664779663,
          0.43331918120384216,
          0.7527122497558594,
          0.009358923882246017,
          -0.1294802576303482,
          0.26298683881759644
        ],
        [
          -0.2502150237560272,
          0.8975533843040466,
          -0.11826097965240479,
          0.4647129476070404,
          1.2480801343917847,
          0.7885205149650574,
          0.01270155981183052,
          0.050389692187309265,
          -0.34705886244773865,
          1.4282430410385132,
          1.0595316886901855,
          0.39825212955474854,
          0.5027078986167908,
          1.3226803541183472,
          0.2838722765445709,
          -0.2629487216472626,
          -0.971474826335907,
          0.5244745016098022,
          1.095072627067566,
          1.4531519412994385,
          -1.1922862529754639,
          -0.8389973044395447,
          0.12801319360733032,
          1.2535350322723389,
          1.123347282409668,
          0.8729329705238342,
          0.15275947749614716,
          0.8293265700340271,
          0.5330439209938049,
          0.9040890336036682,
          0.06814726442098618,
          0.526868462562561,
          -0.029303593561053276,
          0.7736403346061707,
          0.50790935754776,
          0.8711883425712585,
          -0.08746031671762466,
          0.005057054106146097,
          0.6369910836219788,
          0.47664064168930054,
          0.6382231712341309,
          -0.8753204941749573,
          -0.10204993188381195,
          0.06841317564249039,
          1.2679530382156372,
          0.6106085181236267,
          0.7381447553634644,
          0.8017102479934692,
          0.612689733505249,
          -1.20658278465271,
          0.5274123549461365,
          0.7209357023239136,
          0.0412687212228775,
          0.054560013115406036,
          -0.18093109130859375,
          1.0627844333648682,
          0.8891476988792419,
          0.3808123767375946,
          0.5183876752853394,
          0.5092847347259521,
          0.8590980172157288,
          -0.01794924959540367,
          -0.04212646931409836,
          0.19882938265800476
        ],
        [
          -0.07078760862350464,
          -0.3344342112541199,
          0.028386229649186134,
          0.6994973421096802,
          -0.4543435573577881,
          -1.1606069803237915,
          -0.031339071691036224,
          -0.006742871832102537,
          0.02898765727877617,
          -0.48593270778656006,
          -3.2934253215789795,
          0.09291648864746094,
          -0.10302669554948807,
          -0.8788027167320251,
          0.15875102579593658,
          -1.5085859298706055,
          1.2531391382217407,
          0.36765778064727783,
          -0.5028548836708069,
          -0.5716620683670044,
          2.3745436668395996,
          1.9024293422698975,
          -0.07758171111345291,
          -0.7779186964035034,
          -0.31770825386047363,
          -0.18089938163757324,
          0.0308183953166008,
          -0.25271016359329224,
          -0.037923768162727356,
          -0.08026353269815445,
          0.14902952313423157,
          -1.1438360214233398,
          0.13332952558994293,
          0.16992713510990143,
          -0.47308921813964844,
          -0.23565663397312164,
          0.20216937363147736,
          0.16742900013923645,
          -2.2931811809539795,
          0.465116411447525,
          -1.7376298904418945,
          1.6663199663162231,
          0.15788044035434723,
          0.04804755002260208,
          -0.4453020989894867,
          -0.468289315700531,
          -3.9095821380615234,
          -0.3032468259334564,
          -0.38501444458961487,
          1.5779087543487549,
          0.3973296582698822,
          -3.745068073272705,
          0.10338813811540604,
          0.02682061307132244,
          0.1645173281431198,
          -0.45903801918029785,
          0.019627103582024574,
          0.33314600586891174,
          0.12921647727489471,
          -1.4809249639511108,
          -0.11342613399028778,
          0.12201760709285736,
          0.2002255618572235,
          0.19077615439891815
        ],
        [
          -0.49761703610420227,
          -0.5135136842727661,
          -0.16035568714141846,
          0.9296448230743408,
          -0.7429561614990234,
          -0.31576958298683167,
          -0.31130102276802063,
          -0.4473285377025604,
          -0.014806265011429787,
          -1.2669285535812378,
          -3.0081899166107178,
          -0.5542469024658203,
          0.7793458104133606,
          -0.37044909596443176,
          -0.21210137009620667,
          -0.39418819546699524,
          2.183802843093872,
          0.8281238079071045,
          -0.675477147102356,
          -0.5519054532051086,
          2.364605665206909,
          2.0888164043426514,
          -0.07556723058223724,
          0.10807272046804428,
          0.2894764542579651,
          -0.18863101303577423,
          -0.21263593435287476,
          0.24251247942447662,
          0.6720193028450012,
          -0.7698111534118652,
          0.95094895362854,
          -0.6159792542457581,
          0.3747875988483429,
          0.2622411847114563,
          0.1824045479297638,
          -0.3142397999763489,
          0.48067688941955566,
          0.1375242918729782,
          -1.293020486831665,
          0.869033694267273,
          -0.5670939087867737,
          2.0706777572631836,
          0.26530271768569946,
          -0.5315099954605103,
          -0.6495586633682251,
          -0.7437547445297241,
          -3.456726551055908,
          0.17846624553203583,
          0.45389118790626526,
          1.8202242851257324,
          0.8496599197387695,
          -3.0541493892669678,
          0.5857994556427002,
          -0.35892453789711,
          0.1591276079416275,
          -0.566945493221283,
          0.7605721354484558,
          0.40014225244522095,
          1.003892421722412,
          -0.343829482793808,
          0.3011539578437805,
          -0.1280597746372223,
          -0.038368046283721924,
          0.125288724899292
        ],
        [
          -0.18021832406520844,
          0.869306743144989,
          0.04390581697225571,
          0.38126882910728455,
          1.1390987634658813,
          0.5038438439369202,
          0.20219162106513977,
          0.04941970854997635,
          -0.33790522813796997,
          1.192431092262268,
          0.9043909311294556,
          0.2977733314037323,
          0.5747126936912537,
          1.3608688116073608,
          0.13173456490039825,
          -0.19149261713027954,
          -0.5708176493644714,
          0.4162083864212036,
          0.921930193901062,
          1.3204902410507202,
          -1.1245460510253906,
          -0.5995061993598938,
          0.11680356413125992,
          1.323106288909912,
          0.9683222770690918,
          0.7590153217315674,
          0.03793135657906532,
          0.9951200485229492,
          0.39742329716682434,
          0.803855299949646,
          0.06563772261142731,
          0.5034828186035156,
          0.13099229335784912,
          0.6566503643989563,
          0.6320394277572632,
          0.8119778037071228,
          0.029619943350553513,
          0.1488325148820877,
          0.48264220356941223,
          0.3824899196624756,
          0.5380638837814331,
          -0.903016209602356,
          0.1254652738571167,
          0.09332302212715149,
          1.2105902433395386,
          0.6864494681358337,
          0.6266705989837646,
          0.809077799320221,
          0.5729230642318726,
          -0.8490010499954224,
          0.5519351363182068,
          0.6057613492012024,
          -0.05413311719894409,
          0.17481669783592224,
          -0.09963278472423553,
          1.1476638317108154,
          0.8612090349197388,
          0.33610498905181885,
          0.46120232343673706,
          0.4334096312522888,
          0.8763417601585388,
          0.16167397797107697,
          -0.0072257923893630505,
          0.27346718311309814
        ],
        [
          -0.1345200091600418,
          0.6034113168716431,
          -0.06697958707809448,
          0.49592679738998413,
          1.1971148252487183,
          0.47320929169654846,
          0.1657814383506775,
          0.19699105620384216,
          -0.3637024462223053,
          1.3502360582351685,
          0.8081778883934021,
          0.3164684474468231,
          0.6727660894393921,
          1.4774103164672852,
          0.23401516675949097,
          -0.06450970470905304,
          -0.6007835865020752,
          0.48786529898643494,
          0.7569699883460999,
          1.3975043296813965,
          -1.0747145414352417,
          -0.5831507444381714,
          0.135968878865242,
          1.188318133354187,
          0.8773283362388611,
          0.736951470375061,
          0.20118838548660278,
          0.9193863868713379,
          0.5327451229095459,
          0.6561213135719299,
          0.011064853519201279,
          0.41768792271614075,
          0.14449994266033173,
          0.6102859973907471,
          0.5981444120407104,
          0.970502495765686,
          -0.04910247027873993,
          0.0592857301235199,
          0.41897761821746826,
          0.31113705039024353,
          0.6053697466850281,
          -0.7740384340286255,
          0.16238392889499664,
          0.02003134787082672,
          1.2323912382125854,
          0.510016143321991,
          0.4911488890647888,
          0.8406774401664734,
          0.6884523034095764,
          -0.7905933260917664,
          0.3587563931941986,
          0.6430625915527344,
          -0.003792417701333761,
          0.15279121696949005,
          -0.25119733810424805,
          1.051129937171936,
          0.833428680896759,
          0.3053487539291382,
          0.2561803460121155,
          0.5235249400138855,
          0.7944400310516357,
          0.04783773049712181,
          0.07037217170000076,
          0.07932677865028381
        ],
        [
          -0.07588502764701843,
          -0.099007248878479,
          -0.029270712286233902,
          -0.04243679344654083,
          0.07734335958957672,
          -0.007018625736236572,
          0.03991919755935669,
          -0.051944583654403687,
          0.10139904916286469,
          0.10537734627723694,
          -0.12327868491411209,
          -0.03212495148181915,
          -0.11584385484457016,
          0.053103357553482056,
          -0.11901385337114334,
          -0.07028070837259293,
          0.11425988376140594,
          -0.12876756489276886,
          0.0922255665063858,
          0.004630296025425196,
          0.0893462598323822,
          -0.07401014119386673,
          0.08210356533527374,
          0.015081718564033508,
          0.0002764014061540365,
          0.08531652390956879,
          -0.11881589889526367,
          -0.106238953769207,
          0.11057444661855698,
          -0.0804089680314064,
          -0.09983169287443161,
          -0.01698409952223301,
          -0.04856790974736214,
          -0.027777211740612984,
          -0.0934576764702797,
          0.034481242299079895,
          -0.11734650284051895,
          0.010124117136001587,
          0.07294243574142456,
          0.013207159005105495,
          0.00571249658241868,
          0.00860634446144104,
          -0.03661881387233734,
          -0.023812279105186462,
          -0.06361567229032516,
          -0.09280232340097427,
          -0.07634099572896957,
          0.11756598204374313,
          -0.0209195613861084,
          0.03306664153933525,
          0.07588019967079163,
          -0.020991835743188858,
          -0.07555387914180756,
          -0.08469237387180328,
          -0.04605041444301605,
          0.0349162258207798,
          -0.11581777781248093,
          -0.02609255164861679,
          0.03741113096475601,
          0.09128590673208237,
          0.027187656611204147,
          0.02472083270549774,
          0.08557383716106415,
          0.047280047088861465
        ],
        [
          0.02566426992416382,
          -0.04410277679562569,
          -0.11478643119335175,
          -0.05293165519833565,
          -0.022670477628707886,
          0.009179651737213135,
          -0.022121014073491096,
          0.04359414055943489,
          0.0727023035287857,
          -0.05067753791809082,
          -0.13176871836185455,
          -0.07309117913246155,
          -0.059809550642967224,
          0.0708550214767456,
          -0.08929264545440674,
          -0.04298226162791252,
          -0.04536905512213707,
          -0.08418655395507812,
          0.05131373181939125,
          -0.052069440484046936,
          -0.006466522812843323,
          -0.08788558840751648,
          -0.021125581115484238,
          0.01776072382926941,
          -0.0050866007804870605,
          -0.04670596122741699,
          0.027560625225305557,
          -0.03238719701766968,
          -0.0692998617887497,
          -0.1058056503534317,
          -0.03639404475688934,
          -0.14647281169891357,
          0.09390448778867722,
          -0.05971597135066986,
          -0.05180227756500244,
          0.011554881930351257,
          0.014617587439715862,
          -0.021389124915003777,
          0.08040688186883926,
          -0.08673372864723206,
          0.04479759931564331,
          -0.0002819150686264038,
          -0.10906379669904709,
          -0.05781793221831322,
          0.03181089460849762,
          0.01655793935060501,
          0.03635743260383606,
          0.08362412452697754,
          -0.06817784905433655,
          -0.06561855971813202,
          -0.02650517225265503,
          -0.13379217684268951,
          -0.042905427515506744,
          -0.11109988391399384,
          0.03823726996779442,
          0.08844491839408875,
          0.009897053241729736,
          -0.09483178704977036,
          -0.10298620164394379,
          -0.048662394285202026,
          0.03635667264461517,
          -0.006085425615310669,
          0.009213440120220184,
          0.08863205462694168
        ],
        [
          0.04283776506781578,
          0.011797482147812843,
          -0.04058097302913666,
          0.03907361626625061,
          0.03862553834915161,
          -0.1190757155418396,
          -0.08897950500249863,
          -0.010989303700625896,
          0.032050587236881256,
          0.049391113221645355,
          -0.08805777132511139,
          -0.13918758928775787,
          -0.021763287484645844,
          -0.01951838843524456,
          0.021067317575216293,
          -0.057939764112234116,
          0.0725582167506218,
          -0.00728013226762414,
          0.0762353464961052,
          -0.1038566306233406,
          0.027490198612213135,
          -0.006479455158114433,
          -0.07762593775987625,
          0.061968475580215454,
          -0.14163126051425934,
          0.09505289047956467,
          -0.005110645201057196,
          0.0046043964102864265,
          0.04261412099003792,
          -0.0047722854651510715,
          0.038134779781103134,
          0.05958688631653786,
          -0.11281287670135498,
          0.06294800341129303,
          -0.047341424971818924,
          -0.04486946389079094,
          0.009677890688180923,
          0.08260712772607803,
          -0.07949909567832947,
          -0.10211186110973358,
          0.05500917136669159,
          -0.07537447661161423,
          0.0250822976231575,
          -0.03358342498540878,
          0.0171330738812685,
          0.08033650368452072,
          -0.07665369659662247,
          -0.0743948370218277,
          0.046448469161987305,
          -0.016947761178016663,
          -0.03446870669722557,
          -0.1223292201757431,
          0.09070241451263428,
          -0.01982228271663189,
          -0.03827454149723053,
          -0.06526202708482742,
          -0.04586149379611015,
          0.042395614087581635,
          -0.01984991505742073,
          0.08838752657175064,
          -0.023042045533657074,
          -0.0330531969666481,
          0.055318549275398254,
          -0.018869102001190186
        ],
        [
          -0.07590048015117645,
          0.7522570490837097,
          0.15298980474472046,
          0.4395238757133484,
          1.234750509262085,
          0.6367116570472717,
          0.14190779626369476,
          0.1285209357738495,
          -0.19874270260334015,
          1.2666516304016113,
          0.8719897270202637,
          0.4159103333950043,
          0.6066166758537292,
          1.3698714971542358,
          0.2929183840751648,
          -0.26730385422706604,
          -0.5548983812332153,
          0.5263745784759521,
          0.9463229775428772,
          1.3654305934906006,
          -1.090630054473877,
          -0.5280503034591675,
          0.06097446382045746,
          1.2280172109603882,
          1.0352470874786377,
          0.6814514994621277,
          0.11669818311929703,
          0.8061835765838623,
          0.5569711923599243,
          0.6010787487030029,
          0.1093304380774498,
          0.5040346384048462,
          0.12896676361560822,
          0.7709634900093079,
          0.5435522198677063,
          0.7593045830726624,
          0.1533556878566742,
          0.07080694288015366,
          0.43397966027259827,
          0.24387939274311066,
          0.5176560282707214,
          -0.8174892663955688,
          0.17804600298404694,
          0.18813548982143402,
          1.2611806392669678,
          0.7070314884185791,
          0.45800137519836426,
          0.7821283340454102,
          0.5443884134292603,
          -0.9105722904205322,
          0.5472448468208313,
          0.6657758355140686,
          0.17252956330776215,
          0.14185841381549835,
          -0.2555869221687317,
          1.0445923805236816,
          0.8296501040458679,
          0.4802849590778351,
          0.4093204438686371,
          0.4601707458496094,
          0.6515902876853943,
          0.005825478117913008,
          0.027767909690737724,
          0.10014419257640839
        ],
        [
          -0.10760675370693207,
          0.7652154564857483,
          -0.08929937332868576,
          0.4105406701564789,
          1.1133590936660767,
          0.5706391930580139,
          -0.0199879202991724,
          -0.12071755528450012,
          -0.38067159056663513,
          1.2997254133224487,
          0.7064999938011169,
          0.3506389856338501,
          0.43672147393226624,
          1.2378190755844116,
          0.03775884211063385,
          -0.32077959179878235,
          -1.1007599830627441,
          0.410382479429245,
          0.9379913806915283,
          1.270410418510437,
          -1.079393744468689,
          -0.778624951839447,
          0.06832171231508255,
          1.302585482597351,
          1.0349843502044678,
          0.7341604232788086,
          -0.06466174125671387,
          0.83194899559021,
          0.3963330388069153,
          0.7489253878593445,
          -0.025491243228316307,
          0.5275442004203796,
          0.018096089363098145,
          0.6286690831184387,
          0.5215209126472473,
          0.9146108627319336,
          -0.04984951391816139,
          0.06678440421819687,
          0.30368688702583313,
          0.3612865209579468,
          0.5164262652397156,
          -1.1360431909561157,
          -0.06079777702689171,
          0.0842367485165596,
          1.2742516994476318,
          0.6656257510185242,
          0.44542330503463745,
          0.8381094336509705,
          0.5424690246582031,
          -1.1534873247146606,
          0.44055965542793274,
          0.6335298418998718,
          0.05675472319126129,
          -0.018478091806173325,
          -0.28487464785575867,
          1.0103228092193604,
          0.7192235589027405,
          0.27591052651405334,
          0.4003651738166809,
          0.24295136332511902,
          0.9080665111541748,
          0.08523394167423248,
          -0.23658853769302368,
          -0.04292924329638481
        ],
        [
          -0.06426689773797989,
          0.7057044506072998,
          0.08762576431035995,
          0.35041502118110657,
          1.2170073986053467,
          0.4809980094432831,
          0.038017306476831436,
          0.009329305961728096,
          -0.20184265077114105,
          1.268007755279541,
          0.7032375335693359,
          0.24809955060482025,
          0.515442967414856,
          1.2450764179229736,
          0.207530677318573,
          -0.12176110595464706,
          -0.6910175085067749,
          0.437674343585968,
          0.8913782238960266,
          1.297045350074768,
          -1.0725098848342896,
          -0.6526594758033752,
          0.22461633384227753,
          1.1429734230041504,
          1.0357537269592285,
          0.7723634839057922,
          0.07905011624097824,
          0.7602635025978088,
          0.5875796675682068,
          0.8465288877487183,
          0.03158998116850853,
          0.5505766272544861,
          0.16033443808555603,
          0.7393074631690979,
          0.602828860282898,
          0.7792165875434875,
          -0.046397529542446136,
          -0.04081832244992256,
          0.4946610927581787,
          0.2900683283805847,
          0.47238391637802124,
          -0.83485347032547,
          -0.07371562719345093,
          0.09641686081886292,
          1.2210001945495605,
          0.5694342255592346,
          0.6420520544052124,
          0.8078158497810364,
          0.5697068572044373,
          -0.7814098596572876,
          0.5849800705909729,
          0.6324138045310974,
          -0.022945448756217957,
          0.08893243223428726,
          -0.14778660237789154,
          1.1739057302474976,
          0.8252023458480835,
          0.37552863359451294,
          0.2766125500202179,
          0.4178861677646637,
          0.7614747881889343,
          0.06787847727537155,
          -0.10691715776920319,
          0.07007002085447311
        ],
        [
          0.06553608924150467,
          -0.0722612515091896,
          -0.13960392773151398,
          -1.0017364025115967,
          -0.26308485865592957,
          -0.1446615755558014,
          0.06417030096054077,
          -0.04282616078853607,
          0.18879276514053345,
          -0.5596305727958679,
          0.796432375907898,
          -0.41880330443382263,
          -0.5294696092605591,
          -0.612308919429779,
          -0.07269392162561417,
          0.7930557727813721,
          -0.3529040515422821,
          -0.37661558389663696,
          0.09925278276205063,
          -0.5634222626686096,
          -1.452808141708374,
          -0.4796653985977173,
          -0.06906469911336899,
          0.01535398792475462,
          0.24729833006858826,
          -0.3221685588359833,
          -0.08483012765645981,
          1.2404261827468872,
          -0.28349366784095764,
          -0.07508289813995361,
          0.1606532335281372,
          0.33347567915916443,
          0.009901796467602253,
          0.4137135148048401,
          -0.45324406027793884,
          0.6473410725593567,
          0.043634675443172455,
          -0.014318064786493778,
          0.3590134382247925,
          -0.5477221608161926,
          0.43924883008003235,
          -0.4805344343185425,
          -0.0008800865616649389,
          -0.0762588232755661,
          -0.48801717162132263,
          -0.08421054482460022,
          1.2278685569763184,
          -0.002818987937644124,
          0.021033596247434616,
          -0.14467912912368774,
          0.32257670164108276,
          0.9459924101829529,
          0.09140718728303909,
          0.005107910372316837,
          0.11173143237829208,
          1.099883794784546,
          -1.5226092338562012,
          -0.15882211923599243,
          0.0609830766916275,
          0.8507726192474365,
          0.45226311683654785,
          0.1271185278892517,
          0.08465123921632767,
          -0.03759678080677986
        ],
        [
          -0.18695174157619476,
          0.8754459023475647,
          0.11238868534564972,
          0.388270765542984,
          1.0684713125228882,
          0.5594345331192017,
          0.04114045947790146,
          0.038941964507102966,
          -0.45417389273643494,
          1.3031446933746338,
          0.8244987726211548,
          0.2845994234085083,
          0.5099776983261108,
          1.3474453687667847,
          0.04927986115217209,
          -0.22102756798267365,
          -0.936813235282898,
          0.5545322299003601,
          1.0284292697906494,
          1.3062031269073486,
          -0.9365023970603943,
          -0.7387585043907166,
          -0.02362852543592453,
          1.1798394918441772,
          0.9047455787658691,
          0.7176622748374939,
          -0.033413324505090714,
          0.7981084585189819,
          0.5933940410614014,
          0.8214618563652039,
          -0.0347847118973732,
          0.4063240885734558,
          -0.08331366628408432,
          0.6033874750137329,
          0.4899679720401764,
          0.9745789766311646,
          0.06382979452610016,
          -0.04659661278128624,
          0.5798144936561584,
          0.27751976251602173,
          0.5150512456893921,
          -0.859827995300293,
          -0.08097322285175323,
          0.09861532598733902,
          1.3132966756820679,
          0.6036842465400696,
          0.48742881417274475,
          0.9128669500350952,
          0.4891235828399658,
          -0.895301103591919,
          0.4234519302845001,
          0.7049340605735779,
          -0.06908365339040756,
          0.04094136878848076,
          -0.21470151841640472,
          1.1436601877212524,
          0.8631950616836548,
          0.5118674039840698,
          0.39671701192855835,
          0.48277047276496887,
          0.8294145464897156,
          0.0020510759204626083,
          -0.10201934725046158,
          0.011854087933897972
        ],
        [
          -0.11420463025569916,
          0.06404425948858261,
          -0.09488213062286377,
          0.06912092119455338,
          -0.00760231725871563,
          0.006502925418317318,
          0.09354263544082642,
          -0.07935602962970734,
          -0.026925912126898766,
          0.0005962268332950771,
          0.01903121918439865,
          -0.13994736969470978,
          0.012147448025643826,
          -0.1001412644982338,
          -0.010705272667109966,
          0.053151581436395645,
          -0.04282842203974724,
          -0.028357921168208122,
          -0.02967861108481884,
          0.07398827373981476,
          0.04158594831824303,
          -0.007664932403713465,
          -0.0955585464835167,
          -0.09092977643013,
          0.06545354425907135,
          0.06946589797735214,
          0.053053878247737885,
          -0.11963507533073425,
          0.06762903928756714,
          -0.03291768580675125,
          0.06675967574119568,
          0.07922083139419556,
          -0.010391741059720516,
          -0.07980784773826599,
          0.05322648584842682,
          -0.09038073569536209,
          0.05723956227302551,
          -0.13364189863204956,
          -0.059019286185503006,
          -0.13399194180965424,
          -0.088352732360363,
          0.028102213516831398,
          -0.10278597474098206,
          -0.1216978132724762,
          0.06297500431537628,
          0.04155305027961731,
          -0.022657357156276703,
          -0.1093587875366211,
          -0.051984816789627075,
          -0.07107041776180267,
          0.05043860152363777,
          -0.06395968794822693,
          -0.06079128757119179,
          -0.10763200372457504,
          -0.07551847398281097,
          0.04327579587697983,
          0.05254414305090904,
          -0.008120530284941196,
          -0.07275969535112381,
          0.09043516218662262,
          -0.0013952696463093162,
          -0.06720747798681259,
          -0.06021836772561073,
          -0.04511449113488197
        ],
        [
          -1.7728889361023903e-05,
          0.7781760096549988,
          0.1429857760667801,
          0.4203590750694275,
          1.2681103944778442,
          0.5305048823356628,
          0.04675239324569702,
          0.03368021547794342,
          -0.37101325392723083,
          1.1881121397018433,
          0.6904196739196777,
          0.30046650767326355,
          0.5744920969009399,
          1.3495551347732544,
          0.09961757808923721,
          -0.07569970935583115,
          -0.7054604887962341,
          0.533851146697998,
          0.975805938243866,
          1.3129456043243408,
          -1.0506007671356201,
          -0.5954805016517639,
          0.2354983687400818,
          1.1801470518112183,
          1.0671296119689941,
          0.7175771594047546,
          0.02812599577009678,
          0.9716718196868896,
          0.4675881862640381,
          0.8313882350921631,
          0.04112556204199791,
          0.39881396293640137,
          0.1772889494895935,
          0.7789511680603027,
          0.5510193109512329,
          0.8163371086120605,
          0.06201635301113129,
          -0.0027694173622876406,
          0.530019223690033,
          0.38776692748069763,
          0.5841501355171204,
          -0.7192499041557312,
          0.09284868836402893,
          0.01914948970079422,
          1.2959222793579102,
          0.714375913143158,
          0.46249106526374817,
          0.947319507598877,
          0.6393057703971863,
          -0.9233220815658569,
          0.3754446804523468,
          0.6260188221931458,
          -0.05331830307841301,
          0.21990440785884857,
          -0.06551717966794968,
          1.0630594491958618,
          0.8718960881233215,
          0.37300822138786316,
          0.4035875201225281,
          0.4151022136211395,
          0.7810705900192261,
          0.11995596438646317,
          0.010713936761021614,
          0.15557006001472473
        ],
        [
          -0.11837054044008255,
          0.8089970350265503,
          0.13491494953632355,
          0.4371606409549713,
          1.0994163751602173,
          0.5971201062202454,
          0.10558722913265228,
          0.19690018892288208,
          -0.22820907831192017,
          1.2734150886535645,
          0.7962063550949097,
          0.3734562397003174,
          0.5657145977020264,
          1.4847548007965088,
          0.2479454129934311,
          -0.2667798101902008,
          -0.662665069103241,
          0.36234140396118164,
          0.781877338886261,
          1.4108699560165405,
          -0.9832637906074524,
          -0.6528001427650452,
          0.2333199828863144,
          1.1306170225143433,
          0.9187730550765991,
          0.788314163684845,
          0.10935091972351074,
          0.850678026676178,
          0.5863914489746094,
          0.6424455642700195,
          -0.033712685108184814,
          0.4521118998527527,
          0.15188099443912506,
          0.6892195343971252,
          0.6006243228912354,
          0.9064226746559143,
          0.17119558155536652,
          0.13281436264514923,
          0.5321849584579468,
          0.35589712858200073,
          0.45429766178131104,
          -0.8337022662162781,
          0.09517674893140793,
          0.18570856750011444,
          1.1332588195800781,
          0.7342071533203125,
          0.566318929195404,
          0.8453130722045898,
          0.6042242050170898,
          -0.8986072540283203,
          0.5744566917419434,
          0.6388866305351257,
          0.1462114453315735,
          0.04276964068412781,
          -0.21576298773288727,
          1.1041241884231567,
          0.849237859249115,
          0.4705955684185028,
          0.40035244822502136,
          0.3834105432033539,
          0.7804345488548279,
          -0.012120136059820652,
          -0.14832685887813568,
          0.17163266241550446
        ],
        [
          -0.07908816635608673,
          0.1134548932313919,
          -0.06794272363185883,
          0.04028351604938507,
          0.07337035238742828,
          -0.0971546471118927,
          0.06397250294685364,
          -0.016737014055252075,
          0.06477034091949463,
          0.120966836810112,
          -0.05327068269252777,
          -0.05413798987865448,
          0.09931865334510803,
          0.01390005648136139,
          -0.012466594576835632,
          0.09483353793621063,
          -0.06039300560951233,
          -0.006172016263008118,
          0.08585947751998901,
          0.0488513708114624,
          -0.08085185289382935,
          0.03248956799507141,
          -0.09530459344387054,
          -0.0678841769695282,
          0.08037647604942322,
          -0.03331403434276581,
          -0.06366963684558868,
          0.008860290050506592,
          0.030546292662620544,
          -0.0777021050453186,
          -0.08429542183876038,
          -0.1210586428642273,
          0.03229793906211853,
          -0.08065368235111237,
          0.009526044130325317,
          -0.02795727550983429,
          -0.08173249661922455,
          -0.03988735377788544,
          -0.09608624875545502,
          -0.06616660952568054,
          -0.0038964003324508667,
          -0.10686439275741577,
          -0.10962916910648346,
          0.09363256394863129,
          0.011762261390686035,
          -0.05528172850608826,
          -0.00415608286857605,
          0.09269563853740692,
          -0.10428319871425629,
          -0.06627294421195984,
          -0.09039255976676941,
          -0.009087622165679932,
          -0.004301607608795166,
          -0.09741322696208954,
          0.0867604911327362,
          -0.09598997235298157,
          0.11670446395874023,
          -0.08604612946510315,
          -0.017130687832832336,
          0.02337336540222168,
          -0.0555596798658371,
          0.11495524644851685,
          -0.08617928624153137,
          -0.006928548216819763
        ],
        [
          -0.15475879609584808,
          0.7951145172119141,
          0.16168004274368286,
          0.5474885106086731,
          1.2014343738555908,
          0.5426183938980103,
          0.22982144355773926,
          0.09095294028520584,
          -0.17958471179008484,
          1.226419448852539,
          0.7702707052230835,
          0.21666839718818665,
          0.7026510238647461,
          1.4225062131881714,
          0.10432448983192444,
          -0.19247542321681976,
          -0.722371518611908,
          0.49225977063179016,
          0.9613959193229675,
          1.359561800956726,
          -1.032372236251831,
          -0.7727084159851074,
          0.1428770124912262,
          1.0940566062927246,
          1.0126047134399414,
          0.9554752707481384,
          0.23037929832935333,
          0.9364266991615295,
          0.588914155960083,
          0.8581845164299011,
          0.07131282240152359,
          0.501811683177948,
          0.07838235795497894,
          0.7934847474098206,
          0.6638339161872864,
          0.8521834015846252,
          0.06749656051397324,
          -0.003201640909537673,
          0.4971097409725189,
          0.2682625949382782,
          0.6236990094184875,
          -0.8455039858818054,
          0.09827317297458649,
          0.1398375928401947,
          1.1572946310043335,
          0.7331295609474182,
          0.6029939651489258,
          0.7698177695274353,
          0.7481561899185181,
          -0.8179824948310852,
          0.5555473566055298,
          0.6574385762214661,
          0.11673838645219803,
          0.08731668442487717,
          -0.20532454550266266,
          1.1792945861816406,
          0.8297299742698669,
          0.4771556854248047,
          0.2770073115825653,
          0.6434025168418884,
          0.7558187246322632,
          0.18036876618862152,
          0.057849183678627014,
          0.21635842323303223
        ],
        [
          0.05890457704663277,
          0.827095091342926,
          0.12448614090681076,
          0.3966848850250244,
          1.2976173162460327,
          0.6392170190811157,
          0.17853854596614838,
          0.049317650496959686,
          -0.17500267922878265,
          1.3975175619125366,
          0.7423994541168213,
          0.42365762591362,
          0.5000921487808228,
          1.292008638381958,
          0.08749323338270187,
          -0.15166035294532776,
          -0.7715840935707092,
          0.43791863322257996,
          0.8486495018005371,
          1.446519136428833,
          -1.1652674674987793,
          -0.7546199560165405,
          0.11559470742940903,
          1.2039881944656372,
          0.9242472052574158,
          0.8765519857406616,
          0.030143985524773598,
          0.7847322225570679,
          0.4736284613609314,
          0.66987544298172,
          0.11180678755044937,
          0.39068058133125305,
          0.0475945807993412,
          0.740659773349762,
          0.4428372085094452,
          1.0073480606079102,
          0.014432298019528389,
          0.022566599771380424,
          0.3866230845451355,
          0.355363130569458,
          0.5357388257980347,
          -0.9312573075294495,
          0.09035740792751312,
          0.09713156521320343,
          1.3376948833465576,
          0.7406697273254395,
          0.6698762774467468,
          0.9048847556114197,
          0.6805601716041565,
          -0.7973337173461914,
          0.5854114294052124,
          0.5662335157394409,
          0.03934215381741524,
          0.03171900287270546,
          -0.16142286360263824,
          1.0717952251434326,
          0.8806130290031433,
          0.4556313753128052,
          0.39884722232818604,
          0.4434381127357483,
          0.7116701602935791,
          0.08711531013250351,
          -0.11085494607686996,
          0.11325576901435852
        ],
        [
          0.6291986703872681,
          -0.3974072337150574,
          -0.9668217897415161,
          -0.9583682417869568,
          -0.6402972340583801,
          -0.42458754777908325,
          -0.2790186107158661,
          0.04090942442417145,
          0.6495670676231384,
          -0.8565256595611572,
          1.2979260683059692,
          -0.26047414541244507,
          -1.038735270500183,
          -0.6616951823234558,
          0.4759088456630707,
          1.3529611825942993,
          -0.13320176303386688,
          -0.4600696563720703,
          -0.20294040441513062,
          -0.7134112119674683,
          -1.82560396194458,
          -0.6910049915313721,
          0.4275648593902588,
          -0.037146758288145065,
          0.30848973989486694,
          0.15747471153736115,
          -0.747287929058075,
          1.34446120262146,
          -0.5455783605575562,
          -0.5921078324317932,
          0.44274473190307617,
          0.5997962355613708,
          -0.8037938475608826,
          0.5990134477615356,
          -0.2331731766462326,
          -0.1355104297399521,
          -1.3976216316223145,
          -1.3011966943740845,
          0.9885401725769043,
          -1.0265837907791138,
          0.7385027408599854,
          -0.06172380596399307,
          0.43127021193504333,
          -0.760346531867981,
          -0.689616858959198,
          -0.6288835406303406,
          2.1572458744049072,
          0.27624762058258057,
          0.057471077889204025,
          0.06739064306020737,
          -0.21704156696796417,
          1.4868360757827759,
          0.7796240448951721,
          -0.6665254235267639,
          0.47012123465538025,
          0.26331448554992676,
          -1.9065477848052979,
          0.1617211550474167,
          0.1182246282696724,
          0.8116797208786011,
          0.5504546165466309,
          0.34946173429489136,
          0.214243084192276,
          -0.03445650637149811
        ],
        [
          -0.12404772639274597,
          0.6547640562057495,
          -0.0782410204410553,
          0.3203444480895996,
          1.0723319053649902,
          0.688602089881897,
          0.12026207149028778,
          -0.04540915787220001,
          -0.3352630138397217,
          1.2870045900344849,
          0.7901079654693604,
          0.28278979659080505,
          0.5175386071205139,
          1.334076166152954,
          0.19396640360355377,
          -0.14954403042793274,
          -0.679800808429718,
          0.553009033203125,
          0.9784640073776245,
          1.3727949857711792,
          -1.0519061088562012,
          -0.6318966150283813,
          0.020857883617281914,
          1.2315073013305664,
          0.9485083222389221,
          0.7698628902435303,
          -0.002820064313709736,
          0.9184429049491882,
          0.5444583892822266,
          0.8222625851631165,
          -0.022113043814897537,
          0.4916858673095703,
          0.04831693693995476,
          0.5832464098930359,
          0.44998908042907715,
          0.944401741027832,
          -0.017836688086390495,
          0.13403545320034027,
          0.4991019666194916,
          0.41696348786354065,
          0.6172417402267456,
          -0.7141391038894653,
          0.08710619062185287,
          0.15352806448936462,
          1.122563123703003,
          0.5640765428543091,
          0.5213218331336975,
          0.9123542904853821,
          0.6844409704208374,
          -0.8205016255378723,
          0.4214857816696167,
          0.6270588636398315,
          -0.03297293558716774,
          0.22044409811496735,
          -0.2585468292236328,
          1.0320398807525635,
          0.8492366671562195,
          0.4425053596496582,
          0.32948869466781616,
          0.40674838423728943,
          0.6957205533981323,
          0.15725630521774292,
          -0.17496776580810547,
          0.25965264439582825
        ],
        [
          0.04962636157870293,
          0.7137852907180786,
          0.04718291014432907,
          0.5195288062095642,
          1.1992303133010864,
          0.6776862144470215,
          0.20719057321548462,
          0.0021612977143377066,
          -0.1615818589925766,
          1.3094898462295532,
          0.6848443150520325,
          0.3517269194126129,
          0.49800437688827515,
          1.2785162925720215,
          0.18296606838703156,
          -0.20386338233947754,
          -0.6772099733352661,
          0.3919200599193573,
          0.9282352924346924,
          1.498810052871704,
          -1.038038969039917,
          -0.7385762929916382,
          0.10929364711046219,
          1.0684982538223267,
          0.8623959422111511,
          0.7554357051849365,
          0.18692168593406677,
          0.7623770236968994,
          0.44641628861427307,
          0.6129677295684814,
          -0.08187343180179596,
          0.4065987765789032,
          0.05513130500912666,
          0.6432514786720276,
          0.6129539608955383,
          0.9274343848228455,
          0.14507608115673065,
          0.10940275341272354,
          0.4252687394618988,
          0.4466997981071472,
          0.44127658009529114,
          -0.7246198058128357,
          0.11534777283668518,
          0.04599153250455856,
          1.1698805093765259,
          0.5149862766265869,
          0.3789823055267334,
          0.8318566083908081,
          0.609438419342041,
          -0.9223929643630981,
          0.502576470375061,
          0.5254930853843689,
          0.004672068636864424,
          0.23300068080425262,
          -0.2625589370727539,
          1.1018540859222412,
          0.8456233143806458,
          0.5086629390716553,
          0.41976937651634216,
          0.3615039587020874,
          0.7933982014656067,
          0.030063213780522346,
          -0.06898147612810135,
          0.2505747079849243
        ],
        [
          -0.09271707385778427,
          0.6120271682739258,
          -0.04792057350277901,
          0.4916585683822632,
          1.1471567153930664,
          0.679572343826294,
          0.13035936653614044,
          -0.032339002937078476,
          -0.2053922861814499,
          1.3620810508728027,
          0.8483912348747253,
          0.33648622035980225,
          0.46394291520118713,
          1.2912267446517944,
          0.2630694508552551,
          -0.23819322884082794,
          -0.615452766418457,
          0.4478069841861725,
          0.8974900245666504,
          1.3781007528305054,
          -1.068737506866455,
          -0.6609238386154175,
          0.22245948016643524,
          1.2010436058044434,
          1.0244759321212769,
          0.7309687733650208,
          0.2051694691181183,
          0.822628915309906,
          0.42064258456230164,
          0.6990845203399658,
          -0.012951679527759552,
          0.385166734457016,
          0.03984519839286804,
          0.6467847228050232,
          0.4503011405467987,
          0.9125052690505981,
          -0.05864529684185982,
          0.13467925786972046,
          0.5514461398124695,
          0.38931161165237427,
          0.5223267078399658,
          -0.8648802638053894,
          0.11234958469867706,
          0.19997058808803558,
          1.2728052139282227,
          0.6215535402297974,
          0.5840778946876526,
          0.9484334588050842,
          0.6052076816558838,
          -0.9053633809089661,
          0.3367445170879364,
          0.67192542552948,
          0.11858858168125153,
          0.2567550539970398,
          -0.20687678456306458,
          1.1298108100891113,
          0.7026724219322205,
          0.376413494348526,
          0.44470590353012085,
          0.3947656750679016,
          0.8608384132385254,
          0.12906759977340698,
          -0.1123049259185791,
          0.21247725188732147
        ],
        [
          -0.22398903965950012,
          0.8380231261253357,
          -0.07505472004413605,
          0.26927247643470764,
          1.2126550674438477,
          0.7308217287063599,
          0.030052242800593376,
          -0.06577180325984955,
          -0.4472659230232239,
          1.3661972284317017,
          0.8915936946868896,
          0.21612463891506195,
          0.5418626070022583,
          1.399963140487671,
          0.19504785537719727,
          -0.11104822903871536,
          -1.1242644786834717,
          0.5307086706161499,
          1.0479872226715088,
          1.4140452146530151,
          -1.1113084554672241,
          -0.7196065187454224,
          0.1443333774805069,
          1.2473610639572144,
          0.9193418025970459,
          0.9353191256523132,
          -0.05376367270946503,
          0.991288959980011,
          0.5285752415657043,
          0.858374297618866,
          -0.12512995302677155,
          0.45221298933029175,
          0.026283083483576775,
          0.8125401139259338,
          0.5525479316711426,
          1.0657801628112793,
          -0.04681061953306198,
          -0.10730691999197006,
          0.4614278972148895,
          0.36144134402275085,
          0.753390908241272,
          -1.0402976274490356,
          -0.10888570547103882,
          -0.010046027600765228,
          1.1559478044509888,
          0.8043689131736755,
          0.5615941286087036,
          0.8181110620498657,
          0.629647433757782,
          -1.1554971933364868,
          0.545173704624176,
          0.6541144251823425,
          0.077224962413311,
          0.060610584914684296,
          -0.34701603651046753,
          1.1254128217697144,
          0.8259493708610535,
          0.5303580164909363,
          0.43252357840538025,
          0.6130689978599548,
          0.9485025405883789,
          -0.0640336349606514,
          -0.18307152390480042,
          0.049233466386795044
        ],
        [
          0.35854554176330566,
          -0.5189360976219177,
          0.19692213833332062,
          0.31158819794654846,
          -0.6868525147438049,
          -0.6772023439407349,
          -0.013050954788923264,
          0.0718543753027916,
          0.4930546283721924,
          -0.7104281187057495,
          -0.4621002972126007,
          -0.09239064902067184,
          -0.27774685621261597,
          -1.0156824588775635,
          0.10861504077911377,
          0.29631781578063965,
          0.9464033246040344,
          0.3121042251586914,
          -0.7542418837547302,
          -0.7551265954971313,
          1.8374017477035522,
          1.4343985319137573,
          0.2145100086927414,
          -0.9552233815193176,
          -0.5193479657173157,
          -0.21605895459651947,
          0.059592414647340775,
          -0.252099871635437,
          -0.31399163603782654,
          -0.19573605060577393,
          0.1435880959033966,
          0.3576670289039612,
