{
  "layers": [
    {
      "weight": [
        [
          0.4025251269340515,
          0.23341886699199677,
          -0.46092432737350464,
          1.035291075706482,
          0.4062294363975525
        ],
        [
          0.1700867861509323,
          -0.30704939365386963,
          0.14194348454475403,
          -0.21167351305484772,
          -1.3805619478225708
        ],
        [
          0.7010946273803711,
          -0.13715003430843353,
          -0.06841009855270386,
          0.05389932170510292,
          -0.023839877918362617
        ],
        [
          0.05251698940992355,
          0.2086915522813797,
          -0.050581615418195724,
          -0.07456479966640472,
          -0.6215100288391113
        ],
        [
          0.21364714205265045,
          -0.02491377480328083,
          -0.11816813796758652,
          -0.008183297701179981,
          -1.7685108184814453
        ],
        [
          0.22422641515731812,
          0.019526338204741478,
          0.032172247767448425,
          -0.1932862251996994,
          -1.6514915227890015
        ],
        [
          0.4917601943016052,
          -0.506834864616394,
          0.26083967089653015,
          -0.06393719464540482,
          -0.7582353949546814
        ],
        [
          0.4131176173686981,
          -0.010672473348677158,
          0.3094691336154938,
          0.01448844000697136,
          -0.5808097124099731
        ],
        [
          0.15085314214229584,
          -0.20150291919708252,
          0.16158916056156158,
          1.1805270910263062,
          0.8038623929023743
        ],
        [
          0.2091049700975418,
          0.2807585299015045,
          0.020609047263860703,
          -0.08242704719305038,
          -1.7178813219070435
        ],
        [
          -0.11563950777053833,
          -0.07217705994844437,
          0.13205115497112274,
          0.81319659948349,
          0.42340290546417236
        ],
        [
          0.20423227548599243,
          0.2442660927772522,
          -0.34821826219558716,
          0.12776879966259003,
          -1.1225944757461548
        ],
        [
          0.14026924967765808,
          -0.5709773302078247,
          -0.12859030067920685,
          -0.7392863035202026,
          -0.913844645023346
        ],
        [
          0.21912585198879242,
          0.4864564836025238,
          0.01851181499660015,
          -0.5075272917747498,
          -1.7211036682128906
        ],
        [
          0.43345263600349426,
          0.04881109669804573,
          0.7698392271995544,
          -0.4425593614578247,
          -1.1910914182662964
        ],
        [
          -0.29380056262016296,
          -1.2810232639312744,
          0.033428531140089035,
          -0.20173271000385284,
          0.36133480072021484
        ],
        [
          0.07344643026590347,
          -0.6996678113937378,
          0.8682922720909119,
          -0.49216943979263306,
          -0.1275653839111328
        ],
        [
          0.1003023311495781,
          0.03944867476820946,
          -0.9791118502616882,
          -0.19486089050769806,
          -0.6591979265213013
        ],
        [
          0.1823931187391281,
          -0.13539208471775055,
          -0.016903091222047806,
          -0.2724117934703827,
          -1.3740116357803345
        ],
        [
          0.21332675218582153,
          0.4857739210128784,
          0.03478902950882912,
          -0.4293655753135681,
          -1.68244206905365
        ],
        [
          -0.057916443794965744,
          -0.6800746917724609,
          0.7629543542861938,
          -0.8540545105934143,
          -0.8573986887931824
        ],
        [
          -0.04646356776356697,
          -0.9556874632835388,
          -0.6699984669685364,
          -0.8165097832679749,
          -1.412483811378479
        ],
        [
          0.5648009777069092,
          0.03737134858965874,
          0.07479704916477203,
          -0.48571911454200745,
          -0.8820210099220276
        ],
        [
          0.22273801267147064,
          0.15632832050323486,
          0.004514360800385475,
          -0.422374427318573,
          -1.6458184719085693
        ],
        [
          0.19378288090229034,
          -0.35520264506340027,
          -0.15262265503406525,
          -0.9605222940444946,
          -1.5736181735992432
        ],
        [
          0.1726362258195877,
          -0.1855435073375702,
          -0.6886435151100159,
          0.04911581054329872,
          -1.3868992328643799
        ],
        [
          0.42861735820770264,
          -0.037919074296951294,
          -0.4465305805206299,
          0.14056046307086945,
          -0.59829181432724
        ],
        [
          0.16216354072093964,
          -0.6197027564048767,
          -0.7923651933670044,
          -0.3526964485645294,
          -1.4702794551849365
        ],
        [
          0.1780846118927002,
          -0.7498799562454224,
          0.4191919267177582,
          -0.964427649974823,
          -1.0995811223983765
        ],
        [
          0.17397117614746094,
          0.14066146314144135,
          0.30012574791908264,
          -0.025510869920253754,
          -1.4018357992172241
        ],
        [
          0.23127707839012146,
          -0.6532074213027954,
          -0.1701318472623825,
          -0.1066427230834961,
          0.3942771255970001
        ],
        [
          0.1965884566307068,
          0.4620628356933594,
          0.11778326332569122,
          0.02859296090900898,
          -1.4221653938293457
        ],
        [
          0.601999819278717,
          -0.06186449155211449,
          -0.22536087036132812,
          -0.003815736621618271,
          -0.10165879130363464
        ],
        [
          0.12749993801116943,
          -0.4791349768638611,
          0.6991473436355591,
          -0.37797293066978455,
          -1.2528061866760254
        ],
        [
          -0.011003823950886726,
          0.6075460910797119,
          0.09829629957675934,
          0.42810893058776855,
          -1.2995091676712036
        ],
        [
          0.17844729125499725,
          -0.5486627817153931,
          0.18839289247989655,
          -0.16634275019168854,
          -1.7320250272750854
        ],
        [
          0.19074946641921997,
          -0.047296635806560516,
          -0.049370069056749344,
          -0.030037179589271545,
          -0.17713963985443115
        ],
        [
          0.40333786606788635,
          0.27008387446403503,
          -0.32509496808052063,
          0.17786981165409088,
          -0.25086790323257446
        ],
        [
          -0.06373648345470428,
          -0.25128740072250366,
          0.7759289741516113,
          0.5200059413909912,
          -0.19390688836574554
        ],
        [
          0.055798470973968506,
          -0.03438087925314903,
          -0.081297867000103,
          -0.10253377258777618,
          -0.6044763922691345
        ],
        [
          -0.23822849988937378,
          -0.6525261998176575,
          0.8800160884857178,
          -0.5856978297233582,
          -0.5058153867721558
        ],
        [
          -0.09676171839237213,
          -0.7727676630020142,
          -2.0295376777648926,
          -0.44986847043037415,
          -0.5321134924888611
        ],
        [
          0.5234992504119873,
          0.1427953839302063,
          -0.8999550938606262,
          -0.2863919138908386,
          -0.4051699638366699
        ],
        [
          0.5100477337837219,
          0.10113576054573059,
          -0.21268609166145325,
          0.15582473576068878,
          -0.6028104424476624
        ],
        [
          0.2085944563150406,
          0.5133916735649109,
          -0.004833335056900978,
          -0.3199814260005951,
          -1.7211618423461914
        ],
        [
          0.20310108363628387,
          0.4736765921115875,
          0.08777160197496414,
          -0.531765878200531,
          -1.7065954208374023
        ],
        [
          -0.1372106522321701,
          -0.016679197549819946,
          0.1223042756319046,
          0.4710220396518707,
          0.8220559358596802
        ],
        [
          0.19649456441402435,
          -0.11636286973953247,
          -0.24974915385246277,
          -0.8748860955238342,
          -1.5422813892364502
        ],
        [
          0.17866240441799164,
          -0.3958134651184082,
          -0.23791132867336273,
          -0.8620052337646484,
          -1.2317253351211548
        ],
        [
          -0.113397978246212,
          -1.1189485788345337,
          1.0481358766555786,
          -0.4401976466178894,
          0.3201213777065277
        ],
        [
          0.09107004106044769,
          -0.8134941458702087,
          -0.09966421127319336,
          -0.44804373383522034,
          -0.9900527596473694
        ],
        [
          -0.20624880492687225,
          -0.4566110372543335,
          0.18137095868587494,
          0.2667068839073181,
          0.6254163384437561
        ],
        [
          0.5577448606491089,
          -0.49691906571388245,
          0.06009572744369507,
          0.008032126352190971,
          0.10075325518846512
        ],
        [
          0.4649535119533539,
          -0.06688492000102997,
          -0.21867236495018005,
          -0.09346919506788254,
          -1.0353548526763916
        ],
        [
          0.2167089879512787,
          -0.569850504398346,
          0.43647828698158264,
          1.0642690658569336,
          0.9448240399360657
        ],
        [
          0.20638898015022278,
          -0.4758426249027252,
          0.11847253888845444,
          -0.3146829903125763,
          -1.7956024408340454
        ],
        [
          0.13663820922374725,
          -0.6510539054870605,
          -0.1856854259967804,
          -0.8702153563499451,
          -1.327321171760559
        ],
        [
          0.12121298164129257,
          -0.849471926689148,
          0.7291388511657715,
          -0.14380936324596405,
          -0.802827775478363
        ],
        [
          0.04233088716864586,
          -0.6654987335205078,
          -0.8586345911026001,
          -0.903093159198761,
          -0.640435516834259
        ],
        [
          -0.01584315486252308,
          -0.8671675324440002,
          0.9172601103782654,
          -0.8305690288543701,
          -0.8983902931213379
        ],
        [
          0.1497805118560791,
          -0.16570183634757996,
          -0.22172223031520844,
          -0.4816012978553772,
          -1.6011813879013062
        ],
        [
          0.48820775747299194,
          -0.3316076695919037,
          -0.23352180421352386,
          -0.45870286226272583,
          -0.6741982698440552
        ],
        [
          0.4571966230869293,
          0.016503894701600075,
          -0.8159772157669067,
          0.6351953148841858,
          0.8258116841316223
        ],
        [
          0.15400256216526031,
          0.144857257604599,
          0.3207721412181854,
          -0.07728280872106552,
          -0.4301186203956604
        ]
      ],
      "bias": [
        0.5418017506599426,
        -1.0434620380401611,
        0.9420545101165771,
        0.553215742111206,
        -1.0238957405090332,
        -1.518581509590149,
        -0.7222037315368652,
        -0.992121160030365,
        0.41837361454963684,
        -0.715177059173584,
        1.653638243675232,
        -0.26849645376205444,
        -1.337594747543335,
        -1.316190242767334,
        -0.09040264040231705,
        1.7866754531860352,
        0.40719038248062134,
        0.3541242480278015,
        -1.3181511163711548,
        -1.1323808431625366,
        1.1224068403244019,
        0.9065678119659424,
        -0.7290709018707275,
        -1.5809154510498047,
        -1.3338834047317505,
        -0.5570498108863831,
        0.6558799147605896,
        -0.8081067204475403,
        -1.1426303386688232,
        -0.5579249262809753,
        1.163970708847046,
        -0.639567494392395,
        0.8137771487236023,
        -0.09888812154531479,
        0.17493344843387604,
        -0.5823028087615967,
        0.8994597792625427,
        -0.06486826390028,
        0.681344747543335,
        0.7636072039604187,
        1.1854887008666992,
        0.9463501572608948,
        -0.5483652949333191,
        -0.016016671434044838,
        -0.8521785140037537,
        -1.0323421955108643,
        1.4578478336334229,
        -1.5017281770706177,
        -1.637769341468811,
        1.5218627452850342,
        0.38040271401405334,
        1.9482405185699463,
        0.38013139367103577,
        -0.3749798834323883,
        0.4514023959636688,
        -1.1132744550704956,
        -0.4615154266357422,
        0.28731173276901245,
        0.23540306091308594,
        0.07262232899665833,
        -0.2585219740867615,
        -0.8963263034820557,
        1.151320219039917,
        0.7480083703994751
      ]
    },
    {
      "weight": [
        [
          -0.019316790625452995,
          1.0556718111038208,
          -0.03966571018099785,
          0.4355083405971527,
          1.4250705242156982,
          1.3127882480621338,
          0.1127185970544815,
          0.0835687443614006,
          -0.15007054805755615,
          1.5340070724487305,
          0.8399636149406433,
          0.3043813407421112,
          0.6315284967422485,
          1.5524133443832397,
          0.2806415557861328,
          0.8093761801719666,
          0.1836227923631668,
          0.6562693119049072,
          1.0917598009109497,
          1.5973498821258545,
          -1.5393716096878052,
          -1.2176512479782104,
          0.04327277094125748,
          1.310713291168213,
          1.0428080558776855,
          1.0352168083190918,
          0.10733627527952194,
          1.0131818056106567,
          0.6847707033157349,
          1.0189779996871948,
          0.10311129689216614,
          1.0128048658370972,
          0.03016074188053608,
          0.8535485863685608,
          0.527152955532074,
          0.9628286957740784,
          0.07539313286542892,
          0.05881240963935852,
          0.30059272050857544,
          0.5474724173545837,
          0.8977003693580627,
          -1.013962745666504,
          0.0708286464214325,
          0.006161007564514875,
          1.3630105257034302,
          0.7858185172080994,
          0.8339097499847412,
          1.0044829845428467,
          0.7067505717277527,
          -0.9277619123458862,
          0.4955365061759949,
          0.9022336006164551,
          0.019204460084438324,
          0.1993599385023117,
          -0.19840052723884583,
          1.2562552690505981,
          0.8351410627365112,
          0.6148086786270142,
          0.44349703192710876,
          -1.1084010601043701,
          1.059205412864685,
          0.04783396050333977,
          -0.12717315554618835,
          0.2757522761821747
        ],
        [
          0.08687112480401993,
          -0.10566980391740799,
          -0.020169422030448914,
          -0.1781056970357895,
          -0.12268894165754318,
          0.0032037554774433374,
          0.022924866527318954,
          0.01587095484137535,
          -0.044731274247169495,
          0.08398280292749405,
          0.0009175341110676527,
          -0.08417732268571854,
          -0.01817532256245613,
          0.008303862065076828,
          0.03344355523586273,
          -0.08443687856197357,
          0.050867609679698944,
          -0.10319715738296509,
          -0.11395177990198135,
          -0.0901465192437172,
          0.10519848018884659,
          0.06781326979398727,
          0.10146518051624298,
          0.05276648700237274,
          0.05148881673812866,
          -0.04055362567305565,
          -0.07952617108821869,
          0.03192071616649628,
          -0.07504775375127792,
          -0.09448789060115814,
          -0.04995189234614372,
          0.00621024239808321,
          0.05377589166164398,
          -0.06612525135278702,
          -0.11743683367967606,
          -0.01126626692712307,
          -0.08433083444833755,
          -0.09199978411197662,
          0.11250610649585724,
          -0.0529278889298439,
          0.10822539776563644,
          0.05773686245083809,
          0.026678338646888733,
          0.03244435042142868,
          0.009430913254618645,
          -0.008357991464436054,
          0.01917063258588314,
          -0.008929617702960968,
          0.03644782677292824,
          0.12135917693376541,
          -0.05838634818792343,
          -0.06046035513281822,
          -0.040390461683273315,
          -0.07084698230028152,
          0.011220223270356655,
          0.0710785984992981,
          0.06646067649126053,
          0.04589516669511795,
          -0.12169884890317917,
          -0.07605646550655365,
          -0.0510513000190258,
          -0.033468201756477356,
          -0.00044693410745821893,
          -0.12520954012870789
        ],
        [
          0.031165925785899162,
          0.7810839414596558,
          -0.00564845185726881,
          0.3397029936313629,
          1.4297162294387817,
          1.207251787185669,
          0.23110564053058624,
          0.1387850046157837,
          -0.2171003520488739,
          1.5140869617462158,
          0.7216185927391052,
          0.40744495391845703,
          0.8023175597190857,
          1.420803427696228,
          0.26674598455429077,
          0.7512283325195312,
          0.2509373724460602,
          0.5554176568984985,
          1.0546801090240479,
          1.4974818229675293,
          -1.5338245630264282,
          -0.982131838798523,
          0.24082458019256592,
          1.3562877178192139,
          0.9632270932197571,
          0.9615974426269531,
          0.045641012489795685,
          1.1235157251358032,
          0.46114760637283325,
          0.8837780356407166,
          -0.007352711632847786,
          1.054433822631836,
          0.200918048620224,
          0.7852461934089661,
          0.6480749249458313,
          1.1037241220474243,
          0.17770183086395264,
          0.06575518846511841,
          0.33859726786613464,
          0.4890807271003723,
          0.7099725604057312,
          -1.0078527927398682,
          0.07733142375946045,
          0.03440575301647186,
          1.4159315824508667,
          0.7258816957473755,
          0.8204346895217896,
          1.1024304628372192,
          0.8198105096817017,
          -0.8526501655578613,
          0.5632291436195374,
          0.6107914447784424,
          -0.012367993593215942,
          0.10474096238613129,
          -0.25211626291275024,
          1.1469532251358032,
          0.7238364219665527,
          0.3775227665901184,
          0.33011752367019653,
          -1.3260084390640259,
          0.8163003325462341,
          0.1628013253211975,
          0.08606231957674026,
          0.11330205202102661
        ],
        [
          -0.04424583539366722,
          0.05463423952460289,
          -0.07531050592660904,
          -0.07063911855220795,
          0.07101070135831833,
          -0.11491802334785461,
          0.001707877847366035,
          0.09780454635620117,
          0.014305021613836288,
          0.02798747643828392,
          -0.08063922822475433,
          -0.013934913091361523,
          -0.006188482511788607,
          0.030679285526275635,
          0.034746203571558,
          0.10109277069568634,
          -0.1064482256770134,
          0.003746911883354187,
          -0.0744657814502716,
          -0.10488835722208023,
          -0.016015177592635155,
          -0.12133120000362396,
          0.07347167283296585,
          0.014476850628852844,
          -0.07714346051216125,
          0.059205736964941025,
          -0.1313946694135666,
          -0.05664414167404175,
          -0.037888579070568085,
          -0.1181282103061676,
          -0.09379804879426956,
          -0.029049359261989594,
          0.0807594358921051,
          0.10808992385864258,
          0.07306325435638428,
          -0.0860200971364975,
          -0.09605243802070618,
          0.09596424549818039,
          0.03680037334561348,
          -0.008105924353003502,
          0.00904470682144165,
          -0.10046209394931793,
          -0.04774114117026329,
          0.10667489469051361,
          -0.03855155408382416,
          -0.020150987431406975,
          -0.11063306778669357,
          -0.07823260873556137,
          -0.014127853326499462,
          -0.08761610835790634,
          -0.028941582888364792,
          0.04411987215280533,
          -0.13582350313663483,
          0.02318434976041317,
          -0.09416122734546661,
          -0.07184185832738876,
          0.034114934504032135,
          0.08758434653282166,
          -0.048408374190330505,
          -0.057326603680849075,
          -0.12685053050518036,
          -0.0778820663690567,
          -0.12066495418548584,
          -0.041992347687482834
        ],
        [
          0.006180576514452696,
          -0.13797789812088013,
          0.08900216221809387,
          0.05096818879246712,
          -0.1510775238275528,
          -0.090927354991436,
          0.02074447274208069,
          -0.045369621366262436,
          -0.03319930657744408,
          -0.08056379109621048,
          0.07130038738250732,
          -0.08969289809465408,
          0.08211547881364822,
          -0.011072074063122272,
          0.004635967779904604,
          0.06853280961513519,
          -0.05232134833931923,
          -0.09520014375448227,
          -0.040374431759119034,
          0.07324228435754776,
          -0.11840930581092834,
          -0.005315808113664389,
          -0.1427975744009018,
          0.04412366822361946,
          0.006345137022435665,
          -0.020573198795318604,
          0.033692099153995514,
          -0.02744342014193535,
          0.048221655189991,
          -0.11865393072366714,
          -0.03912118449807167,
          0.022028382867574692,
          0.10426195710897446,
          0.028449149802327156,
          -0.13151171803474426,
          0.06132322922348976,
          -0.04827045649290085,
          -0.046283233910799026,
          -0.13489122688770294,
          -0.04950210452079773,
          0.057423185557127,
          -0.007505717221647501,
          -0.09237503260374069,
          0.018692094832658768,
          -0.07084248960018158,
          0.09416934847831726,
          -0.13369111716747284,
          -0.05926072224974632,
          -0.14022301137447357,
          -0.08270887285470963,
          0.005358741618692875,
          0.09255288541316986,
          0.0008693726267665625,
          0.10255235433578491,
          0.004737631417810917,
          0.03752318397164345,
          0.06389036774635315,
          0.07159631699323654,
          -0.09760698676109314,
          0.08884734660387039,
          0.046101123094558716,
          -0.0781898945569992,
          -0.0792769268155098,
          -0.12574008107185364
        ],
        [
          0.03820571303367615,
          0.7079586982727051,
          0.12599751353263855,
          0.44815680384635925,
          1.1670359373092651,
          1.3488881587982178,
          0.12501923739910126,
          0.20345094799995422,
          -0.10038933902978897,
          1.2635483741760254,
          0.7965522408485413,
          0.41344448924064636,
          0.7294502854347229,
          1.388745665550232,
          0.1574893742799759,
          0.7058286070823669,
          0.18527115881443024,
          0.5804633498191833,
          0.9947865009307861,
          1.6166441440582275,
          -1.4359530210494995,
          -0.8981176018714905,
          0.19715335965156555,
          1.2442257404327393,
          0.9262480139732361,
          0.8542355298995972,
          0.20990194380283356,
          0.8649066090583801,
          0.3932585120201111,
          0.8812724947929382,
          0.08699150383472443,
          1.107252836227417,
          -0.0128302788361907,
          0.6413517594337463,
          0.6228522062301636,
          1.0689785480499268,
          0.14391066133975983,
          0.12857358157634735,
          0.39830660820007324,
          0.5134149193763733,
          0.6415714025497437,
          -0.9967836141586304,
          0.1957406848669052,
          0.03252685070037842,
          1.249324083328247,
          0.739311933517456,
          0.7556328177452087,
          0.9665995240211487,
          0.6407362818717957,
          -0.8814569115638733,
          0.643051028251648,
          0.6195256114006042,
          0.07756920903921127,
          0.23350657522678375,
          -0.20521791279315948,
          1.2843289375305176,
          0.7450524568557739,
          0.42898818850517273,
          0.34505346417427063,
          -1.1718765497207642,
          0.7290028929710388,
          0.18688641488552094,
          0.024769721552729607,
          0.013594352640211582
        ],
        [
          -0.07429548352956772,
          0.9201533198356628,
          0.12013572454452515,
          0.4617668688297272,
          1.1902849674224854,
          1.2441726922988892,
          0.11397435516119003,
          0.12099967151880264,
          -0.2562219798564911,
          1.3888378143310547,
          0.6871750354766846,
          0.2852790653705597,
          0.6903489828109741,
          1.4407222270965576,
          0.23066672682762146,
          0.7480636835098267,
          0.14527393877506256,
          0.3832884728908539,
          1.0006450414657593,
          1.534605860710144,
          -1.4558579921722412,
          -0.820002555847168,
          0.09372612088918686,
          1.4151004552841187,
          1.1041179895401,
          0.8064178824424744,
          0.20224116742610931,
          0.8598024845123291,
          0.4240899085998535,
          0.777359127998352,
          -0.06499584019184113,
          1.1148771047592163,
          0.055334318429231644,
          0.7765958309173584,
          0.4371788501739502,
          1.025053858757019,
          0.029583938419818878,
          0.01212999876588583,
          0.3564938008785248,
          0.4560830295085907,
          0.7940518856048584,
          -1.0250071287155151,
          0.04504626244306564,
          0.13986915349960327,
          1.340232491493225,
          0.6799904704093933,
          0.7782037258148193,
          0.887458860874176,
          0.751698911190033,
          -0.7881459593772888,
          0.49168485403060913,
          0.7619075179100037,
          0.13665691018104553,
          0.28091099858283997,
          -0.1876670867204666,
          1.0923229455947876,
          0.7645283341407776,
          0.46314263343811035,
          0.44951146841049194,
          -1.1623631715774536,
          0.9071263074874878,
          0.06999418139457703,
          0.06736788898706436,
          0.12294967472553253
        ],
        [
          -0.31128543615341187,
          0.8928034901618958,
          -0.17333172261714935,
          0.518088698387146,
          1.2560739517211914,
          1.316034197807312,
          0.05788790062069893,
          -0.06153051555156708,
          -0.45384812355041504,
          1.3572920560836792,
          0.6019464731216431,
          0.247386634349823,
          0.6326623558998108,
          1.4801770448684692,
          0.18759597837924957,
          0.7966102957725525,
          0.1544388085603714,
          0.6748716831207275,
          1.121456265449524,
          1.54888916015625,
          -1.7941471338272095,
          -1.2137001752853394,
          -0.01275629922747612,
          1.4007904529571533,
          1.1850816011428833,
          1.0553451776504517,
          0.1732291281223297,
          1.1855570077896118,
          0.5386577844619751,
          0.9207290410995483,
          -0.03898053243756294,
          1.0523974895477295,
          -0.11622756719589233,
          0.897354006767273,
          0.7101795673370361,
          1.0682164430618286,
          -0.05089475214481354,
          -0.13841956853866577,
          0.2570585310459137,
          0.5697413086891174,
          0.7446373105049133,
          -1.3051326274871826,
          -0.07598412036895752,
          -0.034831661731004715,
          1.5055769681930542,
          0.7140450477600098,
          0.5713111758232117,
          0.967166006565094,
          0.7393495440483093,
          -1.397125005722046,
          0.6054111123085022,
          0.7597365975379944,
          -0.01295961532741785,
          0.22909212112426758,
          -0.3062930405139923,
          1.1760823726654053,
          0.756757915019989,
          0.5151844024658203,
          0.4518755376338959,
          -1.3310859203338623,
          0.8978054523468018,
          -0.013842182233929634,
          -0.12563595175743103,
          0.11656871438026428
        ],
        [
          -0.044386789202690125,
          -0.051403120160102844,
          -0.04939692094922066,
          -0.06386377662420273,
          0.11240285634994507,
          0.06620566546916962,
          0.11287195980548859,
          0.0003992021083831787,
          0.025208860635757446,
          0.04334558546543121,
          -0.1323830783367157,
          0.01116207242012024,
          -0.024310551583766937,
          -0.07008175551891327,
          -0.10991639643907547,
          0.09366157650947571,
          0.08535369485616684,
          0.04095286875963211,
          0.11928121745586395,
          -0.05072598159313202,
          -0.036605898290872574,
          0.03197336569428444,
          -0.020653322339057922,
          -0.0245293527841568,
          -0.11352221667766571,
          0.0335826575756073,
          -0.07554090023040771,
          0.004545778036117554,
          0.10628101974725723,
          -0.038476914167404175,
          -0.054123397916555405,
          0.05961962416768074,
          -0.06088313087821007,
          -0.025484995916485786,
          0.09647213667631149,
          -0.05124671757221222,
          -0.10434883832931519,
          -0.06995546817779541,
          -0.03465570509433746,
          -0.07285532355308533,
          -0.08124825358390808,
          0.033029451966285706,
          0.021242216229438782,
          -0.04000769555568695,
          -0.09711392223834991,
          -0.03935748338699341,
          -0.07163049280643463,
          -0.04067736864089966,
          -0.112765371799469,
          0.010684498585760593,
          -0.10684847086668015,
          -0.11341071128845215,
          -0.1181323304772377,
          0.052172958850860596,
          -0.08754684776067734,
          -0.051593855023384094,
          0.08306441456079483,
          0.051367294043302536,
          0.0568845309317112,
          -0.1318330466747284,
          -0.10229562222957611,
          -0.04718887805938721,
          0.10326220095157623,
          -0.0029833854641765356
        ],
        [
          -0.09348714351654053,
          -0.004533314611762762,
          -0.10239983350038528,
          -0.027387410402297974,
          -0.039687927812337875,
          0.10289173573255539,
          0.03340104594826698,
          -0.021796390414237976,
          0.01580006070435047,
          -0.041399236768484116,
          0.04379649832844734,
          0.04412943497300148,
          0.03356826305389404,
          -0.04872211813926697,
          0.10664384067058563,
          -0.023362280800938606,
          -0.053980618715286255,
          0.07828925549983978,
          0.0965661033987999,
          0.1243949681520462,
          0.037032291293144226,
          -0.042611733078956604,
          0.0634865015745163,
          0.10724431276321411,
          -0.12260426580905914,
          -0.020801899954676628,
          -0.09056166559457779,
          0.01797904446721077,
          0.05169810354709625,
          -0.031139526516199112,
          -0.010457143187522888,
          0.050947804003953934,
          -0.02100871503353119,
          -0.11028841882944107,
          0.09470102936029434,
          -0.0682302936911583,
          -0.013732314109802246,
          0.011790797114372253,
          -0.012828141450881958,
          -0.12290173023939133,
          0.05203394964337349,
          -0.056778937578201294,
          -0.06483244895935059,
          0.02986443042755127,
          -0.07054872065782547,
          -0.057769954204559326,
          -0.047434788197278976,
          -0.04695969820022583,
          -0.0522046834230423,
          -0.03902677819132805,
          0.027168437838554382,
          -0.10646822303533554,
          -0.07566003501415253,
          0.0018239319324493408,
          0.01206748653203249,
          0.06372057646512985,
          -0.09312146157026291,
          0.034583572298288345,
          0.07104872167110443,
          0.06940752267837524,
          -0.12174365669488907,
          -0.04770052433013916,
          -0.10744570195674896,
          -0.08441741019487381
        ],
        [
          -0.09605013579130173,
          1.0527247190475464,
          -0.030731558799743652,
          0.34345772862434387,
          1.432244062423706,
          0.9287999868392944,
          0.1249346137046814,
          0.03257620707154274,
          -0.512584924697876,
          1.4464539289474487,
          0.43766969442367554,
          0.44031035900115967,
          0.95588618516922,
          1.3505808115005493,
          0.17600242793560028,
          -0.7366951704025269,
          -0.4701887369155884,
          0.4837326109409332,
          1.2380177974700928,
          1.6535223722457886,
          -3.319779634475708,
          -3.069488048553467,
          0.1204993724822998,
          1.1139124631881714,
          1.3665298223495483,
          0.857724666595459,
          0.10850595682859421,
          1.0474027395248413,
          0.6016062498092651,
          1.07600998878479,
          -0.13877950608730316,
          0.9377465844154358,
          -0.08691621571779251,
          0.8116286993026733,
          0.746588408946991,
          1.0687445402145386,
          -0.2340453565120697,
          0.06604207307100296,
          0.18804511427879333,
          0.39425238966941833,
          -0.4813622236251831,
          -3.529120922088623,
          -0.06947678327560425,
          0.08632604777812958,
          1.5767613649368286,
          0.9813498854637146,
          -0.018451882526278496,
          1.2366942167282104,
          0.8991363644599915,
          -3.041023015975952,
          0.46095162630081177,
          -0.6908725500106812,
          -0.10697193443775177,
          0.11660509556531906,
          -0.47433191537857056,
          1.3720133304595947,
          0.9126788377761841,
          0.38357579708099365,
          0.17299871146678925,
          -2.489276885986328,
          1.0189343690872192,
          0.12184223532676697,
          -0.08651584386825562,
          0.08828182518482208
        ],
        [
          -0.09837424010038376,
          -0.14778122305870056,
          0.004818498156964779,
          -0.005240507889539003,
          -0.12975753843784332,
          0.0303390733897686,
          0.08812166005373001,
          -0.009420315735042095,
          -0.10767702013254166,
          0.06114434450864792,
          0.017835034057497978,
          0.05324215441942215,
          -0.1135202944278717,
          0.04984930157661438,
          -0.10812248289585114,
          0.05655879154801369,
          -0.09533584862947464,
          0.04104815050959587,
          0.0013020681217312813,
          -0.0021471225190907717,
          -0.05058100447058678,
          0.02693638578057289,
          -0.06485451012849808,
          -0.1318398118019104,
          -0.060608744621276855,
          0.07448329776525497,
          -0.06067804619669914,
          0.018642188981175423,
          -0.0704759806394577,
          0.055812932550907135,
          0.04469376429915428,
          -0.005084882024675608,
          -0.09156296402215958,
          -0.13620224595069885,
          -0.045016564428806305,
          -0.09717155992984772,
          0.04443982243537903,
          -0.14194858074188232,
          0.014333362691104412,
          0.08566705882549286,
          0.014864908531308174,
          0.017269786447286606,
          -0.13801060616970062,
          0.09928807616233826,
          -0.05471285805106163,
          -0.14443396031856537,
          0.042321380227804184,
          -0.06380054354667664,
          -0.021144649013876915,
          0.07329467684030533,
          -0.1143939420580864,
          -0.14138439297676086,
          -0.0008041663095355034,
          -0.030152082443237305,
          0.00026479907683096826,
          -0.12369254231452942,
          -0.020627019926905632,
          -0.08966511487960815,
          -0.08830349892377853,
          -0.13363952934741974,
          0.04593393951654434,
          0.009191472083330154,
          -0.1380891501903534,
          0.028937451541423798
        ],
        [
          0.04522022604942322,
          0.8412451148033142,
          -0.0018722314853221178,
          0.4370061755180359,
          1.3955978155136108,
          1.3945316076278687,
          0.038756564259529114,
          0.261008083820343,
          -0.16670790314674377,
          1.4499396085739136,
          0.796238124370575,
          0.42912575602531433,
          0.582046627998352,
          1.6075162887573242,
          0.12305519729852676,
          0.8105208277702332,
          0.11733338981866837,
          0.4882999062538147,
          0.9515209197998047,
          1.5025391578674316,
          -1.3997844457626343,
          -0.91560298204422,
          0.2777354121208191,
          1.4104173183441162,
          1.117408275604248,
          0.9735117554664612,
          0.2251812219619751,
          0.9790440797805786,
          0.5152989625930786,
          0.8520282506942749,
          -0.09412270784378052,
          0.9104600548744202,
          0.09598959237337112,
          0.6860077381134033,
          0.5660494565963745,
          0.9345561861991882,
          0.0886743813753128,
          0.19206492602825165,
          0.3177903890609741,
          0.5034464001655579,
          0.8209364414215088,
          -1.0089962482452393,
          0.011161805130541325,
          0.01924917846918106,
          1.2518450021743774,
          0.6094182133674622,
          0.6948121190071106,
          0.9019956588745117,
          0.6357624530792236,
          -0.9318292737007141,
          0.48919782042503357,
          0.8565004467964172,
          0.027677079662680626,
          0.08972670882940292,
          -0.07408027350902557,
          1.156470537185669,
          0.9062356948852539,
          0.5378785133361816,
          0.5011407136917114,
          -1.1831403970718384,
          0.9412904977798462,
          0.22052951157093048,
          -0.07280443608760834,
          0.24970725178718567
        ],
        [
          0.20003944635391235,
          -0.025215361267328262,
          -0.02124280482530594,
          -1.371198296546936,
          -0.65651935338974,
          -0.6515243649482727,
          0.031002027913928032,
          -0.10317273437976837,
          0.36554861068725586,
          -1.0464999675750732,
          1.0927226543426514,
          0.09806235879659653,
          0.035778213292360306,
          -0.7326152920722961,
          0.038796693086624146,
          1.8189960718154907,
          -0.13243618607521057,
          -0.161499485373497,
          0.06998340040445328,
          -0.760861873626709,
          -1.9767992496490479,
          -1.1802617311477661,
          -0.02672932855784893,
          0.03407615050673485,
          -0.033084314316511154,
          -0.3165118992328644,
          -0.04364391788840294,
          1.3118746280670166,
          0.29769909381866455,
          -0.04701106250286102,
          -0.12884032726287842,
          -0.43739190697669983,
          -0.13204853236675262,
          -0.3544233739376068,
          0.04486678168177605,
          0.08790301531553268,
          -0.13013963401317596,
          -0.07483777403831482,
          0.5823708176612854,
          -0.7311248183250427,
          0.2751601040363312,
          -0.6872833371162415,
          -0.0006024576723575592,
          -0.15463119745254517,
          -0.6200219392776489,
          0.049636222422122955,
          1.2827386856079102,
          -0.09651826322078705,
          0.1040358766913414,
          0.07435695827007294,
          -0.02332265116274357,
          1.7266565561294556,
          -0.06823898106813431,
          -0.1185065358877182,
          0.19361808896064758,
          0.6696506142616272,
          0.3186940848827362,
          -0.06635960936546326,
          0.809718132019043,
          -1.2818182706832886,
          0.4578220546245575,
          0.02270684950053692,
          0.09044545143842697,
          -0.0964038297533989
        ],
        [
          -0.08490758389234543,
          0.7934973239898682,
          0.057593367993831635,
          0.3422858715057373,
          1.1933064460754395,
          1.4103299379348755,
          0.2200336754322052,
          0.033249400556087494,
          -0.1386994570493698,
          1.4496310949325562,
          0.8155097961425781,
          0.3936881721019745,
          0.8005863428115845,
          1.4731587171554565,
          0.2931379973888397,
          0.8561392426490784,
          0.08716744929552078,
          0.41004690527915955,
          0.9910959005355835,
          1.59845769405365,
          -1.468644618988037,
          -0.9535189270973206,
          0.15325160324573517,
          1.387450098991394,
          0.9869325757026672,
          1.0005333423614502,
          0.2089306116104126,
          0.9040146470069885,
          0.5094939470291138,
          0.8302055597305298,
          0.05189642682671547,
          1.1363900899887085,
          0.11522113531827927,
          0.7059348821640015,
          0.6881974339485168,
          0.9212141036987305,
          0.02949489839375019,
          0.11741457879543304,
          0.2677989602088928,
          0.4100112020969391,
          0.6287903189659119,
          -0.9479603171348572,
          0.11920303106307983,
          0.13604824244976044,
          1.225220799446106,
          0.5455172061920166,
          0.7660266757011414,
          1.0453977584838867,
          0.5935693383216858,
          -0.8610042333602905,
          0.43783512711524963,
          0.726099967956543,
          0.18903514742851257,
          0.272245854139328,
          -0.21914424002170563,
          1.2487808465957642,
          0.8766614198684692,
          0.45883291959762573,
          0.5001029372215271,
          -1.1546640396118164,
          0.830825686454773,
          0.05148759484291077,
          0.004013692028820515,
          0.16454285383224487
        ],
        [
          -0.0007001625490374863,
          0.8351134061813354,
          0.008687646128237247,
          0.49998629093170166,
          1.2255672216415405,
          1.3244237899780273,
          0.12885244190692902,
          0.0825372263789177,
          -0.17172199487686157,
          1.4618010520935059,
          0.8664301633834839,
          0.3508562445640564,
          0.6359415054321289,
          1.624776005744934,
          0.24203172326087952,
          0.8590607643127441,
          0.13080409169197083,
          0.5810859799385071,
          0.9255231618881226,
          1.6098954677581787,
          -1.4003734588623047,
          -1.1549521684646606,
          0.0714125782251358,
          1.2832434177398682,
          1.1867927312850952,
          1.0878981351852417,
          0.14584346115589142,
          1.1598647832870483,
          0.49966317415237427,
          0.8098045587539673,
          0.05197984352707863,
          1.1125694513320923,
          0.20036129653453827,
          0.784010648727417,
          0.6986799240112305,
          1.1014353036880493,
          0.16360729932785034,
          -0.01572691649198532,
          0.49791356921195984,
          0.34107643365859985,
          0.918883204460144,
          -0.9937615990638733,
          -0.009473945945501328,
          0.1558821052312851,
          1.3643953800201416,
          0.6126761436462402,
          0.7106525897979736,
          1.0092967748641968,
          0.8433361053466797,
          -1.005839467048645,
          0.6500678062438965,
          0.8427879214286804,
          0.06694519519805908,
          0.2131352573633194,
          -0.24376602470874786,
          1.11930251121521,
          0.8164619207382202,
          0.38577792048454285,
          0.36604607105255127,
          -1.1606014966964722,
          0.8354462385177612,
          0.054706644266843796,
          -0.0515730120241642,
          0.14184027910232544
        ],
        [
          -0.06900182366371155,
          -0.006682754028588533,
          -0.03336155414581299,
          0.019540291279554367,
          -0.0035633521620184183,
          -0.07309380173683167,
          -0.05859806016087532,
          -0.009673093445599079,
          -0.07799816131591797,
          0.001764815766364336,
          -0.02032134123146534,
          0.040343545377254486,
          0.011342700570821762,
          0.0815848782658577,
          -0.020632127299904823,
          -0.10206084698438644,
          0.0396825447678566,
          -0.09679228812456131,
          -0.029246775433421135,
          -0.05155778303742409,
          -0.06138181686401367,
          -0.06038963049650192,
          0.0987151563167572,
          0.06019484996795654,
          0.01873197965323925,
          0.10688211023807526,
          -0.12395622581243515,
          0.008951356634497643,
          0.06276413798332214,
          0.07142091542482376,
          -0.11520705372095108,
          0.031974200159311295,
          -0.08735822886228561,
          -0.020338378846645355,
          -0.03902840614318848,
          -0.11738511174917221,
          -0.1356838047504425,
          -0.09219809621572495,
          0.056721314787864685,
          0.04359164088964462,
          -0.12202195078134537,
          -0.05895332992076874,
          -0.00750694191083312,
          -0.1184280514717102,
          0.05836605280637741,
          0.09707628935575485,
          0.01113769318908453,
          -0.10609694570302963,
          0.014549295417964458,
          0.029986318200826645,
          0.08452645689249039,
          -0.07787777483463287,
          -0.12870733439922333,
          0.03916531056165695,
          -0.0006330039468593895,
          -0.052851587533950806,
          -0.06712088733911514,
          -0.07901781797409058,
          0.08700313419103622,
          -0.03436065837740898,
          0.07590460032224655,
          0.09612633287906647,
          0.007749117445200682,
          0.010558586567640305
        ],
        [
          -0.0029172757640480995,
          0.8930455446243286,
          -0.04012064263224602,
          0.4642074704170227,
          1.2521828413009644,
          1.3609753847122192,
          0.13333560526371002,
          0.09828497469425201,
          -0.18673169612884521,
          1.4542657136917114,
          0.5944839119911194,
          0.22741475701332092,
          0.6493813395500183,
          1.4498807191848755,
          0.25008484721183777,
          0.7617887258529663,
          0.19985105097293854,
          0.6259481906890869,
          0.8938632607460022,
          1.44153892993927,
          -1.4662154912948608,
          -1.0569289922714233,
          0.06379028409719467,
          1.2235673666000366,
          0.9345069527626038,
          0.9504374265670776,
          0.1994597464799881,
          1.0973987579345703,
          0.6049890518188477,
          0.8042276501655579,
          0.041865065693855286,
          0.9265584945678711,
          0.12891583144664764,
          0.6155443787574768,
          0.613397479057312,
          0.9850684404373169,
          0.10699258744716644,
          0.15371102094650269,
          0.28722822666168213,
          0.5066368579864502,
          0.7397401332855225,
          -0.899497926235199,
          0.1230713427066803,
          0.1954411417245865,
          1.3986082077026367,
          0.6982865333557129,
          0.8070123791694641,
          0.8999675512313843,
          0.7707514762878418,
          -0.8681566119194031,
          0.60307776927948,
          0.7914077043533325,
          0.10373710095882416,
          0.12633435428142548,
          -0.13180789351463318,
          1.1981548070907593,
          0.826617419719696,
          0.42944759130477905,
          0.47209224104881287,
          -1.0240042209625244,
          0.7744140028953552,
          0.10496774315834045,
          -0.021458260715007782,
          0.05326400697231293
        ],
        [
          0.018854552879929543,
          0.8028168082237244,
          0.006521746050566435,
          0.3899528384208679,
          1.2492578029632568,
          1.4356966018676758,
          0.18324652314186096,
          0.26750120520591736,
          -0.153614804148674,
          1.4378434419631958,
          0.7661458849906921,
          0.346326619386673,
          0.5944910645484924,
          1.4358805418014526,
          0.1806608885526657,
          0.7866067290306091,
          0.25738248229026794,
          0.5747644901275635,
          1.081733226776123,
          1.5603221654891968,
          -1.4810609817504883,
          -1.0810658931732178,
          0.06276790797710419,
          1.2728445529937744,
          1.0994921922683716,
          1.004271149635315,
          0.23776039481163025,
          0.9608431458473206,
          0.5073333382606506,
          0.8157680034637451,
          0.015329570509493351,
          1.061585783958435,
          0.07779320329427719,
          0.7560200095176697,
          0.5880675315856934,
          1.0278114080429077,
          0.033213041722774506,
          0.034594688564538956,
          0.3911423683166504,
          0.4001308083534241,
          0.6667795777320862,
          -0.9067469239234924,
          0.10677175223827362,
          0.10073399543762207,
          1.2794177532196045,
          0.6603915095329285,
          0.6228541731834412,
          0.9784268736839294,
          0.7146434187889099,
          -0.8539038896560669,
          0.5523900389671326,
          0.7443481087684631,
          0.10730524361133575,
          0.2746027708053589,
          -0.19288088381290436,
          1.2571287155151367,
          0.8535956144332886,
          0.3889864981174469,
          0.4389987587928772,
          -1.21943199634552,
          0.834191620349884,
          0.05471271649003029,
          -0.09986808151006699,
          0.2380172163248062
        ],
        [
          -0.2919464111328125,
          1.0362688302993774,
          -0.19265128672122955,
          0.34626033902168274,
          1.3921928405761719,
          1.4452967643737793,
          0.0035684958565980196,
          0.08124721795320511,
          -0.4319799244403839,
          1.5877784490585327,
          0.4629244804382324,
          0.3896322548389435,
          0.6473025679588318,
          1.4738812446594238,
          0.2787432372570038,
          -0.1253969967365265,
          0.06198692321777344,
          0.4944470226764679,
          1.228908658027649,
          1.6116647720336914,
          -2.444862127304077,
          -2.0074055194854736,
          0.13484026491641998,
          1.4239270687103271,
          1.2329736948013306,
          0.9880272150039673,
          0.09135553985834122,
          0.9526348114013672,
          0.5932372212409973,
          1.0745104551315308,
          -0.09174886345863342,
          1.0607390403747559,
          -0.08916915208101273,
          0.8057056069374084,
          0.5570625066757202,
          0.9505789875984192,
          -0.21152326464653015,
          -0.006761039141565561,
          0.13329800963401794,
          0.36910852789878845,
          -0.08851407468318939,
          -1.9961729049682617,
          -0.09708459675312042,
          0.028836281970143318,
          1.434712290763855,
          0.6871817111968994,
          0.3684309124946594,
          0.9316937327384949,
          0.7608652114868164,
          -1.9324291944503784,
          0.5185887217521667,
          0.06214931234717369,
          -0.0303953904658556,
          0.04759625717997551,
          -0.2858636975288391,
          1.1651697158813477,
          0.9379996657371521,
          0.35503602027893066,
          0.44487088918685913,
          -1.8796368837356567,
          0.916141927242279,
          -0.014210298657417297,
          -0.12242639809846878,
          0.07068084925413132
        ],
        [
          -0.12009301036596298,
          -0.0051522161811590195,
          -0.09555014222860336,
          0.08008062094449997,
          -0.006252855062484741,
          -0.05504005402326584,
          -0.07277070730924606,
          0.03451531380414963,
          -0.08742160350084305,
          0.03256748244166374,
          0.04282194748520851,
          0.06475651264190674,
          0.02425447851419449,
          -0.10942110419273376,
          0.08108694851398468,
          -0.06564901024103165,
          -0.05783294513821602,
          -0.01898869127035141,
          0.07628587633371353,
          0.08284364640712738,
          0.005121181253343821,
          0.0433640219271183,
          -0.1250392496585846,
          0.00029528141021728516,
          -0.12265842407941818,
          0.01682516746222973,
          -0.09907266497612,
          -0.06683450937271118,
          0.07869484275579453,
          0.10256791114807129,
          -0.08362273126840591,
          -0.09443976730108261,
          0.006897295825183392,
          0.025937575846910477,
          -0.04098629951477051,
          -0.06385829299688339,
          -0.09080422669649124,
          0.04481811448931694,
          0.09665980190038681,
          -0.08442336320877075,
          0.03338276967406273,
          0.050959426909685135,
          0.09195954352617264,
          -0.023466402664780617,
          -0.01356290653347969,
          0.08316320925951004,
          0.05300914868712425,
          0.11524194478988647,
          -0.0443076491355896,
          0.02729896642267704,
          0.06831814348697662,
          -0.11020941287279129,
          0.016234086826443672,
          -0.0365896038711071,
          0.06987334042787552,
          -0.08111739158630371,
          -0.008883743546903133,
          0.05042903497815132,
          -0.12649498879909515,
          -0.12019995599985123,
          -0.07651355117559433,
          0.07163043320178986,
          0.07471597194671631,
          -0.09544775635004044
        ],
        [
          0.06201649457216263,
          -1.0324169397354126,
          0.09141721576452255,
          0.4369015693664551,
          -1.0119630098342896,
          -0.48498159646987915,
          -0.09751581400632858,
          -0.09544165432453156,
          0.5427864193916321,
          -1.2176450490951538,
          -0.4037361145019531,
          -0.29919373989105225,
          -0.11760778725147247,
          -0.7463476657867432,
          -0.16799458861351013,
          -0.09571148455142975,
          0.9242790937423706,
          0.39166259765625,
          -1.1440300941467285,
          -0.6937287449836731,
          2.687856912612915,
          2.4503743648529053,
          0.02122807875275612,
          -0.3739880323410034,
          -0.520650327205658,
          -0.41624918580055237,
          0.08884736150503159,
          -0.4128779470920563,
          -0.012706584297120571,
          -1.0192525386810303,
          0.677708089351654,
          -0.054918572306632996,
          0.3162006437778473,
          -0.3819964826107025,
          0.44274523854255676,
          -0.8209500312805176,
          0.36189672350883484,
          0.18924301862716675,
          0.43242204189300537,
          0.40000760555267334,
          0.20270240306854248,
          2.2544045448303223,
          0.27438852190971375,
          -0.17427054047584534,
          -0.8026702404022217,
          -0.7877638936042786,
          -0.44063088297843933,
          -0.6255727410316467,
          -0.362979531288147,
          2.0523276329040527,
          0.1895175278186798,
          -0.29552721977233887,
          0.4877816438674927,
          -0.1891692578792572,
          0.4491579830646515,
          -1.038777470588684,
          -0.07172442227602005,
          0.006268896162509918,
          0.40628311038017273,
          2.522808790206909,
          -0.4083382189273834,
          -0.018094481900334358,
          0.33869343996047974,
          0.04001036286354065
        ],
        [
          -0.12030013650655746,
          0.9779571294784546,
          0.0621725395321846,
          0.37814992666244507,
          1.2703766822814941,
          1.2311851978302002,
          0.23332037031650543,
          0.11541711539030075,
          -0.27049916982650757,
          1.3335624933242798,
          0.8026397228240967,
          0.31017380952835083,
          0.6936292052268982,
          1.4948704242706299,
          0.155783012509346,
          0.7933548092842102,
          0.31926295161247253,
          0.4611275792121887,
          1.0165351629257202,
          1.4584518671035767,
          -1.5285675525665283,
          -0.9306631684303284,
          0.15713323652744293,
          1.481864333152771,
          1.0534416437149048,
          0.8841190338134766,
          0.05481373518705368,
          1.1279006004333496,
          0.4348732531070709,
          0.9476099014282227,
          0.05052867904305458,
          1.068214774131775,
          0.1522456258535385,
          0.7319357991218567,
          0.6528360843658447,
          0.8997154831886292,
          0.031084459275007248,
          0.1994773894548416,
          0.39230507612228394,
          0.4094369411468506,
          0.7347010970115662,
          -1.0907807350158691,
          0.18032829463481903,
          0.114311583340168,
          1.3553367853164673,
          0.7285245060920715,
          0.854310154914856,
          0.9069345593452454,
          0.6852128505706787,
          -0.8528643250465393,
          0.6248254776000977,
          0.673189640045166,
          -0.04973653703927994,
          0.20438814163208008,
          -0.0757329985499382,
          1.230907678604126,
          0.9234200716018677,
          0.3879773020744324,
          0.46751120686531067,
          -1.2447530031204224,
          0.9584402441978455,
          0.20723752677440643,
          0.020627686753869057,
          0.24843516945838928
        ],
        [
          -0.07237697392702103,
          0.6994534134864807,
          -0.04837304353713989,
          0.4888531565666199,
          1.3237351179122925,
          1.220577597618103,
          0.19625256955623627,
          0.2618198096752167,
          -0.29356101155281067,
          1.483383297920227,
          0.7212334871292114,
          0.3294376730918884,
          0.7880566120147705,
          1.6081856489181519,
          0.2559087872505188,
          0.8741148114204407,
          0.25902336835861206,
          0.5320256948471069,
          0.8390635848045349,
          1.5384055376052856,
          -1.460270643234253,
          -0.8856343030929565,
          0.1750381886959076,
          1.3439693450927734,
          0.958600640296936,
          0.8587632775306702,
          0.2187713086605072,
          1.0492888689041138,
          0.5648295283317566,
          0.7808129787445068,
          -0.007078059483319521,
          0.9842846989631653,
          0.16605085134506226,
          0.6816055774688721,
          0.6393128037452698,
          1.054579257965088,
          -0.04701146483421326,
          0.11083269864320755,
          0.33704039454460144,
          0.334073007106781,
          0.7691664695739746,
          -0.9345451593399048,
          0.2176903635263443,
          0.04149465262889862,
          1.378641963005066,
          0.5391871333122253,
          0.6491777896881104,
          0.9301180243492126,
          0.7897735238075256,
          -0.8207057118415833,
          0.4306781589984894,
          0.7417349815368652,
          0.0008528983453288674,
          0.18169647455215454,
          -0.22497166693210602,
          1.1308778524398804,
          0.894939124584198,
          0.3494749069213867,
          0.25989389419555664,
          -1.0575110912322998,
          0.8745662569999695,
          0.09287774562835693,
          0.09994295239448547,
          0.055877868086099625
        ],
        [
          -0.019336102530360222,
          -0.4428384304046631,
          0.09621303528547287,
          0.2217951864004135,
          -0.3643642067909241,
          -0.7870715260505676,
          0.12408791482448578,
          -0.02330380491912365,
          0.14432521164417267,
          -0.2574995756149292,
          -2.960448980331421,
          -0.006431653629988432,
          -0.24362275004386902,
          -0.6215028166770935,
          -0.017121942713856697,
          -1.7140281200408936,
          0.28145259618759155,
          0.01262306421995163,
          -0.42530468106269836,
          -0.6417014002799988,
          1.7303842306137085,
          1.3976624011993408,
          0.16535913944244385,
          -0.7210925817489624,
          -0.17378999292850494,
          -0.12790416181087494,
          -0.015178743749856949,
          -0.2822131812572479,
          0.0989951565861702,
          -0.4407309889793396,
          0.04679771885275841,
          -0.41794246435165405,
          0.06398903578519821,
          0.024701159447431564,
          -1.2620435953140259,
          -0.12174489349126816,
          0.05754293128848076,
          0.09440524131059647,
          -1.5444692373275757,
          0.30907735228538513,
          -0.8803958892822266,
          1.0177706480026245,
          0.02570689283311367,
          0.05894242599606514,
          -0.5576268434524536,
          -0.5734714865684509,
          -3.2668039798736572,
          -0.18177388608455658,
          -0.2614400088787079,
          1.1157138347625732,
          0.26989391446113586,
          -2.586033344268799,
          0.030897188931703568,
          0.009272010996937752,
          0.011022944934666157,
          -0.247000589966774,
          -0.08645794540643692,
          0.1356840878725052,
          0.22451390326023102,
          2.012540578842163,
          -0.061088841408491135,
          0.10640238970518112,
          0.17882245779037476,
          0.2432977259159088
        ],
        [
          0.5399447679519653,
          -0.5991174578666687,
          -0.839935839176178,
          -1.7085366249084473,
          -1.258683204650879,
          -0.7031463980674744,
          -0.19976471364498138,
          -0.47351232171058655,
          0.8542489409446716,
          -0.7602404952049255,
          0.9570751786231995,
          -0.24901197850704193,
          -0.4159033000469208,
          -0.07458370178937912,
          0.02395998127758503,
          1.7480778694152832,
          0.8385645151138306,
          -0.4288671016693115,
          -0.16573408246040344,
          -0.10321882367134094,
          -1.3109118938446045,
          -2.40720534324646,
          -0.07193618267774582,
          0.01776072382926941,
          -0.11936751008033752,
          -0.36070767045021057,
          -0.7824065685272217,
          0.9821457266807556,
          2.120399236679077,
          -0.8353235125541687,
          0.22500935196876526,
          -0.44976353645324707,
          -0.6761079430580139,
          0.16994613409042358,
          0.34240850806236267,
          -1.4489775896072388,
          -0.8866626024246216,
          -0.8111159205436707,
          0.7039886116981506,
          -1.209473967552185,
          0.631855309009552,
          -0.595812201499939,
          0.1846158355474472,
          -0.7898181080818176,
          -0.08055000007152557,
          0.09676336497068405,
          1.6170819997787476,
          -0.21872444450855255,
          -0.6163178086280823,
          1.0462316274642944,
          -0.454876184463501,
          1.4191551208496094,
          -0.36506298184394836,
          -0.2929966151714325,
          0.737817108631134,
          -0.278102308511734,
          -0.3108401894569397,
          -0.03009391389787197,
          1.5348206758499146,
          -0.9699482917785645,
          -1.2465308904647827,
          0.20846517384052277,
          0.7553489208221436,
          -0.7427705526351929
        ],
        [
          0.04268630966544151,
          0.011615261435508728,
          -0.04072074964642525,
          0.03936649113893509,
          0.038628436625003815,
          -0.11907736212015152,
          -0.08916880935430527,
          -0.011187974363565445,
          0.03194781765341759,
          0.04933629930019379,
          -0.08798715472221375,
          -0.13935433328151703,
          -0.02203976921737194,
          -0.01951839029788971,
          0.020881781354546547,
          -0.05822724476456642,
          0.07244650274515152,
          -0.007228432223200798,
          0.07600711286067963,
          -0.10431431233882904,
          0.02731003239750862,
          -0.006554983556270599,
          -0.07783639430999756,
          0.061968475580215454,
          -0.1414218246936798,
          0.09505289047956467,
          -0.005264533217996359,
          0.004574145190417767,
          0.04239339008927345,
          -0.0048875343054533005,
          0.038015250116586685,
          0.05949195846915245,
          -0.1129692941904068,
          0.0630391463637352,
          -0.04841972142457962,
          -0.04475875198841095,
          0.009571383707225323,
          0.08243922889232635,
          -0.07969947159290314,
          -0.10192536562681198,
          0.05477052927017212,
          -0.07538111507892609,
          0.02487809956073761,
          -0.03375506401062012,
          0.01695403829216957,
          0.08012524247169495,
          -0.07659554481506348,
          -0.07497990876436234,
          0.04619001969695091,
          -0.017055056989192963,
          -0.03439704701304436,
          -0.122299924492836,
          0.0905313715338707,
          -0.02002430520951748,
          -0.038406822830438614,
          -0.06525193899869919,
          -0.045800089836120605,
          0.042582105845212936,
          -0.019714605063199997,
          0.08835822343826294,
          -0.022994931787252426,
          -0.033239614218473434,
          0.055180974304676056,
          -0.018946150317788124
        ],
        [
          -0.0162429828196764,
          0.8517960906028748,
          0.17133955657482147,
          0.43246036767959595,
          1.3644505739212036,
          1.4061509370803833,
          0.17168740928173065,
          0.19164910912513733,
          -0.12994621694087982,
          1.4016425609588623,
          0.7846546173095703,
          0.4270505905151367,
          0.7244722247123718,
          1.5053651332855225,
          0.31431230902671814,
          0.6389362215995789,
          0.3032149076461792,
          0.5703809857368469,
          1.0306363105773926,
          1.511777400970459,
          -1.4833850860595703,
          -0.8446425795555115,
          0.09908995777368546,
          1.3888381719589233,
          1.1177805662155151,
          0.8036642074584961,
          0.13337315618991852,
          0.9373485445976257,
          0.5908243656158447,
          0.7311007380485535,
          0.09345191717147827,
          1.0872822999954224,
          0.15016788244247437,
          0.8453223705291748,
          0.5838290452957153,
          0.845383882522583,
          0.15655717253684998,
          0.12127464264631271,
          0.3525034487247467,
          0.26864245533943176,
          0.6738489866256714,
          -0.9946449995040894,
          0.23196637630462646,
          0.2082129418849945,
          1.412615418434143,
          0.7379008531570435,
          0.6339266300201416,
          0.8733677864074707,
          0.6478165984153748,
          -0.9309836030006409,
          0.6198265552520752,
          0.7371068000793457,
          0.17665188014507294,
          0.16952675580978394,
          -0.23012875020503998,
          1.126059889793396,
          0.8914172649383545,
          0.5288673043251038,
          0.4133071303367615,
          -1.1312750577926636,
          0.7328832149505615,
          0.05024370923638344,
          0.05640008673071861,
          0.07812964916229248
        ],
        [
          0.05265437439084053,
          0.8606309294700623,
          0.013883239589631557,
          0.4872448146343231,
          1.2353752851486206,
          1.296681523323059,
          0.06887737661600113,
          0.009818989783525467,
          -0.18250532448291779,
          1.425700068473816,
          0.6481516361236572,
          0.4011920094490051,
          0.5523411631584167,
          1.3619260787963867,
          0.12481924891471863,
          0.73600172996521,
          0.1941864788532257,
          0.49622583389282227,
          1.0194448232650757,
          1.4018473625183105,
          -1.3717962503433228,
          -0.9527537226676941,
          0.17024652659893036,
          1.4516427516937256,
          1.1137393712997437,
          0.8645312190055847,
          0.02412642352283001,
          0.9630679488182068,
          0.43837180733680725,
          0.8852909207344055,
          0.00842222012579441,
          1.1135557889938354,
          0.12320347875356674,
          0.720547080039978,
          0.5537924766540527,
          0.9986193180084229,
          0.0487465001642704,
          0.19921931624412537,
          0.2687986493110657,
          0.4717141389846802,
          0.640942394733429,
          -1.0355364084243774,
          0.06871803849935532,
          0.17352549731731415,
          1.4106608629226685,
          0.6963133215904236,
          0.7028042674064636,
          0.9249295592308044,
          0.6439379453659058,
          -0.9125681519508362,
          0.5319808125495911,
          0.8384386897087097,
          0.12720410525798798,
          0.06964422762393951,
          -0.15507808327674866,
          1.0874998569488525,
          0.7884426116943359,
          0.36945125460624695,
          0.41998034715652466,
          -1.176536202430725,
          0.9898199439048767,
          0.18898272514343262,
          -0.10902669280767441,
          0.019836977124214172
        ],
        [
          0.0003582707140594721,
          0.8059072494506836,
          0.1089431419968605,
          0.34522250294685364,
          1.3423824310302734,
          1.2113350629806519,
          0.07061834633350372,
          0.07739171385765076,
          -0.1314420849084854,
          1.4013922214508057,
          0.6086745262145996,
          0.25809937715530396,
          0.6305413246154785,
          1.3751046657562256,
          0.23198841512203217,
          0.86783766746521,
          0.1909610629081726,
          0.48502087593078613,
          0.9783037900924683,
          1.4343864917755127,
          -1.4618744850158691,
          -0.9439065456390381,
          0.2671029567718506,
          1.2977955341339111,
          1.1180217266082764,
          0.893264889717102,
          0.09797884523868561,
          0.8906179070472717,
          0.6214882135391235,
          0.9761903882026672,
          0.015651065856218338,
          1.1056207418441772,
          0.18470130860805511,
          0.8116881847381592,
          0.6360126733779907,
          0.8637998700141907,
          -0.043648507446050644,
          0.012711627408862114,
          0.399658739566803,
          0.31490403413772583,
          0.6459746956825256,
          -0.9682844281196594,
          -0.014549843035638332,
          0.11980832368135452,
          1.3639570474624634,
          0.605158269405365,
          0.8136992454528809,
          0.898984968662262,
          0.6753640174865723,
          -0.7985836267471313,
          0.6588017344474792,
          0.7461866736412048,
          -0.015542162582278252,
          0.11985567957162857,
          -0.11982300877571106,
          1.2542282342910767,
          0.8878788948059082,
          0.4210563600063324,
          0.2841903567314148,
          -1.1999186277389526,
          0.8417395353317261,
          0.11619754135608673,
          -0.0742306038737297,
          0.045195434242486954
        ],
        [
          -0.007050543092191219,
          -0.11933142691850662,
          -0.11662609875202179,
          -0.12312574684619904,
          -0.04715460538864136,
          0.09454021602869034,
          0.02842007204890251,
          -0.03519975021481514,
          0.005129160359501839,
          0.04977613687515259,
          -0.01707964390516281,
          -0.12115475535392761,
          -0.09803001582622528,
          -0.1008816510438919,
          -0.023571299389004707,
          -0.1385265588760376,
          -0.04732409119606018,
          -0.06620786339044571,
          0.10257326811552048,
          0.08593367785215378,
          0.0511215403676033,
          -0.01062818057835102,
          -0.06088382378220558,
          0.0153774693608284,
          -0.10453163087368011,
          -0.06852748245000839,
          -0.04560680314898491,
          -0.04684566706418991,
          -0.1388864666223526,
          0.030150828883051872,
          0.08177158236503601,
          -0.08191443979740143,
          0.013028829358518124,
          -0.03208378702402115,
          -0.013409918174147606,
          -0.0061871567741036415,
          0.08735007792711258,
          -0.0036467432510107756,
          -0.09419519454240799,
          -0.06516970694065094,
          0.050110962241888046,
          0.01951204240322113,
          -0.018038321286439896,
          -0.03693835437297821,
          -0.06413976103067398,
          -0.06448563933372498,
          -0.17332716286182404,
          0.000889296701643616,
          0.014994928613305092,
          0.07005414366722107,
          -0.04836411774158478,
          -0.011764243245124817,
          0.06021880358457565,
          0.03398667275905609,
          -0.0044792527332901955,
          0.02726801484823227,
          -0.012255750596523285,
          -0.12588025629520416,
          -0.018081944435834885,
          -0.04261874035000801,
          0.09356517344713211,
          0.09245260804891586,
          0.004259252455085516,
          0.09093007445335388
        ],
        [
          -0.06603574752807617,
          0.9771909713745117,
          0.18000353872776031,
          0.4282335937023163,
          1.1927306652069092,
          1.2786381244659424,
          0.10763953626155853,
          0.14660286903381348,
          -0.31231003999710083,
          1.433504581451416,
          0.6858668327331543,
          0.3234277665615082,
          0.6263673901557922,
          1.479145884513855,
          0.11470927298069,
          0.7706387042999268,
          0.21836163103580475,
          0.6146856546401978,
          1.1191332340240479,
          1.4450721740722656,
          -1.3375273942947388,
          -1.0317738056182861,
          0.05672677606344223,
          1.335542917251587,
          0.988671600818634,
          0.8431012630462646,
          0.024296080693602562,
          0.9288028478622437,
          0.6334255933761597,
          0.9568846225738525,
          -0.03689231723546982,
          0.9518912434577942,
          -0.012509637512266636,
          0.6837484836578369,
          0.5334377288818359,
          1.0604877471923828,
          0.1177363246679306,
          0.05486590415239334,
          0.4638842046260834,
          0.35107263922691345,
          0.6475307941436768,
          -0.9054380655288696,
          0.020825624465942383,
          0.1607484370470047,
          1.4557212591171265,
          0.6415148377418518,
          0.6284679770469666,
          1.005685567855835,
          0.5981112718582153,
          -0.8010013103485107,
          0.4987425208091736,
          0.8414164185523987,
          -0.026217754930257797,
          0.10755670070648193,
          -0.13233472406864166,
          1.2260929346084595,
          0.9280138611793518,
          0.5843400359153748,
          0.40076905488967896,
          -1.1082247495651245,
          0.911864697933197,
          0.08261767774820328,
          -0.01691383495926857,
          0.03926845267415047
        ],
        [
          -0.11418197304010391,
          0.06464403867721558,
          -0.09459131956100464,
          0.07046818733215332,
          -0.007629585452377796,
          0.006465455051511526,
          0.09372317790985107,
          -0.07927796989679337,
          -0.0268644280731678,
          0.0015924364561215043,
          0.01904229447245598,
          -0.1398771107196808,
          0.014487691223621368,
          -0.0997399389743805,
          -0.010045068338513374,
          0.05342194810509682,
          -0.04270656034350395,
          -0.028468282893300056,
          -0.02861822210252285,
          0.07423520088195801,
          0.04160306602716446,
          -0.007645051926374435,
          -0.09520015865564346,
          -0.09113946557044983,
          0.06590170413255692,
          0.06936933100223541,
          0.05301595851778984,
          -0.11976727843284607,
          0.06855246424674988,
          -0.032077498733997345,
          0.06688661873340607,
          0.07946383953094482,
          -0.010233999229967594,
          -0.07954704761505127,
          0.05491163209080696,
          -0.09021881222724915,
          0.05751325562596321,
          -0.13369610905647278,
          -0.057923320680856705,
          -0.13388821482658386,
          -0.08790464699268341,
          0.027944045141339302,
          -0.10276709496974945,
          -0.12166792154312134,
          0.06301247328519821,
          0.04257281497120857,
          -0.022237783297896385,
          -0.10894206911325455,
          -0.051489055156707764,
          -0.07099184393882751,
          0.05047200620174408,
          -0.06406896561384201,
          -0.06024039164185524,
          -0.10754194110631943,
          -0.07558829337358475,
          0.04355277493596077,
          0.052580662071704865,
          -0.007915042340755463,
          -0.07272130250930786,
          0.09055035561323166,
          -0.0013282876461744308,
          -0.06716331094503403,
          -0.06024622917175293,
          -0.04435201361775398
        ],
        [
          0.06162967160344124,
          0.8821212649345398,
          0.16130304336547852,
          0.4146605432033539,
          1.3983862400054932,
          1.275094747543335,
          0.07789310812950134,
          0.09965534508228302,
          -0.3014070987701416,
          1.3253635168075562,
          0.5945063233375549,
          0.314503937959671,
          0.6929968595504761,
          1.4840720891952515,
          0.12279097735881805,
          0.8571134209632874,
          0.16866248846054077,
          0.5764622688293457,
          1.065362572669983,
          1.45496666431427,
          -1.451297640800476,
          -0.9303843975067139,
          0.27538326382637024,
          1.3400993347167969,
          1.1510347127914429,
          0.8413981795310974,
          0.045515026897192,
          1.1033011674880981,
          0.5031306147575378,
          0.9676395654678345,
          0.023189693689346313,
          0.9711365699768066,
          0.19852104783058167,
          0.8533938527107239,
          0.5859141945838928,
          0.9032477140426636,
          0.06320814043283463,
          0.048721153289079666,
          0.450316846370697,
          0.41137954592704773,
          0.751429557800293,
          -0.9173367619514465,
          0.14807561039924622,
          0.040683578699827194,
          1.4437072277069092,
          0.7506502866744995,
          0.6483336091041565,
          1.0418018102645874,
          0.7470820546150208,
          -0.947594940662384,
          0.44697731733322144,
          0.6977073550224304,
          -0.04902157559990883,
          0.24951621890068054,
          -0.04021911323070526,
          1.14554762840271,
          0.9337865114212036,
          0.4217032790184021,
          0.40554285049438477,
          -1.2158664464950562,
          0.8630424737930298,
          0.16546164453029633,
          0.03917912021279335,
          0.13173651695251465
        ],
        [
          -0.056846730411052704,
          0.9102441072463989,
          0.15438906848430634,
          0.4312204420566559,
          1.2287644147872925,
          1.352455735206604,
          0.13622108101844788,
          0.2615916430950165,
          -0.15840528905391693,
          1.4082579612731934,
          0.706547200679779,
          0.3848526179790497,
          0.6839034557342529,
          1.6188148260116577,
          0.2703860402107239,
          0.7101606130599976,
          0.2077912539243698,
          0.4117422103881836,
          0.8682333827018738,
          1.554556131362915,
          -1.3816492557525635,
          -0.9409586191177368,
          0.2728290259838104,
          1.29034423828125,
          1.0015084743499756,
          0.9108321666717529,
          0.12734685838222504,
          0.9824544191360474,
          0.6207678914070129,
          0.7744527459144592,
          -0.04869190230965614,
          1.0285499095916748,
          0.1744990199804306,
          0.7630049586296082,
          0.6391574144363403,
          0.9925657510757446,
          0.1749495267868042,
          0.18457241356372833,
          0.442166805267334,
          0.3816608488559723,
          0.59735506772995,
          -0.953629195690155,
          0.15128818154335022,
          0.20687705278396606,
          1.2825008630752563,
          0.7669916749000549,
          0.7397392988204956,
          0.9376903176307678,
          0.7095019817352295,
          -0.9230421781539917,
          0.6492131352424622,
          0.7396568655967712,
          0.15131957828998566,
          0.07160438597202301,
          -0.18986262381076813,
          1.185653805732727,
          0.9124351739883423,
          0.5167605876922607,
          0.41042962670326233,
          -1.2530122995376587,
          0.8617119789123535,
          0.033471278846263885,
          -0.11754877865314484,
          0.14813950657844543
        ],
        [
          -0.07908816635608673,
          0.1134548932313919,
          -0.06794272363185883,
          0.04028351604938507,
          0.07337035238742828,
          -0.0971546471118927,
          0.06397250294685364,
          -0.016737014055252075,
          0.06477034091949463,
          0.120966836810112,
          -0.05327068269252777,
          -0.05413798987865448,
          0.09931865334510803,
          0.01390005648136139,
          -0.012466594576835632,
          0.09483353793621063,
          -0.06039300560951233,
          -0.006172016263008118,
          0.08585947751998901,
          0.0488513708114624,
          -0.08085185289382935,
          0.03248956799507141,
          -0.09530459344387054,
          -0.0678841769695282,
          0.08037647604942322,
          -0.03331403434276581,
          -0.06366963684558868,
          0.008860290050506592,
          0.030546292662620544,
          -0.0777021050453186,
          -0.08429542183876038,
          -0.1210586428642273,
          0.03229793906211853,
          -0.08065368235111237,
          0.009526044130325317,
          -0.02795727550983429,
          -0.08173249661922455,
          -0.03988735377788544,
          -0.09608624875545502,
          -0.06616660952568054,
          -0.0038964003324508667,
          -0.10686439275741577,
          -0.10962916910648346,
          0.09363256394863129,
          0.011762261390686035,
          -0.05528172850608826,
          -0.00415608286857605,
          0.09269563853740692,
          -0.10428319871425629,
          -0.06627294421195984,
          -0.09039255976676941,
          -0.009087622165679932,
          -0.004301607608795166,
          -0.09741322696208954,
          0.0867604911327362,
          -0.09598997235298157,
          0.11670446395874023,
          -0.08604612946510315,
          -0.017130687832832336,
          0.02337336540222168,
          -0.0555596798658371,
          0.11495524644851685,
          -0.08617928624153137,
          -0.006928548216819763
        ],
        [
          -0.0922808051109314,
          0.904860258102417,
          0.18061165511608124,
          0.5427348017692566,
          1.33535635471344,
          1.2903329133987427,
          0.2617267072200775,
          0.157968208193779,
          -0.10897458344697952,
          1.3666815757751465,
          0.6726772785186768,
          0.2301669865846634,
          0.8245988488197327,
          1.5608516931533813,
          0.1285543292760849,
          0.8229935765266418,
          0.1709103137254715,
          0.5376366376876831,
          1.0562981367111206,
          1.503953456878662,
          -1.4303581714630127,
          -1.0947072505950928,
          0.18392108380794525,
          1.259045124053955,
          1.0980521440505981,
          1.080933928489685,
          0.2481670081615448,
          1.0701388120651245,
          0.6270683407783508,
          1.003082275390625,
          0.055301375687122345,
          1.0843106508255005,
          0.10035236179828644,
          0.8691595792770386,
          0.695427656173706,
          0.9409042596817017,
          0.06945909559726715,
          0.04904809221625328,
          0.4072987139225006,
          0.29473116993904114,
          0.8216322064399719,
          -1.0164622068405151,
          0.15460196137428284,
          0.16172359883785248,
          1.3081107139587402,
          0.7756109237670898,
          0.8120627999305725,
          0.8685208559036255,
          0.8622814416885376,
          -0.8223878741264343,
          0.6299670338630676,
          0.7450484037399292,
          0.12115129828453064,
          0.11772558093070984,
          -0.17960280179977417,
          1.2632548809051514,
          0.8925929665565491,
          0.5280240774154663,
          0.28358301520347595,
          -1.0491002798080444,
          0.8392482399940491,
          0.22691704332828522,
          0.08730949461460114,
          0.19126711785793304
        ],
        [
          0.12116053700447083,
          0.9342960715293884,
          0.14393845200538635,
          0.38257676362991333,
          1.42812979221344,
          1.363440990447998,
          0.2103600949048996,
          0.11591816693544388,
          -0.10681397467851639,
          1.5367012023925781,
          0.6230424046516418,
          0.43463221192359924,
          0.6175305843353271,
          1.4250627756118774,
          0.11245299875736237,
          0.6635398864746094,
          0.11861508339643478,
          0.4864872097969055,
          0.9422089457511902,
          1.584803819656372,
          -1.6921104192733765,
          -1.173020601272583,
          0.15713061392307281,
          1.361960530281067,
          1.0072635412216187,
          1.0021148920059204,
          0.04804651439189911,
          0.9171835780143738,
          0.5103572010993958,
          0.8100357055664062,
          0.09204473346471786,
          0.9509783387184143,
          0.07024755328893661,
          0.8133404850959778,
          0.4655180871486664,
          1.0916647911071777,
          0.012937488965690136,
          0.07510495185852051,
          0.2789037525653839,
          0.3686622977256775,
          0.4829297959804535,
          -1.1367512941360474,
          0.14833202958106995,
          0.1191311702132225,
          1.4828325510025024,
          0.7814450860023499,
          0.8392293453216553,
          1.0020275115966797,
          0.7920423150062561,
          -0.8906563520431519,
          0.6490210890769958,
          0.5879874229431152,
          0.04494022950530052,
          0.06195485219359398,
          -0.1366831362247467,
          1.1544451713562012,
          0.9382754564285278,
          0.49729123711586,
          0.3965288996696472,
          -1.3325557708740234,
          0.787538468837738,
          0.13394014537334442,
          -0.07969318330287933,
          0.0836712121963501
        ],
        [
          0.3569145202636719,
          -0.04929542541503906,
          -0.16039684414863586,
          -0.8764221668243408,
          -0.24885375797748566,
          -0.36755019426345825,
          0.026851262897253036,
          0.07202064245939255,
          0.36441874504089355,
          -0.7240811586380005,
          0.8514626622200012,
          -0.1965634524822235,
          0.33448326587677,
          -0.5035714507102966,
          0.041917696595191956,
          1.7319291830062866,
          -0.10154319554567337,
          0.11265856772661209,
          -0.06430719792842865,
          -0.6452581286430359,
          -1.8797575235366821,
          -1.3934667110443115,
          -0.11783485114574432,
          -0.03511328995227814,
          0.22166544198989868,
          -0.1710975468158722,
          -0.06463613361120224,
          1.0028455257415771,
          0.7222265601158142,
          -0.5763192772865295,
          0.055229127407073975,
          -0.521781861782074,
          -0.08467452228069305,
          -0.19123519957065582,
          -0.10535945743322372,
          0.17411747574806213,
          -0.3148607015609741,
          -0.11489808559417725,
          0.645095944404602,
          -0.681914746761322,
          0.39692118763923645,
          -0.8470167517662048,
          -0.07598817348480225,
          -0.08042629808187485,
          -0.6792801022529602,
          -0.3865594267845154,
          1.3232331275939941,
          0.11378558725118637,
          0.06569446623325348,
          0.13333673775196075,
          0.3627426326274872,
          1.5829459428787231,
          0.002781229093670845,
          -0.09276419878005981,
          0.3628903031349182,
          0.32037925720214844,
          0.6027769446372986,
          -0.009753274731338024,
          0.873620331287384,
          -1.4723153114318848,
          0.32457467913627625,
          0.009142317809164524,
          0.12407207489013672,
          -0.27545443177223206
        ],
        [
          -0.044904280453920364,
          0.7509927749633789,
          -0.04245159029960632,
          0.3173023462295532,
          1.1965200901031494,
          1.424981951713562,
          0.16200725734233856,
          0.03145604208111763,
          -0.24279753863811493,
          1.4181854724884033,
          0.6638372540473938,
          0.292651891708374,
          0.6321055889129639,
          1.4626989364624023,
          0.22666560113430023,
          0.7850178480148315,
          0.2800728976726532,
          0.5976547598838806,
          1.061303734779358,
          1.5107651948928833,
          -1.4355064630508423,
          -0.931475043296814,
          0.07262758165597916,
          1.3850626945495605,
          1.0297743082046509,
          0.8900299072265625,
          0.026077045127749443,
          1.0475925207138062,
          0.5776729583740234,
          0.946307897567749,
          -0.02785208635032177,
          1.0481024980545044,
          0.08743462711572647,
          0.654836893081665,
          0.48939624428749084,
          1.0282800197601318,
          -0.00023535882064606994,
          0.20147104561328888,
          0.40732792019844055,
          0.44935646653175354,
          0.7882073521614075,
          -0.8599833846092224,
          0.16005750000476837,
          0.18641874194145203,
          1.2655991315841675,
          0.5951154828071594,
          0.678106427192688,
          1.0005487203598022,
          0.7861543893814087,
          -0.8011741042137146,
          0.4937358498573303,
          0.7139192819595337,
          -0.01108506415039301,
          0.2588866353034973,
          -0.21095849573612213,
          1.1117292642593384,
          0.911157488822937,
          0.493416965007782,
          0.33435600996017456,
          -1.1712177991867065,
          0.7760407328605652,
          0.21600374579429626,
          -0.12568584084510803,
          0.24734866619110107
        ],
        [
          0.09689613431692123,
          0.8130519986152649,
          0.053049977868795395,
          0.4654003977775574,
          1.3290319442749023,
          1.4205143451690674,
          0.23247908055782318,
          0.06111771985888481,
          -0.10649841278791428,
          1.4482228755950928,
          0.47619718313217163,
          0.3621966242790222,
          0.6086066961288452,
          1.4102659225463867,
          0.19947677850723267,
          -0.2543505132198334,
          0.16067345440387726,
          0.409761905670166,
          1.0146369934082031,
          1.637243628501892,
          -1.8769557476043701,
          -1.5249589681625366,
          0.14190779626369476,
          1.223587155342102,
          0.9378399848937988,
          0.880946934223175,
          0.191494882106781,
          0.8866325616836548,
          0.47509995102882385,
          0.7418667078018188,
          -0.12133622914552689,
          0.9706974625587463,
          0.06409308314323425,
          0.6989429593086243,
          0.5532172322273254,
          0.9989781379699707,
          0.12171490490436554,
          0.15266084671020508,
          0.21975764632225037,
          0.40863847732543945,
          -0.16764605045318604,
          -1.2971227169036865,
          0.16152745485305786,
          0.05937611684203148,
          1.3145828247070312,
          0.5467483401298523,
          0.5011549592018127,
          0.9219470024108887,
          0.7099926471710205,
          -1.215785264968872,
          0.5231093168258667,
          0.17723548412322998,
          -0.0010116159683093429,
          0.25473859906196594,
          -0.24949301779270172,
          1.179422378540039,
          0.884493887424469,
          0.5276671051979065,
          0.37341201305389404,
          -1.5160845518112183,
          0.8493960499763489,
          0.06761226058006287,
          -0.053107310086488724,
          0.202965646982193
        ],
        [
          -0.0370267815887928,
          0.7094617486000061,
          -0.034993596374988556,
          0.4569254219532013,
          1.275499939918518,
          1.4353697299957275,
          0.15977263450622559,
          0.030656060203909874,
          -0.14470449090003967,
          1.4960426092147827,
          0.6763530969619751,
          0.34776511788368225,
          0.5766088366508484,
          1.423690915107727,
          0.2846696972846985,
          0.05089029669761658,
          0.22476227581501007,
          0.4795949161052704,
          0.9806796908378601,
          1.5212955474853516,
          -1.7369606494903564,
          -1.2549688816070557,
          0.2599759101867676,
          1.3582991361618042,
          1.101614236831665,
          0.8544833660125732,
          0.21748234331607819,
          0.9498261213302612,
          0.45216479897499084,
          0.8252074718475342,
          -0.04765712097287178,
          0.9567075967788696,
          0.05586392432451248,
          0.7142251133918762,
          0.46302860975265503,
          0.9907925128936768,
          -0.07134103029966354,
          0.18350829184055328,
          0.39612478017807007,
          0.3756367564201355,
          0.15186814963817596,
          -1.2632124423980713,
          0.16477005183696747,
          0.21863555908203125,
          1.42135488986969,
          0.6505208015441895,
          0.6553435921669006,
          1.0373549461364746,
          0.7053471803665161,
          -1.142600655555725,
          0.3804536759853363,
          0.4843272864818573,
          0.11843197047710419,
          0.2834377884864807,
          -0.18896520137786865,
          1.2090818881988525,
          0.7520129680633545,
          0.4058721661567688,
          0.4164140224456787,
          -1.364188551902771,
          0.9272757172584534,
          0.17183999717235565,
          -0.08903686702251434,
          0.17674680054187775
        ],
        [
          -0.06232772395014763,
          0.9522790312767029,
          0.018515141680836678,
          0.3541496694087982,
          1.3400516510009766,
          1.410718321800232,
          0.11293505877256393,
          0.06367277354001999,
          -0.2431391477584839,
          1.4972577095031738,
          0.7737046480178833,
          0.2803240418434143,
          0.6597566604614258,
          1.5313628911972046,
          0.28129833936691284,
          0.9933750033378601,
          0.20697128772735596,
          0.6101125478744507,
          1.1522356271743774,
          1.5467593669891357,
          -1.542340874671936,
          -1.032156229019165,
          0.2418121099472046,
          1.4043493270874023,
          1.006170392036438,
          1.0723434686660767,
          0.031108174473047256,
          1.1250076293945312,
          0.5730298757553101,
          1.0162231922149658,
          -0.1267855316400528,
          1.0435291528701782,
          0.12096722424030304,
          0.8995715379714966,
          0.5909575819969177,
          1.1558864116668701,
          0.03835204988718033,
          0.021697135642170906,
          0.35648292303085327,
          0.47465595602989197,
          0.7832397818565369,
          -0.9839351773262024,
          0.013330505229532719,
          0.0758235827088356,
          1.2920960187911987,
          0.8534441590309143,
          0.731251060962677,
          0.9206962585449219,
          0.7487176656723022,
          -1.0136287212371826,
          0.625214695930481,
          0.836458683013916,
          0.13278789818286896,
          0.14765989780426025,
          -0.22637951374053955,
          1.2108161449432373,
          0.892725944519043,
          0.6171200275421143,
          0.43246468901634216,
          -1.0952398777008057,
          1.0363185405731201,
          0.03204411640763283,
          -0.06313204765319824,
          0.10467080771923065
        ],
        [
          0.7469477653503418,
          -0.5413296222686768,
          -0.16385716199874878,
          -1.2823327779769897,
          -1.139823079109192,
          -1.0847851037979126,
          -0.236404150724411,
          -0.12068556249141693,
          0.9854565858840942,
          -1.2072007656097412,
          1.3731664419174194,
          -0.5687921643257141,
          -0.09281880408525467,
          -0.8024970293045044,
          -0.12410665303468704,
          1.902725338935852,
          0.17976254224777222,
          -0.22449882328510284,
          -0.3602680265903473,
          -0.7651025056838989,
          -1.5189704895019531,
          -1.6433616876602173,
          0.011272785253822803,
          -0.23331721127033234,
          -0.6014427542686462,
          -0.40135499835014343,
          -0.38558393716812134,
          1.0267951488494873,
          1.8497236967086792,
          -0.9040413498878479,
          -0.4024198055267334,
          -0.9230531454086304,
          -0.2607983648777008,
