{
  "layers": [
    {
      "weight": [
        [
          0.4995717704296112,
          0.5022964477539062,
          -0.6050016283988953,
          0.3646145761013031,
          -0.3415531814098358
        ],
        [
          1.3030858039855957,
          0.29881447553634644,
          0.22874684631824493,
          0.41384974122047424,
          -0.536454439163208
        ],
        [
          2.647862195968628,
          0.0287324208766222,
          0.026712484657764435,
          -0.018543565645813942,
          -0.6985205411911011
        ],
        [
          2.187833786010742,
          0.5089325308799744,
          -0.000265906797721982,
          -0.06180456653237343,
          -0.6923450231552124
        ],
        [
          -0.7153850197792053,
          0.11285635828971863,
          -0.4278290271759033,
          0.4318676292896271,
          -0.2011766880750656
        ],
        [
          -0.7820404767990112,
          -0.11699314415454865,
          -1.0563249588012695,
          0.1446443349123001,
          -0.3520819842815399
        ],
        [
          0.8743066191673279,
          -1.2826119661331177,
          0.11103344708681107,
          0.038926947861909866,
          -0.23840156197547913
        ],
        [
          0.038750242441892624,
          0.1860043704509735,
          0.6969159245491028,
          -0.0787554383277893,
          -0.14195573329925537
        ],
        [
          -0.5178976058959961,
          -0.11116794496774673,
          0.5452492237091064,
          0.15068292617797852,
          0.5184833407402039
        ],
        [
          0.49223828315734863,
          0.6647015810012817,
          0.21388696134090424,
          0.14080238342285156,
          -0.5430921912193298
        ],
        [
          -1.2164736986160278,
          -0.15963543951511383,
          -0.3162131607532501,
          0.10469695925712585,
          0.7951977849006653
        ],
        [
          2.538572311401367,
          0.010650848969817162,
          0.010654117912054062,
          -0.03478638082742691,
          -0.8018031716346741
        ],
        [
          -0.6309919357299805,
          -0.1595623642206192,
          0.47308266162872314,
          -0.27984893321990967,
          0.8507843017578125
        ],
        [
          -0.3574516773223877,
          0.45167601108551025,
          -0.5666128993034363,
          -0.12108568847179413,
          0.021950576454401016
        ],
        [
          2.6382644176483154,
          0.45986127853393555,
          0.022933969274163246,
          -0.057474445551633835,
          -0.8837465047836304
        ],
        [
          -1.1959924697875977,
          -0.27402204275131226,
          0.38483527302742004,
          0.12271513044834137,
          1.0848398208618164
        ],
        [
          -0.8295404314994812,
          -0.3707226514816284,
          0.49530836939811707,
          -0.03486498445272446,
          1.0902619361877441
        ],
        [
          -0.6413625478744507,
          0.2507651746273041,
          -0.5374760627746582,
          -0.14659008383750916,
          0.29308968782424927
        ],
        [
          0.31841686367988586,
          0.04541202634572983,
          0.49003076553344727,
          0.1559625267982483,
          -0.8174358010292053
        ],
        [
          -0.0456019826233387,
          0.8996385335922241,
          -0.40778863430023193,
          -0.2321721315383911,
          -1.3934179544448853
        ],
        [
          -1.1045969724655151,
          0.17277579009532928,
          -0.039537880569696426,
          -0.1312173306941986,
          0.357607364654541
        ],
        [
          -0.9287688136100769,
          -0.3086325526237488,
          -1.2144083976745605,
          -0.49272584915161133,
          -0.21664339303970337
        ],
        [
          2.414041519165039,
          0.34839901328086853,
          0.021034007892012596,
          -0.06542523205280304,
          -0.8358386158943176
        ],
        [
          -0.7754107117652893,
          -0.01113987062126398,
          -1.0197333097457886,
          -0.1911410242319107,
          -0.1683637797832489
        ],
        [
          -0.6959203481674194,
          0.025769708678126335,
          -0.010798223316669464,
          -0.12513232231140137,
          0.09943635761737823
        ],
        [
          -0.5369729399681091,
          0.1589028388261795,
          -0.4886761009693146,
          0.2546776831150055,
          -0.2472556233406067
        ],
        [
          2.516507387161255,
          0.4131234586238861,
          -0.002727213781327009,
          -0.02738194167613983,
          -0.6951146125793457
        ],
        [
          -0.7795090675354004,
          -0.22994813323020935,
          -0.6433521509170532,
          0.22012215852737427,
          0.40759608149528503
        ],
        [
          0.03972087427973747,
          -0.9834184646606445,
          0.828472375869751,
          -0.38533276319503784,
          0.44544216990470886
        ],
        [
          0.5591593384742737,
          0.4787410795688629,
          0.4413016736507416,
          0.20909126102924347,
          -0.30490583181381226
        ],
        [
          1.4895819425582886,
          -1.0326412916183472,
          -0.07353833317756653,
          -0.04213855415582657,
          -0.014269178733229637
        ],
        [
          1.0897356271743774,
          0.881019115447998,
          0.07418546825647354,
          0.14795120060443878,
          -0.37846285104751587
        ],
        [
          2.7541658878326416,
          0.030587811022996902,
          0.026389574632048607,
          -0.024521682411432266,
          -0.7573893666267395
        ],
        [
          1.0256893634796143,
          0.3579649329185486,
          0.38468456268310547,
          0.2043648511171341,
          -0.29825347661972046
        ],
        [
          -0.8938032984733582,
          -0.01649446040391922,
          1.6178022623062134,
          -0.4005545377731323,
          -0.7231363654136658
        ],
        [
          -0.5849939584732056,
          0.043664414435625076,
          0.6176735758781433,
          0.4813053011894226,
          -0.38491538166999817
        ],
        [
          2.3814139366149902,
          0.3853173851966858,
          0.01532304659485817,
          -0.02694481983780861,
          -0.6858485341072083
        ],
        [
          2.3942530155181885,
          -0.05712179094552994,
          0.008962505497038364,
          -0.01989082247018814,
          -0.7261626124382019
        ],
        [
          -0.6671701669692993,
          -0.020152416080236435,
          0.45510953664779663,
          0.17288073897361755,
          0.2931390106678009
        ],
        [
          2.319377899169922,
          0.3752264976501465,
          0.01507650688290596,
          -0.023444704711437225,
          -0.6389338374137878
        ],
        [
          -1.1356512308120728,
          -0.012641098350286484,
          1.1677801609039307,
          0.2957085371017456,
          -0.2104724496603012
        ],
        [
          -0.8619224429130554,
          -0.272531658411026,
          -0.6593741774559021,
          0.07297252118587494,
          0.8452499508857727
        ],
        [
          0.184010311961174,
          -0.031847354024648666,
          -0.8229371905326843,
          -0.19735600054264069,
          -0.07485535740852356
        ],
        [
          2.7493748664855957,
          -0.12554314732551575,
          0.001461022300645709,
          -0.0031614843755960464,
          -0.8498435616493225
        ],
        [
          0.0969744324684143,
          0.6812974214553833,
          -0.5343506932258606,
          -0.10575486719608307,
          -1.028444528579712
        ],
        [
          2.636547327041626,
          0.30229681730270386,
          0.0216213371604681,
          -0.06419166177511215,
          -0.8753821849822998
        ],
        [
          -1.3466075658798218,
          0.09211952239274979,
          0.20338036119937897,
          -0.007762548513710499,
          0.7887795567512512
        ],
        [
          -0.08254412561655045,
          0.044225260615348816,
          -0.6179961562156677,
          -0.15437772870063782,
          -0.348369300365448
        ],
        [
          0.9882233142852783,
          -1.8079687356948853,
          -0.4267215132713318,
          -0.3561937212944031,
          -0.7280324697494507
        ],
        [
          -0.8729128837585449,
          -0.09348981827497482,
          0.4375482201576233,
          -0.16950681805610657,
          0.5632445812225342
        ],
        [
          0.5524595975875854,
          -1.3199018239974976,
          0.016420835629105568,
          -0.21570676565170288,
          0.0522657111287117
        ],
        [
          -1.2546331882476807,
          0.04073495790362358,
          -0.2980925142765045,
          -0.0249731857329607,
          0.7403499484062195
        ],
        [
          0.22594478726387024,
          -0.8317480683326721,
          0.2989758849143982,
          -0.42554253339767456,
          0.3615476191043854
        ],
        [
          2.80715274810791,
          -0.23765632510185242,
          -0.011838488280773163,
          0.0285391453653574,
          -0.8585113286972046
        ],
        [
          -0.5028457641601562,
          -0.3064769208431244,
          0.5302067399024963,
          0.20166298747062683,
          0.7563835978507996
        ],
        [
          -0.6503118872642517,
          -0.14869384467601776,
          1.1646426916122437,
          0.4976254403591156,
          -0.6878078579902649
        ],
        [
          -0.8595280647277832,
          0.01581113412976265,
          0.07606332749128342,
          -0.1186646893620491,
          0.16673272848129272
        ],
        [
          -0.29066967964172363,
          -0.4225366413593292,
          0.44234341382980347,
          0.3354997932910919,
          0.20062975585460663
        ],
        [
          -0.6184054613113403,
          -0.11265707015991211,
          -0.6795369982719421,
          -0.36643239855766296,
          0.6271214485168457
        ],
        [
          -0.9518048763275146,
          -0.2825930714607239,
          -1.0634957551956177,
          -0.2849716544151306,
          -0.11131826043128967
        ],
        [
          2.2595067024230957,
          0.5660569667816162,
          -0.00810994952917099,
          -0.08967036008834839,
          -0.8044915199279785
        ],
        [
          2.417259693145752,
          -0.2344900220632553,
          -0.008700385689735413,
          0.03980737179517746,
          -0.7331770062446594
        ],
        [
          1.0386565923690796,
          -0.7625835537910461,
          -0.37408560514450073,
          -0.21687312424182892,
          0.13509812951087952
        ],
        [
          1.2437905073165894,
          0.5953534245491028,
          0.18372802436351776,
          -0.03914301097393036,
          -0.12754088640213013
        ]
      ],
      "bias": [
        1.2371755838394165,
        1.3439116477966309,
        1.45452880859375,
        1.4465410709381104,
        1.9991943836212158,
        1.6396583318710327,
        1.350563406944275,
        1.1323895454406738,
        1.3209311962127686,
        1.4499810934066772,
        2.1703948974609375,
        1.237567663192749,
        1.514663577079773,
        1.3771378993988037,
        1.5276638269424438,
        1.746498703956604,
        1.888715386390686,
        1.8302990198135376,
        1.3311489820480347,
        1.566690444946289,
        2.1359095573425293,
        1.8192518949508667,
        1.3081438541412354,
        1.6417912244796753,
        1.7677565813064575,
        1.7759286165237427,
        1.6036516427993774,
        1.9900392293930054,
        1.3649696111679077,
        1.644800066947937,
        1.6816262006759644,
        1.5699480772018433,
        1.484096646308899,
        1.6984971761703491,
        1.404672622680664,
        2.108440637588501,
        1.4778876304626465,
        1.1679927110671997,
        1.5487099885940552,
        1.4754493236541748,
        1.9566786289215088,
        1.924116849899292,
        1.1938233375549316,
        1.304002046585083,
        1.7261762619018555,
        1.4116201400756836,
        2.0043349266052246,
        1.5723552703857422,
        1.3298934698104858,
        2.061937093734741,
        1.8836627006530762,
        2.0954039096832275,
        1.3528732061386108,
        1.292446255683899,
        1.321885108947754,
        1.6981441974639893,
        2.1363441944122314,
        1.9143495559692383,
        2.0193917751312256,
        1.4697610139846802,
        1.4371241331100464,
        1.1064563989639282,
        1.737546682357788,
        1.9069545269012451
      ]
    },
    {
      "weight": [
        [
          0.3871232271194458,
          0.7133771777153015,
          0.37913358211517334,
          0.5046940445899963,
          1.2782078981399536,
          0.860194742679596,
          0.6013970971107483,
          0.4800216257572174,
          0.8574746251106262,
          0.8497958183288574,
          1.4119013547897339,
          0.38871490955352783,
          1.0770206451416016,
          0.930210530757904,
          0.5580499172210693,
          1.2711766958236694,
          1.3462660312652588,
          1.1688501834869385,
          0.8222347497940063,
          1.112059473991394,
          1.7951178550720215,
          0.5676366686820984,
          0.26377812027931213,
          0.906936526298523,
          1.2089067697525024,
          1.244915246963501,
          0.46725693345069885,
          1.3784972429275513,
          1.0893453359603882,
          0.7460043430328369,
          0.7416933178901672,
          0.7160994410514832,
          0.5025916695594788,
          0.8147063851356506,
          0.7956109642982483,
          1.0940557718276978,
          0.5124078989028931,
          0.3823431134223938,
          0.9470418095588684,
          0.6822431087493896,
          1.2518490552902222,
          1.5287189483642578,
          0.5018193125724792,
          0.3066200613975525,
          0.9684973359107971,
          0.5197458863258362,
          1.342866063117981,
          0.9574825763702393,
          0.8751927018165588,
          1.5222578048706055,
          1.0191705226898193,
          1.3645395040512085,
          0.7065931558609009,
          0.5307525396347046,
          0.7968508005142212,
          1.0223462581634521,
          1.4622224569320679,
          1.2489511966705322,
          1.1191335916519165,
          0.8152024149894714,
          0.8420332074165344,
          0.2884432077407837,
          0.4543740749359131,
          0.7063695788383484
        ],
        [
          -0.9576544165611267,
          -2.074212074279785,
          -3.3263449668884277,
          -3.7365856170654297,
          1.4433774948120117,
          1.6888374090194702,
          -1.9865082502365112,
          -0.3616987466812134,
          0.8521977066993713,
          -1.3815855979919434,
          1.5397037267684937,
          -3.701845407485962,
          1.081751823425293,
          -0.159910649061203,
          -3.625074863433838,
          2.4342517852783203,
          1.5534981489181519,
          -0.26734915375709534,
          -1.2538013458251953,
          0.036275219172239304,
          1.8047099113464355,
          1.9361635446548462,
          -3.7090656757354736,
          1.7308309078216553,
          1.5066158771514893,
          1.0742427110671997,
          -3.4562480449676514,
          1.5334491729736328,
          0.3071247935295105,
          -1.4708123207092285,
          -3.0816116333007812,
          -2.0540192127227783,
          -3.9099960327148438,
          -1.9736442565917969,
          1.7592504024505615,
          1.3805487155914307,
          -3.5699617862701416,
          -3.7922732830047607,
          1.4425653219223022,
          -3.751404285430908,
          2.0901854038238525,
          1.6797423362731934,
          -0.8836233019828796,
          -3.9410061836242676,
          -0.6016231179237366,
          -3.951845169067383,
          2.099416494369507,
          0.8945403695106506,
          -1.771843671798706,
          1.6922414302825928,
          -0.851955771446228,
          1.417605996131897,
          -1.0605298280715942,
          -4.286484718322754,
          0.9042023420333862,
          1.6235102415084839,
          1.5833698511123657,
          0.20092898607254028,
          0.5017277002334595,
          1.837651014328003,
          -2.6530706882476807,
          -3.6629130840301514,
          -2.069035530090332,
          -2.5130844116210938
        ],
        [
          0.40936213731765747,
          0.4899124503135681,
          0.38751256465911865,
          0.43106740713119507,
          1.294029712677002,
          0.7511792778968811,
          0.7074764370918274,
          0.5171231627464294,
          0.7400092482566833,
          0.850537121295929,
          1.3325984477996826,
          0.5233328938484192,
          1.2536537647247314,
          0.7923528552055359,
          0.5513249039649963,
          1.3366566896438599,
          1.3853819370269775,
          1.0769506692886353,
          0.8308963179588318,
          1.0238616466522217,
          1.7822322845458984,
          0.7804675102233887,
          0.4538044035434723,
          0.9457796812057495,
          1.1361547708511353,
          1.19032621383667,
          0.39899590611457825,
          1.5049970149993896,
          0.8762460947036743,
          0.674743115901947,
          0.6056631803512573,
          0.7796104550361633,
          0.6503621339797974,
          0.760913074016571,
          0.9373384118080139,
          1.2483829259872437,
          0.6009751558303833,
          0.37157103419303894,
          0.9956239461898804,
          0.6495139598846436,
          1.0973564386367798,
          1.5437215566635132,
          0.48342475295066833,
          0.32268431782722473,
          1.041458249092102,
          0.4904712438583374,
          1.3126262426376343,
          1.0791518688201904,
          1.0039955377578735,
          1.5485512018203735,
          1.0998743772506714,
          1.1504223346710205,
          0.6498808860778809,
          0.436594158411026,
          0.6914525628089905,
          0.924142062664032,
          1.3576666116714478,
          1.0181958675384521,
          1.0207023620605469,
          0.5702385306358337,
          0.6240735054016113,
          0.3872199058532715,
          0.6288242340087891,
          0.5486570596694946
        ],
        [
          -0.04608822986483574,
          0.050855603069067,
          -0.07742574065923691,
          -0.07428217679262161,
          0.06882645189762115,
          -0.1144714504480362,
          -0.001084427465684712,
          0.09447432309389114,
          0.010915366001427174,
          0.020162152126431465,
          -0.08551311492919922,
          -0.01721847802400589,
          -0.0041610137559473515,
          0.030679285526275635,
          0.03267556056380272,
          0.09774205833673477,
          -0.11045502126216888,
          -0.005479640327394009,
          -0.0783919245004654,
          -0.11216606944799423,
          -0.021195927634835243,
          -0.12290842831134796,
          0.07093638926744461,
          0.014476850628852844,
          -0.07630452513694763,
          0.057618431746959686,
          -0.13285529613494873,
          -0.04834990203380585,
          -0.04082199186086655,
          -0.12191192060709,
          -0.09386049956083298,
          -0.03573122248053551,
          0.07911974936723709,
          0.10499507933855057,
          0.0656452476978302,
          -0.0902593582868576,
          -0.0972999557852745,
          0.09643477946519852,
          0.02882280945777893,
          -0.01198512315750122,
          0.0020091012120246887,
          -0.10046209394931793,
          -0.041735678911209106,
          0.10526050627231598,
          -0.04491080716252327,
          -0.022078661248087883,
          -0.11743583530187607,
          -0.07548471540212631,
          -0.008557954803109169,
          -0.09248124808073044,
          -0.03121829964220524,
          0.04059645161032677,
          -0.13833820819854736,
          0.020952655002474785,
          -0.09639342129230499,
          -0.07631492614746094,
          0.03206822648644447,
          0.08371211588382721,
          -0.048097770661115646,
          -0.057666387408971786,
          -0.1287185400724411,
          -0.07883338630199432,
          -0.12061222642660141,
          -0.04432591795921326
        ],
        [
          0.01109661627560854,
          -0.14658060669898987,
          0.08781898021697998,
          0.05847730115056038,
          -0.15036296844482422,
          -0.08965320885181427,
          0.012731468304991722,
          -0.0469505712389946,
          -0.030936380848288536,
          -0.07993271201848984,
          0.075108103454113,
          -0.09129758924245834,
          0.07256922125816345,
          -0.011428256519138813,
          -0.0034255494829267263,
          0.06857763975858688,
          -0.05062162131071091,
          -0.09142284095287323,
          -0.04938226565718651,
          0.07422490417957306,
          -0.1198417916893959,
          -0.003590461565181613,
          -0.14976273477077484,
          0.04033232852816582,
          0.010812045074999332,
          -0.01867694780230522,
          0.03347864747047424,
          -0.02551596611738205,
          0.03585093095898628,
          -0.12423022091388702,
          -0.03987578675150871,
          0.026077134534716606,
          0.10277392715215683,
          0.03340619429945946,
          -0.1274254024028778,
          0.06432826071977615,
          -0.04764781519770622,
          -0.04291688650846481,
          -0.1377170979976654,
          -0.044400654733181,
          0.057871654629707336,
          -0.005646486766636372,
          -0.08838474005460739,
          0.020258046686649323,
          -0.06751715391874313,
          0.08813092112541199,
          -0.1258794367313385,
          -0.06824647635221481,
          -0.14512698352336884,
          -0.08224176615476608,
          0.008964302949607372,
          0.0994698777794838,
          -0.004229439422488213,
          0.09486357867717743,
          0.005133493337780237,
          0.040113501250743866,
          0.06768421828746796,
          0.07449329644441605,
          -0.09561029076576233,
          0.08549540489912033,
          0.04659293591976166,
          -0.0788072794675827,
          -0.07575911283493042,
          -0.12854820489883423
        ],
        [
          0.38763025403022766,
          0.4635724425315857,
          0.49836450815200806,
          0.5536479949951172,
          1.0440725088119507,
          0.877106785774231,
          0.58636075258255,
          0.5657903552055359,
          0.802594006061554,
          0.6234185695648193,
          1.4138514995574951,
          0.5327296257019043,
          1.1906815767288208,
          0.7623952627182007,
          0.4381401538848877,
          1.2497237920761108,
          1.2969826459884644,
          1.091070294380188,
          0.818066418170929,
          1.147788166999817,
          1.7144076824188232,
          0.6785523891448975,
          0.40394434332847595,
          0.8207988739013672,
          1.1034892797470093,
          1.088242769241333,
          0.5466024875640869,
          1.2493497133255005,
          0.8185088634490967,
          0.7277156710624695,
          0.6780630946159363,
          0.8322784900665283,
          0.41409000754356384,
          0.630676805973053,
          0.9076170921325684,
          1.2214385271072388,
          0.5538796186447144,
          0.4200170338153839,
          1.0362815856933594,
          0.6840877532958984,
          1.0212448835372925,
          1.3949801921844482,
          0.5827832221984863,
          0.3059037923812866,
          0.8862330317497253,
          0.5444894433021545,
          1.2526756525039673,
          0.9663437604904175,
          0.8507436513900757,
          1.3941181898117065,
          1.1700655221939087,
          1.1387214660644531,
          0.7173056602478027,
          0.5574875473976135,
          0.6899604797363281,
          1.076906442642212,
          1.367571473121643,
          1.0652753114700317,
          1.021981120109558,
          0.5954362154006958,
          0.550544798374176,
          0.4040118157863617,
          0.5338039994239807,
          0.444038063287735
        ],
        [
          0.268850177526474,
          0.6778392791748047,
          0.4822705388069153,
          0.553867757320404,
          1.0654219388961792,
          0.7770472764968872,
          0.5679042935371399,
          0.4793565273284912,
          0.6360856890678406,
          0.7477589249610901,
          1.2957209348678589,
          0.4036312699317932,
          1.1487369537353516,
          0.8178184032440186,
          0.5029128193855286,
          1.3234686851501465,
          1.2469828128814697,
          0.8823946118354797,
          0.8273151516914368,
          1.0641984939575195,
          1.6818500757217407,
          0.7443913221359253,
          0.29506975412368774,
          0.9983434677124023,
          1.2763608694076538,
          1.036411166191101,
          0.5307750105857849,
          1.2381776571273804,
          0.8445044159889221,
          0.6250416040420532,
          0.5147194266319275,
          0.8385289907455444,
          0.4709591567516327,
          0.7569723725318909,
          0.7218586802482605,
          1.1684666872024536,
          0.4295575022697449,
          0.29779818654060364,
          1.0029696226119995,
          0.6141305565834045,
          1.1956478357315063,
          1.362269401550293,
          0.426553875207901,
          0.40726137161254883,
          0.9742655754089355,
          0.49071866273880005,
          1.266396403312683,
          0.8850774168968201,
          0.9642675518989563,
          1.4726942777633667,
          1.005699634552002,
          1.2870606184005737,
          0.7660725712776184,
          0.5990784168243408,
          0.6946110129356384,
          0.8801767826080322,
          1.3762710094451904,
          1.0847011804580688,
          1.114713430404663,
          0.5918487906455994,
          0.7211213707923889,
          0.28296756744384766,
          0.5654950141906738,
          0.5426812171936035
        ],
        [
          0.24511176347732544,
          0.49748799204826355,
          0.3734526038169861,
          0.592690646648407,
          1.1005258560180664,
          0.8534930348396301,
          0.6230303049087524,
          0.4287256896495819,
          0.7859641313552856,
          0.6373680830001831,
          1.273449182510376,
          0.3195332884788513,
          1.118823528289795,
          0.846625030040741,
          0.5118883848190308,
          1.2880566120147705,
          1.41679847240448,
          1.184657096862793,
          0.8226849436759949,
          1.038493037223816,
          1.6865359544754028,
          0.7040226459503174,
          0.28562548756599426,
          1.0075366497039795,
          1.3273929357528687,
          1.2335294485092163,
          0.601353108882904,
          1.5294219255447388,
          0.9716489315032959,
          0.5818163156509399,
          0.744509756565094,
          0.692422091960907,
          0.4755173921585083,
          0.8479185104370117,
          0.9405634999275208,
          1.1926641464233398,
          0.5048612952232361,
          0.29838117957115173,
          0.9981435537338257,
          0.707624077796936,
          1.1552621126174927,
          1.4997756481170654,
          0.4734274446964264,
          0.3529597818851471,
          1.0723191499710083,
          0.46373653411865234,
          1.3527581691741943,
          0.932459831237793,
          0.9559375643730164,
          1.485502004623413,
          1.1242899894714355,
          1.3543496131896973,
          0.8095868825912476,
          0.614808201789856,
          0.8935338854789734,
          0.9457253813743591,
          1.3790454864501953,
          1.1628611087799072,
          1.1099265813827515,
          0.6479558348655701,
          0.6806125044822693,
          0.3199496269226074,
          0.616435706615448,
          0.6241092681884766
        ],
        [
          -1.3679653406143188,
          -2.0889506340026855,
          -3.492604970932007,
          -3.828479766845703,
          1.6953219175338745,
          1.7760778665542603,
          -2.0025534629821777,
          -0.5389269590377808,
          0.9434933066368103,
          -1.5642811059951782,
          1.3796253204345703,
          -3.6003928184509277,
          1.1564463376998901,
          -0.07902637869119644,
          -3.7690699100494385,
          2.65395450592041,
          1.6538044214248657,
          -0.06785158067941666,
          -1.1066466569900513,
          0.1744556874036789,
          1.709541916847229,
          1.9062601327896118,
          -3.793104887008667,
          1.6987786293029785,
          1.35001540184021,
          1.1012319326400757,
          -3.388305425643921,
          1.5205620527267456,
          0.578794002532959,
          -1.5760432481765747,
          -3.150132417678833,
          -2.0222103595733643,
          -4.061279773712158,
          -1.8997081518173218,
          2.0153701305389404,
          1.3822096586227417,
          -3.7007064819335938,
          -3.693650960922241,
          1.313347339630127,
          -3.741673707962036,
          1.9782792329788208,
          1.650070071220398,
          -0.7409258484840393,
          -3.9482364654541016,
          -0.6176770329475403,
          -4.081043720245361,
          2.167130947113037,
          0.9193564057350159,
          -1.8507448434829712,
          1.6486482620239258,
          -0.8356306552886963,
          1.3981902599334717,
          -1.096840500831604,
          -4.152861595153809,
          0.7477588653564453,
          1.5430827140808105,
          1.6176416873931885,
          0.23694293200969696,
          0.6099097728729248,
          1.8216005563735962,
          -2.6634600162506104,
          -3.8379900455474854,
          -1.9344576597213745,
          -2.3984310626983643
        ],
        [
          -0.09348714351654053,
          -0.009526116773486137,
          -0.10744389146566391,
          -0.03616980090737343,
          -0.05609447509050369,
          0.0861135944724083,
          0.028523582965135574,
          -0.030655773356556892,
          0.013800102286040783,
          -0.053310077637434006,
          0.039760179817676544,
          0.038782328367233276,
          0.035118721425533295,
          -0.04635616019368172,
          0.09513703733682632,
          -0.029037155210971832,
          -0.05385731905698776,
          0.08067664504051208,
          0.09151586890220642,
          0.10204912722110748,
          0.018894147127866745,
          -0.06119503453373909,
          0.05473626032471657,
          0.10113874077796936,
          -0.14207883179187775,
          -0.03960665315389633,
          -0.09347350150346756,
          0.005849306937307119,
          0.04531493037939072,
          -0.03635489568114281,
          -0.010457143187522888,
          0.04189575836062431,
          -0.027014143764972687,
          -0.11607203632593155,
          0.08221226185560226,
          -0.07681049406528473,
          -0.013732314109802246,
          0.011790797114372253,
          -0.018490325659513474,
          -0.12828664481639862,
          0.04421568289399147,
          -0.05368548259139061,
          -0.06483244895935059,
          0.02385893277823925,
          -0.08568210899829865,
          -0.07019810378551483,
          -0.05159421265125275,
          -0.05552706494927406,
          -0.061164677143096924,
          -0.049857623875141144,
          0.01751653291285038,
          -0.10318505018949509,
          -0.08438646048307419,
          -0.00741612771525979,
          0.008456569164991379,
          0.054758280515670776,
          -0.10581313073635101,
          0.0300091952085495,
          0.051602717489004135,
          0.05014529451727867,
          -0.13491547107696533,
          -0.04770052433013916,
          -0.10744570195674896,
          -0.08878576010465622
        ],
        [
          0.36885446310043335,
          0.5106850862503052,
          0.4672863185405731,
          0.41092827916145325,
          1.1728062629699707,
          0.7468024492263794,
          0.6151289939880371,
          0.3980233669281006,
          0.6755262613296509,
          0.616456925868988,
          1.3428009748458862,
          0.5047680735588074,
          1.1873133182525635,
          0.7887153625488281,
          0.4580742120742798,
          1.2636641263961792,
          1.2164233922958374,
          1.1403279304504395,
          0.7486410140991211,
          1.0868290662765503,
          1.7132833003997803,
          0.5576239824295044,
          0.32182058691978455,
          0.947593629360199,
          1.2394077777862549,
          1.0836753845214844,
          0.5553886890411377,
          1.3566539287567139,
          0.8340303301811218,
          0.5838210582733154,
          0.7108971476554871,
          0.7204599380493164,
          0.4716355502605438,
          0.6591854691505432,
          0.7618495225906372,
          1.0253695249557495,
          0.348685622215271,
          0.4225950837135315,
          1.0900688171386719,
          0.6648778915405273,
          0.995617151260376,
          1.5158449411392212,
          0.3713953197002411,
          0.41877320408821106,
          1.0587095022201538,
          0.5122480392456055,
          1.3433148860931396,
          0.9937213063240051,
          0.8626196980476379,
          1.4550942182540894,
          1.0321327447891235,
          1.3099480867385864,
          0.6492156386375427,
          0.4549255967140198,
          0.6428859829902649,
          0.9134921431541443,
          1.3971320390701294,
          1.075832724571228,
          1.0054012537002563,
          0.49893543124198914,
          0.6702754497528076,
          0.339052677154541,
          0.587666928768158,
          0.6163879036903381
        ],
        [
          -0.9849483370780945,
          -2.028779983520508,
          -3.2439441680908203,
          -3.225245952606201,
          1.1592856645584106,
          1.4255560636520386,
          -1.7807931900024414,
          -0.23701313138008118,
          0.6518174409866333,
          -1.3835835456848145,
          1.5973422527313232,
          -3.4010748863220215,
          0.9580522179603577,
          0.5129265189170837,
          -3.470254421234131,
          2.1577773094177246,
          1.2183349132537842,
          0.2624180316925049,
          -0.8309822678565979,
          0.013797334395349026,
          1.4159598350524902,
          1.6386069059371948,
          -3.616525173187256,
          1.2364540100097656,
          1.252619981765747,
          1.0564489364624023,
          -3.099781036376953,
          1.2008414268493652,
          0.2752818167209625,
          -1.3392490148544312,
          -2.837794303894043,
          -2.0892117023468018,
          -3.4239344596862793,
          -2.16009783744812,
          1.7896491289138794,
          1.17451012134552,
          -3.206984758377075,
          -3.541363000869751,
          1.2318710088729858,
          -3.148010015487671,
          1.8438602685928345,
          1.2797112464904785,
          -0.2176153063774109,
          -3.460360050201416,
          -0.5242685675621033,
          -3.6083948612213135,
          1.7877109050750732,
          0.4813055992126465,
          -2.1892588138580322,
          1.5320225954055786,
          -1.4142112731933594,
          1.3981388807296753,
          -0.6886811852455139,
          -3.769862174987793,
          0.7900727987289429,
          1.3205368518829346,
          1.3932651281356812,
          0.2904675304889679,
          0.5345596075057983,
          1.5648165941238403,
          -3.0640780925750732,
          -3.754518985748291,
          -1.6299753189086914,
          -2.320139169692993
        ],
        [
          0.39185312390327454,
          0.5837402939796448,
          0.3685697317123413,
          0.5289192199707031,
          1.2669813632965088,
          0.9234080910682678,
          0.49614402651786804,
          0.6208204030990601,
          0.7368285059928894,
          0.8030428886413574,
          1.3883541822433472,
          0.5309996008872986,
          1.0376776456832886,
          0.9817686676979065,
          0.39389100670814514,
          1.2913321256637573,
          1.2360124588012695,
          0.9865624904632568,
          0.7622652053833008,
          1.0264140367507935,
          1.734320044517517,
          0.6409910917282104,
          0.4806641936302185,
          0.9918620586395264,
          1.2895176410675049,
          1.1970833539962769,
          0.5534560084342957,
          1.3543716669082642,
          0.9311215281486511,
          0.6788787841796875,
          0.4976007640361786,
          0.6232160329818726,
          0.5194493532180786,
          0.6676420569419861,
          0.8357372283935547,
          1.076717495918274,
          0.4946873188018799,
          0.47924408316612244,
          0.9488822221755981,
          0.6607372164726257,
          1.1947089433670044,
          1.3494170904159546,
          0.3963281214237213,
          0.2874468266963959,
          0.8795361518859863,
          0.401278555393219,
          1.1964967250823975,
          0.8892038464546204,
          0.836787760257721,
          1.3497570753097534,
          1.0028036832809448,
          1.3287097215652466,
          0.6663230657577515,
          0.40538766980171204,
          0.8249310255050659,
          0.9419299364089966,
          1.5177925825119019,
          1.1663135290145874,
          1.1635520458221436,
          0.579826295375824,
          0.7472279667854309,
          0.43869292736053467,
          0.43525537848472595,
          0.6715599894523621
        ],
        [
          0.066438227891922,
          -0.026017073541879654,
          0.03464947268366814,
          -0.06843467056751251,
          -0.13352082669734955,
          0.01155482605099678,
          0.01142860297113657,
          -0.1074148416519165,
          0.031732894480228424,
          -0.13253557682037354,
          0.07927744835615158,
          0.09237143397331238,
          0.01371405553072691,
          -0.09920396655797958,
          0.036249980330467224,
          -0.003467792645096779,
          0.010340304113924503,
          0.017338130623102188,
          0.06807257235050201,
          -0.07593978941440582,
          -0.0477428138256073,
          0.013664505444467068,
          -0.009719820693135262,
          0.08214441686868668,
          -0.08675049990415573,
          -0.03170778602361679,
          -0.003635897533968091,
          -0.055233318358659744,
          0.059945248067379,
          -0.013311040587723255,
          -0.13623324036598206,
          -0.03930051252245903,
          -0.08016252517700195,
          -0.013171715661883354,
          -0.040260106325149536,
          -0.14920669794082642,
          -0.047645796090364456,
          -0.03694375604391098,
          -0.0649593323469162,
          0.08879058808088303,
          -0.05221442133188248,
          0.061917971819639206,
          0.007273238152265549,
          -0.13291671872138977,
          0.005767615046352148,
          0.07983987033367157,
          -0.1096879318356514,
          -0.09892956912517548,
          0.1130731850862503,
          0.07621508091688156,
          -0.09294383972883224,
          0.04694769158959389,
          -0.03884477540850639,
          -0.14737223088741302,
          -0.015419406816363335,
          0.016840966418385506,
          -0.05988975614309311,
          0.01717650704085827,
          -0.12817926704883575,
          0.06835374236106873,
          0.08379587531089783,
          0.04950859770178795,
          -0.00464637391269207,
          0.01582016982138157
        ],
        [
          0.2673254907131195,
          0.5355318784713745,
          0.4355626106262207,
          0.4471049904823303,
          1.0682096481323242,
          0.932722270488739,
          0.6822543740272522,
          0.3965202867984772,
          0.7758647799491882,
          0.8030893802642822,
          1.4298418760299683,
          0.501926064491272,
          1.2598514556884766,
          0.8416451811790466,
          0.5713750123977661,
          1.3948214054107666,
          1.2145929336547852,
          0.9296616315841675,
          0.801705539226532,
          1.1242965459823608,
          1.7068238258361816,
          0.6541233062744141,
          0.35844680666923523,
          0.9617568254470825,
          1.1644058227539062,
          1.2308142185211182,
          0.5472334027290344,
          1.2892367839813232,
          0.9312124252319336,
          0.6621721386909485,
          0.6535431146621704,
          0.8502866625785828,
          0.5479055643081665,
          0.6964638233184814,
          0.9591781497001648,
          1.073095440864563,
          0.445072740316391,
          0.410176545381546,
          0.9066597819328308,
          0.5820035934448242,
          1.0217399597167969,
          1.4726592302322388,
          0.5097256898880005,
          0.41015636920928955,
          0.8569398522377014,
          0.33546969294548035,
          1.2823525667190552,
          1.038926362991333,
          0.7935643792152405,
          1.449000358581543,
          0.970341145992279,
          1.2334554195404053,
          0.8349100351333618,
          0.5939809679985046,
          0.6894319653511047,
          1.0385868549346924,
          1.505072832107544,
          1.1023681163787842,
          1.1857490539550781,
          0.6254409551620483,
          0.6472955942153931,
          0.2683321237564087,
          0.5224737524986267,
          0.5972946286201477
        ],
        [
          0.38736918568611145,
          0.5189548134803772,
          0.41840729117393494,
          0.5844001173973083,
          1.0832173824310303,
          0.8571725487709045,
          0.6112151145935059,
          0.4688294231891632,
          0.8045505881309509,
          0.7868087291717529,
          1.4437426328659058,
          0.4400675296783447,
          1.0809426307678223,
          0.9946421980857849,
          0.5285781621932983,
          1.2787343263626099,
          1.2880679368972778,
          1.0977144241333008,
          0.6783009171485901,
          1.125469446182251,
          1.8745583295822144,
          0.561469554901123,
          0.2894420325756073,
          0.8670161962509155,
          1.3607043027877808,
          1.3010095357894897,
          0.4998786747455597,
          1.5314548015594482,
          0.9115307331085205,
          0.5712204575538635,
          0.6842030882835388,
          0.8112825155258179,
          0.6634400486946106,
          0.7577694654464722,
          0.9541065692901611,
          1.2386424541473389,
          0.5977969169616699,
          0.2955854833126068,
          1.1283296346664429,
          0.491509348154068,
          1.250047206878662,
          1.4904338121414185,
          0.404621422290802,
          0.4482036530971527,
          0.9753183722496033,
          0.3666475713253021,
          1.222814917564392,
          0.9743244051933289,
          1.0154975652694702,
          1.4015119075775146,
          1.1794774532318115,
          1.2843197584152222,
          0.747262716293335,
          0.5432693362236023,
          0.7275625467300415,
          0.8906660676002502,
          1.4455634355545044,
          1.028273105621338,
          1.0478370189666748,
          0.7164171934127808,
          0.6290679574012756,
          0.29097941517829895,
          0.5105230212211609,
          0.580458402633667
        ],
        [
          -0.08432375639677048,
          -0.012007747776806355,
          -0.035577137023210526,
          0.016783112660050392,
          -0.009040980599820614,
          -0.07779581844806671,
          -0.0597657635807991,
          -0.019632695242762566,
          -0.07799816131591797,
          -0.008608988486230373,
          -0.022918568924069405,
          0.031511954963207245,
          0.009468871168792248,
          0.07730205357074738,
          -0.023145578801631927,
          -0.10390035063028336,
          0.0389801450073719,
          -0.09972844272851944,
          -0.03554119914770126,
          -0.05855587497353554,
          -0.06477991491556168,
          -0.06295230239629745,
          0.09404176473617554,
          0.057367630302906036,
          0.016780391335487366,
          0.10510499030351639,
          -0.12804575264453888,
          0.006680058315396309,
          0.06161413714289665,
          0.06434867531061172,
          -0.11433424055576324,
          0.026113273575901985,
          -0.08933819830417633,
          -0.02297242172062397,
          -0.04672984406352043,
          -0.12173642963171005,
          -0.13797558844089508,
          -0.09705453366041183,
          0.04155357927083969,
          0.0404077023267746,
          -0.12589173018932343,
          -0.06048223003745079,
          -0.011152450926601887,
          -0.12214448302984238,
          0.05302366241812706,
          0.0942450538277626,
          0.004375448916107416,
          -0.10920415818691254,
          0.009340880438685417,
          0.028548574075102806,
          0.08182046562433243,
          -0.08161425590515137,
          -0.12697356939315796,
          0.036537736654281616,
          -0.004264362156391144,
          -0.057689160108566284,
          -0.06978011876344681,
          -0.0818101242184639,
          0.08535490930080414,
          -0.03673325106501579,
          0.07286757975816727,
          0.0975928083062172,
          0.0056470842100679874,
          0.007687598001211882
        ],
        [
          0.34649962186813354,
          0.6488587856292725,
          0.3310666084289551,
          0.5604309439659119,
          1.1259942054748535,
          0.894666850566864,
          0.5935511589050293,
          0.46165984869003296,
          0.7148537039756775,
          0.8119106888771057,
          1.2045761346817017,
          0.34717491269111633,
          1.105824589729309,
          0.8261690735816956,
          0.5302137732505798,
          1.3656340837478638,
          1.3111673593521118,
          1.130746841430664,
          0.7179732918739319,
          0.9715912938117981,
          1.6988524198532104,
          0.5453936457633972,
          0.2699616849422455,
          0.8070129752159119,
          1.1088154315948486,
          1.17939031124115,
          0.5331804156303406,
          1.4767307043075562,
          1.0282942056655884,
          0.6496734023094177,
          0.6299761533737183,
          0.651856005191803,
          0.5527692437171936,
          0.6000641584396362,
          0.8962516784667969,
          1.1308166980743408,
          0.5143303275108337,
          0.44330763816833496,
          0.9352098703384399,
          0.6693710684776306,
          1.1582129001617432,
          1.5261822938919067,
          0.5082500576972961,
          0.4675714671611786,
          1.0329214334487915,
          0.508764922618866,
          1.3027862310409546,
          0.8961322903633118,
          0.9793162941932678,
          1.4186705350875854,
          1.1243468523025513,
          1.3270494937896729,
          0.7406162023544312,
          0.44917404651641846,
          0.7625567317008972,
          0.9865034818649292,
          1.4438061714172363,
          1.057036280632019,
          1.1452358961105347,
          0.7490795850753784,
          0.5904251337051392,
          0.32310566306114197,
          0.4848930239677429,
          0.4805435836315155
        ],
        [
          0.3828028738498688,
          0.5315397381782532,
          0.39014190435409546,
          0.48275187611579895,
          1.117364764213562,
          0.9697409868240356,
          0.6490769982337952,
          0.6356914043426514,
          0.7739993333816528,
          0.7843077182769775,
          1.3644740581512451,
          0.45571398735046387,
          1.048561692237854,
          0.8123127222061157,
          0.45950254797935486,
          1.2963823080062866,
          1.3849736452102661,
          1.0832850933074951,
          0.8781458735466003,
          1.0854839086532593,
          1.730817198753357,
          0.5489281415939331,
          0.2710813581943512,
          0.8571699857711792,
          1.2706806659698486,
          1.2293426990509033,
          0.5799451470375061,
          1.337783932685852,
          0.9229597449302673,
          0.6304165124893188,
          0.6192077994346619,
          0.7782986164093018,
          0.5158254504203796,
          0.7354103326797485,
          0.8639583587646484,
          1.1699620485305786,
          0.45022356510162354,
          0.3322870135307312,
          1.033423662185669,
          0.5596835017204285,
          1.0533244609832764,
          1.5137851238250732,
          0.5031818747520447,
          0.38040563464164734,
          0.9056413769721985,
          0.44444602727890015,
          1.123634696006775,
          0.9620744585990906,
          0.9091643691062927,
          1.4817122220993042,
          1.0740644931793213,
          1.2393829822540283,
          0.7570852637290955,
          0.5983628630638123,
          0.7285381555557251,
          1.0380744934082031,
          1.472723364830017,
          1.0234036445617676,
          1.1123344898223877,
          0.6044073700904846,
          0.6407492160797119,
          0.2767316997051239,
          0.4273245930671692,
          0.6694839596748352
        ],
        [
          0.2612977623939514,
          0.6544507145881653,
          0.36358416080474854,
          0.5277872085571289,
          1.2060389518737793,
          0.9670692086219788,
          0.5703125,
          0.5554385185241699,
          0.7801965475082397,
          0.8537817001342773,
          1.374253273010254,
          0.49604761600494385,
          1.0897388458251953,
          0.8165420889854431,
          0.6236335039138794,
          1.22640860080719,
          1.3500169515609741,
          1.0619374513626099,
          0.9264556169509888,
          1.0718379020690918,
          1.7224947214126587,
          0.6405336260795593,
          0.43355560302734375,
          1.0060182809829712,
          1.3641643524169922,
          1.1742806434631348,
          0.5539540648460388,
          1.303504228591919,
          1.008383870124817,
          0.7518012523651123,
          0.7236156463623047,
          0.6982004642486572,
          0.5115928053855896,
          0.7921774983406067,
          0.7758937478065491,
          1.0709426403045654,
          0.3887133002281189,
          0.4241540729999542,
          1.110013723373413,
          0.6320090293884277,
          1.1503043174743652,
          1.543932318687439,
          0.43377622961997986,
          0.42465662956237793,
          0.9767568707466125,
          0.4157540500164032,
          1.385213851928711,
          0.869301974773407,
          0.9353415369987488,
          1.33311128616333,
          1.1087329387664795,
          1.2242052555084229,
          0.7847424745559692,
          0.4474778473377228,
          0.8899631500244141,
          0.8982304334640503,
          1.5682871341705322,
          1.0586141347885132,
          1.1832026243209839,
          0.6519478559494019,
          0.715171217918396,
          0.3118014335632324,
          0.616909921169281,
          0.6384615302085876
        ],
        [
          -0.13064971566200256,
          -0.013871641829609871,
          -0.10739211738109589,
          0.07398930191993713,
          -0.005598335526883602,
          -0.05593225732445717,
          -0.08716277033090591,
          0.020610814914107323,
          -0.09831911325454712,
          0.03359188884496689,
          0.04412701353430748,
          0.052626579999923706,
          0.015991762280464172,
          -0.12279614806175232,
          0.06727346777915955,
          -0.06411100924015045,
          -0.05829953774809837,
          -0.025595679879188538,
          0.06550475209951401,
          0.07339302450418472,
          -0.00043436189298518,
          0.03734937310218811,
          -0.1361602395772934,
          -0.00970084872096777,
          -0.13320964574813843,
          0.01902209036052227,
          -0.11045635491609573,
          -0.06502582877874374,
          0.06545072048902512,
          0.09497527778148651,
          -0.08942489326000214,
          -0.09411386400461197,
          -0.00227115279994905,
          0.025066442787647247,
          -0.04738287627696991,
          -0.06434901803731918,
          -0.10042241960763931,
          0.042153868824243546,
          0.09598429501056671,
          -0.083617202937603,
          0.03349241614341736,
          0.0504533052444458,
          0.09389956295490265,
          -0.03585834428668022,
          -0.01927081122994423,
          0.06978680193424225,
          0.055307477712631226,
          0.10666649788618088,
          -0.04535480961203575,
          0.026612311601638794,
          0.06450432538986206,
          -0.10630501806735992,
          0.006800404284149408,
          -0.049189794808626175,
          0.058146294206380844,
          -0.08200227469205856,
          -0.014321626164019108,
          0.05036983639001846,
          -0.1312909573316574,
          -0.12506777048110962,
          -0.08682891726493835,
          0.06805621087551117,
          0.06832676380872726,
          -0.10782717913389206
        ],
        [
          -1.632159948348999,
          -1.964448094367981,
          -3.8540472984313965,
          -3.861736297607422,
          1.6995841264724731,
          1.7950901985168457,
          -2.082200527191162,
          -0.7137144804000854,
          0.5950826406478882,
          -1.678580641746521,
          1.336873173713684,
          -3.7313036918640137,
          1.306076169013977,
          -0.050282906740903854,
          -3.6599130630493164,
          2.4062910079956055,
          1.8054702281951904,
          -0.1757708042860031,
          -1.0103378295898438,
          0.31513386964797974,
          1.7931455373764038,
          2.035609006881714,
          -3.5898239612579346,
          1.9147089719772339,
          1.5699468851089478,
          1.203827142715454,
          -3.3681156635284424,
          1.5555025339126587,
          0.8488717079162598,
          -1.698673963546753,
          -3.0981109142303467,
          -1.9739590883255005,
          -4.05218505859375,
          -1.8713725805282593,
          1.9645458459854126,
          1.6248693466186523,
          -4.070994853973389,
          -3.8408761024475098,
          1.0861124992370605,
          -3.7172985076904297,
          2.2435495853424072,
          1.7290842533111572,
          -0.7956142425537109,
          -4.083266735076904,
          -0.6433471441268921,
          -3.948927640914917,
          1.8678412437438965,
          1.0188461542129517,
          -1.8851971626281738,
          1.7279232740402222,
          -0.7663529515266418,
          1.1673647165298462,
          -0.8642279505729675,
          -4.159370422363281,
          0.47307127714157104,
          1.8198378086090088,
          1.7348378896713257,
          0.41104304790496826,
          0.5560814738273621,
          2.1399028301239014,
          -2.8589916229248047,
          -4.146449089050293,
          -2.2328336238861084,
          -2.8223047256469727
        ],
        [
          0.25577375292778015,
          0.6924715042114258,
          0.45368653535842896,
          0.47047823667526245,
          1.1395375728607178,
          0.7691003084182739,
          0.7076926231384277,
          0.492214560508728,
          0.6814873218536377,
          0.6755683422088623,
          1.413020133972168,
          0.42567580938339233,
          1.147483468055725,
          0.8670530915260315,
          0.4394817054271698,
          1.3324568271636963,
          1.4504640102386475,
          0.9825759530067444,
          0.7993502020835876,
          0.9856888651847839,
          1.7356492280960083,
          0.7679268717765808,
          0.3691181242465973,
          1.0682116746902466,
          1.2285741567611694,
          1.114659070968628,
          0.40646132826805115,
          1.510567545890808,
          0.8523232936859131,
          0.7462213635444641,
          0.6610716581344604,
          0.7910585999488831,
          0.5996068120002747,
          0.7121081948280334,
          0.9393707513809204,
          1.047124981880188,
          0.4530011713504791,
          0.5042016506195068,
          1.0573900938034058,
          0.5693358778953552,
          1.0982229709625244,
          1.4050014019012451,
          0.5849938988685608,
          0.4013136029243469,
          0.982835054397583,
          0.4983256459236145,
          1.3452194929122925,
          0.8877105116844177,
          0.8733921051025391,
          1.5106083154678345,
          1.1588163375854492,
          1.1927611827850342,
          0.6106665134429932,
          0.5348328351974487,
          0.8636397123336792,
          1.0127559900283813,
          1.5564467906951904,
          1.0293513536453247,
          1.1537847518920898,
          0.6119444370269775,
          0.7672044038772583,
          0.43080857396125793,
          0.561148464679718,
          0.6833925843238831
        ],
        [
          0.2806813716888428,
          0.4573599398136139,
          0.3324606418609619,
          0.5948553085327148,
          1.1919445991516113,
          0.7459977865219116,
          0.6528065204620361,
          0.6193900108337402,
          0.6087808012962341,
          0.8392476439476013,
          1.310286045074463,
          0.44458144903182983,
          1.2391172647476196,
          0.983519971370697,
          0.5404905080795288,
          1.3697476387023926,
          1.3718332052230835,
          1.0322799682617188,
          0.6618994474411011,
          1.0643253326416016,
          1.6670811176300049,
          0.6710372567176819,
          0.38420727849006653,
          0.9205784797668457,
          1.1298748254776,
          1.0772136449813843,
          0.5556795001029968,
          1.420638084411621,
          0.9831107258796692,
          0.6265121698379517,
          0.5901193618774414,
          0.6994689106941223,
          0.5975873470306396,
          0.6710143089294434,
          0.9086083769798279,
          1.1961206197738647,
          0.3688257336616516,
          0.40346628427505493,
          0.9618574976921082,
          0.49943023920059204,
          1.1477174758911133,
          1.4289379119873047,
          0.6020380258560181,
          0.31723424792289734,
          1.0073440074920654,
          0.3511245846748352,
          1.1464053392410278,
          0.926325261592865,
          0.9937134981155396,
          1.45149827003479,
          0.9481573700904846,
          1.2177772521972656,
          0.6407450437545776,
          0.5047357082366943,
          0.6781787276268005,
          0.9161049723625183,
          1.5059187412261963,
          0.9795543551445007,
          0.928467333316803,
          0.7010748982429504,
          0.689035177230835,
          0.31680721044540405,
          0.6126335859298706,
          0.4912258982658386
        ],
        [
          -0.07588502764701843,
          -0.1034209281206131,
          -0.031058434396982193,
          -0.04085146263241768,
          0.04070029780268669,
          -0.03959282860159874,
          0.0319422222673893,
          -0.051944583654403687,
          0.09584029018878937,
          0.09877026826143265,
          -0.12260948866605759,
          -0.03768378868699074,
          -0.12539048492908478,
          0.044740043580532074,
          -0.11935950070619583,
          -0.06951875239610672,
          0.11017601191997528,
          -0.12922315299510956,
          0.08365163952112198,
          -0.009185170754790306,
          0.08468932658433914,
          -0.07797857373952866,
          0.07203973829746246,
          -0.038052789866924286,
          -0.009342116303741932,
          0.06368203461170197,
          -0.1248212605714798,
          -0.13835841417312622,
          0.1064540222287178,
          -0.08281830698251724,
          -0.09943170100450516,
          -0.017116094008088112,
          -0.04839298129081726,
          -0.028467468917369843,
          -0.10919792950153351,
          0.029954558238387108,
          -0.11532848328351974,
          0.010124117136001587,
          0.0662594810128212,
          0.014812776818871498,
          -0.0008285680087283254,
          -0.01813928224146366,
          -0.03661881387233734,
          -0.023812279105186462,
          -0.06402450054883957,
          -0.09289649873971939,
          -0.07343091070652008,
          0.09887552261352539,
          -0.07228109985589981,
          0.026510877534747124,
          0.07310187071561813,
          -0.01888873055577278,
          -0.0760912299156189,
          -0.09279689937829971,
          -0.05160926282405853,
          0.027856262400746346,
          -0.12039738148450851,
          -0.02724502794444561,
          0.03658805787563324,
          0.08527017384767532,
          0.02470097690820694,
          0.02472083270549774,
          0.08557383716106415,
          0.0490158349275589
        ],
        [
          -0.47616180777549744,
          -1.6468220949172974,
          -3.2524068355560303,
          -3.062941789627075,
          0.9268500208854675,
          1.0680789947509766,
          -1.56228506565094,
          0.3283361494541168,
          1.1291813850402832,
          -1.122644305229187,
          1.4180002212524414,
          -3.4254610538482666,
          0.6945697069168091,
          0.6392603516578674,
          -3.2907986640930176,
          1.6735481023788452,
          0.8961182832717896,
          0.5665640234947205,
          -0.4204488694667816,
          0.02428419329226017,
          1.2627183198928833,
          1.1309751272201538,
          -3.314746141433716,
          1.0807253122329712,
          0.9485041499137878,
          0.7259191870689392,
          -2.922025442123413,
          0.9244712591171265,
          -0.06954331696033478,
          -1.0967243909835815,
          -2.5656168460845947,
          -1.7930785417556763,
          -3.1188883781433105,
          -1.710618257522583,
          1.2173004150390625,
          0.9507267475128174,
          -3.0766751766204834,
          -3.364661931991577,
          1.219313621520996,
          -3.1348602771759033,
          1.3977302312850952,
          0.9877117276191711,
          0.1512451469898224,
          -3.521322011947632,
          -0.19529502093791962,
          -3.2671821117401123,
          1.699034571647644,
          0.41650453209877014,
          -1.9904378652572632,
          1.0575920343399048,
          -0.9093837141990662,
          1.4079370498657227,
          -0.3522651493549347,
          -3.634648323059082,
          1.0798273086547852,
          1.1210862398147583,
          1.1186240911483765,
          0.4428260028362274,
          0.6830266714096069,
          1.237013816833496,
          -2.8797295093536377,
          -3.5885562896728516,
          -0.9947744607925415,
          -1.8681937456130981
        ],
        [
          0.04405425861477852,
          0.0047873081639409065,
          -0.04188258573412895,
          0.04285681992769241,
          0.03102191723883152,
          -0.13166123628616333,
          -0.09397263824939728,
          -0.012264343909919262,
          0.03396239131689072,
          0.043083325028419495,
          -0.08907919377088547,
          -0.13937470316886902,
          -0.025530552491545677,
          -0.025324314832687378,
          0.015981076285243034,
          -0.05535397306084633,
          0.0733763575553894,
          -0.005656454712152481,
          0.06906482577323914,
          -0.10414684563875198,
          0.02914484031498432,
          -0.00806667935103178,
          -0.08053208887577057,
          0.05491766706109047,
          -0.14657734334468842,
          0.09305509924888611,
          -0.003899363335222006,
          0.00017675520211923867,
          0.034964777529239655,
          -0.0091394679620862,
          0.037928417325019836,
          0.057511866092681885,
          -0.11362425237894058,
          0.06053872033953667,
          -0.04450257122516632,
          -0.051991499960422516,
          0.009328437969088554,
          0.08328725397586823,
          -0.0892321765422821,
          -0.1018882468342781,
          0.05373982712626457,
          -0.07211050391197205,
          0.025193342939019203,
          -0.03248823434114456,
          0.015488962642848492,
          0.07680294662714005,
          -0.07945989817380905,
          -0.07505341619253159,
          0.05119669437408447,
          -0.016422053799033165,
          -0.03623145818710327,
          -0.12270695716142654,
          0.0882544293999672,
          -0.02258557640016079,
          -0.03723504766821861,
          -0.07417679578065872,
          -0.04802592098712921,
          0.038590770214796066,
          -0.018203897401690483,
          0.08531324565410614,
          -0.028963707387447357,
          -0.03205426037311554,
          0.056415900588035583,
          -0.02144729346036911
        ],
        [
          0.33198854327201843,
          0.6089359521865845,
          0.5458583235740662,
          0.5479463338851929,
          1.2468862533569336,
          0.9290522336959839,
          0.6326319575309753,
          0.5530122518539429,
          0.7753419280052185,
          0.7652209401130676,
          1.4160337448120117,
          0.5451229214668274,
          1.188921570777893,
          0.8751441240310669,
          0.5960363745689392,
          1.1947509050369263,
          1.4234051704406738,
          1.0950716733932495,
          0.8566728234291077,
          1.0462509393692017,
          1.6738431453704834,
          0.7286962866783142,
          0.30437391996383667,
          0.9624889492988586,
          1.3011677265167236,
          1.0428699254989624,
          0.4721873700618744,
          1.330341100692749,
          1.0185785293579102,
          0.5818992257118225,
          0.6892214417457581,
          0.8117916584014893,
          0.5801450610160828,
          0.844968855381012,
          0.8658207058906555,
          1.0066848993301392,
          0.570573627948761,
          0.41301652789115906,
          1.0034147500991821,
          0.44950082898139954,
          1.0778604745864868,
          1.39775550365448,
          0.6195106506347656,
          0.48181742429733276,
          1.0551838874816895,
          0.5400348901748657,
          1.145875334739685,
          0.8777785301208496,
          0.8563481569290161,
          1.3513951301574707,
          1.1591606140136719,
          1.2666367292404175,
          0.8183578848838806,
          0.4937497675418854,
          0.6684019565582275,
          0.9247621893882751,
          1.526274561882019,
          1.1779474020004272,
          1.1022802591323853,
          0.6375920176506042,
          0.5600720643997192,
          0.26458650827407837,
          0.5688358545303345,
          0.513504683971405
        ],
        [
          0.42163190245628357,
          0.5972084999084473,
          0.39972853660583496,
          0.5912299156188965,
          1.0979934930801392,
          0.8275465369224548,
          0.535922646522522,
          0.3863164484500885,
          0.7430601119995117,
          0.776716411113739,
          1.2188996076583862,
          0.5059813261032104,
          1.0054221153259277,
          0.7474114298820496,
          0.4078582525253296,
          1.221727728843689,
          1.307124137878418,
          0.9850397706031799,
          0.823673665523529,
          0.9248732924461365,
          1.767210841178894,
          0.630423903465271,
          0.39035090804100037,
          1.0382611751556396,
          1.2860686779022217,
          1.0749527215957642,
          0.3603672385215759,
          1.3228002786636353,
          0.8522542715072632,
          0.6997328996658325,
          0.6072158813476562,
          0.8247008919715881,
          0.5575202107429504,
          0.6970790028572083,
          0.8364478349685669,
          1.1292308568954468,
          0.4657116234302521,
          0.5033645033836365,
          0.8869273066520691,
          0.6267631649971008,
          1.0135786533355713,
          1.3304060697555542,
          0.46861669421195984,
          0.4553358852863312,
          1.0310132503509521,
          0.488150030374527,
          1.1866108179092407,
          0.9058308005332947,
          0.8413570523262024,
          1.3700875043869019,
          1.0355825424194336,
          1.3029519319534302,
          0.7704564332962036,
          0.3959601819515228,
          0.7657728791236877,
          0.8675984144210815,
          1.391061782836914,
          0.9855228662490845,
          1.0751522779464722,
          0.5888375639915466,
          0.7918611168861389,
          0.4207628071308136,
          0.41638103127479553,
          0.4443734586238861
        ],
        [
          0.37011078000068665,
          0.532090425491333,
          0.49337539076805115,
          0.4416538178920746,
          1.2110060453414917,
          0.7456244230270386,
          0.5321058034896851,
          0.44563910365104675,
          0.7940784692764282,
          0.7510800361633301,
          1.1937768459320068,
          0.36577439308166504,
          1.08275306224823,
          0.7612432837486267,
          0.5033290982246399,
          1.3303340673446655,
          1.3056960105895996,
          0.9876880049705505,
          0.7733544707298279,
          0.9622012376785278,
          1.702771544456482,
          0.6438614726066589,
          0.4756063222885132,
          0.8933423161506653,
          1.2908447980880737,
          1.1154987812042236,
          0.4438161253929138,
          1.263779640197754,
          1.0294216871261597,
          0.7852206826210022,
          0.619800865650177,
          0.8153445720672607,
          0.6245480179786682,
          0.7857336401939392,
          0.9065456986427307,
          0.9990628361701965,
          0.37417110800743103,
          0.3147651255130768,
          1.0360939502716064,
          0.4695756435394287,
          1.0058001279830933,
          1.4073386192321777,
          0.37815794348716736,
          0.402902752161026,
          0.9876598715782166,
          0.3894851505756378,
          1.3034791946411133,
          0.8904502391815186,
          0.8665450811386108,
          1.4921629428863525,
          1.1722311973571777,
          1.2129606008529663,
          0.6304218769073486,
          0.44371023774147034,
          0.800045371055603,
          1.033046841621399,
          1.4996957778930664,
          1.0428192615509033,
          0.9546256065368652,
          0.5804013013839722,
          0.6458070278167725,
          0.34171393513679504,
          0.45979854464530945,
          0.47110071778297424
        ],
        [
          -0.00480036623775959,
          -0.11213240027427673,
          -0.11728857457637787,
          -0.12233031541109085,
          -0.05923556163907051,
          0.08697262406349182,
          0.027597645297646523,
          -0.03723803907632828,
          0.002103986218571663,
          0.04331684485077858,
          -0.014819278381764889,
          -0.11728627979755402,
          -0.09904860705137253,
          -0.10103796422481537,
          -0.022401994094252586,
          -0.13396452367305756,
          -0.042036112397909164,
          -0.06331102550029755,
          0.11109200119972229,
          0.07819432020187378,
          0.049722302705049515,
          -0.013105287216603756,
          -0.060311853885650635,
          0.008449913002550602,
          -0.1128176748752594,
          -0.07236918061971664,
          -0.043693576008081436,
          -0.048784688115119934,
          -0.13828422129154205,
          0.03150269761681557,
          0.08170516788959503,
          -0.08244486898183823,
          0.012945711612701416,
          -0.02981884963810444,
          -0.058590855449438095,
          -0.012679056264460087,
          0.0872364267706871,
          -0.004119792487472296,
          -0.09059185534715652,
          -0.06381718814373016,
          0.04938548058271408,
          0.0177162978798151,
          -0.015193256549537182,
          -0.03561113402247429,
          -0.06706731021404266,
          -0.06121201813220978,
          -0.08810325711965561,
          -0.0016703576548025012,
          0.0010679705301299691,
          0.07393397390842438,
          -0.04682668298482895,
          -0.006790475454181433,
          0.058072105050086975,
          0.036831799894571304,
          -0.00697052339091897,
          0.017185818403959274,
          -0.01376182958483696,
          -0.12347444146871567,
          -0.014139920473098755,
          -0.05307438597083092,
          0.09444931894540787,
          0.09100999683141708,
          0.004656406119465828,
          0.09050294011831284
        ],
        [
          0.3046693801879883,
          0.6762750148773193,
          0.5676511526107788,
          0.5168982148170471,
          1.0558720827102661,
          0.8065568208694458,
          0.5692382454872131,
          0.5156382918357849,
          0.6250553727149963,
          0.7762384414672852,
          1.2563292980194092,
          0.4051908552646637,
          1.0721019506454468,
          0.8453877568244934,
          0.3777596056461334,
          1.2208588123321533,
          1.3473016023635864,
          1.1070340871810913,
          0.8879572749137878,
          0.9592728614807129,
          1.8253450393676758,
          0.5718855261802673,
          0.2645552158355713,
          0.9163651466369629,
          1.1541961431503296,
          1.0544111728668213,
          0.358906090259552,
          1.2923521995544434,
          1.0328372716903687,
          0.7368197441101074,
          0.5670190453529358,
          0.652672290802002,
          0.4215923249721527,
          0.6548741459846497,
          0.790517270565033,
          1.1917802095413208,
          0.5285757780075073,
          0.34999004006385803,
          1.0828722715377808,
          0.49886396527290344,
          1.00238835811615,
          1.4846606254577637,
          0.420041024684906,
          0.4385773241519928,
          1.0691125392913818,
          0.40487465262413025,
          1.1355421543121338,
          0.9714301228523254,
          0.7823547124862671,
          1.5105295181274414,
          1.004195213317871,
          1.2837755680084229,
          0.6207602620124817,
          0.42186814546585083,
          0.8019014596939087,
          1.002186894416809,
          1.5324199199676514,
          1.2056424617767334,
          1.0570942163467407,
          0.6742834448814392,
          0.7026950120925903,
          0.30256548523902893,
          0.5182253122329712,
          0.45604419708251953
        ],
        [
          -1.7556591033935547,
          -1.8013784885406494,
          -3.8146445751190186,
          -3.7113001346588135,
          1.6158002614974976,
          1.794121265411377,
          -1.9011790752410889,
          -0.7088054418563843,
          0.39066845178604126,
          -1.6159521341323853,
          1.5630439519882202,
          -3.904766321182251,
          1.3848016262054443,
          -0.05310910567641258,
          -3.5202908515930176,
          2.3334054946899414,
          1.6173365116119385,
          -0.18593011796474457,
          -1.008994221687317,
          0.21877078711986542,
          1.8040269613265991,
          1.9495705366134644,
          -3.718491315841675,
          1.6784781217575073,
          1.6510822772979736,
          1.2689958810806274,
          -3.3068368434906006,
          1.4190267324447632,
          0.7603039145469666,
          -1.6312100887298584,
          -3.0695621967315674,
          -2.001710891723633,
          -3.803063154220581,
          -1.8714691400527954,
          2.1210360527038574,
          1.4485630989074707,
          -3.765972375869751,
          -3.8841605186462402,
          1.0193148851394653,
          -3.802100419998169,
          2.0179967880249023,
          1.6661397218704224,
          -0.8563833832740784,
          -4.067910671234131,
          -0.4373895525932312,
          -3.7797536849975586,
          1.6005486249923706,
          0.8193864822387695,
          -1.9632058143615723,
          1.688109278678894,
          -0.8521599769592285,
          1.3291151523590088,
          -0.8809164762496948,
          -4.132584571838379,
          0.4848310053348541,
          1.7561945915222168,
          1.7138267755508423,
          0.4638445973396301,
          0.5050431489944458,
          2.143515110015869,
          -2.8497366905212402,
          -4.033064842224121,
          -2.2337725162506104,
          -2.706376552581787
        ],
        [
          0.42060595750808716,
          0.6175097227096558,
          0.5427852869033813,
          0.5156409740447998,
          1.269977331161499,
          0.802711009979248,
          0.543367862701416,
          0.4663645625114441,
          0.622611939907074,
          0.6757073998451233,
          1.2052550315856934,
          0.426861971616745,
          1.149548888206482,
          0.8539887070655823,
          0.4032019078731537,
          1.4098751544952393,
          1.2960149049758911,
          1.0954322814941406,
          0.8682929873466492,
          0.9805052876472473,
          1.7583614587783813,
          0.7171823978424072,
          0.48293793201446533,
          0.9187532067298889,
          1.3261774778366089,
          1.0698342323303223,
          0.3882693648338318,
          1.4850512742996216,
          0.9229196310043335,
          0.7906649112701416,
          0.6271400451660156,
          0.6879673004150391,
          0.6351334452629089,
          0.839897096157074,
          0.8623876571655273,
          1.0517768859863281,
          0.4805850386619568,
          0.344935804605484,
          1.0973663330078125,
          0.5796647667884827,
          1.1379282474517822,
          1.5403237342834473,
          0.5420199632644653,
          0.31892630457878113,
          1.0729329586029053,
          0.5353594422340393,
          1.1541386842727661,
          1.0312511920928955,
          0.9432991147041321,
          1.3832513093948364,
          0.9797014594078064,
          1.2117969989776611,
          0.6000566482543945,
          0.5744078159332275,
          0.8753714561462402,
          0.9311844110488892,
          1.562016248703003,
          1.0629597902297974,
          1.092276930809021,
          0.5913968086242676,
          0.677233099937439,
          0.3843790590763092,
          0.5630781650543213,
          0.5650500059127808
        ],
        [
          0.29683226346969604,
          0.6561153531074524,
          0.5324888229370117,
          0.5391011238098145,
          1.1039044857025146,
          0.8761439323425293,
          0.5987563133239746,
          0.6247122287750244,
          0.7547121047973633,
          0.7637917399406433,
          1.3210382461547852,
          0.49870577454566956,
          1.1429309844970703,
          0.9905025362968445,
          0.5508120656013489,
          1.1974185705184937,
          1.3323094844818115,
          0.9258538484573364,
          0.6815808415412903,
          1.0825319290161133,
          1.7974907159805298,
          0.6309031844139099,
          0.47920241951942444,
          0.8648990392684937,
          1.1784508228302002,
          1.1435589790344238,
          0.4683462679386139,
          1.367527723312378,
          1.043389916419983,
          0.6105046272277832,
          0.550646185874939,
          0.7465218305587769,
          0.6078010201454163,
          0.7561638355255127,
          0.914929986000061,
          1.1455061435699463,
          0.5904254913330078,
          0.47903913259506226,
          1.0909433364868164,
          0.554750919342041,
          1.003298044204712,
          1.4036784172058105,
          0.5421202182769775,
          0.4833112061023712,
          0.9158433675765991,
          0.5596656203269958,
          1.242432951927185,
          0.9338675141334534,
          0.9107441902160645,
          1.3801438808441162,
          1.181296467781067,
          1.2322241067886353,
          0.7958546280860901,
          0.3957193195819855,
          0.7168847322463989,
          0.9762044548988342,
          1.5395630598068237,
          1.1625982522964478,
          1.0904121398925781,
          0.5529062151908875,
          0.6820103526115417,
          0.2508402466773987,
          0.4006211459636688,
          0.5829936861991882
        ],
        [
          -0.7819716334342957,
          -1.7005993127822876,
          -3.299283504486084,
          -3.1173431873321533,
          1.2079747915267944,
          1.1391295194625854,
          -1.6639612913131714,
          -0.008414599113166332,
          1.0082505941390991,
          -1.238031268119812,
          1.508687138557434,
          -3.4398157596588135,
          1.0513235330581665,
          0.5533515810966492,
          -3.263056993484497,
          1.951114535331726,
          1.0853097438812256,
          0.34890836477279663,
          -0.64273601770401,
          0.12311173230409622,
          1.311334252357483,
          1.456272840499878,
          -3.4584503173828125,
          1.1613487005233765,
          1.1922906637191772,
          0.8598052859306335,
          -3.0867958068847656,
          1.0682905912399292,
          0.2255600094795227,
          -1.3573890924453735,
          -2.869283676147461,
          -2.114196300506592,
          -3.2309679985046387,
          -2.028872489929199,
          1.4926882982254028,
          1.1046808958053589,
          -3.2868564128875732,
          -3.3953351974487305,
          1.1235525608062744,
          -3.2096660137176514,
          1.5776852369308472,
          1.0229099988937378,
          -0.04096667468547821,
          -3.3927183151245117,
          -0.37501612305641174,
          -3.38836669921875,
          1.7510491609573364,
          0.5405444502830505,
          -2.1848647594451904,
          1.2166423797607422,
          -1.2852352857589722,
          1.5456839799880981,
          -0.5554617643356323,
          -3.6259419918060303,
          1.0301148891448975,
          1.1482648849487305,
          1.3679075241088867,
          0.3538365364074707,
          0.6669113636016846,
          1.4989218711853027,
          -3.0590126514434814,
          -3.5124709606170654,
          -1.437609314918518,
          -2.3086729049682617
        ],
        [
          0.280321329832077,
          0.621823787689209,
          0.575315535068512,
          0.6537750363349915,
          1.2053332328796387,
          0.8146039843559265,
          0.7359644770622253,
          0.5318763256072998,
          0.8404759168624878,
          0.7102099061012268,
          1.2928776741027832,
          0.34377068281173706,
          1.2797719240188599,
          0.9256183505058289,
          0.4167736768722534,
          1.3249623775482178,
          1.307684302330017,
          1.070823073387146,
          0.8396134376525879,
          1.0286569595336914,
          1.8312629461288452,
          0.591655969619751,
          0.3961346745491028,
          0.8351161479949951,
          1.2788740396499634,
          1.3155609369277954,
          0.6034329533576965,
          1.4592363834381104,
          1.0465466976165771,
          0.8074038624763489,
          0.6721860766410828,
          0.8034132122993469,
          0.552257776260376,
          0.8633316159248352,
          0.9742035269737244,
          1.0973784923553467,
          0.49744346737861633,
          0.3539058268070221,
          1.0695154666900635,
          0.4725588858127594,
          1.1775530576705933,
          1.462109923362732,
          0.558871328830719,
          0.4488925337791443,
          0.9361572265625,
          0.5399773120880127,
          1.3123655319213867,
          0.856181263923645,
          1.0440417528152466,
          1.541009545326233,
          1.17874014377594,
          1.2502421140670776,
          0.78362637758255,
          0.45075738430023193,
          0.7602282762527466,
          1.0500812530517578,
          1.536009669303894,
          1.185941219329834,
          0.9835425615310669,
          0.8135814070701599,
          0.6578329801559448,
          0.4491272568702698,
          0.6303873062133789,
          0.634545624256134
        ],
        [
          0.4969983398914337,
          0.6516053080558777,
          0.5389342904090881,
          0.490702360868454,
          1.2908762693405151,
          0.8958197832107544,
          0.6824483871459961,
          0.48967841267585754,
          0.8383396863937378,
          0.8761618137359619,
          1.2386071681976318,
          0.5465590357780457,
          1.0673236846923828,
          0.8086019158363342,
          0.39629366993904114,
          1.338083028793335,
          1.2547179460525513,
          1.0046069622039795,
          0.7260448932647705,
          1.1087826490402222,
          1.6702640056610107,
          0.5992301106452942,
          0.3659489154815674,
          0.9551878571510315,
          1.185320496559143,
          1.2234928607940674,
          0.40296638011932373,
          1.2918376922607422,
          0.9241472482681274,
          0.6107131242752075,
          0.7066879272460938,
          0.6657465100288391,
          0.519561231136322,
          0.7948997020721436,
          0.7470549941062927,
          1.235898494720459,
          0.44181111454963684,
          0.37993383407592773,
          0.9362577795982361,
          0.5421295166015625,
          1.0737652778625488,
          1.3694982528686523,
          0.5510627031326294,
          0.4083048701286316,
          1.106029748916626,
          0.5556253790855408,
          1.352170467376709,
          0.9838830828666687,
          0.9744572043418884,
          1.5339620113372803,
          1.1873104572296143,
          1.1516408920288086,
          0.7010913491249084,
          0.3923383355140686,
          0.8010843396186829,
          0.9325594902038574,
          1.5677289962768555,
          1.1416250467300415,
          1.088930606842041,
          0.6056023240089417,
          0.6004820466041565,
          0.35801830887794495,
          0.4633605182170868,
          0.5251285433769226
        ],
        [
          0.06779330968856812,
          -0.09091272205114365,
          -0.07709912955760956,
          0.07465515285730362,
          0.022804370149970055,
          -0.09439926594495773,
          0.013479589484632015,
          0.04361656308174133,
          -0.13258807361125946,
          -0.0010672000935301185,
          0.004308611620217562,
          -0.027300391346216202,
          0.08813845366239548,
          -0.09992311894893646,
          0.04417957365512848,
          -0.0997803583741188,
          -0.13563814759254456,
          0.06528890132904053,
          -0.08556603640317917,
          -0.015194849111139774,
          0.043034180998802185,
          -0.12831154465675354,
          -0.12700685858726501,
          0.024881405755877495,
          0.0848071500658989,
          -0.03817613422870636,
          0.06752754747867584,
          0.02182355336844921,
          0.007302448153495789,
          -0.1030936911702156,
          0.0963890552520752,
          0.032218195497989655,
          -0.0017835544422268867,
          0.06249111145734787,
          -0.13394667208194733,
          0.0007667894242331386,
          -0.08004291355609894,
          -0.03115933947265148,
          0.014744604006409645,
          0.032161545008420944,
          0.0013455123407766223,
          -0.11586122214794159,
          -0.09560976177453995,
          -0.01709792949259281,
          -0.04399065673351288,
          -0.12491460144519806,
          0.09994060546159744,
          -0.0038261734880506992,
          -0.10763056576251984,
          0.024892695248126984,
          0.029154466465115547,
          -0.08380600064992905,
          0.03834639862179756,
          -0.09722526371479034,
          0.021464521065354347,
          0.09257800877094269,
          0.057030949741601944,
          0.03507983684539795,
          -0.04758627712726593,
          0.0009389109327457845,
          0.020549483597278595,
          0.011836033314466476,
          -0.044580500572919846,
          -0.005111836828291416
        ],
        [
          0.31463098526000977,
          0.4860834777355194,
          0.3342440724372864,
          0.41377848386764526,
          1.062699794769287,
          0.9518793821334839,
          0.617638349533081,
          0.3958817720413208,
          0.6665877103805542,
          0.7700757384300232,
          1.2507250308990479,
          0.3934956192970276,
          1.0837955474853516,
          0.8429363369941711,
          0.4922081530094147,
          1.2823309898376465,
          1.3948322534561157,
          1.0971732139587402,
          0.8659586310386658,
          1.0334619283676147,
          1.6931390762329102,
          0.6261978149414062,
          0.2771514356136322,
          0.9672108888626099,
          1.196851134300232,
          1.1066949367523193,
          0.359505295753479,
          1.4169551134109497,
          0.9843976497650146,
          0.7664569020271301,
          0.5674825310707092,
          0.7566714882850647,
          0.5160849094390869,
          0.6293778419494629,
          0.7539421319961548,
          1.1599931716918945,
          0.4108629822731018,
          0.4948922097682953,
          1.0297925472259521,
          0.6067435145378113,
          1.1687148809432983,
          1.5047085285186768,
          0.5520399808883667,
          0.46163058280944824,
          0.8912736177444458,
          0.38576892018318176,
          1.181439757347107,
          0.9842245578765869,
          0.98258376121521,
          1.472382664680481,
          1.0011169910430908,
          1.190155029296875,
          0.6276034116744995,
          0.5733157992362976,
          0.6964307427406311,
          0.8896163105964661,
          1.514897346496582,
          1.1099773645401,
          0.9961734414100647,
          0.5797706246376038,
          0.5769594311714172,
          0.44073930382728577,
          0.3934057056903839,
          0.6685789227485657
        ],
        [
          0.4550982117652893,
          0.5689745545387268,
          0.43369919061660767,
          0.6097528338432312,
          1.203574299812317,
          0.9583663940429688,
          0.694293200969696,
          0.4245961308479309,
          0.8049153089523315,
          0.8078867793083191,
          1.2075179815292358,
          0.48636361956596375,
          1.072029948234558,
          0.8005506992340088,
          0.48142704367637634,
          1.2661957740783691,
          1.290339708328247,
          0.9368157982826233,
          0.8367465734481812,
          1.1704096794128418,
          1.7319315671920776,
          0.5501375794410706,
          0.3511756956577301,
          0.8149377703666687,
          1.118391752243042,
          1.1106548309326172,
          0.5391703248023987,
          1.2705477476119995,
          0.9025022387504578,
          0.5888388752937317,
          0.49479392170906067,
          0.6975667476654053,
          0.49957382678985596,
          0.6959571838378906,
          0.9306102395057678,
          1.15669846534729,
          0.5556023716926575,
          0.44870078563690186,
          1.0035128593444824,
          0.6324418783187866,
          1.0156891345977783,
          1.5167458057403564,
          0.5539242029190063,
          0.3375477194786072,
          0.9482347965240479,
          0.3559766113758087,
          1.097848653793335,
          0.9233535528182983,
          0.9217128753662109,
          1.3633792400360107,
          1.0907012224197388,
          1.1136261224746704,
          0.6447646021842957,
          0.5821992754936218,
          0.6529042720794678,
          0.9701331257820129,
          1.520575761795044,
          1.1825727224349976,
          1.0962746143341064,
          0.5624921321868896,
          0.6876465678215027,
          0.2906043529510498,
          0.46514326333999634,
          0.6536856293678284
        ],
        [
          0.31284603476524353,
          0.4705835282802582,
          0.34406808018684387,
          0.590755820274353,
          1.149451494216919,
          0.9589309692382812,
          0.6185991764068604,
          0.38994988799095154,
          0.75766921043396,
          0.8556634783744812,
          1.3651362657546997,
          0.4622748792171478,
          1.0406372547149658,
          0.7948954701423645,
          0.5638518333435059,
          1.196853756904602,
          1.3541629314422607,
          0.9960929155349731,
          0.8081559538841248,
          1.0469167232513428,
          1.6561837196350098,
          0.5800628066062927,
          0.46620285511016846,
          0.9318230748176575,
          1.2789915800094604,
          1.0814322233200073,
          0.55678790807724,
          1.3300901651382446,
          0.8793327808380127,
          0.6776131391525269,
          0.5643599033355713,
          0.67240971326828,
          0.48836466670036316,
          0.7090815305709839,
          0.7657147645950317,
          1.1445780992507935,
          0.3565393388271332,
          0.4762776494026184,
          1.1038086414337158,
          0.5828213095664978,
          1.064924716949463,
          1.3292111158370972,
          0.5511055588722229,
          0.49216049909591675,
          1.0521833896636963,
          0.4603695869445801,
          1.2446402311325073,
          1.037156343460083,
          0.9157187342643738,
          1.3284962177276611,
          0.9278615117073059,
          1.2571479082107544,
          0.7616480588912964,
          0.6048597693443298,
          0.7113915085792542,
          1.0000402927398682,
          1.3766440153121948,
          1.0553265810012817,
          1.1202250719070435,
          0.5556211471557617,
          0.7582601308822632,
          0.3935314416885376,
          0.4244723320007324,
          0.6218720078468323
        ],
        [
          0.3491027057170868,
          0.6112208366394043,
          0.4535159766674042,
          0.4306543469429016,
          1.1921751499176025,
          0.948121190071106,
          0.6108160614967346,
          0.4671444594860077,
          0.7724880576133728,
          0.812454104423523,
          1.339774489402771,
          0.36269670724868774,
          1.1070066690444946,
          0.8952975869178772,
          0.5668792128562927,
          1.436865210533142,
          1.3834242820739746,
          1.130666971206665,
          0.8838819861412048,
          1.0544960498809814,
          1.7871332168579102,
          0.763545572757721,
          0.4684423506259918,
          0.9962700009346008,
          1.173774003982544,
          1.2772982120513916,
          0.40241575241088867,
          1.4908775091171265,
          0.9835682511329651,
          0.7443718910217285,
          0.5303710103034973,
          0.7349014282226562,
          0.608197808265686,
          0.8660496473312378,
          0.8409737348556519,
          1.2882606983184814,
          0.49106091260910034,
          0.3447704613208771,
          0.9855970144271851,
          0.6178721785545349,
          1.1288986206054688,
          1.5695363283157349,
          0.44768401980400085,
          0.3858559727668762,
          0.893137514591217,
          0.5906338095664978,
          1.2616565227508545,
          0.8754369616508484,
          0.9181973338127136,
          1.4517520666122437,
          1.1550112962722778,
          1.2740304470062256,
          0.8314719796180725,
          0.48506131768226624,
          0.7820820808410645,
          0.97706139087677,
          1.522721767425537,
          1.259863257408142,
          1.1192514896392822,
          0.8122690320014954,
          0.8218123912811279,
          0.2775149345397949,
          0.5319973230361938,
          0.5489581227302551
        ],
        [
          -1.5099726915359497,
          -2.0423364639282227,
          -3.5320489406585693,
          -3.784837484359741,
          1.5565508604049683,
          1.75754976272583,
          -2.3185479640960693,
          -0.8135740160942078,
          0.6859120726585388,
          -1.7039344310760498,
          1.3917218446731567,
          -3.90169358253479,
          1.2959058284759521,
          -0.3233875632286072,
          -3.578529119491577,
          2.592373847961426,
          1.5607130527496338,
          -0.15440526604652405,
          -1.2205640077590942,
          0.24023453891277313,
          1.786766767501831,
          2.080669641494751,
          -3.634148597717285,
          1.7672088146209717,
          1.5664235353469849,
          1.027092456817627,
          -3.4061410427093506,
          1.6562451124191284,
          0.528132438659668,
          -1.4886891841888428,
          -3.1868584156036377,
          -2.1748673915863037,
          -3.7042529582977295,
          -1.9063001871109009,
          2.171163320541382,
          1.6382211446762085,
          -3.6217713356018066,
          -3.8281636238098145,
          0.9759935736656189,
          -3.7559797763824463,
          2.169435501098633,
          1.5980404615402222,
          -0.8191747069358826,
          -3.932692050933838,
          -0.6926344633102417,
          -4.0628275871276855,
          1.8137319087982178,
          0.9513816833496094,
          -1.8512980937957764,
          1.8001980781555176,
          -0.6883270144462585,
          1.1742932796478271,
          -1.0092735290527344,
          -4.214394569396973,
          0.5860790014266968,
          1.8131719827651978,
          1.600998878479004,
          0.3518935739994049,
          0.4236045777797699,
          2.1637074947357178,
          -2.610165596008301,
          -4.12398624420166,
          -1.9455047845840454,
          -2.529407024383545
        ],
        [
          -0.12079469114542007,
          0.020016564056277275,
          0.04338820278644562,
          0.08314663171768188,
          -0.14966173470020294,
          0.07968278229236603,
          0.06468004733324051,
          0.0909259244799614,
          0.04066191241145134,
          -0.08700750023126602,
          0.06849471479654312,
