{
  "model_type": "ann_universal_qaware",
  "layers": [
    {
      "weight": [
        [
          0.32017752528190613,
          0.32781141996383667,
          -0.10659443587064743,
          0.36275407671928406,
          -0.032014645636081696,
          0.04271581768989563,
          -0.23146535456180573,
          0.1757642775774002
        ],
        [
          0.28298819065093994,
          -0.2291959673166275,
          0.3408341705799103,
          0.035207025706768036,
          0.0771278366446495,
          -0.07170648127794266,
          0.18200929462909698,
          -0.16624365746974945
        ],
        [
          0.32562392950057983,
          0.10076843947172165,
          -0.19815504550933838,
          0.13572970032691956,
          -0.027814162895083427,
          -0.061885327100753784,
          -0.20175257325172424,
          0.2308834046125412
        ],
        [
          -0.14793531596660614,
          -0.19492149353027344,
          0.02925436571240425,
          -0.10788078606128693,
          0.05165703222155571,
          -0.47152000665664673,
          0.22794263064861298,
          -0.1081823781132698
        ],
        [
          0.3184314966201782,
          0.09719938784837723,
          -0.14429537951946259,
          0.2570454180240631,
          0.04466649517416954,
          0.2290913462638855,
          -0.01812533289194107,
          -0.172729954123497
        ],
        [
          0.09799732267856598,
          -0.095883309841156,
          0.1514250636100769,
          0.30304187536239624,
          0.10452592372894287,
          -0.23476530611515045,
          0.2156274914741516,
          -0.006035046186298132
        ],
        [
          0.2393338978290558,
          -0.10825904458761215,
          -0.32860076427459717,
          -0.0936252698302269,
          -0.13827425241470337,
          0.2604685127735138,
          0.04350593313574791,
          0.069607675075531
        ],
        [
          0.13261090219020844,
          0.04447554424405098,
          0.35535159707069397,
          -0.04843228682875633,
          0.026744505390524864,
          -0.2752512991428375,
          0.0419619157910347,
          -0.010341569781303406
        ],
        [
          0.032318759709596634,
          -0.06660965085029602,
          0.06325128674507141,
          -0.07301992177963257,
          -0.37861430644989014,
          -0.22844041883945465,
          0.04850371554493904,
          0.03374694660305977
        ],
        [
          0.3135407865047455,
          -0.14400051534175873,
          -0.3413482904434204,
          -0.2836397886276245,
          -0.2356875240802765,
          0.012872353196144104,
          0.24860051274299622,
          0.35387957096099854
        ],
        [
          -0.11214601993560791,
          -0.14954699575901031,
          0.17976395785808563,
          -0.05528590455651283,
          0.19289790093898773,
          -0.16457201540470123,
          0.17579276859760284,
          -0.3719593286514282
        ],
        [
          -0.09280770272016525,
          0.15292662382125854,
          -0.0027038799598813057,
          -0.030753139406442642,
          0.1907741278409958,
          0.15865100920200348,
          -0.328899621963501,
          -0.29891613125801086
        ],
        [
          0.3364703953266144,
          -0.08475498855113983,
          -0.10031406581401825,
          -0.297797292470932,
          -0.12631960213184357,
          0.10298549383878708,
          -0.05385494604706764,
          -0.2227475941181183
        ],
        [
          0.011487161740660667,
          0.045966312289237976,
          -0.07161252945661545,
          -0.004384615458548069,
          -0.6445051431655884,
          -0.12056215852499008,
          0.09633000940084457,
          0.10185495764017105
        ],
        [
          0.15215694904327393,
          -0.2935405373573303,
          -0.25419655442237854,
          -0.07979607582092285,
          0.03781508281826973,
          -0.3616032898426056,
          -0.20339268445968628,
          -0.26048779487609863
        ],
        [
          0.03315741568803787,
          -0.07314150780439377,
          -0.002019096165895462,
          -0.26721546053886414,
          -0.20533320307731628,
          -0.25866779685020447,
          -0.11972588300704956,
          -0.1971679925918579
        ],
        [
          0.1720338761806488,
          0.022078558802604675,
          0.11935000121593475,
          -0.022311657667160034,
          -0.5093953013420105,
          0.22519908845424652,
          -0.041487596929073334,
          -0.13464832305908203
        ],
        [
          -0.25056806206703186,
          -0.25210627913475037,
          0.02206120826303959,
          -0.01900177262723446,
          0.08365113288164139,
          -0.440125972032547,
          0.2409297227859497,
          -0.38702666759490967
        ],
        [
          -0.03681528568267822,
          0.09477819502353668,
          0.15599454939365387,
          0.3058401644229889,
          0.2827417850494385,
          -0.3353506624698639,
          0.052406251430511475,
          -0.2211824208498001
        ],
        [
          0.0068988315761089325,
          -0.21467846632003784,
          0.29736027121543884,
          -0.19345684349536896,
          0.1510535627603531,
          0.03682427480816841,
          0.08251974731683731,
          -0.3210495710372925
        ],
        [
          0.32841920852661133,
          0.06281561404466629,
          0.04416138678789139,
          -0.3068316876888275,
          0.07699308544397354,
          -0.12929964065551758,
          -0.15748830139636993,
          0.23039093613624573
        ],
        [
          0.07876843214035034,
          -0.16664378345012665,
          -0.15649864077568054,
          -0.010122262872755527,
          0.10322201251983643,
          -0.18120177090168,
          -0.2302020937204361,
          -0.22957460582256317
        ],
        [
          -0.26963353157043457,
          0.10962558537721634,
          0.21574248373508453,
          -0.32349535822868347,
          0.08875200152397156,
          0.14086668193340302,
          0.2909700870513916,
          -0.09411147236824036
        ],
        [
          0.1960349977016449,
          0.19182629883289337,
          0.1525191217660904,
          -0.05700058117508888,
          -0.0035630352795124054,
          0.07312063872814178,
          -0.08803001791238785,
          -0.07499954849481583
        ],
        [
          0.2709448039531708,
          0.34008926153182983,
          -0.060233864933252335,
          -0.04083577170968056,
          -0.006242997478693724,
          -0.06553415209054947,
          0.029990533366799355,
          0.047775354236364365
        ],
        [
          -0.09632838517427444,
          -0.040722791105508804,
          0.3892611861228943,
          0.21554794907569885,
          0.0568712092936039,
          -0.39022448658943176,
          -0.34961646795272827,
          -0.23662827908992767
        ],
        [
          -0.10594374686479568,
          0.08622603863477707,
          0.26049932837486267,
          0.15631574392318726,
          -0.18169088661670685,
          -0.16292375326156616,
          -0.028102558106184006,
          0.30225008726119995
        ],
        [
          -0.04170411452651024,
          0.02257455512881279,
          0.00557582825422287,
          0.00325706391595304,
          -0.7315599918365479,
          0.365482360124588,
          0.04924773797392845,
          -0.03018016926944256
        ],
        [
          -0.45584696531295776,
          0.0165155790746212,
          0.17996561527252197,
          -0.07226710021495819,
          -0.6018263101577759,
          -0.36456298828125,
          0.006968548987060785,
          0.16033923625946045
        ],
        [
          0.17412169277668,
          0.28174635767936707,
          0.2066826969385147,
          0.0841616839170456,
          0.021871795877814293,
          -0.2827630639076233,
          -0.3182964324951172,
          -0.29976263642311096
        ],
        [
          0.17369717359542847,
          -0.15239916741847992,
          -0.07457605749368668,
          -0.17871418595314026,
          -0.0020008888095617294,
          -0.24020838737487793,
          -0.26555153727531433,
          0.12230947613716125
        ],
        [
          -0.077935591340065,
          0.24065299332141876,
          -0.11637820303440094,
          -0.2386394590139389,
          0.025371257215738297,
          -0.1999349147081375,
          -0.1514727920293808,
          -0.32612961530685425
        ],
        [
          0.20655663311481476,
          -0.23521098494529724,
          0.17874331772327423,
          0.1679704636335373,
          0.18202410638332367,
          -0.34145575761795044,
          0.23491442203521729,
          -0.24765945971012115
        ],
        [
          0.17704004049301147,
          0.3618430197238922,
          -0.07463850826025009,
          0.033814895898103714,
          0.019759763032197952,
          -0.3304281234741211,
          0.11751902103424072,
          -0.3544923663139343
        ],
        [
          0.25179892778396606,
          0.26557230949401855,
          0.3366784155368805,
          -0.07502834498882294,
          -0.05995939299464226,
          -0.060425203293561935,
          0.12257517874240875,
          -0.27099841833114624
        ],
        [
          -0.0802508294582367,
          -0.2119395136833191,
          -0.03092309832572937,
          -0.17402374744415283,
          -0.14452116191387177,
          -0.11223866045475006,
          -0.3359832167625427,
          0.29009321331977844
        ],
        [
          0.2968612611293793,
          -0.0583970732986927,
          -0.018321452662348747,
          -0.15341979265213013,
          -0.205575630068779,
          -0.3770263195037842,
          0.11377715319395065,
          -0.13978226482868195
        ],
        [
          -0.19999301433563232,
          0.010834273882210255,
          -0.05410151556134224,
          -0.0720689445734024,
          0.021835830062627792,
          0.006655682809650898,
          -0.12962406873703003,
          -0.038208167999982834
        ],
        [
          -0.20274853706359863,
          0.33316686749458313,
          -0.1862039417028427,
          0.11302019655704498,
          0.0035340250469744205,
          0.08491236716508865,
          0.2668728232383728,
          0.12599174678325653
        ],
        [
          -0.3298686742782593,
          0.11850547045469284,
          0.37850818037986755,
          0.044106971472501755,
          0.1986626386642456,
          0.38432011008262634,
          0.03204979747533798,
          -0.06273113191127777
        ],
        [
          -0.0652933120727539,
          -0.0486396849155426,
          0.030798161402344704,
          0.033462196588516235,
          -0.72065269947052,
          -0.12932151556015015,
          -0.004640130791813135,
          -0.10129543393850327
        ],
        [
          -0.22326116263866425,
          -0.058447062969207764,
          0.1023869588971138,
          0.11740001291036606,
          -0.35236644744873047,
          -0.3439193069934845,
          0.06197649985551834,
          -0.26670965552330017
        ],
        [
          -9.482182940701023e-05,
          0.19067665934562683,
          -0.17904964089393616,
          -0.004502533003687859,
          0.017228512093424797,
          -0.14110097289085388,
          -0.23383429646492004,
          -0.3311777114868164
        ],
        [
          -0.2857973575592041,
          -0.18931429088115692,
          0.3414752185344696,
          -0.17077147960662842,
          -0.23742099106311798,
          0.08569929003715515,
          0.09744295477867126,
          0.19371536374092102
        ],
        [
          0.2923315763473511,
          0.21147827804088593,
          -0.3575696051120758,
          0.0479750894010067,
          0.17137829959392548,
          -0.06798169761896133,
          -0.23946648836135864,
          0.28787073493003845
        ],
        [
          -0.08876744657754898,
          -0.16040213406085968,
          -0.3498517870903015,
          0.054271258413791656,
          0.14377495646476746,
          0.022941922768950462,
          0.016257183626294136,
          -0.33236244320869446
        ],
        [
          -0.2427992820739746,
          -0.096864253282547,
          0.3116551339626312,
          0.07578050345182419,
          -0.15148937702178955,
          -0.05384088680148125,
          -0.17203104496002197,
          -0.22679343819618225
        ],
        [
          0.13135680556297302,
          0.2594482898712158,
          0.21682660281658173,
          -0.24038606882095337,
          0.17647762596607208,
          -0.31896236538887024,
          0.09331064671278,
          0.17565543949604034
        ],
        [
          0.0126276146620512,
          0.3205484449863434,
          -0.29483312368392944,
          -0.13414810597896576,
          0.13700781762599945,
          -0.12158005684614182,
          -0.09108279645442963,
          -0.19456219673156738
        ],
        [
          0.2680972218513489,
          0.15629523992538452,
          0.07821693271398544,
          -0.18783685564994812,
          -0.10632296651601791,
          0.06287797540426254,
          0.13390663266181946,
          -0.18369783461093903
        ],
        [
          -0.053275756537914276,
          0.267154335975647,
          0.010119674727320671,
          0.05177455395460129,
          0.020380456000566483,
          -0.3615429699420929,
          -0.3783825635910034,
          -0.16301950812339783
        ],
        [
          -0.18511830270290375,
          0.06884358078241348,
          -0.11499609053134918,
          -0.14271773397922516,
          0.26668617129325867,
          0.04787759855389595,
          0.23484043776988983,
          -0.25643834471702576
        ],
        [
          -0.13890357315540314,
          0.20904070138931274,
          -0.20790602266788483,
          -0.11920761317014694,
          0.02721708081662655,
          -0.07591240853071213,
          -0.27745577692985535,
          0.21126903593540192
        ],
        [
          0.2529621124267578,
          0.06713420152664185,
          -0.0748966783285141,
          -0.4079138934612274,
          -0.060446929186582565,
          0.05600286275148392,
          0.11919970065355301,
          0.024179089814424515
        ],
        [
          -0.14988768100738525,
          0.20264007151126862,
          -0.26067933440208435,
          0.18885090947151184,
          -0.08385004848241806,
          -0.06927894800901413,
          -0.08355972915887833,
          0.12165796011686325
        ],
        [
          -0.10673733800649643,
          0.26009634137153625,
          -0.0059441677294671535,
          0.2974364757537842,
          0.24000607430934906,
          -0.2523309886455536,
          -0.2787715494632721,
          0.17999564111232758
        ],
        [
          0.3342987596988678,
          -0.19802168011665344,
          0.07172957062721252,
          -0.3275030553340912,
          -0.12129882723093033,
          0.10028007626533508,
          0.016959941014647484,
          -0.07153726369142532
        ],
        [
          -0.0267073642462492,
          0.3466992974281311,
          0.14760297536849976,
          -0.14112335443496704,
          -0.029763776808977127,
          0.08134668320417404,
          0.2520315945148468,
          -0.21049706637859344
        ],
        [
          0.1602064073085785,
          -0.18342173099517822,
          -0.3082634210586548,
          -0.22255192697048187,
          0.30444082617759705,
          0.1934426724910736,
          0.3199685513973236,
          0.06296125054359436
        ],
        [
          0.23835957050323486,
          -0.0640999972820282,
          -0.13188083469867706,
          0.13478675484657288,
          -0.09976387768983841,
          -0.2544296383857727,
          -0.08050469309091568,
          0.14657971262931824
        ],
        [
          0.22757978737354279,
          -0.09690982103347778,
          -0.22527754306793213,
          0.10222198814153671,
          -0.07099054753780365,
          -0.2607811689376831,
          0.11783414334058762,
          -0.04610307142138481
        ],
        [
          0.36815840005874634,
          0.3803805112838745,
          0.07923689484596252,
          0.1601414829492569,
          0.06887859851121902,
          -0.037886299192905426,
          -0.07905637472867966,
          -0.04935372620820999
        ],
        [
          0.16041935980319977,
          0.34711238741874695,
          -0.09633643180131912,
          -0.12783829867839813,
          -0.014736223965883255,
          -0.1580982804298401,
          0.0235245693475008,
          0.2733002305030823
        ],
        [
          0.32783079147338867,
          0.20725730061531067,
          -0.2914900779724121,
          -0.14406833052635193,
          -0.00014836344053037465,
          -0.0994533821940422,
          -0.031070157885551453,
          -0.3524433970451355
        ],
        [
          0.14856989681720734,
          -0.2661742568016052,
          -0.21110941469669342,
          -0.2522287368774414,
          0.24939219653606415,
          -0.4154066741466522,
          0.22025369107723236,
          -0.08530274033546448
        ],
        [
          -0.050135791301727295,
          0.18266631662845612,
          -0.016246723011136055,
          0.19258038699626923,
          0.12341761589050293,
          -0.3912680745124817,
          0.13499614596366882,
          -0.020925376564264297
        ],
        [
          0.11595053225755692,
          0.0834769532084465,
          0.07965396344661713,
          -0.07134898006916046,
          -0.0071401335299015045,
          0.509995698928833,
          0.20407429337501526,
          0.006993445102125406
        ],
        [
          -0.27976709604263306,
          0.057616207748651505,
          -0.2826707363128662,
          0.31880319118499756,
          0.00028756962274201214,
          -0.023110663518309593,
          -0.12570151686668396,
          0.00045712533756159246
        ],
        [
          0.3552246689796448,
          0.04589882865548134,
          0.19234976172447205,
          0.2890985906124115,
          0.23570449650287628,
          -0.18724235892295837,
          -0.14754916727542877,
          0.0942341685295105
        ],
        [
          -0.036573853343725204,
          0.21136440336704254,
          -0.13038118183612823,
          -0.20297619700431824,
          0.11345436424016953,
          -0.022234363481402397,
          0.14855213463306427,
          0.2533654570579529
        ],
        [
          0.30049315094947815,
          0.3082384169101715,
          -0.015877297148108482,
          -0.29824936389923096,
          -0.09355737268924713,
          -0.2516491115093231,
          -0.35468772053718567,
          -0.18068258464336395
        ],
        [
          -0.20800933241844177,
          -0.02574918419122696,
          0.0962599664926529,
          -0.04254724085330963,
          -0.81773442029953,
          0.2997678816318512,
          0.03644034266471863,
          -0.04122874513268471
        ],
        [
          -0.10466282069683075,
          0.1709047555923462,
          -0.20306479930877686,
          -0.22289252281188965,
          0.1834058165550232,
          -0.4049965739250183,
          0.07138694077730179,
          0.18496695160865784
        ],
        [
          0.1014750599861145,
          0.12640590965747833,
          -0.22841297090053558,
          0.02688143402338028,
          0.002130076987668872,
          0.07859314978122711,
          0.08805866539478302,
          0.2666829526424408
        ],
        [
          -0.20018456876277924,
          0.071436807513237,
          -0.1726343184709549,
          -0.2019587606191635,
          0.02415219508111477,
          -0.3133791983127594,
          0.1423550844192505,
          0.01628662459552288
        ],
        [
          -0.13936296105384827,
          0.22514182329177856,
          -0.3628322184085846,
          -0.09181275218725204,
          0.012235753238201141,
          -0.3253343999385834,
          -0.28190603852272034,
          -0.07605226337909698
        ],
        [
          0.06162051483988762,
          0.05337823927402496,
          -0.050712812691926956,
          -0.009189426898956299,
          -0.7823014855384827,
          0.3664475977420807,
          -0.005293515510857105,
          -0.05403308942914009
        ],
        [
          0.03989110141992569,
          -0.3029841184616089,
          -0.08278150856494904,
          0.3247531056404114,
          0.007525243330746889,
          0.04764057323336601,
          -0.2950398921966553,
          -0.1274086982011795
        ],
        [
          -0.0277283675968647,
          -0.010381445288658142,
          0.008579821325838566,
          0.004638819023966789,
          -0.6278207898139954,
          0.16687734425067902,
          -0.05868222564458847,
          -0.16180209815502167
        ],
        [
          0.20117056369781494,
          0.29395487904548645,
          -0.12855345010757446,
          -0.149433434009552,
          -0.1728024035692215,
          -0.16752716898918152,
          -0.3318733274936676,
          -0.13068068027496338
        ],
        [
          0.08047132194042206,
          -0.13472013175487518,
          0.13556380569934845,
          0.027989331632852554,
          -0.5364916920661926,
          -0.18476149439811707,
          0.046411726623773575,
          -0.049509115517139435
        ],
        [
          -0.11158876121044159,
          -0.23388336598873138,
          0.3484172224998474,
          -0.2690591812133789,
          0.07611893117427826,
          -0.06798792630434036,
          0.11178021132946014,
          0.15064434707164764
        ],
        [
          -0.031588368117809296,
          0.0245134886354208,
          -0.121064193546772,
          0.1490039825439453,
          -0.4041070342063904,
          0.061693910509347916,
          -0.13142240047454834,
          0.19489794969558716
        ],
        [
          0.1657109409570694,
          0.042481012642383575,
          0.13180875778198242,
          0.03225112706422806,
          0.14867788553237915,
          -0.32283836603164673,
          -0.08788125962018967,
          0.09933125972747803
        ],
        [
          0.39877793192863464,
          0.21632589399814606,
          -0.2829688489437103,
          0.3085804581642151,
          -0.016064729541540146,
          -0.11774032562971115,
          -0.37773433327674866,
          -0.08189403265714645
        ],
        [
          0.28663888573646545,
          0.07610511779785156,
          -0.21776407957077026,
          0.13735169172286987,
          -0.023726336658000946,
          0.3081585168838501,
          -0.35980355739593506,
          -0.12528590857982635
        ],
        [
          -0.2569601237773895,
          -0.21202732622623444,
          0.05036979541182518,
          0.3265680968761444,
          0.08795143663883209,
          0.358845978975296,
          0.18722845613956451,
          0.21988005936145782
        ],
        [
          0.3246974050998688,
          0.32829365134239197,
          -0.22136560082435608,
          0.3604581356048584,
          0.19026921689510345,
          -0.2309989035129547,
          -0.2186473160982132,
          -0.3577384650707245
        ],
        [
          -0.010077137500047684,
          -0.008666547015309334,
          0.0044377464801073074,
          0.010405515320599079,
          -0.7724035978317261,
          0.1407727599143982,
          -0.010641184635460377,
          0.11469127982854843
        ],
        [
          0.24368710815906525,
          -0.3169606924057007,
          0.3023630976676941,
          0.33305656909942627,
          0.1265604943037033,
          -0.3574445843696594,
          -0.17206992208957672,
          -0.15084876120090485
        ],
        [
          -0.07909712195396423,
          0.200154647231102,
          0.13164110481739044,
          0.2854060232639313,
          -0.00023557426175102592,
          0.06968831270933151,
          0.1202617660164833,
          -0.29409703612327576
        ],
        [
          -0.34295380115509033,
          -0.1834549903869629,
          0.24202415347099304,
          -0.3328562378883362,
          -0.3077448308467865,
          0.1980607807636261,
          0.1907522976398468,
          0.29075971245765686
        ],
        [
          -0.304409921169281,
          -0.3117140531539917,
          0.16625919938087463,
          0.2299194484949112,
          0.2096579521894455,
          0.1469111293554306,
          0.3117740750312805,
          0.23899796605110168
        ],
        [
          -0.22811417281627655,
          -0.16051740944385529,
          0.247298926115036,
          -0.24191522598266602,
          -0.1949537843465805,
          0.2580908238887787,
          0.11155390739440918,
          0.11422249674797058
        ],
        [
          -0.15379172563552856,
          0.035902392119169235,
          0.18613222241401672,
          -0.1464781016111374,
          0.03530675172805786,
          0.2273120880126953,
          -0.05117262527346611,
          0.41010916233062744
        ],
        [
          -0.1203324943780899,
          0.00917042326182127,
          0.026686765253543854,
          -0.018296511843800545,
          -0.6949569582939148,
          0.41656479239463806,
          0.08756408095359802,
          -0.17495335638523102
        ],
        [
          -0.2644636631011963,
          0.33289000391960144,
          0.12489363551139832,
          0.09433712065219879,
          -0.14310292899608612,
          -0.19737626612186432,
          -0.04758920893073082,
          -0.05820578709244728
        ],
        [
          0.09099471569061279,
          0.19981788098812103,
          -0.268937885761261,
          0.20316073298454285,
          0.13749198615550995,
          -0.469115674495697,
          -0.17836380004882812,
          -0.005094492807984352
        ],
        [
          -0.1862303614616394,
          -0.35057613253593445,
          0.18506202101707458,
          0.08433547616004944,
          -0.17981299757957458,
          0.3407200872898102,
          -0.15989379584789276,
          0.23891255259513855
        ],
        [
          0.12047979980707169,
          -0.11063669621944427,
          -0.1088876873254776,
          -0.028224686160683632,
          -0.25962767004966736,
          -0.06299995630979538,
          -0.1460726410150528,
          0.2695333957672119
        ],
        [
          -0.06918736547231674,
          0.13866151869297028,
          -0.2915319502353668,
          0.19774578511714935,
          -0.013588475063443184,
          -0.21729333698749542,
          0.060069289058446884,
          0.25009188055992126
        ],
        [
          0.3034452795982361,
          -0.19502320885658264,
          -0.15412968397140503,
          0.07070815563201904,
          0.0059326584450900555,
          0.06115184724330902,
          0.19574926793575287,
          -0.1477629691362381
        ],
        [
          0.24212650954723358,
          0.29691049456596375,
          -0.1240619644522667,
          0.2906220853328705,
          0.15900512039661407,
          0.25844037532806396,
          -0.2576594352722168,
          -0.23424333333969116
        ],
        [
          -0.040663789957761765,
          0.08699963241815567,
          0.13692528009414673,
          -0.11524917930364609,
          0.14678353071212769,
          -0.1401548534631729,
          0.1551709920167923,
          -0.08082818984985352
        ],
        [
          -0.3043190538883209,
          -0.11414321511983871,
          -0.28582528233528137,
          0.13530723750591278,
          -0.18002769351005554,
          -0.09763018786907196,
          0.05361161381006241,
          -0.14685797691345215
        ],
        [
          0.1639086753129959,
          -0.2715836465358734,
          -0.2654631435871124,
          -0.24212568998336792,
          0.01580721139907837,
          -0.17313328385353088,
          0.0004974826006218791,
          -0.07044301182031631
        ],
        [
          0.004197848029434681,
          0.00741699431091547,
          -0.0024610699620097876,
          0.0022563571110367775,
          -0.8384214043617249,
          0.18754491209983826,
          0.05420142784714699,
          0.07508772611618042
        ],
        [
          0.236918106675148,
          0.125639870762825,
          0.35711681842803955,
          0.3289397954940796,
          0.016173383221030235,
          -0.2395222932100296,
          0.31245940923690796,
          -0.17422787845134735
        ],
        [
          -0.1777491569519043,
          0.22202253341674805,
          0.2445458620786667,
          0.05446675419807434,
          -0.027795545756816864,
          -0.3285255432128906,
          -0.01007887814193964,
          0.3621675670146942
        ],
        [
          0.1735590696334839,
          0.08470892906188965,
          -0.1501251608133316,
          -0.048873331397771835,
          0.18945257365703583,
          -0.11223474889993668,
          0.06269609183073044,
          -0.15454314649105072
        ],
        [
          0.1954166293144226,
          0.1815185695886612,
          0.02579023502767086,
          0.2558835446834564,
          0.19988413155078888,
          0.27951687574386597,
          0.22595201432704926,
          -0.1618661880493164
        ],
        [
          -0.29932543635368347,
          0.06463572382926941,
          -0.003085911273956299,
          -0.09221568703651428,
          -0.05920419096946716,
          0.016628623008728027,
          0.257963091135025,
          0.1102171540260315
        ],
        [
          -0.08024424314498901,
          -0.08119126409292221,
          -0.1360587775707245,
          -0.06239427253603935,
          0.27113083004951477,
          0.06050209701061249,
          0.29301732778549194,
          -0.13008533418178558
        ],
        [
          0.11498839408159256,
          0.15711238980293274,
          -0.3553435504436493,
          0.06900763511657715,
          -0.022432653233408928,
          -0.22868716716766357,
          -0.32375144958496094,
          0.2725207209587097
        ],
        [
          0.5486071705818176,
          0.31762170791625977,
          -0.022110017016530037,
          0.07858438789844513,
          0.05353480949997902,
          -0.11321745067834854,
          -0.4303123950958252,
          -0.46540603041648865
        ],
        [
          -0.22145293653011322,
          0.16518528759479523,
          -0.2799684703350067,
          0.029610076919198036,
          0.32232925295829773,
          -0.23344843089580536,
          -0.18190230429172516,
          0.08322873711585999
        ],
        [
          -0.07439495623111725,
          0.037898894399404526,
          0.10022204369306564,
          0.0020586494356393814,
          -0.509524941444397,
          -0.17005948722362518,
          -0.04079391807317734,
          -0.04052967205643654
        ],
        [
          -0.06100708618760109,
          0.0057662250474095345,
          0.01963190920650959,
          -0.02413509041070938,
          -0.5139277577400208,
          -0.09199408441781998,
          -0.028338899835944176,
          0.013266528956592083
        ],
        [
          -0.11912143975496292,
          0.023308023810386658,
          -0.1642899066209793,
          -0.03287161886692047,
          -0.6952000260353088,
          0.21277844905853271,
          -0.1638047993183136,
          -0.10232848674058914
        ],
        [
          0.2298618108034134,
          0.15152251720428467,
          0.08120838552713394,
          -0.19689442217350006,
          -0.27467381954193115,
          -0.19419661164283752,
          0.2263648957014084,
          0.1277533322572708
        ],
        [
          -0.23423989117145538,
          -0.09278716892004013,
          -0.27977535128593445,
          0.06405244767665863,
          -0.1585300862789154,
          0.41382598876953125,
          0.0864110141992569,
          -0.0346984937787056
        ],
        [
          0.05725942552089691,
          -0.11978228390216827,
          0.13969318568706512,
          0.13536137342453003,
          0.005449916236102581,
          -0.20197373628616333,
          0.2960827648639679,
          -0.09548983722925186
        ],
        [
          -0.10707562416791916,
          0.2506452202796936,
          0.2844846844673157,
          0.35459429025650024,
          0.07280923426151276,
          -0.17587164044380188,
          0.14272427558898926,
          0.19426503777503967
        ],
        [
          -0.310352623462677,
          -0.02227482944726944,
          -0.30378326773643494,
          0.09649340808391571,
          0.12971614301204681,
          -0.11749526858329773,
          -0.012366374023258686,
          0.04857812449336052
        ],
        [
          0.07966706156730652,
          -0.41744327545166016,
          0.20696638524532318,
          -0.0024544515181332827,
          0.024720454588532448,
          0.005124962422996759,
          -0.16325177252292633,
          -0.2780049443244934
        ],
        [
          0.20579607784748077,
          -0.09054163843393326,
          -0.20206375420093536,
          0.1378759741783142,
          -0.057562828063964844,
          -0.19888842105865479,
          -0.17588575184345245,
          -0.11604198813438416
        ],
        [
          -0.1476571410894394,
          -0.09534835815429688,
          0.0918799638748169,
          -0.28610172867774963,
          -0.21399889886379242,
          0.005158871412277222,
          0.049168020486831665,
          0.19526484608650208
        ],
        [
          -0.22211486101150513,
          0.08236480504274368,
          0.26362332701683044,
          0.17741578817367554,
          -0.17902572453022003,
          -0.10240089893341064,
          -0.2653997838497162,
          -0.19363246858119965
        ]
      ],
      "bias": [
        0.3701954185962677,
        -0.08839945495128632,
        0.3061666190624237,
        0.3325769901275635,
        0.17578710615634918,
        -0.20331066846847534,
        0.2603781521320343,
        0.2189435213804245,
        -0.45883768796920776,
        -0.24874664843082428,
        0.03582032024860382,
        0.47156834602355957,
        0.22410249710083008,
        -0.768141508102417,
        0.15472087264060974,
        -0.020440222695469856,
        -0.6807733178138733,
        0.2934426963329315,
        0.08720873296260834,
        0.10012099891901016,
        -0.09581263363361359,
        -0.1328440010547638,
        -0.17508822679519653,
        0.2953445613384247,
        0.23031221330165863,
        0.4929342269897461,
        0.41248446702957153,
        -0.6962267160415649,
        -0.41980695724487305,
        -0.031054232269525528,
        0.5293458104133606,
        0.1600308120250702,
        0.01630132831633091,
        -0.008567778393626213,
        -0.07856961339712143,
        -0.29777273535728455,
        -0.23616446554660797,
        0.5841705203056335,
        0.6446004509925842,
        0.1769709438085556,
        -0.8884127140045166,
        0.12057981640100479,
        -0.09607413411140442,
        0.21091589331626892,
        0.3668684959411621,
        0.38216710090637207,
        0.4454447329044342,
        0.3541223108768463,
        0.07154729217290878,
        0.21829450130462646,
        0.0359993577003479,
        0.14199982583522797,
        0.13375239074230194,
        0.022431906312704086,
        -0.2649134397506714,
        -0.054369207471609116,
        -0.14501874148845673,
        -0.02683054655790329,
        -0.2991207242012024,
        -0.284412682056427,
        0.11433260887861252,
        0.3822692930698395,
        0.48957550525665283,
        0.35734421014785767,
        -0.11929724365472794,
        -0.3449903130531311,
        0.6423017978668213,
        0.37079188227653503,
        -0.23643982410430908,
        0.19069837033748627,
        0.4148404896259308,
        -0.5696626901626587,
        -0.28360214829444885,
        0.4646138846874237,
        0.4918110966682434,
        0.4008837044239044,
        -0.8747909069061279,
        0.35984644293785095,
        -0.7912296652793884,
        0.4093743562698364,
        -0.47460517287254333,
        0.16207358241081238,
        -0.1939440667629242,
        0.22894679009914398,
        0.09407444298267365,
        0.2992976903915405,
        -0.4889703392982483,
        -0.21618933975696564,
        -0.7349353432655334,
        0.43897774815559387,
        -0.0014077202649787068,
        0.11112833023071289,
        -0.458454430103302,
        0.2652178108692169,
        -0.07473036646842957,
        -0.5463944673538208,
        -0.19803965091705322,
        -0.503520131111145,
        0.013311058282852173,
        -0.4738578796386719,
        0.4525538384914398,
        -0.3043857216835022,
        0.2751416265964508,
        0.5299923419952393,
        0.23581475019454956,
        0.34853896498680115,
        -0.945163369178772,
        0.5056334137916565,
        0.068109892308712,
        -0.3010750710964203,
        0.4558776915073395,
        -0.1438717246055603,
        0.005457869730889797,
        0.48522135615348816,
        -0.6830371618270874,
        -0.2729074954986572,
        -0.3671364188194275,
        -0.43927356600761414,
        -0.3833949565887451,
        -0.4990401566028595,
        0.020098775625228882,
        -0.1189754530787468,
        -0.17519785463809967,
        -0.3623921573162079,
        0.684130847454071,
        0.1771864891052246,
        -0.2989093065261841,
        0.30626511573791504
      ]
    },
    {
      "weight": [
        [
          0.009959735907614231,
          -0.008074650540947914,
          -0.06506349891424179,
          -0.005870089400559664,
          0.06158269941806793,
          0.03611885383725166,
          -0.07561548054218292,
          0.06694052368402481,
          0.0008465774590149522,
          0.03542604669928551,
          0.04322417825460434,
          0.05059344321489334,
          -0.07909788936376572,
          0.07139311730861664,
          -0.08319529891014099,
          0.0006206883699633181,
          -0.06776787340641022,
          -0.04276137053966522,
          -0.02797231264412403,
          -0.036483701318502426,
          -0.03872416540980339,
          -0.017389297485351562,
          0.05890289321541786,
          0.04120597615838051,
          0.02615782432258129,
          0.03537721186876297,
          0.06242320314049721,
          -0.010081467218697071,
          0.001023893360979855,
          0.0027944918256253004,
          -0.09123208373785019,
          -0.08102390915155411,
          -0.012933599762618542,
          -0.048198964446783066,
          -0.00779632106423378,
          -0.020281486213207245,
          0.007523959036916494,
          0.04355859383940697,
          -0.037666819989681244,
          0.0464814230799675,
          0.06378361582756042,
          -0.07384313642978668,
          -0.08295176923274994,
          -0.07151278853416443,
          -0.0715164914727211,
          -0.05860866606235504,
          -0.012657888233661652,
          -0.04524625092744827,
          -0.06765338033437729,
          -0.034649282693862915,
          -0.042467907071113586,
          0.0627259612083435,
          -0.046797800809144974,
          -0.072684645652771,
          0.02945638634264469,
          -0.02904365584254265,
          0.06166154518723488,
          0.04325466975569725,
          0.05715608224272728,
          -0.07496683299541473,
          0.046966440975666046,
          0.051205046474933624,
          -0.0575580932199955,
          0.0657910704612732,
          0.042064741253852844,
          -0.02343137376010418,
          0.04261665791273117,
          -0.03814001381397247,
          -0.10131441801786423,
          -0.0033085192553699017,
          0.015832846984267235,
          -0.05776699632406235,
          0.019150154665112495,
          -0.10009467601776123,
          0.0651031956076622,
          0.07103487104177475,
          0.018059110268950462,
          -0.06929434090852737,
          0.03701069951057434,
          0.0072703431360423565,
          0.018029099330306053,
          0.003961400128901005,
          0.06128958240151405,
          -0.06153389811515808,
          -0.035452134907245636,
          0.010207931511104107,
          -0.01605003885924816,
          0.04805420711636543,
          -0.052429888397455215,
          -0.026872480288147926,
          0.009933272376656532,
          -0.02347496896982193,
          0.034814171493053436,
          0.009668052196502686,
          -0.11913830786943436,
          -0.015580977313220501,
          -0.04609454795718193,
          -0.016299335286021233,
          -0.010272137820720673,
          -0.09367725998163223,
          -0.030080445110797882,
          -0.03319668769836426,
          -0.04966995120048523,
          0.05668317899107933,
          -0.025600111111998558,
          0.04321298003196716,
          0.015890037640929222,
          -0.09482653439044952,
          -0.010862968862056732,
          0.04835040122270584,
          -0.08174453675746918,
          -0.05713201314210892,
          0.0615147203207016,
          0.0499742366373539,
          -0.05568016320466995,
          0.028646321967244148,
          -0.017312463372945786,
          -0.09314991533756256,
          0.0006359334802255034,
          0.022552335634827614,
          -0.02651304379105568,
          0.005059381481260061,
          -0.10199981182813644,
          0.03468100726604462,
          0.06718660145998001,
          0.03760401904582977,
          0.01498105376958847,
          0.023105144500732422
        ],
        [
          -0.07522950321435928,
          -0.029338033869862556,
          -0.02004961483180523,
          -0.056969597935676575,
          -0.07269364595413208,
          0.05221360921859741,
          0.047785233706235886,
          -0.08802460879087448,
          0.012814116664230824,
          0.024115189909934998,
          0.0766906887292862,
          0.04389171302318573,
          0.06952200084924698,
          -0.042060233652591705,
          0.054199740290641785,
          0.05909854918718338,
          -0.09677699953317642,
          -0.0782170221209526,
          0.010666744783520699,
          0.04095212742686272,
          -0.05118008702993393,
          0.0024771071039140224,
          -0.007578745484352112,
          0.010803508572280407,
          -0.05515291914343834,
          0.04985447973012924,
          0.04586903005838394,
          -0.07420318573713303,
          -0.005148713476955891,
          -0.009434462524950504,
          0.01708751544356346,
          0.06974364072084427,
          0.018654856830835342,
          -0.03202211484313011,
          0.06632432341575623,
          -0.033634670078754425,
          -0.03788873180747032,
          -0.0018838908290490508,
          -0.07803218811750412,
          0.0023366541136056185,
          -0.070346400141716,
          -0.005198257509618998,
          -0.004179286304861307,
          0.012234777212142944,
          -0.08182644844055176,
          -0.09125010669231415,
          0.02959417924284935,
          0.06855133175849915,
          -0.08566503971815109,
          0.020464295521378517,
          -0.07818836718797684,
          -0.0016905504744499922,
          0.07151839137077332,
          0.055380936712026596,
          -0.0752299576997757,
          0.047446269541978836,
          0.0335804782807827,
          -0.006677411962300539,
          0.07838179171085358,
          -0.046914443373680115,
          -0.032579805701971054,
          -0.052069149911403656,
          0.0012033776147291064,
          0.011879937723279,
          -0.00020628738275263458,
          -0.056959427893161774,
          -0.03978946805000305,
          0.018021248281002045,
          -0.08473708480596542,
          -0.021037226542830467,
          -0.013831098563969135,
          -0.04486165940761566,
          0.024931984022259712,
          -0.0016743134474381804,
          0.05154922977089882,
          -0.02004418522119522,
          -0.06925582885742188,
          0.05081331357359886,
          -0.0015178383328020573,
          -0.03733223304152489,
          -0.07217917591333389,
          0.013444799929857254,
          -0.09693508595228195,
          0.016030577942728996,
          0.032382532954216,
          -0.08896958082914352,
          -0.06536971032619476,
          -0.07083576172590256,
          0.06142408400774002,
          0.06773903220891953,
          -0.0058303577825427055,
          0.08297949284315109,
          -0.03685764968395233,
          -0.0858093723654747,
          0.022570405155420303,
          0.017497261986136436,
          0.07888499647378922,
          -0.007559127174317837,
          0.06774049252271652,
          0.0416659414768219,
          0.052095841616392136,
          -0.09503066539764404,
          0.06551665812730789,
          -0.08261048793792725,
          0.06587769091129303,
          -0.015555831603705883,
          -0.0892021432518959,
          0.017103206366300583,
          -0.025488251820206642,
          -0.08663640171289444,
          -0.039287302643060684,
          0.009113296866416931,
          0.06158018112182617,
          -0.03558025509119034,
          0.04010779410600662,
          0.0038233890663832426,
          -0.011664590798318386,
          0.003519106423482299,
          -0.06914525479078293,
          -0.08697421848773956,
          -0.036697305738925934,
          -0.08963970094919205,
          -0.0485471673309803,
          -0.003230312140658498,
          -0.07342033833265305,
          -0.04855826497077942,
          -0.015882186591625214,
          -0.023481804877519608
        ],
        [
          0.006930422503501177,
          0.012535898014903069,
          0.03889789059758186,
          0.13711997866630554,
          0.03528900817036629,
          -0.03822510689496994,
          -0.00949395913630724,
          0.06904542446136475,
          -0.30529722571372986,
          0.028064914047718048,
          -0.01174314133822918,
          0.04872112348675728,
          0.04950134456157684,
          -0.2898418605327606,
          0.03186745196580887,
          -0.06786640733480453,
          -0.15452566742897034,
          -0.054373834282159805,
          -0.002008027397096157,
          -0.03441369906067848,
          -0.025384491309523582,
          -0.02125030942261219,
          0.06665503233671188,
          0.11036603897809982,
          0.06772831082344055,
          0.30938035249710083,
          -0.062262341380119324,
          -0.9321607947349548,
          -0.7016870975494385,
          0.09138737618923187,
          0.007635004818439484,
          0.07269994169473648,
          -0.037011437118053436,
          0.032776761800050735,
          0.004367396701127291,
          -0.07380113005638123,
          -0.07641827315092087,
          0.1320108026266098,
          0.16434310376644135,
          0.03924005851149559,
          -0.8648674488067627,
          -0.05953747406601906,
          0.025042850524187088,
          -0.07641901820898056,
          0.07444099336862564,
          0.10325455665588379,
          0.06513634324073792,
          -0.05636292323470116,
          0.03680424392223358,
          0.050138507038354874,
          0.0977766215801239,
          -0.04101978614926338,
          -0.04357178136706352,
          0.05476566031575203,
          0.024212270975112915,
          -0.02153180167078972,
          -0.019948555156588554,
          -0.006627134047448635,
          0.07083844393491745,
          0.01482495479285717,
          0.091013103723526,
          0.11598461866378784,
          0.07963108271360397,
          0.07499178498983383,
          -0.0010384279303252697,
          0.06616469472646713,
          0.37579649686813354,
          0.08130102604627609,
          -0.007889148779213428,
          0.04303506389260292,
          0.043960630893707275,
          -1.1179604530334473,
          -0.009765383787453175,
          0.0936398133635521,
          0.079862579703331,
          0.005543400999158621,
          -0.6663680076599121,
          0.01876320317387581,
          -0.4775390326976776,
          0.0968940258026123,
          -0.15637849271297455,
          0.08283233642578125,
          -0.08113037049770355,
          -0.03090778924524784,
          0.00588533328846097,
          -0.004700704012066126,
          -0.09871857613325119,
          -0.060576483607292175,
          -0.9621416926383972,
          0.05590948089957237,
          0.06326921284198761,
          0.08298315852880478,
          0.06330106407403946,
          -0.005090609192848206,
          -0.009673812426626682,
          -0.4556417167186737,
          0.024961145594716072,
          -0.19142191112041473,
          0.041690386831760406,
          0.0055509102530777454,
          0.08232904225587845,
          0.0404859334230423,
          -0.016173670068383217,
          0.09392575174570084,
          0.035463422536849976,
          0.11993830651044846,
          -1.0018302202224731,
          0.10231643170118332,
          0.06402650475502014,
          0.038865409791469574,
          0.09007976949214935,
          -0.016031689941883087,
          0.05660182982683182,
          0.0761117935180664,
          -0.29120805859565735,
          0.0844564214348793,
          -0.15504039824008942,
          -0.2513810396194458,
          -0.19043467938899994,
          -0.017534596845507622,
          0.04553314298391342,
          -0.018388565629720688,
          0.06788285821676254,
          0.03808601200580597,
          0.22594697773456573,
          0.026028228923678398,
          -0.008484728634357452,
          -0.041958436369895935
        ],
        [
          0.07388827204704285,
          -0.023292824625968933,
          0.009276566095650196,
          0.07872424274682999,
          0.002217688597738743,
          0.08492182940244675,
          0.041341111063957214,
          0.1535235196352005,
          -0.2746536135673523,
          0.03253499045968056,
          0.024798667058348656,
          0.027463385835289955,
          -0.04046352952718735,
          -0.5608768463134766,
          0.014280598610639572,
          -0.026747703552246094,
          -0.2080046385526657,
          0.03490724042057991,
          0.07559266686439514,
          0.0067315916530787945,
          -0.02696528285741806,
          -0.06073461100459099,
          -0.08401504158973694,
          0.017847057431936264,
          0.07441025227308273,
          0.26226526498794556,
          0.0885399878025055,
          -1.1048648357391357,
          -0.863783061504364,
          0.006918691098690033,
          0.08569902926683426,
          0.06605753302574158,
          0.00675513781607151,
          0.038457609713077545,
          0.028154969215393066,
          0.03291743993759155,
          -0.035204607993364334,
          0.17385658621788025,
          0.15499310195446014,
          -0.015911970287561417,
          -0.9330800771713257,
          -0.00011068872845498845,
          0.019309787079691887,
          -0.012857377529144287,
          -0.01859183982014656,
          0.010335849598050117,
          -0.029003256931900978,
          0.025662163272500038,
          0.013908684253692627,
          0.06778217107057571,
          0.02641054056584835,
          0.008597149513661861,
          0.048359066247940063,
          0.08035420626401901,
          -0.034448590129613876,
          0.055647093802690506,
          0.03767559304833412,
          -0.03427233174443245,
          0.024907879531383514,
          -0.028970062732696533,
          -0.006940906401723623,
          -0.0013080299831926823,
          0.01646505482494831,
          0.13018931448459625,
          -0.08041957020759583,
          0.04345036298036575,
          0.39475017786026,
          0.035037778317928314,
          0.006423640064895153,
          0.06185964122414589,
          0.010701394639909267,
          -1.176133632659912,
          0.007577897980809212,
          0.10600908100605011,
          0.13662993907928467,
          0.09694954007863998,
          -0.8971611261367798,
          0.00043462865869514644,
          -0.5522426962852478,
          -0.03228983283042908,
          -0.2018955647945404,
          -0.0162996593862772,
          0.028215378522872925,
          -0.0033379956148564816,
          -0.01873393915593624,
          0.040754277259111404,
          0.0009226836264133453,
          0.0493415892124176,
          -0.950665295124054,
          0.016044819727540016,
          0.04493270069360733,
          -0.08317697048187256,
          0.01601281389594078,
          0.04061124473810196,
          0.033564407378435135,
          -0.5355575680732727,
          -0.05112534761428833,
          -0.09898123890161514,
          -0.06281005591154099,
          -0.07923883944749832,
          -0.022286485880613327,
          0.0053437259048223495,
          0.07899269461631775,
          0.03854579105973244,
          -0.019562717527151108,
          0.0931621864438057,
          -1.2690722942352295,
          0.06307177990674973,
          -0.0322403684258461,
          -0.05118353292346001,
          0.09828503429889679,
          -0.06838187575340271,
          0.00648485915735364,
          -0.015105794183909893,
          -0.41088274121284485,
          -0.046340275555849075,
          -0.1915234923362732,
          -0.31830471754074097,
          -0.1672181785106659,
          -0.13620948791503906,
          0.08714506030082703,
          -0.06795274466276169,
          0.04107970744371414,
          -0.057855796068906784,
          0.27698659896850586,
          0.01413370855152607,
          0.057366691529750824,
          0.03631480038166046
        ],
        [
          -0.019924666732549667,
          0.004869504831731319,
          -0.00949062965810299,
          0.18650947511196136,
          0.04720330238342285,
          -0.032975126057863235,
          -0.02514364756643772,
          0.10728844255208969,
          -0.3284173011779785,
          0.05518044903874397,
          0.025225145742297173,
          0.06289950013160706,
          0.05103551968932152,
          -0.5021468997001648,
          0.09731337428092957,
          -0.036132458597421646,
          -0.24663110077381134,
          -0.01999736577272415,
          0.06272076070308685,
          0.04639901593327522,
          0.008413668721914291,
          0.03916192427277565,
          -0.10729122906923294,
          0.06925567984580994,
          -0.03179724141955376,
          0.254544734954834,
          -0.04741235822439194,
          -1.0499507188796997,
          -0.7290998101234436,
          0.11189193278551102,
          0.03203938901424408,
          -0.01259997021406889,
          0.013839373365044594,
          0.06466320157051086,
          0.009616932831704617,
          -0.027602825313806534,
          -0.06220510974526405,
          0.2776194214820862,
          0.2326454073190689,
          -0.05725976079702377,
          -0.7967628240585327,
          0.023543423041701317,
          0.08394250273704529,
          -0.010063350200653076,
          0.02540557272732258,
          0.0862504318356514,
          0.11290966719388962,
          0.08637934178113937,
          -0.01794995181262493,
          0.04898425191640854,
          0.077678382396698,
          -0.06687966734170914,
          0.0523751862347126,
          -0.010458198375999928,
          0.0676962360739708,
          -0.04603094235062599,
          0.02481495589017868,
          0.08030204474925995,
          -0.0980818122625351,
          -0.05401128530502319,
          -0.023192936554551125,
          0.09798845648765564,
          0.13418976962566376,
          -0.0023630685172975063,
          0.006598727777600288,
          -0.05936066061258316,
          0.446095734834671,
          0.12621018290519714,
          0.03443193808197975,
          -0.03281296044588089,
          0.05605018883943558,
          -1.0972044467926025,
          0.001774049480445683,
          0.028497988358139992,
          0.09766934812068939,
          0.12084352225065231,
          -0.7675878405570984,
          0.09455829858779907,
          -0.6280678510665894,
          0.0808413177728653,
          -0.0928351879119873,
          0.039746690541505814,
          -0.017489571124315262,
          0.09976256638765335,
          0.043455492705106735,
          0.07902055233716965,
          0.02827717363834381,
          0.09445842355489731,
          -1.013274908065796,
          0.11596321314573288,
          0.03395645692944527,
          -0.009893983602523804,
          0.04918482527136803,
          -0.0457877442240715,
          0.0211897362023592,
          -0.34452465176582336,
          -0.07516109943389893,
          -0.1931106150150299,
          -0.08758525550365448,
          -0.032188378274440765,
          -0.02086927741765976,
          -0.040851350873708725,
          0.04910000413656235,
          0.07746291905641556,
          0.03120071068406105,
          0.11180021613836288,
          -1.0901203155517578,
          0.001654329476878047,
          -0.08355344086885452,
          -0.01700390875339508,
          0.10498663783073425,
          0.004976771771907806,
          -0.02388020232319832,
          0.00019199388043489307,
          -0.4426797926425934,
          -0.08628331869840622,
          -0.0991457849740982,
          -0.24070318043231964,
          -0.2530598044395447,
          -0.040261056274175644,
          0.04935561493039131,
          -0.02161901257932186,
          0.013296736404299736,
          0.014385911636054516,
          0.21660098433494568,
          -0.039407167583703995,
          -0.004246167838573456,
          -0.06896236538887024
        ],
        [
          -0.015401927754282951,
          0.08696172386407852,
          0.04655872657895088,
          0.06142647564411163,
          0.009798036888241768,
          -0.06724920123815536,
          0.05397731438279152,
          0.07043209671974182,
          -0.3744310438632965,
          -0.07462618499994278,
          0.0362602137029171,
          0.012453632429242134,
          -0.0034169787541031837,
          -0.6054591536521912,
          -0.011425336822867393,
          -0.04583799093961716,
          -0.20836316049098969,
          -0.05323384702205658,
          0.015117383562028408,
          -0.08097232133150101,
          -0.0344378724694252,
          0.08334130793809891,
          -0.02924518845975399,
          0.1606845259666443,
          0.03495165705680847,
          0.1746729612350464,
          -0.05866764113306999,
          -0.9888340830802917,
          -0.9793020486831665,
          0.07356679439544678,
          0.113607257604599,
          0.056369706988334656,
          0.0638592466711998,
          0.0011300526093691587,
          0.03978009521961212,
          -0.07042098790407181,
          -0.07000504434108734,
          0.3182133138179779,
          0.19242976605892181,
          -0.017762714996933937,
          -0.9540256857872009,
          -0.12379501014947891,
          0.05787477269768715,
          -0.002810761332511902,
          0.03188200667500496,
          0.05363970249891281,
          0.09574051946401596,
          -0.03137663006782532,
          -0.014720936305820942,
          0.052569303661584854,
          0.0639687031507492,
          -0.03954969719052315,
          -0.05102425441145897,
          0.006535800639539957,
          0.02796904556453228,
          0.028653766959905624,
          0.07223784178495407,
          -0.053526464849710464,
          0.03633033111691475,
          -0.054141815751791,
          0.048634305596351624,
          0.1175631582736969,
          0.1118859127163887,
          0.1293611079454422,
          -0.060156047344207764,
          -0.08117508888244629,
          0.4169001877307892,
          0.09853064268827438,
          0.035225845873355865,
          -0.059442393481731415,
          0.06742449104785919,
          -1.1740056276321411,
          -0.09766680002212524,
          0.1354767233133316,
          0.15831385552883148,
          0.0724780410528183,
          -0.8583369255065918,
          0.14222083985805511,
          -0.6097555756568909,
          0.07764776796102524,
          -0.18817616999149323,
          0.009661894291639328,
          -0.16057531535625458,
          0.0429207868874073,
          -0.018080411478877068,
          0.0913192555308342,
          -0.03893208131194115,
          0.01570846512913704,
          -1.16046142578125,
          -0.00364923314191401,
          0.06138309836387634,
          0.04304680973291397,
          0.018307585269212723,
          -0.026337679475545883,
          -0.02143253944814205,
          -0.5399632453918457,
          0.005621397402137518,
          -0.16729439795017242,
          0.05567271262407303,
          0.03973108157515526,
          -0.017961489036679268,
          -0.00838677491992712,
          0.017467815428972244,
          -0.017672456800937653,
          -0.007686094846576452,
          0.04719546064734459,
          -1.1478796005249023,
          0.010384853929281235,
          0.028691304847598076,
          -0.08735344558954239,
          -0.007993430830538273,
          0.006029233336448669,
          0.062219392508268356,
          0.11217851936817169,
          -0.4877854585647583,
          6.557913002325222e-05,
          -0.32970476150512695,
          -0.3099524974822998,
          -0.3516545593738556,
          -0.1157250627875328,
          0.11139100790023804,
          -0.08511936664581299,
          -0.08699194341897964,
          -0.011282899416983128,
          0.30724430084228516,
          -0.0016208966262638569,
          0.07718177884817123,
          -0.07083162665367126
        ],
        [
          0.011021173559129238,
          -0.05690713971853256,
          0.04009590297937393,
          0.08869045972824097,
          0.09856057167053223,
          -0.00443236343562603,
          0.027594707906246185,
          0.04585704207420349,
          -0.24615423381328583,
          0.07976868748664856,
          -0.09773657470941544,
          0.005441997200250626,
          -0.053315915167331696,
          -0.5331823229789734,
          -0.041240934282541275,
          -0.08413682132959366,
          -0.1824658066034317,
          -0.08871874958276749,
          0.07653818279504776,
          -0.009556630626320839,
          0.07793915271759033,
          -0.038395825773477554,
          0.031605612486600876,
          0.0893021896481514,
          0.05881907790899277,
          0.2870599329471588,
          -0.08133292198181152,
          -1.1773535013198853,
          -0.8301400542259216,
          -0.028995534405112267,
          0.03464622423052788,
          0.02909485623240471,
          -0.01311788521707058,
          0.01195801142603159,
          -0.05533403903245926,
          0.03189218044281006,
          -0.10169259458780289,
          0.283052921295166,
          0.22221966087818146,
          0.012867291457951069,
          -0.9233992695808411,
          -0.035460568964481354,
          -0.02122652903199196,
          -0.016837820410728455,
          0.0015237273182719946,
          -0.020962057635188103,
          -0.0050391145050525665,
          0.10198777914047241,
          0.0034646664280444384,
          0.03727187216281891,
          0.07068449258804321,
          -0.0018661998910829425,
          -0.0054163215681910515,
          -0.05721927434206009,
          -0.05038556456565857,
          0.039296578615903854,
          -0.041266120970249176,
          0.0035443047527223825,
          0.024098647758364677,
          0.07773515582084656,
          0.033875420689582825,
          0.071357361972332,
          0.14601634442806244,
          0.1026170626282692,
          0.027345607057213783,
          -0.030810179188847542,
          0.44249802827835083,
          0.031968072056770325,
          -0.012569154612720013,
          0.012347444891929626,
          0.024569600820541382,
          -1.2209343910217285,
          0.047476913779973984,
          0.04246636852622032,
          0.07447175681591034,
          0.02234925888478756,
          -0.959489643573761,
          0.11967077106237411,
          -0.7440022826194763,
          0.01256781630218029,
          -0.23201479017734528,
          -0.05909275263547897,
          -0.03228522464632988,
          -0.008150800131261349,
          0.041456352919340134,
          0.00696759857237339,
          -0.06262023001909256,
          0.027362896129488945,
          -1.1281778812408447,
          0.020845744758844376,
          0.014604229480028152,
          -0.022901207208633423,
          -0.07543370127677917,
          -0.0651804506778717,
          -0.024786651134490967,
          -0.5942631959915161,
          0.024183986708521843,
          -0.1764773279428482,
          -0.03662974014878273,
          0.025987403467297554,
          0.08843474090099335,
          -0.018570544198155403,
          0.09825195372104645,
          -0.016612010076642036,
          -0.007682164665311575,
          0.06458107382059097,
          -1.3434109687805176,
          0.03200368955731392,
          0.0011450406163930893,
          0.002517116954550147,
          0.10440506786108017,
          0.059131182730197906,
          -0.05617170035839081,
          0.030612235888838768,
          -0.4343138039112091,
          -0.0725720226764679,
          -0.27944400906562805,
          -0.37918704748153687,
          -0.2157319039106369,
          -0.01237699668854475,
          0.05951593071222305,
          -0.06870117783546448,
          -0.07244780659675598,
          -0.06198417395353317,
          0.33017560839653015,
          0.023241696879267693,
          0.016070939600467682,
          0.07959755510091782
        ],
        [
          0.025442684069275856,
          0.006321998313069344,
          -0.033552464097738266,
          0.030377717688679695,
          0.016999755054712296,
          -0.09323542565107346,
          -0.06737715005874634,
          -0.009749779477715492,
          0.018611397594213486,
          0.029299084097146988,
          -0.06178528815507889,
          -0.10177501291036606,
          -0.019452514126896858,
          -0.024461619555950165,
          0.010686888359487057,
          -0.0393575094640255,
          0.05303370580077171,
          -0.0055707525461912155,
          0.05008924379944801,
          -0.07039234042167664,
          0.021473288536071777,
          -0.004042292479425669,
          -0.05011957511305809,
          0.02853074111044407,
          -0.10244289040565491,
          0.0645708441734314,
          -0.008491170592606068,
          -0.004138354677706957,
          0.02771841548383236,
          -0.007984288968145847,
          0.02304970473051071,
          0.040354032069444656,
          -0.08312176167964935,
          0.04280446469783783,
          -0.028805173933506012,
          -0.020554624497890472,
          0.002264473121613264,
          0.05390823632478714,
          -0.06457944959402084,
          -0.07013288885354996,
          0.03943328931927681,
          -0.057949941605329514,
          0.012119204737246037,
          -0.013021908700466156,
          0.009291662834584713,
          0.052328936755657196,
          -0.060521338135004044,
          -0.055947817862033844,
          0.0282758716493845,
          -0.010980641469359398,
          -0.026120683178305626,
          -0.09120297431945801,
          0.06095029413700104,
          -0.017917189747095108,
          -0.03312773257493973,
          -0.0508117750287056,
          -0.030748330056667328,
          0.026345236226916313,
          -0.0146718705072999,
          0.05976290628314018,
          -0.02081698179244995,
          -0.027979422360658646,
          0.0344410315155983,
          -0.01777104288339615,
          -0.03129081428050995,
          0.014543777331709862,
          0.06021600961685181,
          0.005385793745517731,
          0.0472213476896286,
          0.0444718636572361,
          0.009272061288356781,
          0.02030061185359955,
          0.015134257264435291,
          -0.006189360748976469,
          0.05916232243180275,
          0.06561531871557236,
          0.0162933599203825,
          -0.01976020075380802,
          0.0636175274848938,
          -0.08462601155042648,
          0.049866098910570145,
          0.03597965091466904,
          0.041558701545000076,
          -0.021347660571336746,
          -0.08146986365318298,
          0.04756712168455124,
          -0.038648299872875214,
          0.007949678227305412,
          0.03624642267823219,
          -0.09732268005609512,
          -0.010331098921597004,
          -0.031397875398397446,
          0.052952151745557785,
          -0.05627698823809624,
          0.05366673320531845,
          0.03966604918241501,
          0.03313362970948219,
          0.084853895008564,
          0.01338651031255722,
          -0.09140422940254211,
          0.04742283374071121,
          -0.00651369895786047,
          -0.013524576090276241,
          -0.09716611355543137,
          -0.03619437664747238,
          -0.057222772389650345,
          0.07142815738916397,
          0.04785101115703583,
          0.05131569132208824,
          0.047500692307949066,
          -0.06983418017625809,
          -0.03796010464429855,
          -0.046581245958805084,
          -0.05095397308468819,
          0.053961217403411865,
          0.017180031165480614,
          0.053944531828165054,
          -0.02123883366584778,
          -0.09523525089025497,
          -0.04157296568155289,
          0.050546109676361084,
          0.040383342653512955,
          0.014492723159492016,
          -0.03786120563745499,
          -0.09626593440771103,
          -0.06318952143192291,
          0.046083949506282806,
          -0.051553092896938324
        ],
        [
          0.10939811170101166,
          0.030269386246800423,
          0.027843259274959564,
          0.17206139862537384,
          0.007560148369520903,
          0.0009421423892490566,
          -0.025311818346381187,
          -0.009474514052271843,
          -0.3082498610019684,
          0.041440751403570175,
          -0.05311325937509537,
          0.06943193078041077,
          -0.05158878117799759,
          -0.6333571076393127,
          -0.01614491455256939,
          -0.06139771267771721,
          -0.26626694202423096,
          -0.010831812396645546,
          0.048870235681533813,
          -0.08600446581840515,
          0.01895749382674694,
          0.010595952160656452,
          0.003209758782759309,
          0.1634153127670288,
          0.1045546606183052,
          0.1720150113105774,
          -0.04336034134030342,
          -1.0945783853530884,
          -0.9367354512214661,
          0.06818466633558273,
          0.09338193386793137,
          0.1151614710688591,
          0.046145256608724594,
          0.02276894822716713,
          0.013088371604681015,
          0.02116777002811432,
          -0.016116343438625336,
          0.31193113327026367,
          0.08058890700340271,
          0.040118154138326645,
          -0.942615807056427,
          -0.102146677672863,
          0.005458499304950237,
          0.04307208210229874,
          0.08888912200927734,
          0.0470585860311985,
          0.05881629139184952,
          0.004016320686787367,
          -0.020548921078443527,
          0.009016299620270729,
          0.023238424211740494,
          0.07913292944431305,
          0.07936835289001465,
          -0.06148673966526985,
          0.013176820240914822,
          -0.04812644049525261,
          0.0030665770173072815,
          -0.036879897117614746,
          0.01982385851442814,
          -0.035501763224601746,
          0.11092851310968399,
          0.10928522795438766,
          0.0217810720205307,
          -0.01845463737845421,
          0.00456023495644331,
          -0.021965520456433296,
          0.4922997057437897,
          -0.0006739827804267406,
          0.040461465716362,
          -0.073976531624794,
          -0.0023151012137532234,
          -1.258872389793396,
          0.03990359231829643,
          0.05371367931365967,
          0.05903523415327072,
          0.020983682945370674,
          -0.9350084662437439,
          -0.010324234142899513,
          -0.6299573183059692,
          0.06337065249681473,
          -0.2100158929824829,
          -0.03847431018948555,
          -0.04283807799220085,
          -0.05189049243927002,
          2.6999041438102722e-06,
          0.06774426996707916,
          0.031966596841812134,
          -0.010038867592811584,
          -1.0185964107513428,
          0.001662733033299446,
          -0.011828579939901829,
          -0.08414079993963242,
          0.05609194561839104,
          0.08606616407632828,
          -0.021043583750724792,
          -0.4386868178844452,
          0.045514438301324844,
          -0.07063614577054977,
          0.04552169889211655,
          -0.10806672275066376,
          -0.011651149950921535,
          -0.063960500061512,
          0.054147202521562576,
          -0.05800255388021469,
          -0.07043963670730591,
          0.025356212630867958,
          -1.3135011196136475,
          0.056253962218761444,
          0.01157871913164854,
          -0.05626637488603592,
          0.08212368190288544,
          -0.03355618193745613,
          -0.028985735028982162,
          0.13519757986068726,
          -0.32527074217796326,
          -0.014602890238165855,
          -0.3090345561504364,
          -0.33741578459739685,
          -0.22063495218753815,
          -0.025556571781635284,
          0.1292235106229782,
          -0.03808259218931198,
          -0.08477848023176193,
          -0.09437178075313568,
          0.2691075801849365,
          0.03760487958788872,
          -0.03970188647508621,
          -0.04526449367403984
        ],
        [
          0.0659523531794548,
          -0.06476858258247375,
          -0.017244165763258934,
          0.047023873776197433,
          0.00847515556961298,
          0.07954949140548706,
          0.03931761905550957,
          0.07048430293798447,
          -0.27395814657211304,
          0.04351533576846123,
          -0.0110031021758914,
          -0.05529124662280083,
          -0.035053934901952744,
          -0.5292695164680481,
          0.031508516520261765,
          -0.11124308407306671,
          -0.2529585063457489,
          -0.02954394556581974,
          0.09496843069791794,
          0.06052660942077637,
          0.056470926851034164,
          0.012360204011201859,
          -0.04884251579642296,
          0.08334638178348541,
          -0.01790430396795273,
          0.18276777863502502,
          -0.00871964544057846,
          -1.034231185913086,
          -0.9312875866889954,
          0.060787953436374664,
          0.1563550978899002,
          -0.015496095642447472,
          0.035216014832258224,
          0.01763010583817959,
          0.002308072056621313,
          0.005152158439159393,
          0.06476403027772903,
          0.23852641880512238,
          0.08613278716802597,
          -0.036252785474061966,
          -0.8235374093055725,
          -0.01777586154639721,
          0.014486128464341164,
          -0.0116652250289917,
          -0.0076682185754179955,
          -0.006106059532612562,
          -0.0023278796579688787,
          0.023228511214256287,
          0.039569564163684845,
          0.07587888091802597,
          -0.0022306195460259914,
          0.009753061458468437,
          0.09296029061079025,
          0.04209592938423157,
          0.010923760943114758,
          0.03240229934453964,
          0.018948711454868317,
          -0.048703715205192566,
          -0.0018175930017605424,
          -0.001953659811988473,
          0.09499040991067886,
          0.1195298582315445,
          0.08958587050437927,
          0.13397543132305145,
          -0.04484791308641434,
          0.07668206095695496,
          0.545385479927063,
          0.04416858032345772,
          -0.06772150099277496,
          -0.026722857728600502,
          0.01264283899217844,
          -1.1694353818893433,
          -0.08550693839788437,
          0.07024134695529938,
          0.11128278821706772,
          0.03970429673790932,
          -0.8333621621131897,
          0.03616033121943474,
          -0.6689659357070923,
          -0.021963104605674744,
          -0.18019254505634308,
          0.05281723290681839,
          0.017219461500644684,
          -0.04755715653300285,
          0.0802101418375969,
          0.007442147936671972,
          -0.1172400414943695,
          0.011235915124416351,
          -1.0537540912628174,
          -0.03955304995179176,
          -0.08477169275283813,
          -0.05916259437799454,
          0.05422373488545418,
          0.04929489642381668,
          -0.05994044989347458,
          -0.5205769538879395,
          -0.09902218729257584,
          -0.18338005244731903,
          -0.03637165576219559,
          0.03556307777762413,
          0.08679207414388657,
          -0.034463632851839066,
          0.08661578595638275,
          -0.03413442149758339,
          -0.09661500155925751,
          0.08076343685388565,
          -1.1797817945480347,
          0.07527200877666473,
          0.07091405242681503,
          -0.049607522785663605,
          -0.036447614431381226,
          0.033269383013248444,
          -0.08557888120412827,
          0.13804346323013306,
          -0.4271397292613983,
          0.03619036823511124,
          -0.29944851994514465,
          -0.3304624855518341,
          -0.21845830976963043,
          -0.03651920333504677,
          0.10832225531339645,
          0.07014432549476624,
          -0.010407546535134315,
          -0.031052779406309128,
          0.30693504214286804,
          0.004595520906150341,
          0.003008812665939331,
          -0.08185996115207672
        ],
        [
          -0.008037199266254902,
          0.05944252386689186,
          0.002923090709373355,
          0.16527053713798523,
          0.04198731854557991,
          0.016278669238090515,
          0.06693519651889801,
          0.02610105276107788,
          -0.3271324336528778,
          0.01741543412208557,
          0.011569269001483917,
          -0.07477359473705292,
          0.04425951465964317,
          -0.6370921730995178,
          0.0412011444568634,
          0.0053396509028971195,
          -0.2648686170578003,
          -0.004665645770728588,
          -0.005297755356878042,
          0.05613487958908081,
          0.048837967216968536,
          0.013932373374700546,
          -0.08285603672266006,
          0.0236525759100914,
          0.11898654699325562,
          0.27589961886405945,
          0.07502854615449905,
          -1.1517301797866821,
          -0.8276314735412598,
          0.024529287591576576,
          0.15118180215358734,
          0.109068863093853,
          0.013983217068016529,
          -0.00603376654908061,
          0.08673263341188431,
          -0.046060942113399506,
          0.037061985582113266,
          0.14285287261009216,
          0.11649246513843536,
          -0.08915767818689346,
          -0.9698912501335144,
          -0.00763352494686842,
          -0.05107475817203522,
          -0.07643859833478928,
          0.08618298918008804,
          0.0665019229054451,
          0.06363076716661453,
          -0.05898762121796608,
          -0.015350017696619034,
          -0.020395461469888687,
          0.07519577443599701,
          -0.03314144164323807,
          -0.00665856059640646,
          -0.06498708575963974,
          -0.04391934722661972,
          0.04671277478337288,
          0.0724012553691864,
          0.05314694344997406,
          -0.046423617750406265,
          0.09839795529842377,
          0.02425098791718483,
          0.008466342464089394,
          0.049107544124126434,
          0.04617631435394287,
          0.033061739057302475,
          0.024765092879533768,
          0.5260991454124451,
          0.03800983354449272,
          0.06924314051866531,
          -0.039890941232442856,
          -0.007824677042663097,
          -1.2966870069503784,
          -0.09675523638725281,
          -0.000769522157497704,
          0.049503788352012634,
          0.05848032608628273,
          -0.9270482659339905,
          0.035552676767110825,
          -0.6939769387245178,
          0.09549886733293533,
          -0.2373206466436386,
          0.030335253104567528,
          -0.0006073404219932854,
          -0.04382120817899704,
          0.036849427968263626,
          0.11365512013435364,
          0.02491185814142227,
          -0.002018058206886053,
          -1.0197174549102783,
          -0.033614084124565125,
          -0.05454549565911293,
          0.07268484681844711,
          -0.037108976393938065,
          0.08732084184885025,
          -0.018091080710291862,
          -0.5451822280883789,
          0.0633154809474945,
          -0.05812736973166466,
          0.008202970027923584,
          -0.06839147210121155,
          0.058786582201719284,
          -0.05265245586633682,
          0.08736273646354675,
          0.019981998950242996,
          -0.009931056760251522,
          0.10797880589962006,
          -1.2285387516021729,
          0.0044931210577487946,
          0.0715169683098793,
          0.03859331086277962,
          -0.03286214545369148,
          0.06683068722486496,
          0.011575431562960148,
          0.04718659818172455,
          -0.48402976989746094,
          -0.02946034073829651,
          -0.3532843291759491,
          -0.2551775872707367,
          -0.21237537264823914,
          -0.10262072831392288,
          0.13081656396389008,
          -0.04278749227523804,
          0.006198841612786055,
          -0.08795396983623505,
          0.2761598229408264,
          0.058465324342250824,
          0.03807190805673599,
          0.009556327015161514
        ],
        [
          -0.044570911675691605,
          0.061782173812389374,
          0.0585189089179039,
          0.014184609055519104,
          -0.04064767435193062,
          0.018740586936473846,
          0.00023634731769561768,
          0.08075185865163803,
          0.013098515570163727,
          0.006817333400249481,
          0.006042182445526123,
          0.047023408114910126,
          -0.0010921061038970947,
          0.075761578977108,
          0.046049438416957855,
          -0.06678862124681473,
          -1.0132789611816406e-06,
          -0.07502463459968567,
          -0.06786532700061798,
          0.017173252999782562,
          0.01986251026391983,
          -0.007735066115856171,
          0.0840098038315773,
          -0.04748326167464256,
          -0.037042293697595596,
          -0.014155007898807526,
          0.0005359053611755371,
          -0.007486701011657715,
          0.07958387583494186,
          -0.037330497056245804,
          -0.046233732253313065,
          0.007596977055072784,
          0.06638691574335098,
          0.020979471504688263,
          0.047617681324481964,
          0.017110683023929596,
          0.07533236593008041,
          0.053088121116161346,
          0.06324794143438339,
          -0.01190502941608429,
          -0.0731763169169426,
          -0.04192827269434929,
          0.03011111170053482,
          0.06200855225324631,
          -0.03453371673822403,
          0.07313420623540878,
          0.012703724205493927,
          0.00035108625888824463,
          0.003445766866207123,
          -0.015615798532962799,
          0.0827481672167778,
          0.003839142620563507,
          0.054138652980327606,
          -0.07460098713636398,
          -0.045539531856775284,
          0.009938091039657593,
          0.07057806104421616,
          0.04208057373762131,
          0.016834400594234467,
          -0.08732694387435913,
          0.0016616582870483398,
          -0.05834529548883438,
          -0.07547232508659363,
          0.012086525559425354,
          -0.05592377856373787,
          0.08022473007440567,
          -0.04804275929927826,
          0.02848474681377411,
          0.05188068002462387,
          -0.0686987042427063,
          0.04523538798093796,
          -0.011834852397441864,
          0.04579954594373703,
          0.08553647249937057,
          -0.03766806051135063,
          -0.03828134015202522,
          0.07022889703512192,
          0.009828820824623108,
          -0.008815214037895203,
          0.06705743819475174,
          -0.042704302817583084,
          -0.004364274442195892,
          0.0607118234038353,
          0.03454313427209854,
          -0.057170890271663666,
          0.022973597049713135,
          -0.06739052385091782,
          -0.04800136014819145,
          0.05683474987745285,
          -0.023556582629680634,
          -0.04502123221755028,
          0.006265170872211456,
          0.02159949392080307,
          -0.05494368448853493,
          -0.05960586294531822,
          -0.08560138940811157,
          0.02283809334039688,
          -0.05703076347708702,
          0.0067359283566474915,
          -0.01976878196001053,
          -0.05779360234737396,
          -0.02820461615920067,
          -0.06794323772192001,
          -0.04678685590624809,
          -0.002755172550678253,
          -0.07556453347206116,
          -0.07751952856779099,
          0.06620822101831436,
          0.008317172527313232,
          -0.03909008577466011,
          -0.002938792109489441,
          0.0655457153916359,
          -0.07373935729265213,
          -0.04686204716563225,
          -0.06391718983650208,
          -0.006425917148590088,
          -0.003041699528694153,
          -0.068881556391716,
          0.06134893745183945,
          -0.06787516176700592,
          0.08252251893281937,
          -0.060843802988529205,
          -0.012113228440284729,
          0.016527466475963593,
          -0.039286624640226364,
          0.08128563314676285,
          -0.06093795597553253,
          -0.004899226129055023
        ],
        [
          -0.003750370116904378,
          0.023514898493885994,
          0.12749221920967102,
          0.197080597281456,
          0.03897186368703842,
          -0.050137024372816086,
          0.06786298751831055,
          0.09322138875722885,
          -0.2579669654369354,
          -0.05312789976596832,
          -0.059919632971286774,
          -0.061505381017923355,
          0.08744736015796661,
          -0.5690733194351196,
          -0.0341937392950058,
          -0.054706476628780365,
          -0.30351030826568604,
          0.003602457232773304,
          0.03054598718881607,
          -0.061703938990831375,
          0.013662798330187798,
          -0.05786163732409477,
          -0.013538241386413574,
          -0.016156651079654694,
          0.05921761691570282,
          0.3012744188308716,
          0.07802365720272064,
          -0.9906607866287231,
          -0.8405942916870117,
          0.11185082048177719,
          0.11658356338739395,
          0.05781903490424156,
          0.015830975025892258,
          0.1021532267332077,
          0.05440676212310791,
          -0.041565537452697754,
          -0.04090028256177902,
          0.1909773051738739,
          0.18249449133872986,
          -0.09782427549362183,
          -0.8744681477546692,
          -0.09844273328781128,
          0.035702895373106,
          0.02758655697107315,
          -0.021815015003085136,
          0.06512577831745148,
          0.06486538797616959,
          -0.07033722847700119,
          0.0943332239985466,
          0.07079103589057922,
          0.06992702931165695,
          -0.01330138836055994,
          0.06270676106214523,
          -0.055935364216566086,
          -0.05332121625542641,
          0.0401301272213459,
          0.047657519578933716,
          0.0545789897441864,
          -0.09877487272024155,
          0.07583096623420715,
          -0.03683819994330406,
          0.11701001971960068,
          0.15344631671905518,
          0.08874066919088364,
          0.07908071577548981,
          0.04165708273649216,
          0.5019053220748901,
          0.007461573462933302,
          0.07719369977712631,
          0.020123740658164024,
          0.07705280184745789,
          -1.2441086769104004,
          0.04968566447496414,
          0.13667982816696167,
          0.07491736859083176,
          0.13593842089176178,
          -0.9666924476623535,
          -0.0016389359952881932,
          -0.6704352498054504,
          0.030972136184573174,
          -0.2951206862926483,
          -0.04442500323057175,
          -0.13228283822536469,
          0.03869128227233887,
          -0.04357060045003891,
          0.01811062917113304,
          -0.061348993331193924,
          0.013059128075838089,
          -1.0977786779403687,
          0.06892883032560349,
          -0.07107677310705185,
          -0.07485518604516983,
          -0.04190808907151222,
          -0.04778701439499855,
          0.02615184336900711,
          -0.5690457224845886,
          -0.06536393612623215,
          -0.1006259098649025,
          -0.07740511745214462,
          0.04520730674266815,
          0.022317985072731972,
          -0.03873477876186371,
          -0.03366249427199364,
          -0.014321476221084595,
          -0.07621829211711884,
          -0.01904616877436638,
          -1.1264653205871582,
          0.057162050157785416,
          0.07521047443151474,
          0.04220501706004143,
          0.09790173918008804,
          0.02600620687007904,
          0.03238559141755104,
          0.14704647660255432,
          -0.3587081730365753,
          -0.08346933126449585,
          -0.30874696373939514,
          -0.40360110998153687,
          -0.27979838848114014,
          -0.12322161346673965,
          0.11707548797130585,
          0.003089300123974681,
          -0.009081578813493252,
          -0.09135694056749344,
          0.21790443360805511,
          0.030074791982769966,
          -0.043918583542108536,
          -0.058650944381952286
        ],
        [
          0.12815460562705994,
          -0.04300564154982567,
          0.014724165201187134,
          0.20073537528514862,
          0.07845590263605118,
          -0.05961659550666809,
          0.0413903146982193,
          0.12645196914672852,
          -0.3669028580188751,
          0.006518951617181301,
          -0.004467494320124388,
          0.02211042307317257,
          0.10655181854963303,
          -0.5241749882698059,
          0.08207745850086212,
          -0.06831265985965729,
          -0.32204675674438477,
          0.04935753718018532,
          -0.037861116230487823,
          -0.018086085096001625,
          0.042067501693964005,
          -0.07757532596588135,
          -0.10004940629005432,
          0.11193764954805374,
          0.1293935626745224,
          0.22651825845241547,
          0.06812073290348053,
          -1.0255330801010132,
          -0.7803662419319153,
          -0.03980058431625366,
          0.18350766599178314,
          0.07185037434101105,
          0.022649770602583885,
          0.08111409842967987,
          -0.05764204263687134,
          0.019046269357204437,
          -0.07345692813396454,
          0.2917258143424988,
          0.22974000871181488,
          0.031424760818481445,
          -0.8466073870658875,
          -0.08473878353834152,
          -0.05837167054414749,
          0.0015433132648468018,
          0.021457500755786896,
          -0.03419947624206543,
          0.14823029935359955,
          0.01978977583348751,
          -0.05185979604721069,
          0.04274953156709671,
          0.04081832990050316,
          -0.04446997493505478,
          0.10091036558151245,
          -0.06173847243189812,
          0.021190542727708817,
          0.08242028206586838,
          0.07148899137973785,
          0.05765630304813385,
          -0.03418135270476341,
          0.014484704472124577,
          0.04200488701462746,
          0.07799822092056274,
          0.07090828567743301,
          0.07344023883342743,
          -0.04533696547150612,
          -0.0660315528512001,
          0.45311981439590454,
          -0.000888071779627353,
          -0.06268825381994247,
          0.08508921414613724,
          0.055809974670410156,
          -1.2054632902145386,
          -0.0670231357216835,
          0.11149616539478302,
          0.1540556102991104,
          0.04501361399888992,
          -0.8874511122703552,
          0.05336279049515724,
          -0.6527015566825867,
          0.04102063551545143,
          -0.11112913489341736,
          0.04720379784703255,
          0.02643801085650921,
          0.02276965044438839,
          0.0026471256278455257,
          0.07027570903301239,
          -0.10378319770097733,
          0.04161754995584488,
          -1.0516581535339355,
          0.03039056807756424,
          -0.08313758671283722,
          0.042595796287059784,
          0.024496471509337425,
          0.08063023537397385,
          -0.05159684270620346,
          -0.42126137018203735,
          -0.021268300712108612,
          -0.19811509549617767,
          -0.055255867540836334,
          0.025055449455976486,
          0.021142810583114624,
          0.03756289556622505,
          0.06619439274072647,
          0.06633742153644562,
          0.019111165776848793,
          0.11080711334943771,
          -1.158409595489502,
          0.1199757307767868,
          -0.06244707107543945,
          -0.07238132506608963,
          0.023788005113601685,
          0.049070410430431366,
          0.04926198348402977,
          0.1354166567325592,
          -0.4543602168560028,
          -0.02764861099421978,
          -0.22207976877689362,
          -0.17555560171604156,
          -0.22547532618045807,
          -0.10007728636264801,
          0.128660649061203,
          0.008018399588763714,
          -0.05311797559261322,
          -0.09488285332918167,
          0.26571133732795715,
          0.08944336324930191,
          -0.08078733086585999,
          0.08181804418563843
        ],
        [
          0.12948012351989746,
          0.006002272479236126,
          0.04439006745815277,
          0.16661901772022247,
          0.0715041309595108,
          0.07940061390399933,
          0.07498385012149811,
          0.006861310917884111,
          -0.2532259225845337,
          0.05520502105355263,
          -0.07986937463283539,
          0.05335594341158867,
          -0.02567380480468273,
          -0.5753422975540161,
          0.03362550586462021,
          -0.04648631066083908,
          -0.2741051912307739,
          -0.061539243906736374,
          0.050448011606931686,
          0.07186314463615417,
          -0.019833562895655632,
          -0.05786532163619995,
          -0.029041685163974762,
          -0.009883920662105083,
          -0.02648668736219406,
          0.18546392023563385,
          0.060908518731594086,
          -1.1692173480987549,
          -0.8995932340621948,
          -0.017040042206645012,
          0.00104014971293509,
          0.013487804681062698,
          0.0005251248949207366,
          0.014895633794367313,
          0.07207012921571732,
          0.03540503978729248,
          0.04201251268386841,
          0.2607453763484955,
          0.14627332985401154,
          0.03783780336380005,
          -0.9802655577659607,
          -0.001625198870897293,
          0.055791113525629044,
          -0.03751261159777641,
          0.020243342965841293,
          -0.04591113328933716,
          -0.037153784185647964,
          0.0025544471573084593,
          0.025821704417467117,
          -0.01175844669342041,
          0.044080641120672226,
          -0.07065383344888687,
          -0.028553452342748642,
          0.06725603342056274,
          -0.08161605894565582,
          0.013219267129898071,
          0.08606941998004913,
          0.0858328714966774,
          0.019164137542247772,
          -0.06241518259048462,
          0.024789419025182724,
          0.009021648205816746,
          0.04885455593466759,
          0.12466252595186234,
          -0.03615916892886162,
          -0.06910330802202225,
          0.4076825678348541,
          0.09900344908237457,
          0.001610243576578796,
          0.08314698934555054,
          0.053368519991636276,
          -1.3313159942626953,
          0.00987168401479721,
          0.1352647989988327,
          0.18519090116024017,
          0.08701977878808975,
          -0.9352143406867981,
          0.0036653445567935705,
          -0.5857177972793579,
          -0.035745155066251755,
          -0.17450715601444244,
          -0.021485652774572372,
          -0.027807435020804405,
          0.019834771752357483,
          -0.022228538990020752,
          0.025278525426983833,
          0.023262416943907738,
          0.021797336637973785,
          -1.0164952278137207,
          -0.010666286572813988,
          0.07173509150743484,
          -0.01892074942588806,
          -0.05446664243936539,
          0.017929978668689728,
          -0.058063358068466187,
          -0.5324552059173584,
          -0.04956680163741112,
          -0.13758690655231476,
          -0.05027120187878609,
          0.01605481468141079,
          -0.027588147670030594,
          0.04949428141117096,
          0.10526394844055176,
          0.02914820984005928,
          -0.048261065036058426,
          -0.02405044622719288,
          -1.2113627195358276,
          0.12550781667232513,
          0.05769985541701317,
          -0.005354128312319517,
          0.0510295033454895,
          0.08469455689191818,
          0.0018612201092764735,
          0.01716621220111847,
          -0.48597726225852966,
          0.026166200637817383,
          -0.2045397013425827,
          -0.20518280565738678,
          -0.28717631101608276,
          -0.030132396146655083,
          0.014107399620115757,
          -0.02913854271173477,
          0.04087395593523979,
          -0.10694018006324768,
          0.34662169218063354,
          0.06545707583427429,
          -0.05253090336918831,
          0.04486486315727234
        ],
        [
          -0.0287479180842638,
          0.0018723285757005215,
          -0.029646284878253937,
          -0.09254758059978485,
          -0.015272555872797966,
          0.037053074687719345,
          -0.010283701121807098,
          -0.04977264627814293,
          0.0028006359934806824,
          0.0161297470331192,
          -0.030727671459317207,
