{
  "layers": [
    {
      "weight": [
        [
          0.4087795615196228,
          0.1179625540971756,
          -0.35750481486320496,
          0.7503939867019653,
          -0.26231154799461365
        ],
        [
          -0.09018384665250778,
          -0.24421194195747375,
          0.3083546757698059,
          0.2664512097835541,
          -0.673139214515686
        ],
        [
          0.36477765440940857,
          -0.014218871481716633,
          0.04671911895275116,
          -0.04368528723716736,
          0.7045301198959351
        ],
        [
          -0.011224585585296154,
          0.22201451659202576,
          0.024739708751440048,
          -0.06896775215864182,
          -0.004065882880240679
        ],
        [
          -0.36481156945228577,
          0.01862790808081627,
          -0.16612748801708221,
          0.02597532421350479,
          -1.195279598236084
        ],
        [
          -0.2832755744457245,
          0.025974513962864876,
          -0.0436495840549469,
          -0.00872569065541029,
          -1.3017919063568115
        ],
        [
          0.401699036359787,
          -0.5971975922584534,
          0.23313261568546295,
          0.07549260556697845,
          -0.15121467411518097
        ],
        [
          0.37536558508872986,
          -0.28331512212753296,
          0.6052370071411133,
          0.2944626808166504,
          -0.11824879050254822
        ],
        [
          0.12718191742897034,
          -0.5706120133399963,
          -0.3203863501548767,
          0.5837938785552979,
          0.48521316051483154
        ],
        [
          -0.3580973446369171,
          0.4278431534767151,
          0.13141052424907684,
          0.11016500741243362,
          -1.2054940462112427
        ],
        [
          -0.4989638030529022,
          -0.36812978982925415,
          -0.4559049606323242,
          0.30856937170028687,
          -0.28138285875320435
        ],
        [
          0.13518691062927246,
          0.08651243150234222,
          -0.23029865324497223,
          0.3889722526073456,
          -0.42030394077301025
        ],
        [
          -0.0652448907494545,
          -0.5396422147750854,
          0.5220786333084106,
          -0.13954882323741913,
          0.0011595012620091438
        ],
        [
          -0.3746013939380646,
          0.24834571778774261,
          0.008211329579353333,
          -0.1040705218911171,
          -1.2564287185668945
        ],
        [
          0.32563716173171997,
          -0.02099044993519783,
          0.2625955641269684,
          -0.03743277117609978,
          -0.5297805070877075
        ],
        [
          -0.5316570997238159,
          -0.5106404423713684,
          0.5122741460800171,
          -0.005108984187245369,
          0.2579258680343628
        ],
        [
          -0.33369600772857666,
          -0.47798916697502136,
          0.41782045364379883,
          -0.24765752255916595,
          -0.17347918450832367
        ],
        [
          0.03839744254946709,
          0.16351144015789032,
          -0.4134308397769928,
          -0.06766293197870255,
          0.3317192792892456
        ],
        [
          -0.08867472410202026,
          -0.133320614695549,
          0.3390408456325531,
          0.13491331040859222,
          -0.7011090517044067
        ],
        [
          -0.3737865388393402,
          0.5576620697975159,
          -0.10324636101722717,
          -0.07114246487617493,
          -1.3666698932647705
        ],
        [
          -0.42184650897979736,
          0.0989142507314682,
          0.04633748158812523,
          -0.27164673805236816,
          -0.6428725719451904
        ],
        [
          -0.47326967120170593,
          -0.5183630585670471,
          -0.20872804522514343,
          -0.3871545195579529,
          -0.9943618178367615
        ],
        [
          0.5044721364974976,
          -0.06108661741018295,
          0.25133267045021057,
          -0.4255647361278534,
          -0.25566014647483826
        ],
        [
          -0.3385213613510132,
          0.0832870602607727,
          -0.047534793615341187,
          -0.02407541126012802,
          -1.1551743745803833
        ],
        [
          -0.09886548668146133,
          -0.10618937760591507,
          -0.04497409984469414,
          -0.01430363580584526,
          -1.1498173475265503
        ],
        [
          -0.512398362159729,
          -0.10171398520469666,
          -0.3941616117954254,
          0.27365365624427795,
          -0.7226266264915466
        ],
        [
          0.31092581152915955,
          -0.07594694197177887,
          -0.27496299147605896,
          0.1853737086057663,
          -0.18160146474838257
        ],
        [
          -0.357266366481781,
          -0.34285956621170044,
          -0.4884050786495209,
          0.026403095573186874,
          -0.7975379824638367
        ],
        [
          0.06818076968193054,
          -0.5577912330627441,
          0.8892861604690552,
          -0.39606428146362305,
          -0.1379041075706482
        ],
        [
          0.1067693829536438,
          0.06107036769390106,
          0.2142050713300705,
          0.26111871004104614,
          -0.3979068696498871
        ],
        [
          0.028973296284675598,
          -0.32719355821609497,
          -0.21355387568473816,
          0.04760538041591644,
          0.2939309775829315
        ],
        [
          -0.43717530369758606,
          0.1912684589624405,
          0.2176099568605423,
          0.00716800894588232,
          -1.0547959804534912
        ],
        [
          0.4003235101699829,
          0.008112356066703796,
          0.04194854944944382,
          -0.047588299959897995,
          0.46525880694389343
        ],
        [
          0.07341421395540237,
          -0.20696009695529938,
          0.44065847992897034,
          0.037740644067525864,
          -0.22235970199108124
        ],
        [
          -0.3949145972728729,
          0.06669969856739044,
          0.197030708193779,
          -0.09871029108762741,
          -1.2725752592086792
        ],
        [
          -0.26891157031059265,
          -0.40634071826934814,
          0.061879757791757584,
          0.0065259793773293495,
          -1.2043232917785645
        ],
        [
          0.007124895695596933,
          0.08629511296749115,
          0.04726941138505936,
          -0.08259445428848267,
          0.008026559837162495
        ],
        [
          0.1865052729845047,
          -0.058685917407274246,
          0.020013274624943733,
          0.0019652878399938345,
          0.45810574293136597
        ],
        [
          0.06184976175427437,
          -0.34308096766471863,
          0.5021165609359741,
          0.3568883240222931,
          0.10464482009410858
        ],
        [
          -0.008693589828908443,
          -0.14011110365390778,
          -0.09833887964487076,
          0.021683935075998306,
          -0.004148667678236961
        ],
        [
          -0.6376039981842041,
          -0.18457677960395813,
          0.5116285085678101,
          -0.07742508500814438,
          -0.7304006814956665
        ],
        [
          -0.46630504727363586,
          -0.45830482244491577,
          -0.5381118059158325,
          -0.1597970575094223,
          -0.19669662415981293
        ],
        [
          0.348263144493103,
          -0.1499267965555191,
          -0.8155186772346497,
          -0.21701207756996155,
          -0.041496556252241135
        ],
        [
          0.3929436504840851,
          -0.051523543894290924,
          -0.22437335550785065,
          0.20389345288276672,
          -0.2514151632785797
        ],
        [
          -0.24331212043762207,
          0.3458652198314667,
          -0.24126115441322327,
          -0.026036027818918228,
          -1.2303485870361328
        ],
        [
          0.3569277226924896,
          0.2589292824268341,
          0.07353892922401428,
          -0.3051126003265381,
          -0.49905329942703247
        ],
        [
          -0.575417160987854,
          0.2700701355934143,
          0.38222914934158325,
          0.3670685589313507,
          -0.11821780353784561
        ],
        [
          -0.0576043576002121,
          -0.08278951048851013,
          -0.28124725818634033,
          -0.1500438004732132,
          -0.8479923605918884
        ],
        [
          0.24508485198020935,
          -0.7419541478157043,
          -0.14612703025341034,
          -0.3727973401546478,
          0.047892775386571884
        ],
        [
          -0.48991453647613525,
          -0.43921908736228943,
          0.3026854395866394,
          -0.0696580708026886,
          -0.2443649023771286
        ],
        [
          0.046814579516649246,
          -0.42812421917915344,
          -0.15408331155776978,
          0.02414846234023571,
          -0.08540116250514984
        ],
        [
          -0.6295256614685059,
          0.1198546439409256,
          -0.3728143572807312,
          0.14135782420635223,
          -0.2836254835128784
        ],
        [
          0.29211190342903137,
          -0.7061877846717834,
          0.18496562540531158,
          -0.11569590866565704,
          0.19694848358631134
        ],
        [
          0.39502909779548645,
          -0.215443953871727,
          -0.005579998716711998,
          -0.03853694722056389,
          -0.4487498998641968
        ],
        [
          0.12086683511734009,
          -0.8802367448806763,
          0.5017390251159668,
          0.5956124663352966,
          0.265448659658432
        ],
        [
          -0.14992192387580872,
          -0.2658681869506836,
          0.3119135797023773,
          -0.029420556500554085,
          -1.3131887912750244
        ],
        [
          -0.2206885814666748,
          -0.291864275932312,
          0.01424805074930191,
          -0.03493378311395645,
          -0.9286841154098511
        ],
        [
          0.05589795112609863,
          -0.43276113271713257,
          0.4229626953601837,
          0.40435490012168884,
          0.011084180325269699
        ],
        [
          0.03945409506559372,
          -0.3117481768131256,
          -0.49669528007507324,
          -0.04443797096610069,
          0.06900510936975479
        ],
        [
          -0.38363540172576904,
          0.0552976056933403,
          -0.021363740786910057,
          -0.0036318935453891754,
          -1.1851598024368286
        ],
        [
          0.12912610173225403,
          -0.18297868967056274,
          -0.21277494728565216,
          -0.12488296627998352,
          -0.5294038653373718
        ],
        [
          0.40972262620925903,
          -0.3195488154888153,
          0.48413312435150146,
          -0.28127315640449524,
          0.10306338220834732
        ],
        [
          0.3086758852005005,
          -0.05899036303162575,
          0.041184086352586746,
          -0.017993951216340065,
          0.9715644121170044
        ],
        [
          0.06524498015642166,
          0.20781493186950684,
          0.4759083390235901,
          0.0012397367972880602,
          0.13262739777565002
        ]
      ],
      "bias": [
        -0.15552251040935516,
        0.168838769197464,
        0.7592566609382629,
        0.6934604048728943,
        -0.7671089172363281,
        -0.9341543912887573,
        -0.08022065460681915,
        -0.3868820369243622,
        0.015317081473767757,
        -0.49557939171791077,
        0.6063541769981384,
        0.35017144680023193,
        0.03725685924291611,
        -0.9020612835884094,
        0.5717876553535461,
        -0.07814625650644302,
        0.2036939114332199,
        0.6484804153442383,
        -0.03519992530345917,
        -0.33889615535736084,
        -0.340544730424881,
        0.051667384803295135,
        -0.07105421274900436,
        -0.9525802135467529,
        -0.5340015292167664,
        -0.36391574144363403,
        0.7970246076583862,
        -0.2258509397506714,
        -0.04226050153374672,
        0.6368409991264343,
        0.5598516464233398,
        0.48023098707199097,
        0.6282926797866821,
        0.7100477814674377,
        -0.8136476874351501,
        0.36587274074554443,
        0.6792216300964355,
        0.4263688623905182,
        0.19536060094833374,
        0.8537061810493469,
        -0.12051303684711456,
        -0.05239065736532211,
        -0.16922681033611298,
        0.3018542528152466,
        0.5629600286483765,
        0.2466609925031662,
        0.34933000802993774,
        -0.39573726058006287,
        -0.03789888322353363,
        0.3008868992328644,
        0.8446671962738037,
        0.5374721884727478,
        0.20990538597106934,
        0.14090698957443237,
        -0.016670582816004753,
        -0.35150665044784546,
        0.425523042678833,
        0.6747596859931946,
        0.7895121574401855,
        -1.0444649457931519,
        0.6989461183547974,
        -0.19164133071899414,
        0.8472869992256165,
        0.7979937791824341
      ]
    },
    {
      "weight": [
        [
          -0.14952147006988525,
          0.2350464016199112,
          0.10703159123659134,
          0.35664379596710205,
          0.6519895792007446,
          0.7351868748664856,
          -0.0805271565914154,
          -0.2086910456418991,
          -0.11331577599048615,
          0.7024334669113159,
          0.18502674996852875,
          0.07823775708675385,
          -0.050214193761348724,
          1.0294451713562012,
          0.12826520204544067,
          -0.0708596333861351,
          0.11668838560581207,
          0.3889695405960083,
          0.13906820118427277,
          0.6935094594955444,
          0.4163244962692261,
          0.18510277569293976,
          -0.19622331857681274,
          0.7711875438690186,
          0.5549009442329407,
          0.3342577815055847,
          0.13435061275959015,
          0.2782714068889618,
          0.0715411901473999,
          0.28935927152633667,
          0.22358131408691406,
          0.3748864531517029,
          0.1301729530096054,
          0.3665245473384857,
          0.8028960824012756,
          0.30287542939186096,
          0.27698683738708496,
          0.05440211668610573,
          -0.026696255430579185,
          0.4116556942462921,
          0.4759722054004669,
          0.1640753597021103,
          -0.14124388992786407,
          -0.1034306213259697,
          0.4770860970020294,
          -0.04420262202620506,
          0.18313230574131012,
          0.299966961145401,
          -0.18859300017356873,
          0.2377651035785675,
          0.21076057851314545,
          0.23985187709331512,
          -0.1009097695350647,
          0.00876661203801632,
          -0.14182083308696747,
          0.5577914714813232,
          0.3308884799480438,
          0.35060378909111023,
          0.21895113587379456,
          1.3153691291809082,
          0.47824397683143616,
          -0.12780407071113586,
          0.08943360298871994,
          0.4291206896305084
        ],
        [
          0.08859220892190933,
          -0.10508624464273453,
          -0.019005751237273216,
          -0.14163793623447418,
          -0.12308686226606369,
          0.0036615438293665648,
          0.023899300023913383,
          0.017125660553574562,
          -0.04334007576107979,
          0.09485946595668793,
          -0.0011245906352996826,
          -0.08311407268047333,
          -0.016733625903725624,
          0.005782505962997675,
          0.034341804683208466,
          -0.10734941065311432,
          0.028015175834298134,
          -0.08248294144868851,
          -0.11318476498126984,
          -0.08981528133153915,
          0.10116323828697205,
          0.0875348150730133,
          0.10256119817495346,
          0.052851248532533646,
          0.07322737574577332,
          -0.035906992852687836,
          -0.07819259911775589,
          0.04319774731993675,
          -0.07438267767429352,
          -0.09352465718984604,
          -0.04974197596311569,
          0.006776455789804459,
          0.054953690618276596,
          -0.06573135405778885,
          -0.09546598792076111,
          -0.0018241173820570111,
          -0.08309236913919449,
          -0.09073887765407562,
          0.05683184787631035,
          -0.0394783690571785,
          0.09551650285720825,
          0.10203598439693451,
          0.027965519577264786,
          0.033659785985946655,
          0.009481309913098812,
          -0.007429011631757021,
          -0.025321394205093384,
          -0.009884738363325596,
          0.037271898239851,
          0.09678280353546143,
          -0.050576917827129364,
          -0.07287561893463135,
          -0.03961756080389023,
          -0.06975463032722473,
          0.01193261705338955,
          0.07508432120084763,
          0.07851751893758774,
          0.040396299213171005,
          -0.10974526405334473,
          -0.08691217005252838,
          -0.0455218181014061,
          -0.03239057958126068,
          0.000928966561332345,
          -0.12423251569271088
        ],
        [
          -0.04268021509051323,
          -0.04122505336999893,
          -0.01907861791551113,
          0.28577306866645813,
          0.6243167519569397,
          0.5869367718696594,
          0.06240883842110634,
          -0.09115399420261383,
          -0.11046835035085678,
          0.6540302038192749,
          0.09328147023916245,
          0.11645243316888809,
          0.11821065098047256,
          0.87754225730896,
          0.06591024994850159,
          -0.022741708904504776,
          0.13495005667209625,
          0.27164319157600403,
          0.10528067499399185,
          0.5738702416419983,
          0.37601256370544434,
          0.3705647885799408,
          0.039035819470882416,
          0.7818841338157654,
          0.460679829120636,
          0.25273120403289795,
          -0.043896205723285675,
          0.3875344395637512,
          -0.0697132796049118,
          0.11623130738735199,
          0.01804744452238083,
          0.4001217186450958,
          0.16524718701839447,
          0.2968946099281311,
          0.9174705743789673,
          0.42554694414138794,
          0.21373242139816284,
          -0.019691145047545433,
          0.0015488974750041962,
          0.3646206557750702,
          0.28990641236305237,
          0.1642650067806244,
          -0.09503033012151718,
          -0.09409432858228683,
          0.5192981362342834,
          -0.033625829964876175,
          0.12874118983745575,
          0.33037069439888,
          -0.00481460290029645,
          0.24705597758293152,
          0.2753616273403168,
          0.008931770920753479,
          -0.1167447566986084,
          -0.0925026461482048,
          -0.1482807844877243,
          0.41608870029449463,
          0.20829589664936066,
          0.10543415695428848,
          0.0967920571565628,
          1.0481029748916626,
          0.22256627678871155,
          0.009408856742084026,
          0.15143604576587677,
          0.1018233671784401
        ],
        [
          -0.04330064356327057,
          0.05592488870024681,
          -0.07502438873052597,
          -0.07050590962171555,
          0.07101070880889893,
          -0.11491795629262924,
          0.001744799898006022,
          0.09748313575983047,
          0.014157338999211788,
          0.02798748016357422,
          -0.08028252422809601,
          -0.012843047268688679,
          -0.006291817873716354,
          0.030679285526275635,
          0.03484965115785599,
          0.10116227716207504,
          -0.10541801154613495,
          0.003746911883354187,
          -0.07314272224903107,
          -0.10488830506801605,
          -0.016015157103538513,
          -0.12035913020372391,
          0.0731549859046936,
          0.014476850628852844,
          -0.07729008048772812,
          0.059207286685705185,
          -0.13085484504699707,
          -0.056346774101257324,
          -0.03783128410577774,
          -0.11677510291337967,
          -0.09349103271961212,
          -0.02833518385887146,
          0.0807603970170021,
          0.10934554040431976,
          0.07323051244020462,
          -0.08460962027311325,
          -0.09608950465917587,
          0.09588062018156052,
          0.03702373057603836,
          -0.007037172559648752,
          0.009379897266626358,
          -0.10046209394931793,
          -0.047741033136844635,
          0.10670268535614014,
          -0.03795187547802925,
          -0.020337937399744987,
          -0.11061559617519379,
          -0.0782037153840065,
          -0.014202086254954338,
          -0.08674737066030502,
          -0.02776850387454033,
          0.044134721159935,
          -0.1358785331249237,
          0.02308732457458973,
          -0.09345526993274689,
          -0.07054224610328674,
          0.03527502343058586,
          0.0888698548078537,
          -0.047608837485313416,
          -0.05732659995555878,
          -0.12624920904636383,
          -0.07810274511575699,
          -0.12069553881883621,
          -0.041294828057289124
        ],
        [
          0.006223713047802448,
          -0.13829877972602844,
          0.08907550573348999,
          0.051243461668491364,
          -0.151276633143425,
          -0.08985480666160583,
          0.02080211229622364,
          -0.04534555599093437,
          -0.033169474452733994,
          -0.08153162896633148,
          0.07142487168312073,
          -0.08964812755584717,
          0.08160329610109329,
          -0.010539432987570763,
          0.004625213332474232,
          0.06829699128866196,
          -0.05132642388343811,
          -0.09566791355609894,
          -0.04047055542469025,
          0.0734664797782898,
          -0.1187131330370903,
          -0.003817722899839282,
          -0.14274033904075623,
          0.043834153562784195,
          0.009623569436371326,
          -0.020924299955368042,
          0.0337531678378582,
          -0.027346648275852203,
          0.04791876673698425,
          -0.11860296875238419,
          -0.03910549357533455,
          0.023073893040418625,
          0.10432683676481247,
          0.029774615541100502,
          -0.12777693569660187,
          0.06292220950126648,
          -0.04822235554456711,
          -0.04620010405778885,
          -0.1356070190668106,
          -0.04910736903548241,
          0.05771835520863533,
          -0.007924477569758892,
          -0.09233344346284866,
          0.01878458820283413,
          -0.07008318603038788,
          0.09423377364873886,
          -0.1344490349292755,
          -0.06023430451750755,
          -0.1401827335357666,
          -0.0814337283372879,
          0.006955349817872047,
          0.09229495376348495,
          0.0009275879710912704,
          0.10262703150510788,
          0.004786737263202667,
          0.04004743695259094,
          0.06607602536678314,
          0.07270900160074234,
          -0.09726422280073166,
          0.08865085989236832,
          0.04474516585469246,
          -0.07811245322227478,
          -0.07919086515903473,
          -0.12576080858707428
        ],
        [
          -0.029412467032670975,
          -0.04173958674073219,
          0.09930811077356339,
          0.3619967997074127,
          0.35596758127212524,
          0.6654124855995178,
          -0.034956175833940506,
          -0.012059465982019901,
          0.003575385082513094,
          0.3978276252746582,
          0.23545628786087036,
          0.142251655459404,
          0.10003060102462769,
          0.814939022064209,
          -0.031559769064188004,
          -0.029193663969635963,
          0.10226907581090927,
          0.29232701659202576,
          0.11304385215044022,
          0.6800391674041748,
          0.3210633099079132,
          0.27688491344451904,
          0.006755828857421875,
          0.618575930595398,
          0.40866217017173767,
          0.16854089498519897,
          0.12094177305698395,
          0.1418396681547165,
          -0.09893795847892761,
          0.1749211698770523,
          0.11626977473497391,
          0.4354110360145569,
          -0.05733751878142357,
          0.15531711280345917,
          0.8465954065322876,
          0.3976551592350006,
          0.16688604652881622,
          0.03372935205698013,
          0.07654374092817307,
          0.3816584348678589,
          0.21816371381282806,
          0.07043436169624329,
          0.032083481550216675,
          -0.0932186096906662,
          0.34403371810913086,
          0.0490407831966877,
          0.1366279423236847,
          0.22491516172885895,
          -0.11712496727705002,
          0.14302313327789307,
          0.3528238534927368,
          0.059241883456707,
          -0.020730718970298767,
          0.04756726324558258,
          -0.11072167754173279,
          0.546188235282898,
          0.22491012513637543,
          0.16499526798725128,
          0.12678618729114532,
          1.000739574432373,
          0.14364558458328247,
          0.039209187030792236,
          0.06983858346939087,
          -0.007921511307358742
        ],
        [
          -0.13728724420070648,
          0.18224777281284332,
          0.09566149860620499,
          0.383623868227005,
          0.38750189542770386,
          0.5735889077186584,
          -0.039254773408174515,
          -0.08775535970926285,
          -0.14922206103801727,
          0.5312274098396301,
          0.12772102653980255,
          0.022115105763077736,
          0.06485120207071304,
          0.8717800378799438,
          0.049285467714071274,
          0.04373963922262192,
          0.05801570415496826,
          0.10325506329536438,
          0.13135415315628052,
          0.6100528836250305,
          0.29378482699394226,
          0.3521735966205597,
          -0.0891520231962204,
          0.7988709211349487,
          0.5901971459388733,
          0.12507930397987366,
          0.11786085367202759,
          0.14396072924137115,
          -0.05753562971949577,
          0.08435103297233582,
          -0.035381708294153214,
          0.45714226365089417,
          0.01380707323551178,
          0.30059200525283813,
          0.6653075218200684,
          0.36212357878685,
          0.05319187045097351,
          -0.07756086438894272,
          0.05472177639603615,
          0.3281209468841553,
          0.40479937195777893,
          0.04264518991112709,
          -0.11164489388465881,
          0.020494189113378525,
          0.44977429509162903,
          0.011770380660891533,
          0.15980014204978943,
          0.14955344796180725,
          0.008116645738482475,
          0.22992625832557678,
          0.20753547549247742,
          0.21726569533348083,
          0.044030219316482544,
          0.10255102068185806,
          -0.09186011552810669,
          0.36356061697006226,
          0.25023695826530457,
          0.20413264632225037,
          0.23598633706569672,
          0.9921883940696716,
          0.330086886882782,
          -0.071378193795681,
          0.11365871876478195,
          0.10338398069143295
        ],
        [
          -0.2070769965648651,
          -0.00302577274851501,
          0.0675082802772522,
          0.4353576600551605,
          0.5587942004203796,
          0.8301824927330017,
          -0.07337355613708496,
          -0.20071826875209808,
          -0.14299499988555908,
          0.5980785489082336,
          0.07221478968858719,
          0.08369455486536026,
          -0.03722070902585983,
          1.0661176443099976,
          0.04342525452375412,
          0.014427313581109047,
          0.2743220925331116,
          0.41141995787620544,
          0.16665536165237427,
          0.6943371891975403,
          0.3730415105819702,
          0.35600438714027405,
          -0.22157929837703705,
          0.9703466892242432,
          0.7195878624916077,
          0.3341013193130493,
          0.2347559928894043,
          0.4148426651954651,
          -0.02170603536069393,
          0.12928517162799835,
          0.2075609564781189,
          0.3845720589160919,
          0.048963386565446854,
          0.39620333909988403,
          1.0687750577926636,
          0.410365492105484,
          0.25496068596839905,
          -0.05294568091630936,
          0.02872307226061821,
          0.46966415643692017,
          0.4336417615413666,
          0.1825215369462967,
          -0.20310541987419128,
          -0.09726192057132721,
          0.5901182293891907,
          -0.16134651005268097,
          0.2230301797389984,
          0.33016279339790344,
          -0.07881508022546768,
          0.25985047221183777,
          0.33685410022735596,
          0.27493929862976074,
          -0.05344337970018387,
          0.08012934774160385,
          -0.01859758421778679,
          0.5390788912773132,
          0.25075802206993103,
          0.27290889620780945,
          0.21728134155273438,
          1.2717094421386719,
          0.3506833016872406,
          -0.13150227069854736,
          0.23428687453269958,
          0.28830352425575256
        ],
        [
          -0.044386789202690125,
          -0.051403120160102844,
          -0.04471944272518158,
          -0.05991705134510994,
          0.11240285634994507,
          0.06620566546916962,
          0.11287195980548859,
          0.0003992021083831787,
          0.025208860635757446,
          0.04334558546543121,
          -0.12888310849666595,
          0.01116207242012024,
          -0.020459748804569244,
          -0.07008175551891327,
          -0.10977929830551147,
          0.09907807409763336,
          0.0906427651643753,
          0.04622583091259003,
          0.11928121745586395,
          -0.05072598159313202,
          -0.031316544860601425,
          0.0367632620036602,
          -0.020653322339057922,
          -0.0245293527841568,
          -0.1033201813697815,
          0.0335826575756073,
          -0.07554090023040771,
          0.004545778036117554,
          0.11041425913572311,
          -0.038476914167404175,
          -0.050098929554224014,
          0.06465566158294678,
          -0.05704144760966301,
          -0.021063877269625664,
          0.10357070714235306,
          -0.0564713180065155,
          -0.10056453198194504,
          -0.06995546817779541,
          -0.03465570509433746,
          -0.06920565664768219,
          -0.07610788196325302,
          0.03901852294802666,
          0.021242216229438782,
          -0.04000769555568695,
          -0.09711392223834991,
          -0.03935748338699341,
          -0.06561435014009476,
          -0.04067736864089966,
          -0.112765371799469,
          0.015798572450876236,
          -0.10226976126432419,
          -0.10860269516706467,
          -0.11407820135354996,
          0.052172958850860596,
          -0.08389152586460114,
          -0.051593855023384094,
          0.08705539256334305,
          0.055863700807094574,
          0.0611775666475296,
          -0.12650465965270996,
          -0.09829893708229065,
          -0.04718887805938721,
          0.10326220095157623,
          0.0013273329241201282
        ],
        [
          -0.09348714351654053,
          -0.0045333132147789,
          -0.10239981859922409,
          -0.027387410402297974,
          -0.03968792408704758,
          0.10289173573255539,
          0.03340105712413788,
          -0.021796390414237976,
          0.01580006442964077,
          -0.04139923304319382,
          0.04379649832844734,
          0.04412943497300148,
          0.03356826305389404,
          -0.04872211813926697,
          0.10664384067058563,
          -0.02336227521300316,
          -0.05398058891296387,
          0.07828925549983978,
          0.0965661033987999,
          0.1243949681520462,
          0.037032291293144226,
          -0.042611733078956604,
          0.0634865015745163,
          0.10724431276321411,
          -0.12260426580905914,
          -0.02080189436674118,
          -0.0905616506934166,
          0.017979342490434647,
          0.05169810354709625,
          -0.031139524653553963,
          -0.010457143187522888,
          0.050947804003953934,
          -0.02100871503353119,
          -0.11028841882944107,
          0.09470102936029434,
          -0.0682302936911583,
          -0.013732314109802246,
          0.011790797114372253,
          -0.012828138656914234,
          -0.12290173023939133,
          0.05203394964337349,
          -0.056778937578201294,
          -0.06483244895935059,
          0.02986443042755127,
          -0.07054872065782547,
          -0.057769954204559326,
          -0.047434788197278976,
          -0.04695969820022583,
          -0.0522046834230423,
          -0.03902676701545715,
          0.02716844715178013,
          -0.10646821558475494,
          -0.07566003501415253,
          0.0018239319324493408,
          0.012067489326000214,
          0.06372057646512985,
          -0.09312146157026291,
          0.034583572298288345,
          0.07104872167110443,
          0.06940752267837524,
          -0.12174365669488907,
          -0.04770052433013916,
          -0.10744570195674896,
          -0.08441740274429321
        ],
        [
          0.02432602271437645,
          -0.3114147484302521,
          0.11466566473245621,
          1.1809186935424805,
          -1.6082022190093994,
          -1.8778380155563354,
          -0.02225561998784542,
          -0.14242883026599884,
          -0.02682030387222767,
          -1.3145992755889893,
          0.280149906873703,
          0.1429888755083084,
          0.27900537848472595,
          -1.4578672647476196,
          -0.004595519043505192,
          -0.2474004328250885,
          0.2197667360305786,
          0.9362582564353943,
          -0.2744189500808716,
          -1.0213615894317627,
          -1.316219687461853,
          -0.5320351123809814,
          -0.07219502329826355,
          -1.6035767793655396,
          -1.4124630689620972,
          -0.943512499332428,
          0.1862507462501526,
          -0.8309428095817566,
          0.2198021560907364,
          0.12962770462036133,
          0.2726418077945709,
          -0.009149448946118355,
          0.030209841206669807,
          0.7567179203033447,
          -1.2600756883621216,
          -0.30260127782821655,
          0.19920875132083893,
          0.09246071428060532,
          0.3745543658733368,
          1.2369176149368286,
          -1.0444403886795044,
          -0.31829777359962463,
          -0.16866286098957062,
          0.06057748943567276,
          0.16357311606407166,
          0.012912535108625889,
          0.13181264698505402,
          -0.3629365563392639,
          0.06443329900503159,
          0.33499571681022644,
          0.9349355697631836,
          0.21055229008197784,
          -0.04652080312371254,
          -0.0829993262887001,
          -0.1255893111228943,
          -1.5294010639190674,
          0.37306109070777893,
          0.6533846855163574,
          0.46110737323760986,
          -1.015295147895813,
          0.41154366731643677,
          -0.0015906101325526834,
          0.15398730337619781,
          0.39608076214790344
        ],
        [
          0.2414051592350006,
          -0.12869364023208618,
          -0.5829119682312012,
          0.2898280620574951,
          -0.07230541855096817,
          -0.38393542170524597,
          0.3480047583580017,
          0.38816016912460327,
          -0.12244953960180283,
          0.6726667284965515,
          -0.035318225622177124,
          0.31525540351867676,
          -0.144600510597229,
          0.4080720841884613,
          0.20223602652549744,
          -0.19118808209896088,
          -0.1717926263809204,
          0.19200070202350616,
          0.03264288976788521,
          0.8625041246414185,
          -0.10284742712974548,
          -0.008296016603708267,
          -0.5022369623184204,
          -0.5555139183998108,
          -0.29630541801452637,
          0.039449598640203476,
          0.07680350542068481,
          -0.1097918227314949,
          0.20494461059570312,
          0.2859981954097748,
          -0.0861687958240509,
          0.24237775802612305,
          -0.6414645910263062,
          -0.1326853334903717,
          -0.31216251850128174,
          -0.11275313794612885,
          0.18027178943157196,
          -1.1996172666549683,
          -0.007087867707014084,
          0.07613696157932281,
          -0.026235738769173622,
          -0.13305942714214325,
          0.14542695879936218,
          0.3614819347858429,
          0.34837692975997925,
          0.5475110411643982,
          0.1417105495929718,
          -0.13920702040195465,
          -0.21853384375572205,
          0.0046163215301930904,
          -0.22011803090572357,
          -0.047498997300863266,
          0.3305523097515106,
          0.2019488513469696,
          -0.0773453637957573,
          -0.21092909574508667,
          -0.06996077299118042,
          -0.13698144257068634,
          -0.08526001125574112,
          -1.010009527206421,
          0.1254173219203949,
          -0.04620552435517311,
          -0.8690952658653259,
          0.19199073314666748
        ],
        [
          -0.03841223195195198,
          0.08346351981163025,
          -0.01777496002614498,
          0.3383117914199829,
          0.6164597272872925,
          0.7538173794746399,
          -0.13504405319690704,
          0.02962839975953102,
          -0.08143740892410278,
          0.6157071590423584,
          0.22493045032024384,
          0.14602212607860565,
          -0.04880814626812935,
          1.0735684633255005,
          -0.07801397144794464,
          0.021092697978019714,
          0.058768339455127716,
          0.20699799060821533,
          0.06757591664791107,
          0.5950318574905396,
          0.3664403259754181,
          0.2558174729347229,
          0.07194191217422485,
          0.8277562260627747,
          0.6210433840751648,
          0.2953757643699646,
          0.1334979236125946,
          0.26210370659828186,
          0.004620379768311977,
          0.1441386342048645,
          -0.058213893324136734,
          0.24974030256271362,
          0.05797278881072998,
          0.2029007226228714,
          0.8152565360069275,
          0.2756611108779907,
          0.12274663150310516,
          0.09592369943857193,
          -0.005672303028404713,
          0.36967045068740845,
          0.41411134600639343,
          0.03894175961613655,
          -0.165432870388031,
          -0.11891365796327591,
          0.3624900281429291,
          -0.10552966594696045,
          0.09661391377449036,
          0.18535080552101135,
          -0.13083644211292267,
          0.1141086220741272,
          0.20118270814418793,
          0.2665586471557617,
          -0.08246097713708878,
          -0.11087427288293839,
          0.010193897411227226,
          0.4442968964576721,
          0.3950629234313965,
          0.27728474140167236,
          0.2848680317401886,
          1.0261554718017578,
          0.36200135946273804,
          0.061997659504413605,
          -0.017383623868227005,
          0.23920433223247528
        ],
        [
          0.07271930575370789,
          -0.024090183898806572,
          0.03938658908009529,
          -0.0719737559556961,
          -0.1362917721271515,
          0.009109537117183208,
          0.0162863340228796,
          -0.10309158265590668,
          0.040884315967559814,
          -0.13969746232032776,
          0.0848565325140953,
          0.09878849238157272,
          0.01519875880330801,
          -0.0985109731554985,
          0.040149711072444916,
          -0.006681480910629034,
          0.013683512806892395,
          0.036105457693338394,
          0.07079900056123734,
          -0.07720436900854111,
          -0.04861554503440857,
          0.014665890485048294,
          -0.006906758062541485,
          0.08125040680170059,
          -0.0835975632071495,
          -0.030998464673757553,
          0.0018906512996181846,
          -0.0568508543074131,
          0.06474753469228745,
          -0.010837186127901077,
          -0.13462528586387634,
          -0.04275311902165413,
          -0.07710319757461548,
          -0.015461494214832783,
          -0.03475288674235344,
          -0.15097317099571228,
          -0.04390478879213333,
          -0.0322001576423645,
          -0.06322676688432693,
          0.08903110027313232,
          -0.05155602842569351,
          0.06554664671421051,
          0.010730700567364693,
          -0.1265627145767212,
          0.013739103451371193,
          0.08318427950143814,
          -0.11971217393875122,
          -0.10094291716814041,
          0.10274724662303925,
          0.07880717515945435,
          -0.08690427988767624,
          0.047162171453237534,
          -0.03638554736971855,
          -0.14402449131011963,
          -0.011369092389941216,
          0.01577257364988327,
          -0.05945930257439613,
          0.017481714487075806,
          -0.11970604956150055,
          0.06677334010601044,
          0.08805037289857864,
          0.04852784425020218,
          0.00039679737528786063,
          0.01902157813310623
        ],
        [
          -0.16715843975543976,
          0.02916351519525051,
          0.030538398772478104,
          0.22684186697006226,
          0.3980099558830261,
          0.7438370585441589,
          0.044438138604164124,
          -0.19825270771980286,
          -0.044123850762844086,
          0.6001558899879456,
          0.24996301531791687,
          0.11308582127094269,
          0.16469137370586395,
          0.9199453592300415,
          0.08783834427595139,
          0.12094710022211075,
          0.027917250990867615,
          0.10989008843898773,
          0.09799577295780182,
          0.6719409227371216,
          0.3212224841117859,
          0.25670862197875977,
          -0.060607243329286575,
          0.7808786630630493,
          0.47741347551345825,
          0.31673213839530945,
          0.11301622539758682,
          0.17891982197761536,
          -0.0007450580596923828,
          0.11905425041913986,
          0.0876355692744255,
          0.46061062812805176,
          0.06695864349603653,
          0.21766488254070282,
          0.923804521560669,
          0.25181418657302856,
          0.05694473534822464,
          0.010080551728606224,
          -0.0448528490960598,
          0.2760849595069885,
          0.22675098478794098,
          0.15100760757923126,
          -0.06537920981645584,
          -0.0065030260011553764,
          0.31834933161735535,
          -0.18729089200496674,
          0.1685856133699417,
          0.32119131088256836,
          -0.18254344165325165,
          0.2004520446062088,
          0.15019816160202026,
          0.15494754910469055,
          0.0763513445854187,
          0.06804708391427994,
          -0.12441466003656387,
          0.5219590663909912,
          0.35846570134162903,
          0.2021249383687973,
          0.2844165861606598,
          1.0636295080184937,
          0.24510234594345093,
          -0.11424894630908966,
          0.04892460256814957,
          0.14377610385417938
        ],
        [
          -0.1045452207326889,
          0.01474309153854847,
          0.0864180400967598,
          0.40495434403419495,
          0.4768422842025757,
          0.7557215690612793,
          -0.057805873453617096,
          -0.16978350281715393,
          -0.12979722023010254,
          0.6586681604385376,
          0.23308975994586945,
          0.08731388300657272,
          -0.04613972082734108,
          1.1347965002059937,
          0.05729446932673454,
          -0.03814481198787689,
          0.07847613841295242,
          0.2979607880115509,
          -0.01791743002831936,
          0.7274777889251709,
          0.5168470740318298,
          0.1812850534915924,
          -0.15328998863697052,
          0.7619054317474365,
          0.7230684757232666,
          0.3982705771923065,
          0.10781621932983398,
          0.4320187568664551,
          -0.09049081802368164,
          0.08558189123868942,
          0.12197935581207275,
          0.4683535397052765,
          0.23768660426139832,
          0.30101335048675537,
          0.9980208277702332,
          0.4485269784927368,
          0.29575589299201965,
          -0.06555101275444031,
          0.1521727293729782,
          0.2060600370168686,
          0.484502375125885,
          0.1417759209871292,
          -0.2048131376504898,
          0.020596522837877274,
          0.4847186803817749,
          -0.19173552095890045,
          0.08075402677059174,
          0.32023999094963074,
          0.013779181987047195,
          0.1328638792037964,
          0.36492058634757996,
          0.17855817079544067,
          -0.05524830520153046,
          0.011075740680098534,
          -0.17831197381019592,
          0.4370454251766205,
          0.3169407844543457,
          0.12352828681468964,
          0.13738049566745758,
          1.2568389177322388,
          0.2627216577529907,
          -0.11001677066087723,
          0.0944611206650734,
          0.23389673233032227
        ],
        [
          -0.06900182366371155,
          -0.007049688138067722,
          -0.03424287214875221,
          0.019598839804530144,
          -0.0033121006563305855,
          -0.07314309477806091,
          -0.059601109474897385,
          -0.01049815583974123,
          -0.07799816131591797,
          0.0018293947214260697,
          -0.020235881209373474,
          0.04037069156765938,
          0.010925444774329662,
          0.08163543790578842,
          -0.021152017638087273,
          -0.10203458368778229,
          0.040003858506679535,
          -0.0968843325972557,
          -0.029529942199587822,
          -0.05168658494949341,
          -0.06126073747873306,
          -0.06002233922481537,
          0.09783149510622025,
          0.05997207388281822,
          0.01895652525126934,
          0.10704073309898376,
          -0.12369848042726517,
          0.009000391699373722,
          0.06217760220170021,
          0.07133261114358902,
          -0.1151805967092514,
          0.03231564909219742,
          -0.08778399229049683,
          -0.020139621570706367,
          -0.03913969546556473,
          -0.11682627350091934,
          -0.1362733393907547,
          -0.09258940070867538,
          0.056721314787864685,
          0.04384348541498184,
          -0.12166441231966019,
          -0.05902324244379997,
          -0.0070598311722278595,
          -0.11924233287572861,
          0.05848417803645134,
          0.09637254476547241,
          0.011154454201459885,
          -0.10612349957227707,
          0.014173039235174656,
          0.030426722019910812,
          0.08487412333488464,
          -0.0778690055012703,
          -0.1294807344675064,
          0.03843666985630989,
          -0.00038631082861684263,
          -0.05223298445343971,
          -0.06677821278572083,
          -0.07860812544822693,
          0.08727323263883591,
          -0.034327659755945206,
          0.07623535394668579,
          0.0952502191066742,
          0.007488604169338942,
          0.009980508126318455
        ],
        [
          -0.06914292275905609,
          0.14518311619758606,
          -0.06422511488199234,
          0.38510996103286743,
          0.452759325504303,
          0.6988192200660706,
          -0.024065036326646805,
          -0.11470739543437958,
          -0.08295103162527084,
          0.5999117493629456,
          0.03112783469259739,
          -0.04114234074950218,
          0.018890738487243652,
          0.8893466591835022,
          0.06414484232664108,
          0.08139167726039886,
          0.1150968074798584,
          0.3456669747829437,
          0.01583503745496273,
          0.5188182592391968,
          0.31004437804222107,
          0.15028202533721924,
          -0.12348747253417969,
          0.6165249943733215,
          0.42481255531311035,
          0.2673279047012329,
          0.1127871721982956,
          0.3799370229244232,
          0.11669738590717316,
          0.10224900394678116,
          0.07227526605129242,
          0.26824501156806946,
          0.08699236810207367,
          0.13699398934841156,
          0.8497145771980286,
          0.32138141989707947,
          0.1322484016418457,
          0.06230466440320015,
          -0.020735664293169975,
          0.37973687052726746,
          0.3650497496128082,
          0.20298190414905548,
          -0.037202976644039154,
          0.07239803671836853,
          0.5069293975830078,
          0.016285283491015434,
          0.1894645392894745,
          0.1613263487815857,
          0.017692096531391144,
          0.16989241540431976,
          0.3193252384662628,
          0.25265422463417053,
          0.007913683541119099,
          -0.056624192744493484,
          -0.036821577697992325,
          0.47196656465530396,
          0.3135884702205658,
          0.1687353253364563,
          0.25978678464889526,
          1.1602697372436523,
          0.19485671818256378,
          -0.03979778662323952,
          0.026249486953020096,
          0.0341445729136467
        ],
        [
          -0.061422061175107956,
          0.01819363608956337,
          -0.005750319454818964,
          0.3070110082626343,
          0.46110770106315613,
          0.805088222026825,
          0.011759506538510323,
          0.03726576268672943,
          -0.06220639869570732,
          0.5951443910598755,
          0.1712782382965088,
          0.059944309294223785,
          -0.05800163373351097,
          0.9012212753295898,
          -0.018997643142938614,
          -0.007711189333349466,
          0.179583340883255,
          0.28925788402557373,
          0.17087972164154053,
          0.6475271582603455,
          0.3478626608848572,
          0.1549186408519745,
          -0.14065520465373993,
          0.6959708333015442,
          0.6016424298286438,
          0.3136591613292694,
          0.14747615158557892,
          0.23512455821037292,
          -0.011279352940618992,
          0.08534038811922073,
          0.04677978903055191,
          0.40269336104393005,
          0.04290822148323059,
          0.2704400420188904,
          0.8474169969558716,
          0.3602580428123474,
          0.06963282823562622,
          -0.05584714561700821,
          0.06412989646196365,
          0.2675626575946808,
          0.2636014223098755,
          0.17649373412132263,
          -0.06939377635717392,
          -0.033450301736593246,
          0.3863164782524109,
          -0.07156084477901459,
          -0.010487211868166924,
          0.2416684925556183,
          -0.07693544030189514,
          0.22085756063461304,
          0.2618280053138733,
          0.1451650708913803,
          -0.0005708231474272907,
          0.07572470605373383,
          -0.1017020121216774,
          0.5380062460899353,
          0.3393481969833374,
          0.1237415224313736,
          0.21240876615047455,
          1.0687299966812134,
          0.24861009418964386,
          -0.10101718455553055,
          -0.03877732902765274,
          0.23105785250663757
        ],
        [
          -0.2933388948440552,
          0.14381590485572815,
          0.06540826708078384,
          0.34729763865470886,
          0.6433539986610413,
          0.9166401624679565,
          -0.15286074578762054,
          -0.16571563482284546,
          -0.2192777544260025,
          0.775674045085907,
          0.1793869435787201,
          0.2271762490272522,
          -0.05882583186030388,
          0.9959649443626404,
          0.161977156996727,
          -0.0611976757645607,
          0.1816626638174057,
          0.27561381459236145,
          0.24616152048110962,
          0.7111173272132874,
          0.3963080644607544,
          0.28892782330513,
          -0.089070625603199,
          0.9384912252426147,
          0.7453804016113281,
          0.2821274697780609,
          0.2033279836177826,
          0.20459610223770142,
          0.0026497654616832733,
          0.25829586386680603,
          0.20565934479236603,
          0.3833116888999939,
          0.10535971820354462,
          0.3408747613430023,
          0.8603012561798096,
          0.2935171127319336,
          0.13482002913951874,
          0.06154831871390343,
          0.10264251381158829,
          0.38007503747940063,
          0.4127787947654724,
          0.2200533151626587,
          -0.24138329923152924,
          -0.03404650464653969,
          0.502926766872406,
          -0.20934875309467316,
          0.25318822264671326,
          0.2503625750541687,
          -0.07329229265451431,
          0.09408707171678543,
          0.3300054967403412,
          0.14244866371154785,
          -0.06128846853971481,
          -0.09761534631252289,
          -0.07954869419336319,
          0.47814807295799255,
          0.44987499713897705,
          0.15795204043388367,
          0.3087295889854431,
          1.237403392791748,
          0.3903266489505768,
          -0.15502424538135529,
          0.2298615723848343,
          0.29801562428474426
        ],
        [
          0.03411857783794403,
          -0.002951846458017826,
          -0.24201036989688873,
          0.5363184213638306,
          -0.11296945810317993,
          -0.6679719090461731,
          0.038396596908569336,
          0.22776451706886292,
          -0.21250617504119873,
          0.5896232724189758,
          -0.22472766041755676,
          0.12119078636169434,
          0.5040579438209534,
          -0.108059361577034,
          0.14092077314853668,
          0.14548248052597046,
          0.15303917229175568,
          -0.05612591654062271,
          0.12358018755912781,
          0.7975263595581055,
          0.2836281359195709,
          -0.02414010278880596,
          -0.09707760065793991,
          -0.8593884706497192,
          -0.3431175649166107,
          -0.17101353406906128,
          -0.167556032538414,
          -0.46614205837249756,
          0.33116891980171204,
          0.23322266340255737,
          -0.36938872933387756,
          0.11503906548023224,
          -0.18327327072620392,
          0.0983041301369667,
          0.09699364751577377,
          -0.16793249547481537,
          0.032462041825056076,
          -0.21039165556430817,
          0.14157427847385406,
          -0.21999022364616394,
          0.2252926081418991,
          -0.2877950966358185,
          0.009081671945750713,
          0.10086891800165176,
          0.3737550675868988,
          0.33015647530555725,
          0.3529905378818512,
          -0.35150718688964844,
          -0.37924984097480774,
          0.1396862119436264,
          -0.15089258551597595,
          0.07507950812578201,
          0.2179480791091919,
          0.07969166338443756,
          0.042453013360500336,
          -0.04188291355967522,
          -0.21389053761959076,
          0.00021933889365755022,
          -0.45676738023757935,
          -1.118377447128296,
          -0.17312107980251312,
          0.035347387194633484,
          -0.2374202311038971,
          0.16928613185882568
        ],
        [
          0.10628964751958847,
          -0.3369116187095642,
          -1.5143605470657349,
          0.38878488540649414,
          -0.7531068921089172,
          -0.9075197577476501,
          -0.03571765497326851,
          0.37592554092407227,
          0.7766305804252625,
          -1.1081900596618652,
          0.33986106514930725,
          -0.5025174021720886,
          0.7913156747817993,
          -1.0155248641967773,
          -0.3141809105873108,
          0.7577227354049683,
          0.7298309803009033,
          0.551283061504364,
          -0.3759685754776001,
          -0.7488431930541992,
          0.10591263324022293,
          0.3832705616950989,
          -0.3283191919326782,
          -0.6060458421707153,
          -0.5078510642051697,
          -0.12552031874656677,
          -0.21859750151634216,
          0.15971513092517853,
          0.9114903211593628,
          -0.47842931747436523,
          0.7548368573188782,
          -0.1757390946149826,
          -0.7948905229568481,
          0.07937265187501907,
          -0.8698945641517639,
          -0.30738604068756104,
          0.17288026213645935,
          -1.5346261262893677,
          0.40928810834884644,
          0.4621810019016266,
          0.2106592208147049,
          0.6755738258361816,
          0.4430885314941406,
          -0.20530866086483002,
          -0.5299150347709656,
          0.18538103997707367,
          0.10669556260108948,
          -0.11897087097167969,
          0.7836093902587891,
          0.5407283306121826,
          0.41941043734550476,
          0.21894948184490204,
          0.7158002853393555,
          -0.41893643140792847,
          0.4566699266433716,
          -0.6057813167572021,
          0.32717856764793396,
          0.2299804836511612,
          0.6283360719680786,
          -1.1777012348175049,
          -0.027041537687182426,
          -1.2274444103240967,
          -1.5240564346313477,
          -0.33205175399780273
        ],
        [
          -0.2087191939353943,
          0.16816817224025726,
          0.04356054216623306,
          0.30182477831840515,
          0.46985477209091187,
          0.5973002314567566,
          0.051784440875053406,
          -0.1288669854402542,
          -0.17950834333896637,
          0.4781924784183502,
          0.18940241634845734,
          0.017789358273148537,
          0.023021992295980453,
          0.9467359781265259,
          -0.05378814786672592,
          -0.0010084586683660746,
          0.21957556903362274,
          0.16890983283519745,
          0.07915887236595154,
          0.5341722965240479,
          0.3345381021499634,
          0.3622884452342987,
          -0.05951998382806778,
          0.8974791765213013,
          0.5485964417457581,
          0.18318966031074524,
          -0.040392737835645676,
          0.3938042223453522,
          -0.09901546686887741,
          0.19104480743408203,
          0.07545460760593414,
          0.4093782901763916,
          0.10996746271848679,
          0.23949168622493744,
          0.9138584136962891,
          0.224217027425766,
          0.06806959211826324,
          0.10318529605865479,
          0.06642644107341766,
          0.276375412940979,
          0.29523560404777527,
          0.042161326855421066,
          -0.007433710619807243,
          -0.0262813251465559,
          0.4553148150444031,
          -0.039477791637182236,
          0.1816306859254837,
          0.15398524701595306,
          -0.14312826097011566,
          0.22453440725803375,
          0.3317195475101471,
          0.0686894878745079,
          -0.16641560196876526,
          -0.0044242399744689465,
          0.015983935445547104,
          0.5030843019485474,
          0.40589600801467896,
          0.11389724910259247,
          0.23357565701007843,
          1.0760693550109863,
          0.36316215991973877,
          0.040067873895168304,
          0.07944897562265396,
          0.23822598159313202
        ],
        [
          -0.1614483743906021,
          -0.0545269176363945,
          -0.07302815467119217,
          0.38709837198257446,
          0.5473427772521973,
          0.5800114274024963,
          0.025673987343907356,
          0.035783227533102036,
          -0.22433382272720337,
          0.6542994976043701,
          0.1531183123588562,
          0.04154103621840477,
          0.15981225669384003,
          1.0836448669433594,
          0.05843356251716614,
          0.11165443807840347,
          0.1990288496017456,
          0.23394696414470673,
          -0.03660336136817932,
          0.6325877904891968,
          0.30672329664230347,
          0.28564730286598206,
          -0.022842954844236374,
          0.7651721239089966,
          0.46760624647140503,
          0.18449264764785767,
          0.12132904678583145,
          0.33452922105789185,
          0.06721387803554535,
          0.07265502214431763,
          0.022122621536254883,
          0.3226860761642456,
          0.12168648838996887,
          0.1983644962310791,
          0.8949974179267883,
          0.3991245627403259,
          -0.0210601557046175,
          0.01039811223745346,
          0.00128175166901201,
          0.19886834919452667,
          0.371318519115448,
          0.125517800450325,
          0.044668447226285934,
          -0.09811814874410629,
          0.4891703724861145,
          -0.15906181931495667,
          0.049880798906087875,
          0.21426023542881012,
          0.03776495158672333,
          0.22055982053279877,
          0.14016465842723846,
          0.16523846983909607,
          -0.10387813299894333,
          -0.014651999808847904,
          -0.14739947021007538,
          0.42283591628074646,
          0.3863498866558075,
          0.08263256400823593,
          0.04171772673726082,
          1.1612436771392822,
          0.2953668534755707,
          -0.05909740552306175,
          0.1452515423297882,
          0.03940678387880325
        ],
        [
          -0.07588502764701843,
          -0.09905967116355896,
          -0.029270613566040993,
          -0.0425422303378582,
          0.07734335958957672,
          -0.007018625736236572,
          0.03991919755935669,
          -0.051944583654403687,
          0.10139904916286469,
          0.10537734627723694,
          -0.12336547672748566,
          -0.03212495148181915,
          -0.11606647074222565,
          0.053103357553482056,
          -0.11903232336044312,
          -0.07025256752967834,
          0.11415056884288788,
          -0.12893764674663544,
          0.0922255665063858,
          0.004675209987908602,
          0.08922693133354187,
          -0.07416423410177231,
          0.08210356533527374,
          0.015081718564033508,
          0.00011397791240597144,
          0.08531652390956879,
          -0.11881589889526367,
          -0.10623809695243835,
          0.11044816672801971,
          -0.08040893077850342,
          -0.10004321485757828,
          -0.016919614747166634,
          -0.04882557690143585,
          -0.027814645320177078,
          -0.09332334250211716,
          0.03456321358680725,
          -0.11753971129655838,
          0.010124117136001587,
          0.07294243574142456,
          0.013067360036075115,
          0.0057487403973937035,
          0.008460293523967266,
          -0.03661881387233734,
          -0.023812279105186462,
          -0.06359049677848816,
          -0.09268289059400558,
          -0.07637078315019608,
          0.11756742745637894,
          -0.0209195613861084,
          0.03296070545911789,
          0.07572627812623978,
          -0.020932121202349663,
          -0.07576360553503036,
          -0.08469237387180328,
          -0.04605041444301605,
          0.03510292246937752,
          -0.11597279459238052,
          -0.026122964918613434,
          0.03718163073062897,
          0.09120523929595947,
          0.027011914178729057,
          0.02472083270549774,
          0.08557383716106415,
          0.04726952314376831
        ],
        [
          0.023462800309062004,
          -0.044102754443883896,
          -0.11292263120412827,
          -0.050412531942129135,
          -0.022670477628707886,
          0.009179651737213135,
          -0.022075915709137917,
          0.04362599179148674,
          0.07176154106855392,
          -0.06356791406869888,
          -0.11860758066177368,
          -0.07396630942821503,
          -0.059809550642967224,
          0.0708550214767456,
          -0.08917985111474991,
          -0.011757135391235352,
          -0.026492387056350708,
          -0.0841849148273468,
          0.05131383612751961,
          -0.052069440484046936,
          -0.006466522812843323,
          -0.08788558840751648,
          -0.021093610674142838,
          0.01776072382926941,
          -0.0050866007804870605,
          -0.04670596122741699,
          0.026736779138445854,
          -0.03238719701766968,
          -0.0692998617887497,
          -0.11210709065198898,
          -0.03640759736299515,
          -0.13626840710639954,
          0.09399031102657318,
          -0.05971597135066986,
          -0.05180227756500244,
          0.011554881930351257,
          0.018639681860804558,
          -0.021385010331869125,
          0.0677407905459404,
          -0.08440006524324417,
          0.04479759931564331,
          -0.0002819150686264038,
          -0.10910637676715851,
          -0.05780472978949547,
          0.03181089460849762,
          0.01661006733775139,
          0.06053773686289787,
          0.08362412452697754,
          -0.06817784905433655,
          -0.05337868630886078,
          -0.02650517225265503,
          -0.11155042797327042,
          -0.04284399375319481,
          -0.11108242720365524,
          0.03827354311943054,
          0.08844491839408875,
          0.009897053241729736,
          -0.09483169764280319,
          -0.10298538208007812,
          -0.048662394285202026,
          0.03635667264461517,
          -0.006056976038962603,
          0.009397552348673344,
          0.09881450235843658
        ],
        [
          0.04238954558968544,
          0.010933727957308292,
          -0.041105303913354874,
          0.03472393751144409,
          0.038771212100982666,
          -0.11902511119842529,
          -0.08959280699491501,
          -0.011562149971723557,
          0.03174722194671631,
          0.04992423951625824,
          -0.08812102675437927,
          -0.1396801620721817,
          -0.024979135021567345,
          -0.019518349319696426,
          0.020325420424342155,
          -0.06679728627204895,
          0.06891036778688431,
          -0.008366499096155167,
          0.075278639793396,
          -0.10237875580787659,
          0.028360335156321526,
          -0.007804568856954575,
          -0.07828521728515625,
          0.061968475580215454,
          -0.14198963344097137,
          0.09505289047956467,
          -0.0055460636503994465,
          0.004515054170042276,
          0.041157398372888565,
          -0.005323650781065226,
          0.037489939481019974,
          0.05878416821360588,
          -0.11336791515350342,
          0.059145424515008926,
          -0.04269242286682129,
          -0.046383120119571686,
          0.009115608409047127,
          0.08211398869752884,
          -0.0857095867395401,
          -0.10528748482465744,
          0.052693694829940796,
          -0.07527968287467957,
          0.024496974423527718,
          -0.03407007083296776,
          0.01844773255288601,
          0.07963182777166367,
          -0.07755659520626068,
          -0.0760859027504921,
          0.045453913509845734,
          -0.02013588882982731,
          -0.036861080676317215,
          -0.12226981669664383,
          0.08999975770711899,
          -0.02041662111878395,
          -0.03868751972913742,
          -0.06534120440483093,
          -0.04824173077940941,
          0.03902331739664078,
          -0.021015800535678864,
          0.08914302289485931,
          -0.026703625917434692,
          -0.033624690026044846,
          0.05490753799676895,
          -0.019611140713095665
        ],
        [
          -0.09283311665058136,
          0.10516092926263809,
          0.13954679667949677,
          0.3299221098423004,
          0.5445343255996704,
          0.6971942186355591,
          0.002112641464918852,
          -0.03384864702820778,
          -0.033615842461586,
          0.5273689031600952,
          0.23621252179145813,
          0.1514061689376831,
          0.10204585641622543,
          0.9131763577461243,
          0.11737154424190521,
          -0.06963071972131729,
          0.23507261276245117,
          0.27827614545822144,
          0.14983172714710236,
          0.5611047148704529,
          0.26862186193466187,
          0.3210301995277405,
          -0.10222350060939789,
          0.7397851943969727,
          0.5871816873550415,
          0.11869770288467407,
          0.039166029542684555,
          0.21046771109104156,
          0.09414177387952805,
          0.025255613029003143,
          0.12498636543750763,
          0.40254563093185425,
          0.09989641606807709,
          0.35418057441711426,
          0.7879781723022461,
          0.16947343945503235,
          0.17908771336078644,
          0.016777286306023598,
          0.04125441983342171,
          0.13349191844463348,
          0.2676020860671997,
          0.07642112672328949,
          0.057705357670784,
          0.07295193523168564,
          0.49353185296058655,
          0.03354543820023537,
          0.0332513265311718,
          0.13644586503505707,
          -0.11666329205036163,
          0.1011015921831131,
          0.3268398940563202,
          0.1869053840637207,
          0.07032613456249237,
          -0.0259539857506752,
          -0.1420971304178238,
          0.3798891305923462,
          0.365927517414093,
          0.26479628682136536,
          0.19760100543498993,
          1.0207951068878174,
          0.1404101699590683,
          -0.10765563696622849,
          0.09626498818397522,
          0.054729849100112915
        ],
        [
          -0.044759731739759445,
          0.10844967514276505,
          0.07243666797876358,
          0.42225199937820435,
          0.4775484800338745,
          0.6880022883415222,
          -0.10630933195352554,
          -0.23166383802890778,
          -0.1273716539144516,
          0.6144005060195923,
          0.06922540068626404,
          0.15709981322288513,
          -0.08055312931537628,
          0.8473495244979858,
          -0.04598590359091759,
          -0.05533827841281891,
          0.12900114059448242,
          0.2295180857181549,
          0.14009524881839752,
          0.5193906426429749,
          0.42788225412368774,
          0.2572460472583771,
          -0.04467262327671051,
          0.8946169018745422,
          0.63689124584198,
          0.1940138041973114,
          -0.015493586659431458,
          0.25543922185897827,
          -0.09948442131280899,
          0.23118633031845093,
          0.07569476217031479,
          0.4782050549983978,
          0.14715059101581573,
          0.26004526019096375,
          0.8247478604316711,
          0.359802782535553,
          0.16328583657741547,
          0.14593027532100677,
          -0.03851243481040001,
          0.3514879047870636,
          0.25040408968925476,
          0.022063955664634705,
          -0.12605920433998108,
          0.048772867769002914,
          0.546153724193573,
          -0.04352501034736633,
          0.09780710935592651,
          0.24591918289661407,
          -0.1601148396730423,
          0.140470951795578,
          0.25690874457359314,
          0.2530958652496338,
          0.012364733964204788,
          -0.12123192101716995,
          -0.08612272888422012,
          0.4025980830192566,
          0.29485905170440674,
          0.128402978181839,
          0.21110442280769348,
          1.0637505054473877,
          0.43006861209869385,
          0.026224544271826744,
          0.01216853316873312,
          0.10889767110347748
        ],
        [
          -0.08359717577695847,
          0.0320807620882988,
          0.13112908601760864,
          0.26656657457351685,
          0.5826109647750854,
          0.6027084589004517,
          -0.1015276089310646,
          -0.1560414880514145,
          -0.05740363523364067,
          0.5862764120101929,
          0.022060343995690346,
          -0.007961533963680267,
          -0.01442630123347044,
          0.8583285808563232,
          0.043592456728219986,
          0.05020039156079292,
          0.12731175124645233,
          0.22316110134124756,
          0.08050377666950226,
          0.5462930798530579,
          0.3453832268714905,
          0.26694780588150024,
          0.061766814440488815,
          0.741241991519928,
          0.6401781439781189,
          0.2184857428073883,
          0.03271104022860527,
          0.1763722002506256,
          0.08108197897672653,
          0.2732427418231964,
          0.06473208963871002,
          0.4621467888355255,
          0.18053990602493286,
          0.33115118741989136,
          0.9108069539070129,
          0.21628321707248688,
          0.02807565964758396,
          -0.056186772882938385,
          0.07812021672725677,
          0.1862701028585434,
          0.24178847670555115,
          0.0890113040804863,
          -0.19039198756217957,
          -0.008645454421639442,
          0.48999619483947754,
          -0.1292639672756195,
          0.19676785171031952,
          0.20405703783035278,
          -0.1054307147860527,
          0.2565550208091736,
          0.3765891194343567,
          0.14272983372211456,
          -0.12593621015548706,
          -0.07263623178005219,
          -0.04153354465961456,
          0.5625328421592712,
          0.3878534734249115,
          0.16123366355895996,
          0.07187462598085403,
          1.0718019008636475,
          0.27538618445396423,
          -0.03947385400533676,
          0.02049729786813259,
          0.0744028091430664
        ],
        [
          -0.007682756055146456,
          -0.1199253648519516,
          -0.11736869812011719,
          -0.12304237484931946,
          -0.04673588648438454,
          0.09475509822368622,
          0.0276038758456707,
          -0.03598057106137276,
          0.004512038081884384,
          0.04977613687515259,
          -0.016719495877623558,
          -0.12179335951805115,
          -0.09893651306629181,
          -0.10056030005216599,
          -0.024372827261686325,
          -0.13146302103996277,
          -0.041465774178504944,
          -0.06592852622270584,
          0.10192211717367172,
          0.08598710596561432,
          0.05557216703891754,
          -0.010407518595457077,
          -0.06174873933196068,
          0.015408653765916824,
          -0.10334625840187073,
          -0.06824798882007599,
          -0.04634280875325203,
          -0.04689018428325653,
          -0.1400143951177597,
          0.030018018558621407,
          0.08106561750173569,
          -0.08200937509536743,
          0.012232542969286442,
          -0.031204046681523323,
          -0.013204025104641914,
          -0.00563714187592268,
          0.0865943431854248,
          -0.004424539394676685,
          -0.09376613795757294,
          -0.06472176313400269,
          0.05023781582713127,
          0.02063416689634323,
          -0.018911581486463547,
          -0.03770279511809349,
          -0.0641336664557457,
          -0.06517607718706131,
          -0.07586371898651123,
          -0.0005973642691969872,
          0.014067967422306538,
          0.07726775109767914,
          -0.04745518043637276,
          -0.00845953170210123,
          0.05943850055336952,
          0.033162008970975876,
          -0.0051326691173017025,
          0.02753683552145958,
          -0.011625471524894238,
          -0.12410681694746017,
          -0.017416518181562424,
          -0.04275273531675339,
          0.09389090538024902,
          0.0916687622666359,
          0.0035588808823376894,
          0.09019345045089722
        ],
        [
          -0.16580131649971008,
          0.21663255989551544,
          0.2857794463634491,
          0.3347671926021576,
          0.4304131865501404,
          0.6599828004837036,
          -0.061108604073524475,
          -0.10158853232860565,
          -0.26103153824806213,
          0.612577497959137,
          0.09784452617168427,
          0.10420595109462738,
          -0.002597987186163664,
          0.9459165334701538,
          -0.03581904619932175,
          -0.045017533004283905,
          0.17555655539035797,
          0.3430919349193573,
          0.23228518664836884,
          0.5442778468132019,
          0.4702291190624237,
          0.2016705721616745,
          -0.15254469215869904,
          0.7695106863975525,
          0.4986094832420349,
          0.17019179463386536,
          0.028747940436005592,
          0.21393556892871857,
          0.09383989125490189,
          0.2715367376804352,
          0.07494847476482391,
          0.30136993527412415,
          0.05714542418718338,
          0.20769628882408142,
          0.7833574414253235,
          0.4135585129261017,
          0.2731574475765228,
          0.03070949949324131,
          0.1395796239376068,
          0.2177295982837677,
          0.24137291312217712,
          0.17715302109718323,
          -0.15588857233524323,
          0.05330333858728409,
          0.5731365084648132,
          -0.10375568270683289,
          0.04506644606590271,
          0.3356994688510895,
          -0.17961621284484863,
          0.282740980386734,
          0.2178426831960678,
          0.2271987348794937,
          -0.12551353871822357,
          -0.06526726484298706,
          -0.062489092350006104,
          0.532781183719635,
          0.4248189926147461,
          0.33106550574302673,
          0.1960880011320114,
          1.1341187953948975,
          0.34811389446258545,
          -0.06719812005758286,
          0.15700291097164154,
          0.14834639430046082
        ],
        [
          -0.11369810998439789,
          0.06296037137508392,
          -0.09566827863454819,
          0.06964646279811859,
          -0.008017919957637787,
          0.006501629948616028,
          0.09237852692604065,
          -0.07945027202367783,
          -0.027026908472180367,
          0.00012059126311214641,
          0.018863437697291374,
          -0.14018209278583527,
          0.009128219448029995,
          -0.09702880680561066,
          -0.012452157214283943,
          0.055106017738580704,
          -0.04168599098920822,
          -0.028100116178393364,
          -0.031174007803201675,
          0.07552103698253632,
          0.04268825799226761,
          -0.007187229581177235,
          -0.09699593484401703,
          -0.08999953418970108,
          0.06558804959058762,
          0.06917300075292587,
          0.05264857038855553,
          -0.11986220628023148,
          0.06620282679796219,
          -0.03417934849858284,
          0.06670108437538147,
          0.08026682585477829,
          -0.010784297250211239,
          -0.07975567877292633,
          0.061825960874557495,
          -0.09122300893068314,
          0.0567987821996212,
          -0.13334862887859344,
          -0.058193426579236984,
          -0.1340593546628952,
          -0.08659124374389648,
          0.02857113443315029,
          -0.10290266573429108,
          -0.1221807524561882,
          0.06332565099000931,
          0.03760996088385582,
          -0.022286992520093918,
          -0.11006667464971542,
          -0.05315053090453148,
          -0.06993844360113144,
          0.05055428668856621,
          -0.06400047242641449,
          -0.062155596911907196,
          -0.10845380276441574,
          -0.07514677196741104,
          0.04261799901723862,
          0.05203265696763992,
          -0.007866892032325268,
          -0.07273149490356445,
          0.09226065874099731,
          -0.001474580611102283,
          -0.06765086948871613,
          -0.05988917872309685,
          -0.04591181501746178
        ],
        [
          -0.024296535179018974,
          0.10512307286262512,
          0.13475854694843292,
          0.31700432300567627,
          0.5976075530052185,
          0.6154641509056091,
          -0.10055788606405258,
          -0.13776157796382904,
          -0.2119171917438507,
          0.46984413266181946,
          0.01444990187883377,
          0.026863234117627144,
          0.046656060963869095,
          0.9305088520050049,
          -0.0837492048740387,
          0.1197468638420105,
          0.09460201859474182,
          0.28048306703567505,
          0.15898431837558746,
          0.5250726938247681,
          0.3663490414619446,
          0.3147697150707245,
          0.06316490471363068,
          0.7382214665412903,
          0.6395073533058167,
          0.1524019092321396,
          -0.05181696265935898,
          0.3744509220123291,
          -0.01300557516515255,
          0.23505577445030212,
          0.053558748215436935,
          0.2983543574810028,
          0.15073201060295105,
          0.356816828250885,
          0.8265240788459778,
          0.22903403639793396,
          0.0923919752240181,
          -0.055136337876319885,
          0.11976320296525955,
          0.27557849884033203,
          0.33922645449638367,
          0.20668716728687286,
          -0.03595753759145737,
          -0.10116632282733917,
          0.5356566309928894,
          0.011630022898316383,
          0.02753789909183979,
          0.30320826172828674,
          -0.04850820451974869,
          0.12292324751615524,
          0.15225674211978912,
          0.12205678224563599,
          -0.16276217997074127,
          0.04379866644740105,
          0.04781919717788696,
          0.4138619601726532,
          0.41301730275154114,
          0.1509014517068863,
          0.1824054718017578,
          1.0346531867980957,
          0.26637667417526245,
          0.00046752847265452147,
          0.08686920255422592,
          0.1126723363995552
        ],
        [
          -0.1399649679660797,
          0.14879575371742249,
          0.12298677116632462,
          0.3223792612552643,
          0.41922271251678467,
          0.6686795949935913,
          -0.04038601741194725,
          0.02842259220778942,
          -0.06708898395299911,
          0.5438958406448364,
          0.14117063581943512,
          0.100913867354393,
          0.05155066400766373,
          1.0508836507797241,
          0.06537774205207825,
          -0.07069827616214752,
          0.1447921097278595,
          0.10832145810127258,
          -0.024737952277064323,
          0.6140806674957275,
          0.4055823087692261,
          0.2275799959897995,
          0.06301593780517578,
          0.667661726474762,
          0.4809756577014923,
          0.22485744953155518,
          0.028755998238921165,
          0.2532931864261627,
          0.11311639845371246,
          0.052923887968063354,
          -0.019090892747044563,
          0.34605878591537476,
          0.12288109958171844,
          0.2651121914386749,
          0.8622249960899353,
          0.3156472444534302,
          0.19840621948242188,
          0.077092744410038,
          0.12164594978094101,
          0.24127322435379028,
          0.20037893950939178,
          0.08169056475162506,
          -0.030869964510202408,
          0.06508173793554306,
          0.36561280488967896,
          0.041376106441020966,
          0.13037002086639404,
          0.203126460313797,
          -0.07031132280826569,
          0.13115692138671875,
          0.350605845451355,
          0.15392185747623444,
          0.03875243663787842,
          -0.13213494420051575,
          -0.10276953130960464,
          0.4454989433288574,
          0.3866019546985626,
          0.24901828169822693,
          0.18355035781860352,
          0.9738835096359253,
          0.2648366391658783,
          -0.13051925599575043,
          -0.0767592042684555,
          0.12503047287464142
        ],
        [
          -0.07908816635608673,
          0.1134548932313919,
          -0.06794272363185883,
          0.04028351604938507,
          0.07337035238742828,
          -0.0971546471118927,
          0.06397250294685364,
          -0.016737014055252075,
          0.06477034091949463,
          0.120966836810112,
          -0.05327068269252777,
          -0.05413798987865448,
          0.09931865334510803,
          0.01390005648136139,
          -0.012466594576835632,
          0.09483353793621063,
          -0.06039300560951233,
          -0.006172016263008118,
          0.08585947751998901,
          0.0488513708114624,
          -0.08085185289382935,
          0.03248956799507141,
          -0.09530459344387054,
          -0.0678841769695282,
          0.08037647604942322,
          -0.03331403434276581,
          -0.06366963684558868,
          0.008860290050506592,
          0.030546292662620544,
          -0.0777021050453186,
          -0.08429542183876038,
          -0.1210586428642273,
          0.03229793906211853,
          -0.08065368235111237,
          0.009526044130325317,
          -0.02795727550983429,
          -0.08173249661922455,
          -0.03988735377788544,
          -0.09608624875545502,
          -0.06616660952568054,
          -0.0038964003324508667,
          -0.10686439275741577,
          -0.10962916910648346,
          0.09363256394863129,
          0.011762261390686035,
          -0.05528172850608826,
          -0.00415608286857605,
          0.09269563853740692,
          -0.10428319871425629,
          -0.06627294421195984,
          -0.09039255976676941,
          -0.009087622165679932,
          -0.004301607608795166,
          -0.09741322696208954,
          0.0867604911327362,
          -0.09598997235298157,
          0.11670446395874023,
          -0.08604612946510315,
          -0.017130687832832336,
          0.02337336540222168,
          -0.0555596798658371,
          0.11495524644851685,
          -0.08617928624153137,
          -0.006928548216819763
        ],
        [
          -0.19292670488357544,
          0.09781640768051147,
          0.153472900390625,
          0.4428636133670807,
          0.5170061588287354,
          0.617982804775238,
          0.06637658923864365,
          -0.09873165190219879,
          -0.028125697746872902,
          0.49278685450553894,
          0.0742914006114006,
          -0.06951843202114105,
          0.1635439097881317,
          0.9952502846717834,
          -0.09302229434251785,
          0.017038116231560707,
          0.08852765709161758,
          0.23434877395629883,
          0.11801111698150635,
          0.5559405088424683,
          0.4261724650859833,
          0.1753769814968109,
          -0.047845058143138885,
          0.6437780857086182,
          0.5791254043579102,
          0.37980329990386963,
          0.14440925419330597,
          0.32844388484954834,
          0.085842564702034,
          0.24389268457889557,
          0.08211216330528259,
          0.3977828025817871,
          0.04897117614746094,
          0.363409161567688,
          0.9310716986656189,
          0.2523597180843353,
          0.10329826176166534,
          -0.06171059235930443,
          0.07508957386016846,
          0.15407218039035797,
          0.36164990067481995,
          0.1082565188407898,
          -0.04757843539118767,
          0.006752168759703636,
          0.3814333975315094,
          -0.017212165519595146,
          0.15825265645980835,
          0.1205955296754837,
          0.024200769141316414,
          0.2610756456851959,
          0.32867127656936646,
          0.1339472532272339,
          -0.007924159988760948,
          -0.10505630075931549,
          -0.09894973784685135,
          0.5159621238708496,
          0.36428678035736084,
          0.25048398971557617,
          0.050111282616853714,
          1.2667725086212158,
          0.23204350471496582,
          0.04462159425020218,
          0.1368473917245865,
          0.1766076236963272
        ],
        [
          0.032770950347185135,
          0.12687884271144867,
          0.13320375978946686,
          0.30625152587890625,
          0.6493100523948669,
          0.75382399559021,
          0.026623183861374855,
          -0.12484987080097198,
          -0.024071449413895607,
          0.7033950686454773,
          0.03384244814515114,
          0.14011931419372559,
          -0.04803299903869629,
          0.9110397696495056,
          -0.09978234767913818,
          0.026768041774630547,
          0.04812339320778847,
          0.19501972198486328,
          0.012233588844537735,
          0.6804196238517761,
          0.2956549823284149,
          0.2038053721189499,
          -0.06006758287549019,
          0.8081531524658203,
          0.5240758657455444,
          0.3078242838382721,
          -0.04786673188209534,
          0.18717649579048157,
          -0.027049483731389046,
          0.060513731092214584,
          0.12192998826503754,
          0.294241338968277,
          0.034173283725976944,
          0.3225645124912262,
          0.7507482767105103,
          0.42585447430610657,
          0.056618645787239075,
          -0.019118625670671463,
          -0.04635633900761604,
          0.24657714366912842,
          0.28668320178985596,
          0.019168106839060783,
          -0.04111817106604576,
          -0.02544518932700157,
          0.5893017053604126,
          0.014744504354894161,
          0.20929878950119019,
          0.27120593190193176,
          -0.02415148913860321,
          0.2701813280582428,
          0.3661440312862396,
          0.04990392550826073,
          -0.07505542039871216,
          -0.14933407306671143,
          -0.049823179841041565,
          0.44227153062820435,
          0.43218564987182617,
          0.23223911225795746,
          0.17393341660499573,
          1.1128207445144653,
          0.20426438748836517,
          -0.03235357999801636,
          -0.015934020280838013,
          0.08357609808444977
        ],
        [
          0.19139212369918823,
          -0.1425241231918335,
          -0.09468048065900803,
          0.18353226780891418,
          0.18775808811187744,
          -0.17883479595184326,
          0.015560310333967209,
          0.1337755173444748,
          0.004221394658088684,
          0.6213132739067078,
          -0.053141992539167404,
          -0.06425201147794724,
          0.025531766936182976,
          0.7176828384399414,
          -0.0016364463372156024,
          -0.2140849530696869,
          -0.2211087942123413,
          0.36240318417549133,
          -0.06386683136224747,
          0.7944272756576538,
          0.11753137409687042,
          -0.17469508945941925,
          -0.10852676630020142,
          -0.029741713777184486,
          -0.00941331684589386,
          0.029726285487413406,
          -0.02021506056189537,
          -0.08912248909473419,
          0.10256348550319672,
          -0.21042241156101227,
          0.0779811441898346,
          0.14185932278633118,
          -0.053238291293382645,
          -0.07900174707174301,
          -0.10277439653873444,
          -0.040381863713264465,
          -0.15094956755638123,
          -0.049806173890829086,
          0.05661344528198242,
          -0.10009454935789108,
          0.014495189301669598,
          -0.3033428490161896,
          -0.03651389479637146,
          -0.06187526509165764,
          0.17321544885635376,
          0.03431745618581772,
          0.32227450609207153,
          0.023618532344698906,
          -0.13518644869327545,
          -0.0529719814658165,
          -0.15318919718265533,
          0.020810814574360847,
          0.04423712566494942,
          -0.1564597636461258,
          0.020912976935505867,
          0.08569174259901047,
          -0.013111614622175694,
          -0.06570646166801453,
          -0.09315762668848038,
          -0.3188749849796295,
          -0.08914355933666229,
          0.024836286902427673,
          -0.006776533555239439,
          -0.06452149897813797
        ],
        [
          -0.11667728424072266,
          2.2825683117844164e-05,
          -0.02578246220946312,
          0.2300085574388504,
          0.42638343572616577,
          0.793182373046875,
          -0.002145063830539584,
          -0.18707920610904694,
          -0.15281186997890472,
          0.5943201184272766,
          0.09677908569574356,
          0.03597947955131531,
          0.0049697901122272015,
          0.9346015453338623,
          0.04329108074307442,
          0.021620336920022964,
          0.22734598815441132,
          0.32931357622146606,
          0.18361258506774902,
          0.6132022738456726,
          0.3332189619541168,
          0.24970483779907227,
          -0.13014869391918182,
          0.8094576597213745,
          0.5391139984130859,
          0.2156626433134079,
          -0.03915649652481079,
          0.335073322057724,
          0.05575483664870262,
          0.2752332091331482,
          0.023700492456555367,
          0.39591115713119507,
          0.07797978073358536,
          0.18058499693870544,
          0.7426077723503113,
          0.3764883875846863,
          0.06447330117225647,
          0.12744316458702087,
          0.11173795163631439,
          0.3207262456417084,
          0.40257009863853455,
          0.1993202418088913,
          -0.01712883450090885,
          0.061807017773389816,
          0.3854348361492157,
          -0.1215706616640091,
          0.09287919849157333,
          0.3025483787059784,
          0.01033190730959177,
          0.2475859671831131,
          0.2105853408575058,
          0.13571025431156158,
          -0.11762991547584534,
          0.07079063355922699,
          -0.11814386397600174,
          0.40937063097953796,
          0.40568381547927856,
          0.24700899422168732,
          0.12361321598291397,
          1.0312076807022095,
          0.20261035859584808,
          0.06175623834133148,
          -0.03973729535937309,
          0.2735278010368347
        ],
        [
          0.04631263017654419,
          0.06375337392091751,
          0.04321863129734993,
          0.4547809362411499,
          0.5297386646270752,
          0.7696667313575745,
          0.08549649268388748,
          -0.14238542318344116,
          0.015525775961577892,
          0.5952643156051636,
          0.026482507586479187,
          0.09945686906576157,
          -0.02369639091193676,
          0.8594398498535156,
          0.02439546026289463,
          -0.033223770558834076,
          0.0881759524345398,
          0.16107627749443054,
          0.1339789479970932,
          0.7203332781791687,
          0.35172903537750244,
          0.15686774253845215,
          -0.033450897783041,
          0.6263065338134766,
          0.4429731070995331,
          0.1969495713710785,
          0.11971989274024963,
          0.1781833916902542,
          -0.0047612860798835754,
          0.04209393262863159,
          -0.06505492329597473,
          0.31933578848838806,
          0.037094589322805405,
          0.24313683807849884,
          0.8846192955970764,
          0.3502550423145294,
          0.17410992085933685,
          0.07307876646518707,
          0.04698364809155464,
          0.3515419065952301,
          0.22487352788448334,
          0.18196862936019897,
          0.014591160230338573,
          -0.051407404243946075,
          0.43041160702705383,
          -0.12632322311401367,
          -0.02453749254345894,
          0.1779906451702118,
          -0.03797323629260063,
          0.11004750430583954,
          0.2929001450538635,
          0.030469726771116257,
          -0.08127196878194809,
          0.08344060182571411,
          -0.1396632194519043,
          0.4575163722038269,
          0.3977660536766052,
          0.3006128668785095,
          0.2107774317264557,
          1.0065363645553589,
          0.2984866797924042,
          -0.065457284450531,
          0.008153470233082771,
          0.21075128018856049
        ],
        [
          -0.10411999374628067,
          -0.029490288347005844,
          -0.05889299139380455,
          0.3837869465351105,
          0.4703458249568939,
          0.7520740032196045,
          -0.003422499867156148,
          -0.18709832429885864,
          -0.0383676253259182,
          0.636090874671936,
          0.20894204080104828,
          0.07338354736566544,
          -0.03982759639620781,
          0.8578658103942871,
          0.09197443723678589,
          -0.055574629455804825,
          0.18196842074394226,
          0.20087496936321259,
          0.11003464460372925,
          0.5879934430122375,
          0.2897332012653351,
          0.1897907257080078,
          0.06663814932107925,
          0.7363435626029968,
          0.5906082987785339,
          0.17331571877002716,
          0.12995734810829163,
          0.23298215866088867,
          -0.03554753214120865,
          0.12518350780010223,
          0.002935031894594431,
          0.2806437313556671,
          0.013912038877606392,
          0.23227517306804657,
          0.7104485034942627,
          0.329093873500824,
          -0.03346826881170273,
          0.08480743318796158,
          0.14991270005702972,
          0.2790773808956146,
          0.2750576138496399,
          0.028396733105182648,
          -0.00013065148959867656,
          0.08959212154150009,
          0.5143538117408752,
          -0.0358324870467186,
          0.15092173218727112,
          0.30763787031173706,
          -0.04299534484744072,
          0.0979977697134018,
          0.11862675845623016,
          0.20036710798740387,
          0.022258758544921875,
          0.09454821795225143,
          -0.0904579758644104,
          0.4763377606868744,
          0.24651402235031128,
          0.16077958047389984,
          0.23533914983272552,
          0.979612410068512,
          0.35560742020606995,
          0.022673090919852257,
          -0.042115408927202225,
          0.16640552878379822
        ],
        [
          -0.1714216023683548,
          0.12523253262043,
          0.14306841790676117,
          0.24989517033100128,
          0.5920001864433289,
          0.8539541959762573,
          -0.0961911603808403,
          -0.210638165473938,
          -0.192666158080101,
          0.6898390650749207,
          0.12146684527397156,
          0.044500984251499176,
          -0.02300851233303547,
          1.0323619842529297,
          0.09222669154405594,
          0.11359784752130508,
          0.1723221242427826,
          0.3295212984085083,
          0.1944928765296936,
          0.6560412645339966,
          0.427844375371933,
          0.3892427682876587,
          -0.019882874563336372,
          0.8913124799728394,
          0.5376139283180237,
          0.3772737979888916,
          0.03636853024363518,
          0.39150336384773254,
          -0.07515624910593033,
          0.2785945534706116,
          -0.008719071745872498,
          0.400088369846344,
          0.1957850456237793,
          0.4006044268608093,
          0.8825290203094482,
          0.5026562809944153,
          0.22950492799282074,
          -0.01496053021401167,
          0.012005927041172981,
          0.33522817492485046,
          0.3658078610897064,
          0.2162279486656189,
          -0.21031033992767334,
          -0.06148708611726761,
          0.40618810057640076,
          -0.015539182350039482,
          0.11620096117258072,
          0.232612743973732,
          -0.15089179575443268,
          0.18034906685352325,
          0.33559852838516235,
          0.1625724583864212,
          -0.013368564657866955,
          -0.07013672590255737,
          -0.15973970293998718,
          0.5306170582771301,
          0.3946720361709595,
          0.35449445247650146,
          0.20280909538269043,
          1.35653555393219,
          0.4486461877822876,
          -0.1607484519481659,
          0.13580933213233948,
          0.24169126152992249
