{
  "layers": [
    {
      "weight": [
        [
          0.7371489405632019,
          0.511072039604187,
          -0.405596524477005,
          0.1305876225233078,
          -0.3226511478424072
        ],
        [
          0.7513523101806641,
          -0.7113620638847351,
          0.5351815819740295,
          0.17040155827999115,
          -0.9066265821456909
        ],
        [
          2.39831280708313,
          0.43498721718788147,
          0.025319904088974,
          -0.02728746458888054,
          -0.18886953592300415
        ],
        [
          1.977218508720398,
          0.6705590486526489,
          0.026352766901254654,
          -0.03589906543493271,
          -0.2745932340621948
        ],
        [
          -1.3757996559143066,
          0.1297106295824051,
          -0.9104846715927124,
          0.5182969570159912,
          -0.30495941638946533
        ],
        [
          -1.2012099027633667,
          -0.2461065948009491,
          -1.217095971107483,
          -0.06359590590000153,
          -0.5537586212158203
        ],
        [
          1.2931040525436401,
          -1.3266342878341675,
          0.057812321931123734,
          0.05785275623202324,
          -0.5160627365112305
        ],
        [
          0.22886568307876587,
          0.350868821144104,
          0.8040733337402344,
          0.12750373780727386,
          -0.34352919459342957
        ],
        [
          -0.4177171289920807,
          -0.06672217696905136,
          0.5717538595199585,
          0.30334827303886414,
          0.29691845178604126
        ],
        [
          -0.6132783889770508,
          0.5242506265640259,
          0.3761392831802368,
          0.14090220630168915,
          -0.41114968061447144
        ],
        [
          -1.07152259349823,
          -0.07597906142473221,
          -0.32416221499443054,
          0.15026156604290009,
          0.5464860200881958
        ],
        [
          2.0553178787231445,
          0.5094805359840393,
          0.016129929572343826,
          -0.03737061843276024,
          -0.2968383729457855
        ],
        [
          -0.30691829323768616,
          -0.4397273063659668,
          0.4824911653995514,
          -0.2792888879776001,
          0.6600534319877625
        ],
        [
          -0.2681041955947876,
          0.5023680329322815,
          -0.6018964052200317,
          -0.1522776335477829,
          -0.12489040195941925
        ],
        [
          2.2300755977630615,
          0.6164901852607727,
          0.030714036896824837,
          -0.04564346745610237,
          -0.4099082052707672
        ],
        [
          -1.2457365989685059,
          -0.20729897916316986,
          0.28135818243026733,
          0.1789122223854065,
          1.065751552581787
        ],
        [
          -0.9477989673614502,
          -0.10590577125549316,
          0.513478696346283,
          -0.12214776873588562,
          0.6316898465156555
        ],
        [
          0.2631070911884308,
          0.5655596852302551,
          -0.4958297312259674,
          -0.03444981947541237,
          0.13641785085201263
        ],
        [
          0.31734415888786316,
          -0.12127082049846649,
          0.6797398924827576,
          0.16729572415351868,
          -0.730523943901062
        ],
        [
          -0.8538233637809753,
          0.7625827193260193,
          -0.21647970378398895,
          -0.34679630398750305,
          -0.3046811819076538
        ],
        [
          -1.2803544998168945,
          0.13486748933792114,
          -0.000616776233073324,
          -0.055729497224092484,
          0.6083458065986633
        ],
        [
          -1.312037706375122,
          -0.3883058428764343,
          -1.120846152305603,
          -0.6329200267791748,
          -0.3783613443374634
        ],
        [
          2.0261423587799072,
          0.547957718372345,
          0.06621742248535156,
          -0.2720607817173004,
          -0.4184167981147766
        ],
        [
          -1.1495260000228882,
          -0.01460733450949192,
          -1.1708632707595825,
          -0.37937647104263306,
          -0.24254757165908813
        ],
        [
          -0.6088879704475403,
          -0.013908582739531994,
          -0.3032354414463043,
          -0.18066690862178802,
          0.061118192970752716
        ],
        [
          -1.1329569816589355,
          0.20098713040351868,
          -0.7373793721199036,
          0.3782748579978943,
          -0.019836410880088806
        ],
        [
          2.1991727352142334,
          0.5709701776504517,
          -0.09463772922754288,
          0.012337274849414825,
          -0.22214286029338837
        ],
        [
          -0.9265227317810059,
          -0.2106861174106598,
          -0.6005154848098755,
          0.2603664994239807,
          0.5376355051994324
        ],
        [
          0.3349516689777374,
          -1.5115307569503784,
          0.6105942130088806,
          -0.42423543334007263,
          0.037749409675598145
        ],
        [
          0.38615116477012634,
          0.5652205348014832,
          0.42422452569007874,
          0.27509963512420654,
          -0.36705824732780457
        ],
        [
          1.4726619720458984,
          0.3039877414703369,
          -0.10497994720935822,
          -0.004812342114746571,
          0.14843660593032837
        ],
        [
          -0.8267605900764465,
          0.36882254481315613,
          0.2055826634168625,
          0.004288750700652599,
          -0.14395061135292053
        ],
        [
          2.5224552154541016,
          0.39937880635261536,
          0.022693568840622902,
          -0.035630594938993454,
          -0.2549428939819336
        ],
        [
          0.7037713527679443,
          -0.8606755137443542,
          0.5478657484054565,
          0.033793266862630844,
          -0.6009774208068848
        ],
        [
          -1.3053300380706787,
          -0.10910001397132874,
          1.4429073333740234,
          -0.4999932050704956,
          -0.5060860514640808
        ],
        [
          -0.8911612033843994,
          -0.10316100716590881,
          0.7375369668006897,
          0.4566275477409363,
          -0.1388247311115265
        ],
        [
          2.215883731842041,
          0.5628380179405212,
          0.02688426338136196,
          -0.02424934320151806,
          -0.23045818507671356
        ],
        [
          1.9491233825683594,
          0.480733722448349,
          -0.0025132806040346622,
          -0.024839015677571297,
          -0.22930824756622314
        ],
        [
          -0.6709965467453003,
          0.012051465921103954,
          0.36280789971351624,
          0.19740739464759827,
          0.22229568660259247
        ],
        [
          2.1041476726531982,
          0.5513396263122559,
          0.03005528822541237,
          -0.011191628873348236,
          -0.1708708107471466
        ],
        [
          -1.519252896308899,
          -0.13010837137699127,
          1.3010709285736084,
          0.14729195833206177,
          -0.04186740890145302
        ],
        [
          -1.0373985767364502,
          -0.21088650822639465,
          -0.5522913932800293,
          0.11291558295488358,
          0.8031887412071228
        ],
        [
          0.4496772885322571,
          -0.028098979964852333,
          -0.9397003054618835,
          -0.48886415362358093,
          -0.29194769263267517
        ],
        [
          2.3607380390167236,
          0.2877849340438843,
          0.014375370927155018,
          -0.049348000437021255,
          -0.32237744331359863
        ],
        [
          -0.674551784992218,
          0.5580242872238159,
          -0.26347801089286804,
          -0.06483534723520279,
          -0.4536750018596649
        ],
        [
          2.2959938049316406,
          0.5356236696243286,
          0.027354378253221512,
          -0.05297645553946495,
          -0.3863668441772461
        ],
        [
          -1.195909857749939,
          0.14553502202033997,
          0.13723593950271606,
          0.06854216009378433,
          0.6141031980514526
        ],
        [
          -0.38349130749702454,
          -0.028048057109117508,
          -0.7258549928665161,
          -0.0932852178812027,
          -0.20949788391590118
        ],
        [
          0.5012990236282349,
          -1.053037166595459,
          -0.8001097440719604,
          -0.09126827120780945,
          -0.19108349084854126
        ],
        [
          -1.0899200439453125,
          -0.07050184905529022,
          0.4359895586967468,
          -0.13913613557815552,
          0.6899495124816895
        ],
        [
          1.1641186475753784,
          -1.6089117527008057,
          -0.06489238888025284,
          -0.019722402095794678,
          -0.18295764923095703
        ],
        [
          -0.9990535378456116,
          0.19278359413146973,
          -0.42615047097206116,
          0.024101542308926582,
          0.4350129961967468
        ],
        [
          0.6009604334831238,
          -0.9688560962677002,
          0.25429537892341614,
          -0.27612924575805664,
          -0.05993922799825668
        ],
        [
          2.664760112762451,
          -0.3928864002227783,
          -0.016013966873288155,
          0.04836783930659294,
          -0.4331103265285492
        ],
        [
          -0.25311118364334106,
          -0.3499932587146759,
          0.5659366250038147,
          0.3285953104496002,
          0.4411652982234955
        ],
        [
          -1.0127867460250854,
          -0.2883080542087555,
          1.179614782333374,
          0.37767505645751953,
          -0.5070151090621948
        ],
        [
          -0.9168965220451355,
          0.00729069858789444,
          0.02927853912115097,
          -0.0414096899330616,
          0.2580903172492981
        ],
        [
          0.3526754379272461,
          -1.3863914012908936,
          0.35964691638946533,
          0.2746565341949463,
          -0.01952344737946987
        ],
        [
          0.351039320230484,
          0.01001835148781538,
          -0.6031548976898193,
          -0.7929291725158691,
          0.37538015842437744
        ],
        [
          -1.3234527111053467,
          -0.4037221670150757,
          -0.9573302865028381,
          -0.3685418367385864,
          -0.28849777579307556
        ],
        [
          0.9765501618385315,
          -1.1967264413833618,
          -0.5801076292991638,
          -0.18878984451293945,
          -0.589888870716095
        ],
        [
          2.0866472721099854,
          -0.898313045501709,
          -0.10386520624160767,
          0.028643043711781502,
          -0.5065521597862244
        ],
        [
          1.4222301244735718,
          0.3478063642978668,
          -0.3332200050354004,
          0.03331826254725456,
          0.05859298259019852
        ],
        [
          1.6536167860031128,
          0.7894664406776428,
          0.012717226520180702,
          0.013016106560826302,
          -0.17081522941589355
        ]
      ],
      "bias": [
        1.5653929710388184,
        1.3907268047332764,
        2.080587387084961,
        2.0382509231567383,
        1.839266061782837,
        1.4138855934143066,
        1.4403278827667236,
        1.1874208450317383,
        1.2810128927230835,
        1.7585409879684448,
        2.0914957523345947,
        1.7972615957260132,
        1.3472837209701538,
        1.4285510778427124,
        1.9615060091018677,
        1.5845160484313965,
        1.940447449684143,
        1.9036717414855957,
        1.363020420074463,
        2.114548683166504,
        2.1525440216064453,
        1.6463321447372437,
        1.5603370666503906,
        1.494917392730713,
        1.5704365968704224,
        1.8775510787963867,
        2.144897222518921,
        1.8979299068450928,
        1.3486626148223877,
        1.7756288051605225,
        2.0004308223724365,
        2.091539144515991,
        2.08198881149292,
        1.702730655670166,
        1.3690316677093506,
        2.066730260848999,
        2.0700016021728516,
        1.7576634883880615,
        1.515061378479004,
        2.0878875255584717,
        1.8464895486831665,
        1.8305305242538452,
        1.2726601362228394,
        1.8049547672271729,
        2.153859853744507,
        1.9068114757537842,
        1.904613733291626,
        1.5150262117385864,
        1.2873666286468506,
        2.052385091781616,
        2.00740647315979,
        2.007173776626587,
        1.3632900714874268,
        1.6125696897506714,
        1.2436680793762207,
        1.6335471868515015,
        2.078723192214966,
        1.771480917930603,
        1.9600926637649536,
        1.2584428787231445,
        1.7613162994384766,
        1.5653395652770996,
        2.1027023792266846,
        2.1663966178894043
      ]
    },
    {
      "weight": [
        [
          0.4153876304626465,
          1.0881839990615845,
          0.3984868824481964,
          0.5706874132156372,
          1.0186071395874023,
          0.46097418665885925,
          0.6818955540657043,
          0.47950008511543274,
          0.8075432181358337,
          1.3006432056427002,
          1.3303985595703125,
          0.44520559906959534,
          0.9031020402908325,
          0.9499731063842773,
          0.6017430424690247,
          1.1602965593338013,
          1.2085514068603516,
          0.9836558699607849,
          1.002759575843811,
          1.285732626914978,
          1.7219924926757812,
          0.24565498530864716,
          0.2813507318496704,
          0.6773602366447449,
          0.7745206356048584,
          1.1597884893417358,
          0.5201120972633362,
          1.208225965499878,
          1.0774186849594116,
          0.8622834086418152,
          0.6948703527450562,
          1.2851637601852417,
          0.5254769325256348,
          1.1316393613815308,
          0.517240047454834,
          0.9725052714347839,
          0.5595635175704956,
          0.4277991056442261,
          0.9367141723632812,
          0.7404484152793884,
          0.9937997460365295,
          1.2876566648483276,
          0.5312049388885498,
          0.31803834438323975,
          1.2098127603530884,
          0.568511962890625,
          1.2408889532089233,
          0.9120979905128479,
          1.1363593339920044,
          1.3399455547332764,
          1.0647449493408203,
          1.2646076679229736,
          0.6876546740531921,
          0.5685523152351379,
          0.6641117334365845,
          0.795953631401062,
          1.3549602031707764,
          1.2268049716949463,
          0.8744390606880188,
          0.4109589159488678,
          1.2697572708129883,
          0.3482724726200104,
          0.4045829474925995,
          0.7130506634712219
        ],
        [
          -1.9139742851257324,
          -1.2702537775039673,
          -4.072038173675537,
          -4.4674177169799805,
          2.1966514587402344,
          2.1429998874664307,
          -2.5412402153015137,
          -1.1220762729644775,
          0.5103329420089722,
          0.8842737674713135,
          0.9227162003517151,
          -3.834840774536133,
          0.6227535009384155,
          -0.4721701145172119,
          -3.5353941917419434,
          2.501164674758911,
          2.0012192726135254,
          -1.85679030418396,
          -0.6434563994407654,
          1.5269922018051147,
          2.2160258293151855,
          2.260340452194214,
          -3.4149234294891357,
          2.1635794639587402,
          1.8192349672317505,
          2.044111490249634,
          -3.733613967895508,
          1.855574131011963,
          -0.20259450376033783,
          -1.6797198057174683,
          -3.481569528579712,
          0.8770352602005005,
          -4.226108551025391,
          -1.0012773275375366,
          2.1727514266967773,
          1.9958893060684204,
          -4.356945991516113,
          -3.9536890983581543,
          1.2359392642974854,
          -4.125049591064453,
          2.6220409870147705,
          2.035773992538452,
          -1.6256613731384277,
          -4.014317512512207,
          1.089796781539917,
          -4.147701263427734,
          1.7009915113449097,
          1.289820671081543,
          -0.1375843733549118,
          2.194943428039551,
          -1.5579867362976074,
          0.4895761013031006,
          -1.3898825645446777,
          -4.445122241973877,
          0.3756730854511261,
          2.189943552017212,
          1.9225589036941528,
          -0.44323450326919556,
          -1.4211859703063965,
          2.180394411087036,
          -0.8941498398780823,
          -4.091368675231934,
          -3.2500088214874268,
          -3.5322697162628174
        ],
        [
          0.4374576508998871,
          0.8597104549407959,
          0.4067596197128296,
          0.4959588348865509,
          1.0363484621047974,
          0.3559596836566925,
          0.7869088649749756,
          0.5169013142585754,
          0.6909444332122803,
          1.2955262660980225,
          1.2514735460281372,
          0.579276442527771,
          1.081403374671936,
          0.8117558360099792,
          0.5946376919746399,
          1.226118564605713,
          1.24763822555542,
          0.8946405053138733,
          1.0090038776397705,
          1.1953843832015991,
          1.708346962928772,
          0.462055504322052,
          0.471752792596817,
          0.7180561423301697,
          0.7058754563331604,
          1.1056257486343384,
          0.45117875933647156,
          1.3352395296096802,
          0.8643796443939209,
          0.7890490889549255,
          0.559641420841217,
          1.3405183553695679,
          0.6730189919471741,
          1.0733593702316284,
          0.6614038348197937,
          1.127693772315979,
          0.6474181413650513,
          0.4165169596672058,
          0.9851891398429871,
          0.706783652305603,
          0.8408506512641907,
          1.3032596111297607,
          0.5126475691795349,
          0.3344269096851349,
          1.2794615030288696,
          0.5389506816864014,
          1.2113455533981323,
          1.0342947244644165,
          1.2612488269805908,
          1.366395115852356,
          1.1444685459136963,
          1.0513445138931274,
          0.6312972903251648,
          0.47450917959213257,
          0.561031699180603,
          0.699958086013794,
          1.2501918077468872,
          0.9960566759109497,
          0.7795829176902771,
          0.16910172998905182,
          1.046396017074585,
          0.44668319821357727,
          0.580238401889801,
          0.5553034543991089
        ],
        [
          -0.04608830437064171,
          0.05083479359745979,
          -0.07739302515983582,
          -0.07416629791259766,
          0.06863062083721161,
          -0.11447148770093918,
          -0.0010882047936320305,
          0.09450528770685196,
          0.011017908342182636,
          0.020258542150259018,
          -0.08513912558555603,
          -0.01737821474671364,
          -0.004167990759015083,
          0.030679285526275635,
          0.03267909586429596,
          0.09842915832996368,
          -0.11012202501296997,
          -0.005478099919855595,
          -0.07840822637081146,
          -0.11217404156923294,
          -0.021395431831479073,
          -0.12287011742591858,
          0.0709359347820282,
          0.014476850628852844,
          -0.07625648379325867,
          0.057792436331510544,
          -0.13306806981563568,
          -0.04834990203380585,
          -0.040755461901426315,
          -0.12191943824291229,
          -0.09369233250617981,
          -0.03570733219385147,
          0.07914567738771439,
          0.10503862053155899,
          0.0656418725848198,
          -0.09028764814138412,
          -0.0972324013710022,
          0.0964377149939537,
          0.028975553810596466,
          -0.011907472275197506,
          0.002146183978766203,
          -0.10046209394931793,
          -0.041735678911209106,
          0.1051483154296875,
          -0.04499931260943413,
          -0.02211317978799343,
          -0.1169159859418869,
          -0.07548471540212631,
          -0.008557954803109169,
          -0.09210740774869919,
          -0.031148284673690796,
          0.04094676673412323,
          -0.13826237618923187,
          0.02089499495923519,
          -0.09632930904626846,
          -0.07638246566057205,
          0.03215126320719719,
          0.08377479761838913,
          -0.04800749570131302,
          -0.057684656232595444,
          -0.1287420690059662,
          -0.07883346825838089,
          -0.12061450630426407,
          -0.04427522048354149
        ],
        [
          0.011120731942355633,
          -0.14650815725326538,
          0.0876307263970375,
          0.05826842039823532,
          -0.15018171072006226,
          -0.08934861421585083,
          0.01255626231431961,
          -0.04693849757313728,
          -0.030956508591771126,
          -0.07937246561050415,
          0.0751582458615303,
          -0.09114290773868561,
          0.07141388952732086,
          -0.011081536300480366,
          -0.0035811399575322866,
          0.06656819581985474,
          -0.05093716084957123,
          -0.0915885791182518,
          -0.04917214810848236,
          0.07460591942071915,
          -0.1195940226316452,
          -0.00331997312605381,
          -0.14983023703098297,
          0.04101359844207764,
          0.010940656065940857,
          -0.01856825314462185,
          0.03343433514237404,
          -0.02520807646214962,
          0.03556856885552406,
          -0.12411659210920334,
          -0.04043027013540268,
          0.02615414373576641,
          0.10253775119781494,
          0.03334749862551689,
          -0.12791110575199127,
          0.06423976272344589,
          -0.047879818826913834,
          -0.04290953651070595,
          -0.13735482096672058,
          -0.044637084007263184,
          0.05763475224375725,
          -0.0055916523560881615,
          -0.08845555782318115,
          0.020301470533013344,
          -0.06720555573701859,
          0.08819814026355743,
          -0.12622308731079102,
          -0.06774649024009705,
          -0.1442820280790329,
          -0.08217066526412964,
          0.00909868348389864,
          0.09925228357315063,
          -0.004594932310283184,
          0.09495683014392853,
          0.005007507279515266,
          0.03994699940085411,
          0.06781468540430069,
          0.0743538960814476,
          -0.09564545750617981,
          0.08583052456378937,
          0.04673410579562187,
          -0.07882889360189438,
          -0.07579828053712845,
          -0.1287941336631775
        ],
        [
          0.41477373242378235,
          0.8233500123023987,
          0.5171490907669067,
          0.6162309050559998,
          0.7905260920524597,
          0.48945915699005127,
          0.6634844541549683,
          0.5659142732620239,
          0.7555491328239441,
          1.0572696924209595,
          1.33480703830719,
          0.5871829986572266,
          1.0223866701126099,
          0.7808784246444702,
          0.4805981516838074,
          1.140773057937622,
          1.1599973440170288,
          0.9152172207832336,
          0.9917463064193726,
          1.3159570693969727,
          1.6394890546798706,
          0.3670647144317627,
          0.4220050275325775,
          0.5963892340660095,
          0.6813377737998962,
          1.0050829648971558,
          0.5971351265907288,
          1.0815831422805786,
          0.8070547580718994,
          0.8383927345275879,
          0.6339576840400696,
          1.3777610063552856,
          0.43619516491889954,
          0.9345024228096008,
          0.6370031833648682,
          1.1033837795257568,
          0.5987750887870789,
          0.4637155830860138,
          1.0263710021972656,
          0.7395568490028381,
          0.768699586391449,
          1.1567986011505127,
          0.6112114191055298,
          0.31770816445350647,
          1.118308424949646,
          0.5919905304908752,
          1.1539889574050903,
          0.9225185513496399,
          1.102229356765747,
          1.2136316299438477,
          1.2133828401565552,
          1.0424600839614868,
          0.6997119188308716,
          0.5952922701835632,
          0.5642321705818176,
          0.8577298521995544,
          1.260903239250183,
          1.043866753578186,
          0.7888220548629761,
          0.1998346596956253,
          0.9621941447257996,
          0.46199148893356323,
          0.48745524883270264,
          0.45067930221557617
        ],
        [
          0.29522937536239624,
          1.0352863073349,
          0.4999176263809204,
          0.6147370338439941,
          0.8126577138900757,
          0.39098426699638367,
          0.6441441774368286,
          0.4793242812156677,
          0.5897353291511536,
          1.1791590452194214,
          1.2176783084869385,
          0.4566666781902313,
          0.9807446599006653,
          0.8361882567405701,
          0.5440331697463989,
          1.2153968811035156,
          1.1099752187728882,
          0.7078790068626404,
          1.000025749206543,
          1.2321444749832153,
          1.6072453260421753,
          0.43410739302635193,
          0.31201305985450745,
          0.774470865726471,
          0.8563175797462463,
          0.9535720348358154,
          0.5799644589424133,
          1.0713214874267578,
          0.8325985670089722,
          0.7345847487449646,
          0.4700302183628082,
          1.380589485168457,
          0.4917804002761841,
          1.0585072040557861,
          0.45211395621299744,
          1.0512669086456299,
          0.4729614853858948,
          0.3401532769203186,
          0.9935638904571533,
          0.6680254340171814,
          0.9436876177787781,
          1.1248291730880737,
          0.4544982612133026,
          0.4180279076099396,
          1.2051376104354858,
          0.5368815660476685,
          1.1689969301223755,
          0.8416951298713684,
          1.2143532037734985,
          1.2927627563476562,
          1.0483925342559814,
          1.1919983625411987,
          0.7483140826225281,
          0.6360129714012146,
          0.5699917078018188,
          0.6620751023292542,
          1.2703802585601807,
          1.0631438493728638,
          0.883091151714325,
          0.19566811621189117,
          1.1301891803741455,
          0.33977457880973816,
          0.51910001039505,
          0.5484240651130676
        ],
        [
          0.27435603737831116,
          0.8767982125282288,
          0.39404740929603577,
          0.660761833190918,
          0.840386152267456,
          0.45150139927864075,
          0.7050513029098511,
          0.42827942967414856,
          0.7349184155464172,
          1.094589114189148,
          1.1900746822357178,
          0.3780330419540405,
          0.9428504109382629,
          0.8667786717414856,
          0.5572375655174255,
          1.1747552156448364,
          1.2785004377365112,
          0.9966883063316345,
          1.0055397748947144,
          1.2134813070297241,
          1.6134306192398071,
          0.37964850664138794,
          0.30450570583343506,
          0.7768515348434448,
          0.8898875713348389,
          1.1481214761734009,
          0.6560848355293274,
          1.3572814464569092,
          0.9603386521339417,
          0.7001441121101379,
          0.6977505087852478,
          1.2689414024353027,
          0.4997751712799072,
          1.1686698198318481,
          0.6620104312896729,
          1.070548415184021,
          0.5537726879119873,
          0.3454364240169525,
          0.987078070640564,
          0.7678614854812622,
          0.8970134258270264,
          1.2568981647491455,
          0.503300666809082,
          0.36558693647384644,
          1.3161484003067017,
          0.5143799781799316,
          1.2484593391418457,
          0.8861817121505737,
          1.2182925939559937,
          1.3019152879714966,
          1.170353651046753,
          1.2522963285446167,
          0.7903716564178467,
          0.6536851525306702,
          0.7588157653808594,
          0.7181282043457031,
          1.2708215713500977,
          1.1403706073760986,
          0.8617499470710754,
          0.24289849400520325,
          1.1125773191452026,
          0.3812054693698883,
          0.5663771629333496,
          0.6316444873809814
        ],
        [
          -2.2166748046875,
          -1.0766940116882324,
          -3.860530138015747,
          -3.9419138431549072,
          2.2364416122436523,
          2.1918210983276367,
          -2.4012539386749268,
          -1.2272781133651733,
          -0.1197405457496643,
          1.0711414813995361,
          0.9309602975845337,
          -3.567328453063965,
          0.713540256023407,
          -0.4137471914291382,
          -3.6468334197998047,
          2.223745822906494,
          2.0701560974121094,
          -1.7422739267349243,
          -0.23600932955741882,
          1.3944047689437866,
          1.994966745376587,
          2.26155424118042,
          -3.4102942943573,
          2.031749963760376,
          1.6495850086212158,
          1.968375325202942,
          -3.570761203765869,
          1.7291051149368286,
          -0.03601841256022453,
          -1.734708309173584,
          -3.3857381343841553,
          1.0951977968215942,
          -3.9280855655670166,
          -1.0008944272994995,
          2.4172780513763428,
          1.8979837894439697,
          -4.007774829864502,
          -3.747201681137085,
          0.8749650120735168,
          -3.8892133235931396,
          2.388155460357666,
          1.9106576442718506,
          -1.4710052013397217,
          -3.8472044467926025,
          0.9974198937416077,
          -3.9051082134246826,
          0.9710807204246521,
          1.1299736499786377,
          -0.7020388245582581,
          2.149541139602661,
          -2.123081922531128,
          0.4854205846786499,
          -1.4071764945983887,
          -4.019473075866699,
          -0.20996133983135223,
          2.0287814140319824,
          2.017061710357666,
          -0.47327879071235657,
          -1.370004415512085,
          2.150310754776001,
          -1.5154918432235718,
          -3.9282445907592773,
          -3.0403459072113037,
          -3.4394466876983643
        ],
        [
          -2.3819687366485596,
          -1.1190974712371826,
          -4.256349563598633,
          -4.477093696594238,
          2.37056827545166,
          2.3856685161590576,
          -2.5922656059265137,
          -1.3567925691604614,
          0.4645737111568451,
          0.8144016861915588,
          0.8829008936882019,
          -3.8010013103485107,
          0.6851103901863098,
          -0.5340486764907837,
          -3.4775123596191406,
          2.44663667678833,
          2.0512638092041016,
          -1.759735107421875,
          -0.39600375294685364,
          1.8264105319976807,
          2.266043186187744,
          2.2758584022521973,
          -3.422420024871826,
          2.347353935241699,
          1.7650219202041626,
          2.0387470722198486,
          -3.773110866546631,
          1.950772762298584,
          0.022944536060094833,
          -1.7509654760360718,
          -3.4588074684143066,
          0.995085597038269,
          -4.315854549407959,
          -0.9939600229263306,
          2.5042972564697266,
          2.0773701667785645,
          -4.376379013061523,
          -3.9421303272247314,
          0.9886763095855713,
          -4.263704776763916,
          2.673442840576172,
          1.99024498462677,
          -1.7184962034225464,
          -4.084789276123047,
          1.072973370552063,
          -4.257038593292236,
          1.4660028219223022,
          1.385757327079773,
          -0.13225391507148743,
          2.1909799575805664,
          -1.4626723527908325,
          0.33292096853256226,
          -1.4831937551498413,
          -4.384276866912842,
          0.23068270087242126,
          2.3174002170562744,
          1.906848430633545,
          -0.3904246687889099,
          -1.3182775974273682,
          2.4561562538146973,
          -0.9548453092575073,
          -4.261979103088379,
          -3.488753080368042,
          -3.6034128665924072
        ],
        [
          0.3989541232585907,
          0.9003987312316895,
          0.4879186749458313,
          0.48089611530303955,
          0.9077614545822144,
          0.33469483256340027,
          0.6992363333702087,
          0.3970972001552582,
          0.6224063634872437,
          1.084519386291504,
          1.2576007843017578,
          0.563889741897583,
          1.0079361200332642,
          0.8083958625793457,
          0.5036379098892212,
          1.1488142013549805,
          1.0751712322235107,
          0.9442914128303528,
          0.9350576400756836,
          1.2637006044387817,
          1.6425135135650635,
          0.2242366522550583,
          0.3392241895198822,
          0.7123353481292725,
          0.791977047920227,
          0.9957258105278015,
          0.6111616492271423,
          1.1820125579833984,
          0.8221619129180908,
          0.7060329914093018,
          0.6614426374435425,
          1.312613844871521,
          0.4959404766559601,
          0.9894929528236389,
          0.4748174250125885,
          0.8990738987922668,
          0.398767352104187,
          0.4704536199569702,
          1.079206109046936,
          0.7263472676277161,
          0.7314149737358093,
          1.2706325054168701,
          0.40176451206207275,
          0.4304426908493042,
          1.3085086345672607,
          0.5626141428947449,
          1.2370425462722778,
          0.945268452167511,
          1.1294924020767212,
          1.2696914672851562,
          1.079395055770874,
          1.2049483060836792,
          0.6290289759635925,
          0.492411732673645,
          0.5027250647544861,
          0.6783875823020935,
          1.2885360717773438,
          1.052992582321167,
          0.7480430006980896,
          0.08700910955667496,
          1.1129307746887207,
          0.40115123987197876,
          0.5343759059906006,
          0.6236076354980469
        ],
        [
          -0.09542225301265717,
          -0.15163353085517883,
          0.016855228692293167,
          0.0336412750184536,
          -0.1335725635290146,
          0.025448884814977646,
          0.0800010934472084,
          -0.026053238660097122,
          -0.1075974628329277,
          0.05726255849003792,
          0.0236639566719532,
          0.049918316304683685,
          -0.10630226880311966,
          0.03232269734144211,
          -0.1154157817363739,
          0.08834817260503769,
          -0.07911722362041473,
          0.045502062886953354,
          -0.0032030311413109303,
          -0.008052250370383263,
          -0.053541362285614014,
          0.03415048122406006,
          -0.07450369745492935,
          -0.137907937169075,
          -0.06173986569046974,
          0.07572096586227417,
          -0.060432545840740204,
          0.022662483155727386,
          -0.06990280002355576,
          0.05838683620095253,
          0.04971805214881897,
          0.0028791874647140503,
          -0.09098338335752487,
          -0.13216863572597504,
          -0.018896616995334625,
          -0.09832464158535004,
          0.06984099000692368,
          -0.14891736209392548,
          0.020363720133900642,
          0.09339088946580887,
          0.030702194198966026,
          0.026176832616329193,
          -0.13883201777935028,
          0.0944007858633995,
          -0.05921144038438797,
          -0.1492101550102234,
          0.08222318440675735,
          -0.06794942915439606,
          -0.019959939643740654,
          0.08680769801139832,
          -0.1090935617685318,
          -0.12577180564403534,
          -0.00566539540886879,
          -0.035967182368040085,
          0.0019880516920238733,
          -0.12471376359462738,
          -0.015127799473702908,
          -0.08500511944293976,
          -0.08234701305627823,
          -0.1286267191171646,
          0.04429002106189728,
          0.003760388819500804,
          -0.13193157315254211,
          0.0651768147945404
        ],
        [
          0.4187292158603668,
          0.942169189453125,
          0.3873005509376526,
          0.5911291241645813,
          1.013755440711975,
          0.5367287397384644,
          0.5728427171707153,
          0.6210263967514038,
          0.6899975538253784,
          1.235246181488037,
          1.3091524839401245,
          0.5852354764938354,
          0.8697370290756226,
          0.9998102188110352,
          0.43620696663856506,
          1.1823676824569702,
          1.0987248420715332,
          0.8113303184509277,
          0.9353809356689453,
          1.1945854425430298,
          1.6585036516189575,
          0.3303065299987793,
          0.4988727867603302,
          0.7677015662193298,
          0.8682305812835693,
          1.1140626668930054,
          0.6037479043006897,
          1.1864789724349976,
          0.9196776747703552,
          0.7890099287033081,
          0.45378535985946655,
          1.1664063930511475,
          0.5414479970932007,
          0.9700689315795898,
          0.5661811232566833,
          0.9591251611709595,
          0.5393432378768921,
          0.5227013230323792,
          0.938898503780365,
          0.7159101366996765,
          0.9426677227020264,
          1.1110142469406128,
          0.4245105981826782,
          0.29925647377967834,
          1.1107277870178223,
          0.44864732027053833,
          1.0978816747665405,
          0.8455899953842163,
          1.087868332862854,
          1.1691826581954956,
          1.045586109161377,
          1.23247492313385,
          0.6487603187561035,
          0.44330894947052,
          0.6998385787010193,
          0.7237491607666016,
          1.4107913970947266,
          1.1446055173873901,
          0.9312412142753601,
          0.18365304172039032,
          1.1571612358093262,
          0.49649378657341003,
          0.38919344544410706,
          0.6782230734825134
        ],
        [
          0.0662483498454094,
          -0.02609230764210224,
          0.03453557938337326,
          -0.06838102638721466,
          -0.13399730622768402,
          0.011331135407090187,
          0.011269490234553814,
          -0.10754597187042236,
          0.031392037868499756,
          -0.13239602744579315,
          0.07946185767650604,
          0.0921444296836853,
          0.013188561424612999,
          -0.09945116192102432,
          0.03616376221179962,
          -0.0033277617767453194,
          0.010425250045955181,
          0.017259303480386734,
          0.0680059939622879,
          -0.07603748142719269,
          -0.04789557307958603,
          0.013469234108924866,
          -0.009850977919995785,
          0.08169925957918167,
          -0.08641862124204636,
          -0.03206082433462143,
          -0.0038778861053287983,
          -0.05572870746254921,
          0.05987445265054703,
          -0.013349237851798534,
          -0.13636088371276855,
          -0.039128806442022324,
          -0.08021540939807892,
          -0.013125184923410416,
          -0.04059145599603653,
          -0.14925256371498108,
          -0.047678738832473755,
          -0.03721146658062935,
          -0.06495305150747299,
          0.08879686146974564,
          -0.052188873291015625,
          0.06084132567048073,
          0.007112538907676935,
          -0.13328666985034943,
          0.005676404107362032,
          0.07974056154489517,
          -0.10949147492647171,
          -0.0989953875541687,
          0.11288291960954666,
          0.07631681114435196,
          -0.09295760095119476,
          0.04716483876109123,
          -0.03901464119553566,
          -0.14749139547348022,
          -0.015628743916749954,
          0.016830449923872948,
          -0.05993269383907318,
          0.017288625240325928,
          -0.12840436398983002,
          0.06842230260372162,
          0.0837295725941658,
          0.04938918352127075,
          -0.004896845202893019,
          0.015815207734704018
        ],
        [
          0.29461729526519775,
          0.8989790678024292,
          0.4545302093029022,
          0.5104984045028687,
          0.812958300113678,
          0.5418965816497803,
          0.7600629329681396,
          0.396634578704834,
          0.7281171083450317,
          1.2411437034606934,
          1.3497239351272583,
          0.5569614768028259,
          1.089842677116394,
          0.860019326210022,
          0.6141954660415649,
          1.2850635051727295,
          1.0771377086639404,
          0.7512260675430298,
          0.9771116375923157,
          1.294234275817871,
          1.6319961547851562,
          0.3395841121673584,
          0.3765188455581665,
          0.7356573939323425,
          0.7388879656791687,
          1.1470717191696167,
          0.5983859300613403,
          1.120431900024414,
          0.9195036292076111,
          0.7743014693260193,
          0.6087565422058105,
          1.4014906883239746,
          0.5702053308486938,
          1.0032559633255005,
          0.6868609189987183,
          0.9542865753173828,
          0.4905323088169098,
          0.4543159604072571,
          0.896589457988739,
          0.6381334066390991,
          0.7677914500236511,
          1.233189344406128,
          0.5381993055343628,
          0.4219468832015991,
          1.0912548303604126,
          0.38342830538749695,
          1.1825909614562988,
          0.9946457147598267,
          1.0470249652862549,
          1.267809510231018,
          1.0138731002807617,
          1.1358953714370728,
          0.8168006539344788,
          0.6319130659103394,
          0.5619817972183228,
          0.8178126811981201,
          1.3979933261871338,
          1.08034348487854,
          0.9494161009788513,
          0.22649911046028137,
          1.0626479387283325,
          0.32671695947647095,
          0.4752758741378784,
          0.6040011644363403
        ],
        [
          0.4155859649181366,
          0.8904256820678711,
          0.43784987926483154,
          0.6499736309051514,
          0.8243616819381714,
          0.4601327180862427,
          0.6907654404640198,
          0.46872392296791077,
          0.7551021575927734,
          1.2343083620071411,
          1.3617689609527588,
          0.49634692072868347,
          0.9080830812454224,
          1.0142452716827393,
          0.5721740126609802,
          1.1678946018218994,
          1.1496143341064453,
          0.9141891002655029,
          0.8574846982955933,
          1.2983181476593018,
          1.800266146659851,
          0.2414097785949707,
          0.30746835470199585,
          0.6382132768630981,
          0.928374171257019,
          1.2155687808990479,
          0.5523443222045898,
          1.3607780933380127,
          0.8993505239486694,
          0.6866241097450256,
          0.6381492018699646,
          1.375120759010315,
          0.6862688660621643,
          1.0714190006256104,
          0.6777878403663635,
          1.1175793409347534,
          0.6447024941444397,
          0.34081828594207764,
          1.1182746887207031,
          0.5492082238197327,
          0.9931675791740417,
          1.2491216659545898,
          0.43375149369239807,
          0.45991119742393494,
          1.2143995761871338,
          0.41574418544769287,
          1.1211344003677368,
          0.9290086627006531,
          1.2737866640090942,
          1.2189007997512817,
          1.2238723039627075,
          1.1844347715377808,
          0.7285043001174927,
          0.5811708569526672,
          0.5963554978370667,
          0.6658873558044434,
          1.3375710248947144,
          1.005531668663025,
          0.8052473068237305,
          0.3135527968406677,
          1.0526385307312012,
          0.35057175159454346,
          0.4615863263607025,
          0.5875107645988464
        ],
        [
          -0.08479475229978561,
          -0.011847085319459438,
          -0.03490694239735603,
          0.01697486825287342,
          -0.009090862236917019,
          -0.0775187686085701,
          -0.05868513509631157,
          -0.018522532656788826,
          -0.07799816131591797,
          -0.009303743951022625,
          -0.022670144215226173,
          0.03110533580183983,
          0.017612148076295853,
          0.07680008560419083,
          -0.02271484024822712,
          -0.10255493223667145,
          0.04094838351011276,
          -0.09965397417545319,
          -0.035408224910497665,
          -0.05872218310832977,
          -0.06403318792581558,
          -0.06227107346057892,
          0.09576404839754105,
          0.057589802891016006,
          0.0177357979118824,
          0.10525421798229218,
          -0.12812229990959167,
          0.007082093507051468,
          0.06336504966020584,
          0.06407424062490463,
          -0.11264946311712265,
          0.026022592559456825,
          -0.08813606202602386,
          -0.022564291954040527,
          -0.0456744022667408,
          -0.12155389040708542,
          -0.1373225450515747,
          -0.09709729254245758,
          0.04138443246483803,
          0.04073005169630051,
          -0.1257343739271164,
          -0.05990268290042877,
          -0.011176053434610367,
          -0.1221417635679245,
          0.053037527948617935,
          0.09438861906528473,
          0.003469060407951474,
          -0.1085900142788887,
          0.016586415469646454,
          0.03019428811967373,
          0.08267372101545334,
          -0.08196606487035751,
          -0.12506568431854248,
          0.036988891661167145,
          0.0005033727502450347,
          -0.057510338723659515,
          -0.0689767599105835,
          -0.08129572868347168,
          0.08622825890779495,
          -0.03614949434995651,
          0.07344876229763031,
          0.101430244743824,
          0.005475072655826807,
          0.007947324775159359
        ],
        [
          0.3733673095703125,
          1.007283091545105,
          0.3498230576515198,
          0.6226184368133545,
          0.8727343678474426,
          0.5083120465278625,
          0.6701786518096924,
          0.4617314636707306,
          0.6678594350814819,
          1.2438600063323975,
          1.125295639038086,
          0.40136659145355225,
          0.9380204081535339,
          0.8441247344017029,
          0.5725141763687134,
          1.257017731666565,
          1.1734877824783325,
          0.9555565714836121,
          0.8909441232681274,
          1.139543890953064,
          1.6223628520965576,
          0.23490290343761444,
          0.2882387936115265,
          0.5830104351043701,
          0.6874943375587463,
          1.096299409866333,
          0.5834401249885559,
          1.3087780475616455,
          1.0166735649108887,
          0.7596558332443237,
          0.5861509442329407,
          1.1947588920593262,
          0.5747666954994202,
          0.902409017086029,
          0.6266063451766968,
          1.0129916667938232,
          0.5589838624000549,
          0.48675838112831116,
          0.924869954586029,
          0.7244864702224731,
          0.9058540463447571,
          1.2876211404800415,
          0.5365180969238281,
          0.4794175624847412,
          1.263901710510254,
          0.5561774969100952,
          1.2039895057678223,
          0.8526510000228882,
          1.2299741506576538,
          1.2377536296844482,
          1.1669844388961792,
          1.230755090713501,
          0.7230631113052368,
          0.4871911108493805,
          0.6373916268348694,
          0.7682313323020935,
          1.3363850116729736,
          1.0352133512496948,
          0.913049578666687,
          0.35275739431381226,
          1.000414252281189,
          0.3810441792011261,
          0.4388522207736969,
          0.48720142245292664
        ],
        [
          0.41031065583229065,
          0.8948042988777161,
          0.40902528166770935,
          0.5461379289627075,
          0.8621721267700195,
          0.5794904828071594,
          0.7268478274345398,
          0.6357680559158325,
          0.7261770963668823,
          1.2223042249679565,
          1.2844926118850708,
          0.5106339454650879,
          0.8788332343101501,
          0.8313283920288086,
          0.5021679997444153,
          1.1869159936904907,
          1.2473950386047363,
          0.9050654172897339,
          1.0533781051635742,
          1.255571722984314,
          1.6565885543823242,
          0.23512376844882965,
          0.28914812207221985,
          0.6316220760345459,
          0.8457127213478088,
          1.1457065343856812,
          0.6309540271759033,
          1.1690478324890137,
          0.9110681414604187,
          0.7423717379570007,
          0.5744242072105408,
          1.3293356895446777,
          0.5380129814147949,
          1.042088270187378,
          0.5915796160697937,
          1.0511504411697388,
          0.49560973048210144,
          0.37631654739379883,
          1.0232315063476562,
          0.6156533360481262,
          0.7995359301567078,
          1.2743874788284302,
          0.5319094061851501,
          0.3921188712120056,
          1.1400668621063232,
          0.4923099875450134,
          1.0239605903625488,
          0.917982280254364,
          1.162919282913208,
          1.300455927848816,
          1.1175527572631836,
          1.1420906782150269,
          0.7391019463539124,
          0.6362949013710022,
          0.6011306643486023,
          0.8174424767494202,
          1.3654903173446655,
          1.0014125108718872,
          0.8761800527572632,
          0.2065439075231552,
          1.0559946298599243,
          0.335444837808609,
          0.38022589683532715,
          0.6761379241943359
        ],
        [
          0.2897702157497406,
          1.0297350883483887,
          0.3833032548427582,
          0.5944631099700928,
          0.9458488821983337,
          0.5665223598480225,
          0.6510321497917175,
          0.5551263093948364,
          0.7300378680229187,
          1.3056726455688477,
          1.292381763458252,
          0.5529856085777283,
          0.9153574705123901,
          0.8365674614906311,
          0.6676799654960632,
          1.114565372467041,
          1.2121813297271729,
          0.8761486411094666,
          1.1071008443832397,
          1.245326042175293,
          1.649394154548645,
          0.31740617752075195,
          0.45132774114608765,
          0.776065468788147,
          0.9284920692443848,
          1.0887517929077148,
          0.6073032021522522,
          1.1324962377548218,
          0.9964973330497742,
          0.8685243725776672,
          0.6768112778663635,
          1.2685531377792358,
          0.5348554849624634,
          1.1095819473266602,
          0.4968990981578827,
          0.9487370848655701,
          0.4363948106765747,
          0.4699862599372864,
          1.0993553400039673,
          0.6907914876937866,
          0.8917109370231628,
          1.302290439605713,
          0.4631544053554535,
          0.4363802969455719,
          1.218436360359192,
          0.4649418890476227,
          1.2828818559646606,
          0.8232080936431885,
          1.1958123445510864,
          1.1505497694015503,
          1.154280185699463,
          1.1239168643951416,
          0.7657685279846191,
          0.48527830839157104,
          0.7568172812461853,
          0.6709272265434265,
          1.460668683052063,
          1.036264419555664,
          0.9376395344734192,
          0.24809713661670685,
          1.143298864364624,
          0.3718262314796448,
          0.567039966583252,
          0.6454811096191406
        ],
        [
          -0.1302139014005661,
          -0.014080483466386795,
          -0.10736945271492004,
          0.07390503585338593,
          -0.005888975225389004,
          -0.05592622607946396,
          -0.08731302618980408,
          0.020351871848106384,
          -0.09867281466722488,
          0.033523235470056534,
          0.044199202209711075,
          0.052474312484264374,
          0.016703488305211067,
          -0.12356874346733093,
          0.06735827773809433,
          -0.0635957270860672,
          -0.05793881043791771,
          -0.025538884103298187,
          0.06521325558423996,
          0.07310250401496887,
          -8.574505773140118e-05,
          0.037799447774887085,
          -0.13586273789405823,
          -0.009496239945292473,
          -0.13262329995632172,
          0.018990840762853622,
          -0.11044009774923325,
          -0.06531421840190887,
          0.06571946293115616,
          0.09490247815847397,
          -0.08873265236616135,
          -0.09406206756830215,
          -0.002167193219065666,
          0.025140171870589256,
          -0.04754829406738281,
          -0.06447634845972061,
          -0.10050151497125626,
          0.04215537756681442,
          0.09572871029376984,
          -0.08347531408071518,
          0.033606525510549545,
          0.05065649002790451,
          0.09389995783567429,
          -0.035978130996227264,
          -0.019387170672416687,
          0.0697232112288475,
          0.05556943640112877,
          0.10709664225578308,
          -0.045715417712926865,
          0.027032500132918358,
          0.06471193581819534,
          -0.10581234842538834,
          0.007016200106590986,
          -0.04890863969922066,
          0.05782664939761162,
          -0.08224103599786758,
          -0.014073329977691174,
          0.050402551889419556,
          -0.13046972453594208,
          -0.12456515431404114,
          -0.08671466261148453,
          0.06799429655075073,
          0.06921909749507904,
          -0.10772918164730072
        ],
        [
          0.0011606046464294195,
          -0.07923562079668045,
          -0.07554708421230316,
          0.08152378350496292,
          0.017987949773669243,
          -0.07937108725309372,
          0.008640828542411327,
          -0.003802355146035552,
          0.0081547312438488,
          -0.0751383826136589,
          -0.10046013444662094,
          0.060429297387599945,
          0.0036784126423299313,
          0.0152753796428442,
          -0.07344481348991394,
          0.01634405553340912,
          0.050305552780628204,
          0.04785895720124245,
          0.021021883934736252,
          0.08572740107774734,
          -0.052332278341054916,
          -0.004789292812347412,
          0.09532278031110764,
          0.07471232861280441,
          -0.11048363149166107,
          0.07377028465270996,
          0.02491997554898262,
          -0.046389177441596985,
          0.09692473709583282,
          -0.0859769880771637,
          0.05600569769740105,
          0.09302936494350433,
          -0.10223297029733658,
          -0.08646321296691895,
          -0.16711802780628204,
          -0.043282195925712585,
          -0.135689377784729,
          -0.07043581455945969,
          0.011243144981563091,
          0.06450840830802917,
          0.03541085869073868,
          0.03108440525829792,
          0.02093644253909588,
          -0.09639383852481842,
          -0.1312919706106186,
          -0.019407501444220543,
          0.09305406361818314,
          -0.031407929956912994,
          -0.02929254248738289,
          -0.12602485716342926,
          -0.07608958333730698,
          -0.12385211884975433,
          0.08786888420581818,
          -0.04386097937822342,
          -0.12245580554008484,
          0.00069433479802683,
          -0.026832489296793938,
          -0.028212621808052063,
          0.0199639480561018,
          0.014202808029949665,
          -0.13986898958683014,
          -0.10536592453718185,
          -0.027161549776792526,
          -0.1407681405544281
        ],
        [
          0.28381237387657166,
          1.0614773035049438,
          0.47296103835105896,
          0.5353829860687256,
          0.8821609020233154,
          0.37430986762046814,
          0.7869484424591064,
          0.4920688569545746,
          0.6325817704200745,
          1.1197774410247803,
          1.332007646560669,
          0.48155879974365234,
          0.9755219221115112,
          0.8863887786865234,
          0.4828058183193207,
          1.2217291593551636,
          1.3128712177276611,
          0.8008450865745544,
          0.9771615266799927,
          1.1573845148086548,
          1.6619921922683716,
          0.4498835802078247,
          0.3871185779571533,
          0.8406782150268555,
          0.7988251447677612,
          1.030044674873352,
          0.4586009681224823,
          1.3408243656158447,
          0.840560257434845,
          0.8603517413139343,
          0.6152820587158203,
          1.3509538173675537,
          0.6222941875457764,
          1.0238755941390991,
          0.6640495657920837,
          0.9267576336860657,
          0.4994654953479767,
          0.5491213798522949,
          1.0469666719436646,
          0.6265783905982971,
          0.842096209526062,
          1.1646422147750854,
          0.6140998005867004,
          0.4130729138851166,
          1.2205820083618164,
          0.5468464493751526,
          1.2442470788955688,
          0.8429344892501831,
          1.1302142143249512,
          1.3286535739898682,
          1.2033392190933228,
          1.0939613580703735,
          0.5921804904937744,
          0.5727821588516235,
          0.733571469783783,
          0.7891111373901367,
          1.44911527633667,
          1.007206916809082,
          0.9132566452026367,
          0.2109738439321518,
          1.1886478662490845,
          0.49011510610580444,
          0.512799084186554,
          0.6901909112930298
        ],
        [
          0.30737391114234924,
          0.8133751153945923,
          0.35087573528289795,
          0.6563584208488464,
          0.9394443035125732,
          0.3609353303909302,
          0.7290430665016174,
          0.6195933222770691,
          0.5625430345535278,
          1.268591046333313,
          1.2318689823150635,
          0.49812963604927063,
          1.0722644329071045,
          1.0015376806259155,
          0.5822653770446777,
          1.2629804611206055,
          1.2344156503677368,
          0.8587602376937866,
          0.8339274525642395,
          1.2315647602081299,
          1.591465711593628,
          0.36203762888908386,
          0.4020949900150299,
          0.6972765326499939,
          0.7103022336959839,
          0.9942265152931213,
          0.6052671670913696,
          1.2533081769943237,
          0.971472442150116,
          0.7357373237609863,
          0.5465101003646851,
          1.2390508651733398,
          0.6191238164901733,
          0.9712924361228943,
          0.6404507160186768,
          1.0790480375289917,
          0.4128957986831665,
          0.44632798433303833,
          0.951836347579956,
          0.5539684891700745,
          0.8969359993934631,
          1.1915416717529297,
          0.6300439238548279,
          0.328725665807724,
          1.2370988130569458,
          0.39786165952682495,
          1.0487276315689087,
          0.8828390836715698,
          1.242943286895752,
          1.2714334726333618,
          0.9904305338859558,
          1.1226025819778442,
          0.6234021186828613,
          0.5422307252883911,
          0.5542560815811157,
          0.6990242600440979,
          1.3990323543548584,
          0.9579172730445862,
          0.6981746554374695,
          0.3058205246925354,
          1.0961428880691528,
          0.37406471371650696,
          0.5669502019882202,
          0.49778491258621216
        ],
        [
          -0.07588502764701843,
          -0.1203647181391716,
          -0.03185203671455383,
          -0.041200678795576096,
          0.04151981696486473,
          -0.03740132227540016,
          0.029539356008172035,
          -0.051944583654403687,
          0.09584026038646698,
          0.07392239570617676,
          -0.12306635081768036,
          -0.03768380358815193,
          -0.12540899217128754,
          0.04469896852970123,
          -0.12412715703248978,
          -0.06649701297283173,
          0.10620296746492386,
          -0.13016505539417267,
          0.06486711651086807,
          -0.012867062352597713,
          0.08543527871370316,
          -0.07812975347042084,
          0.06561940908432007,
          -0.020811643451452255,
          -0.01032253447920084,
          0.06466527283191681,
          -0.12482128292322159,
          -0.12581028044223785,
          0.10288246721029282,
          -0.09565489739179611,
          -0.09957680851221085,
          -0.027574073523283005,
          -0.048715248703956604,
          -0.03408336639404297,
          -0.11036302894353867,
          0.024301134049892426,
          -0.11593188345432281,
          0.010124117136001587,
          0.06803088635206223,
          0.014400459825992584,
          -0.004948877263814211,
          -0.0023266449570655823,
          -0.03661881387233734,
          -0.023812279105186462,
          -0.06560301035642624,
          -0.09568656980991364,
          -0.0719594731926918,
          0.10018640011548996,
          -0.06444992870092392,
          0.024242481216788292,
          0.07069965451955795,
          -0.019011003896594048,
          -0.07893969118595123,
          -0.0926746353507042,
          -0.05160927027463913,
          0.022290166467428207,
          -0.12235085666179657,
          -0.033042553812265396,
          0.03653375059366226,
          0.08602192997932434,
          0.022570723667740822,
          0.02472083270549774,
          0.08557383716106415,
          0.04376308247447014
        ],
        [
          0.025197945535182953,
          -0.05135462060570717,
          -0.11813440173864365,
          -0.04534183070063591,
          -0.022670477628707886,
          0.009179651737213135,
          -0.029453663155436516,
          0.03214788809418678,
          0.06495961546897888,
          -0.06172262877225876,
          -0.1283048689365387,
          -0.08083263784646988,
          -0.07607714086771011,
          0.0708550214767456,
          -0.09805925190448761,
          -0.023727450519800186,
          -0.04153771325945854,
          -0.09224402159452438,
          0.04673735424876213,
          -0.052069440484046936,
          -0.006466522812843323,
          -0.08788558840751648,
          -0.027964234352111816,
          0.01776072382926941,
          -0.0050866007804870605,
          -0.04670596122741699,
          0.0201579499989748,
          -0.03238719701766968,
          -0.08076242357492447,
          -0.10941401869058609,
          -0.04415964335203171,
          -0.13285605609416962,
          0.08600018173456192,
          -0.07368844002485275,
          -0.05180227756500244,
          0.011554881930351257,
          0.014331449754536152,
          -0.02942061796784401,
          0.07172820717096329,
          -0.09043004363775253,
          0.04479759931564331,
          -0.0002819150686264038,
          -0.11608418822288513,
          -0.06521131098270416,
          0.03181089460849762,
          0.0070667751133441925,
          0.07247969508171082,
          0.08362412452697754,
          -0.06817784905433655,
          -0.06504904478788376,
          -0.02650517225265503,
          -0.10643084347248077,
          -0.050765737891197205,
          -0.11438360065221786,
          0.02992050163447857,
          0.08844491839408875,
          0.009897053241729736,
          -0.10637170821428299,
          -0.10872793942689896,
          -0.048662394285202026,
          0.03635667264461517,
          -0.012318159453570843,
          0.005359832663089037,
          0.09961062669754028
        ],
        [
          -2.168490171432495,
          -1.055724024772644,
          -3.786839485168457,
          -3.8681023120880127,
          2.306032419204712,
          2.050391435623169,
          -2.6393685340881348,
          -1.2999107837677002,
          -0.08436177670955658,
          1.0068086385726929,
          0.8185372352600098,
          -3.782390594482422,
          0.6911757588386536,
          -0.5182679891586304,
          -3.4641313552856445,
          2.1128835678100586,
          2.082754135131836,
          -1.8705883026123047,
          -0.34066128730773926,
          1.320560336112976,
          2.0695996284484863,
          2.220865488052368,
          -3.4952800273895264,
          2.12587833404541,
          1.6404372453689575,
          2.126572608947754,
          -3.4990768432617188,
          1.774856448173523,
          -0.05596516281366348,
          -1.6945171356201172,
          -3.275937080383301,
          1.0297271013259888,
          -3.9461069107055664,
          -0.9062483310699463,
          2.3066656589508057,
          1.975674033164978,
          -3.8820862770080566,
          -3.615774393081665,
          0.796232283115387,
          -3.9257113933563232,
          2.58540678024292,
          1.8237192630767822,
          -1.5526421070098877,
          -3.8623194694519043,
          1.0610100030899048,
          -3.810356855392456,
          0.9535030722618103,
          1.1245254278182983,
          -0.46302875876426697,
          2.142544746398926,
          -1.9282896518707275,
          0.3056367337703705,
          -1.2465754747390747,
          -4.146662712097168,
          -0.16710907220840454,
          2.1068294048309326,
          1.8772144317626953,
          -0.4651777446269989,
          -1.4695953130722046,
          2.3958585262298584,
          -1.3465204238891602,
          -4.019200801849365,
          -3.0324759483337402,
          -3.374431610107422
        ],
        [
          0.35910773277282715,
          0.971780002117157,
          0.5645784139633179,
          0.6111183762550354,
          0.9921155571937561,
          0.5385266542434692,
          0.7103124856948853,
          0.5529826879501343,
          0.7278225421905518,
          1.202897548675537,
          1.3366926908493042,
          0.599865734577179,
          1.019525170326233,
          0.8938919901847839,
          0.63847815990448,
          1.085595726966858,
          1.2863802909851074,
          0.9172555804252625,
          1.0318666696548462,
          1.2157536745071411,
          1.599805474281311,
          0.4143688678741455,
          0.3219590485095978,
          0.7366724610328674,
          0.8762739896774292,
          0.959296464920044,
          0.5230633616447449,
          1.1620128154754639,
          1.0070260763168335,
          0.6938720345497131,
          0.6442468166351318,
          1.3623589277267456,
          0.6022025942802429,
          1.1513727903366089,
          0.5934659242630005,
          0.8879862427711487,
          0.6157939434051514,
          0.45692259073257446,
          0.993706226348877,
          0.5053712725639343,
          0.8241492509841919,
          1.1588979959487915,
          0.6478641033172607,
          0.49333494901657104,
          1.2892627716064453,
          0.5876175761222839,
          1.04690682888031,
          0.8333978652954102,
          1.1095352172851562,
          1.1706784963607788,
          1.2029131650924683,
          1.1698591709136963,
          0.8003128170967102,
          0.5312493443489075,
          0.5411977171897888,
          0.7039750218391418,
          1.419777512550354,
          1.15639066696167,
          0.8664862513542175,
          0.2391158789396286,
          0.9748148322105408,
          0.3225271999835968,
          0.521613597869873,
          0.5200405120849609
        ],
        [
          0.4478110671043396,
          0.9504512548446655,
          0.4176481366157532,
          0.6513162851333618,
          0.8469671010971069,
          0.44455716013908386,
          0.6113113164901733,
          0.38644030690193176,
          0.6972249746322632,
          1.2037038803100586,
          1.1421027183532715,
          0.5582928657531738,
          0.8395644426345825,
          0.7654398679733276,
          0.44853475689888,
          1.1162123680114746,
          1.1707700490951538,
          0.8132409453392029,
          0.9944902062416077,
          1.0909678936004639,
          1.692304015159607,
          0.32331275939941406,
          0.4070962965488434,
          0.8158525228500366,
          0.8695594668388367,
          0.9928533434867859,
          0.40870001912117004,
          1.156882643699646,
          0.8406885266304016,
          0.8080198764801025,
          0.5638616681098938,
          1.360827088356018,
          0.5784589648246765,
          0.9953323602676392,
          0.569116473197937,
          1.0130462646484375,
          0.5088069438934326,
          0.5452699661254883,
          0.8774270415306091,
          0.6800434589385986,
          0.7638243436813354,
          1.094059944152832,
          0.49611979722976685,
          0.46581774950027466,
          1.2594327926635742,
          0.533634603023529,
          1.0907111167907715,
          0.8625929355621338,
          1.0895256996154785,
          1.1915053129196167,
          1.0779310464859009,
          1.2093454599380493,
          0.7533517479896545,
          0.43254077434539795,
          0.6431496143341064,
          0.6514579057693481,
          1.2856370210647583,
          0.964708685874939,
          0.8469588756561279,
          0.19548176229000092,
          1.1963574886322021,
          0.47699612379074097,
          0.3709213435649872,
          0.45042484998703003
        ],
        [
          0.39686819911003113,
          0.8921313285827637,
          0.5114016532897949,
          0.5038872361183167,
          0.957331120967865,
          0.35742488503456116,
          0.6089463829994202,
          0.44560715556144714,
          0.7470908164978027,
          1.1863226890563965,
          1.1154446601867676,
          0.41962504386901855,
          0.9137614965438843,
          0.7810696363449097,
          0.5450759530067444,
          1.2223546504974365,
          1.1688625812530518,
          0.8116599917411804,
          0.9471444487571716,
          1.1317864656448364,
          1.6286838054656982,
          0.33190062642097473,
          0.49299362301826477,
          0.6690269708633423,
          0.8682982325553894,
          1.0330442190170288,
          0.4938461482524872,
          1.0960874557495117,
          1.0174987316131592,
          0.8959106206893921,
          0.5751195549964905,
          1.36239492893219,
          0.6458993554115295,
          1.0896762609481812,
          0.6357452869415283,
          0.8809486627578735,
          0.4184654951095581,
          0.3576650321483612,
          1.0263222455978394,
          0.5246890187263489,
          0.7530970573425293,
          1.169577717781067,
          0.40645432472229004,
          0.41389673948287964,
          1.2208353281021118,
          0.43645179271698,
          1.205387830734253,
          0.8467413187026978,
          1.1187843084335327,
          1.312177300453186,
          1.2154470682144165,
          1.1176753044128418,
          0.6123965978622437,
          0.481057345867157,
          0.6740314960479736,
          0.8135557770729065,
          1.3932561874389648,
          1.0209555625915527,
          0.721027135848999,
          0.1836165338754654,
          1.0579758882522583,
          0.39920908212661743,
          0.4128207862377167,
          0.47721797227859497
        ],
        [
          -0.004800363443791866,
          -0.11211729794740677,
          -0.11730414628982544,
          -0.12229858338832855,
          -0.060352299362421036,
          0.08542171865701675,
          0.027610307559370995,
          -0.03731326758861542,
          0.002033952623605728,
          0.04202382639050484,
          -0.015744395554065704,
          -0.11733115464448929,
          -0.0990484207868576,
          -0.10061299800872803,
          -0.022281942889094353,
          -0.13392332196235657,
          -0.04419465363025665,
          -0.06378793716430664,
          0.11111578345298767,
          0.07824663817882538,
          0.04874379560351372,
          -0.0137624591588974,
          -0.06027188152074814,
          0.006713841576129198,
          -0.11460559815168381,
          -0.07224730402231216,
          -0.04370156303048134,
          -0.05044204741716385,
          -0.1385352909564972,
          0.031492460519075394,
          0.08145830780267715,
          -0.08205189555883408,
          0.012950797565281391,
          -0.02974342554807663,
          -0.046845775097608566,
          -0.01036684401333332,
          0.08723031729459763,
          -0.004149051383137703,
          -0.09054725617170334,
          -0.06383892148733139,
          0.05106019973754883,
          0.016176408156752586,
          -0.015240631066262722,
          -0.035601988434791565,
          -0.06697019189596176,
          -0.06116031855344772,
          -0.0881965383887291,
          -0.002520815934985876,
          -0.0024698572233319283,
          0.07340769469738007,
          -0.04705698788166046,
          -0.007193516008555889,
          0.05810902640223503,
          0.036820948123931885,
          -0.006998738739639521,
          0.01986430585384369,
          -0.014218708500266075,
          -0.12342870980501175,
          -0.014606382697820663,
          -0.05635011941194534,
          0.09390365332365036,
          0.09099914133548737,
          0.00462936470285058,
          0.09051528573036194
        ],
        [
          0.3313247263431549,
          1.0362504720687866,
          0.5859957337379456,
          0.5793840885162354,
          0.8019952774047852,
          0.41840866208076477,
          0.6463074684143066,
          0.515522837638855,
          0.578200101852417,
          1.2109544277191162,
          1.1771059036254883,
          0.45922937989234924,
          0.9036314487457275,
          0.8643619418144226,
          0.4194927215576172,
          1.1124762296676636,
          1.2092000246047974,
          0.9311832189559937,
          1.0618329048156738,
          1.1286951303482056,
          1.7490507364273071,
          0.2592822313308716,
          0.2820011079311371,
          0.6916964054107666,
          0.7313598394393921,
          0.9715529084205627,
          0.40895041823387146,
          1.1242847442626953,
          1.020668864250183,
          0.8475624918937683,
          0.5230967402458191,
          1.198983073234558,
          0.44326716661453247,
          0.9583901166915894,
          0.5200007557868958,
          1.0737015008926392,
          0.5730092525482178,
          0.3940648138523102,
          1.073137879371643,
          0.5537442564964294,
          0.7497730255126953,
          1.2460381984710693,
          0.44881752133369446,
          0.44971343874931335,
          1.301640272140503,
          0.4516863524913788,
          1.037037968635559,
          0.9277214407920837,
          1.0340138673782349,
          1.3296071290969849,
          1.0465528964996338,
          1.187508225440979,
          0.6031721234321594,
          0.459335058927536,
          0.6762204766273499,
          0.7830468416213989,
          1.425034523010254,
          1.1833388805389404,
          0.8233270645141602,
          0.2752728760242462,
          1.1140432357788086,
          0.3600586950778961,
          0.4712159335613251,
          0.4623922109603882
        ],
        [
          -0.1232549399137497,
          0.05480979382991791,
          -0.0936388149857521,
          0.07363928109407425,
          -0.018194114789366722,
          -0.002534718019887805,
          0.08751267194747925,
          -0.08728673309087753,
          -0.0283964853733778,
          -0.012103299610316753,
          0.018681904301047325,
          -0.1463908851146698,
          0.019090566784143448,
          -0.1002144142985344,
          -0.01367594487965107,
          0.06288617104291916,
          -0.04185979440808296,
          -0.02809343859553337,
          -0.04223007708787918,
          0.07081087678670883,
          0.03904473036527634,
          -0.010697895660996437,
          -0.10448907315731049,
          -0.0969737246632576,
          0.058999523520469666,
          0.0656534805893898,
          0.05021654814481735,
          -0.12182876467704773,
          0.0658855140209198,
          -0.04078226163983345,
          0.07113154977560043,
          0.07631374150514603,
          -0.008236384950578213,
          -0.08184383809566498,
          0.06714978814125061,
          -0.09772339463233948,
          0.059627991169691086,
          -0.139435276389122,
          -0.06463216245174408,
          -0.13449829816818237,
          -0.09061073511838913,
          0.02925088256597519,
          -0.10846152901649475,
          -0.12681403756141663,
          0.05887891724705696,
          0.036844972521066666,
          -0.026003854349255562,
          -0.11971531808376312,
          -0.06802832335233688,
          -0.07309383153915405,
          0.048373207449913025,
          -0.06487055867910385,
          -0.05698186531662941,
          -0.11624424159526825,
          -0.07241445779800415,
          0.033491142094135284,
          0.04869581758975983,
          -0.010396827012300491,
          -0.07190176844596863,
          0.08731840550899506,
          -0.004621535073965788,
          -0.061472419649362564,
          -0.06141603738069534,
          -0.04334207996726036
        ],
        [
          0.44839468598365784,
          0.9815503358840942,
          0.5618611574172974,
          0.5794284343719482,
          1.014464259147644,
          0.411410391330719,
          0.6214790940284729,
          0.4665210247039795,
          0.5747184753417969,
          1.1146186590194702,
          1.1250070333480835,
          0.4821450710296631,
          0.9793868660926819,
          0.8729221820831299,
          0.44606542587280273,
          1.2999738454818726,
          1.1585614681243896,
          0.9167227745056152,
          1.043855905532837,
          1.150334358215332,
          1.6838890314102173,
          0.40235966444015503,
          0.5010533332824707,
          0.6925860643386841,
          0.900159478187561,
          0.9858976006507874,
          0.43969249725341797,
          1.3160040378570557,
          0.9112271070480347,
          0.9030377268791199,
          0.5821983218193054,
          1.2402470111846924,
          0.6575049757957458,
          1.1472505331039429,
          0.5895261764526367,
          0.9324209690093994,
          0.5263020992279053,
          0.3893367648124695,
          1.087170958518982,
          0.6360411047935486,
          0.8836037516593933,
          1.3007758855819702,
          0.5707929134368896,
          0.3308192491531372,
          1.3076096773147583,
          0.583408534526825,
          1.0542865991592407,
          0.9866740107536316,
          1.1970655918121338,
          1.2018678188323975,
          1.0233150720596313,
          1.1142076253890991,
          0.5819532871246338,
          0.6122781038284302,
          0.74757319688797,
          0.70974200963974,
          1.454705834388733,
          1.0408943891525269,
          0.8553670048713684,
          0.19268269836902618,
          1.093258261680603,
          0.4430314600467682,
          0.5159289836883545,
          0.5718170404434204
        ],
        [
          0.3240755498409271,
          1.0184218883514404,
          0.5508043169975281,
          0.6018379330635071,
          0.8492322564125061,
          0.4858412742614746,
          0.6762390732765198,
          0.6247197985649109,
          0.7074800729751587,
          1.2012746334075928,
          1.242209792137146,
          0.5530524253845215,
          0.9736132025718689,
          1.0096780061721802,
          0.5927714705467224,
          1.0887278318405151,
          1.1954349279403687,
          0.7484117746353149,
          0.8564742803573608,
          1.2519738674163818,
          1.7240967750549316,
          0.3168553113937378,
          0.496341735124588,
          0.6393081545829773,
          0.7541251182556152,
          1.0602378845214844,
          0.5188998579978943,
          1.1996651887893677,
          1.0315511226654053,
          0.7222376465797424,
          0.5053548216819763,
          1.2968519926071167,
          0.6293737292289734,
          1.062112808227539,
          0.6424559354782104,
          1.0267738103866577,
          0.6351945996284485,
          0.5225565433502197,
          1.0814766883850098,
          0.610196590423584,
          0.7495990991592407,
          1.165109395980835,
          0.5705369114875793,
          0.49446389079093933,
          1.1499580144882202,
          0.6067278385162354,
          1.1440391540527344,
          0.8895010352134705,
          1.1637358665466309,
          1.1997350454330444,
          1.2249140739440918,
          1.136042594909668,
          0.7777431607246399,
          0.4328096807003021,
          0.5899403691291809,
          0.7552893161773682,
          1.4333864450454712,
          1.1409332752227783,
          0.8548775315284729,
          0.15496042370796204,
          1.096397042274475,
          0.3084879219532013,
          0.35342884063720703,
          0.5892012119293213
        ],
        [
          -0.07908816635608673,
          0.1134548932313919,
          -0.06794272363185883,
          0.04028351604938507,
          0.07337035238742828,
          -0.0971546471118927,
          0.06397250294685364,
          -0.016737014055252075,
          0.06477034091949463,
          0.120966836810112,
          -0.05327068269252777,
          -0.05413798987865448,
          0.09931865334510803,
          0.01390005648136139,
          -0.012466594576835632,
          0.09483353793621063,
          -0.06039300560951233,
          -0.006172016263008118,
          0.08585947751998901,
          0.0488513708114624,
          -0.08085185289382935,
          0.03248956799507141,
          -0.09530459344387054,
          -0.0678841769695282,
          0.08037647604942322,
          -0.03331403434276581,
          -0.06366963684558868,
          0.008860290050506592,
          0.030546292662620544,
          -0.0777021050453186,
          -0.08429542183876038,
          -0.1210586428642273,
          0.03229793906211853,
          -0.08065368235111237,
          0.009526044130325317,
          -0.02795727550983429,
          -0.08173249661922455,
          -0.03988735377788544,
          -0.09608624875545502,
          -0.06616660952568054,
          -0.0038964003324508667,
          -0.10686439275741577,
          -0.10962916910648346,
          0.09363256394863129,
          0.011762261390686035,
          -0.05528172850608826,
          -0.00415608286857605,
          0.09269563853740692,
          -0.10428319871425629,
          -0.06627294421195984,
          -0.09039255976676941,
          -0.009087622165679932,
          -0.004301607608795166,
          -0.09741322696208954,
          0.0867604911327362,
          -0.09598997235298157,
          0.11670446395874023,
          -0.08604612946510315,
          -0.017130687832832336,
          0.02337336540222168,
          -0.0555596798658371,
          0.11495524644851685,
          -0.08617928624153137,
          -0.006928548216819763
        ],
        [
          0.308382123708725,
          0.9915474653244019,
          0.5946016311645508,
          0.7189119458198547,
          0.9475807547569275,
          0.4190605580806732,
          0.8153180480003357,
          0.5316770076751709,
          0.7914586663246155,
          1.155474305152893,
          1.212152123451233,
          0.39976561069488525,
          1.1076687574386597,
          0.945085883140564,
          0.4600850045681,
          1.21442711353302,
          1.1705938577651978,
          0.8888113498687744,
          1.0177620649337769,
          1.2002606391906738,
          1.7571895122528076,
          0.27297335863113403,
          0.41396066546440125,
          0.6074565649032593,
          0.8484825491905212,
          1.2311209440231323,
          0.65579754114151,
          1.289616584777832,
          1.0347405672073364,
          0.9218855500221252,
          0.6264561414718628,
          1.3646782636642456,
          0.5750495195388794,
          1.1757732629776,
          0.6982439160346985,
          0.9767115116119385,
          0.5440444350242615,
          0.3989167809486389,
          1.0592323541641235,
          0.5301546454429626,
          0.9212186336517334,
          1.2221049070358276,
          0.588042676448822,
          0.46059978008270264,
          1.1743141412734985,
          0.5884109735488892,
          1.2113178968429565,
          0.8111598491668701,
          1.3013324737548828,
          1.3594802618026733,
          1.2235673666000366,
          1.1515082120895386,
          0.7650138139724731,
          0.48852911591529846,
          0.629740297794342,
          0.8257453441619873,
          1.4288276433944702,
          1.163926362991333,
          0.7427431344985962,
          0.41274067759513855,
          1.0801669359207153,
          0.5084146857261658,
          0.5818177461624146,
          0.6413012146949768
        ],
        [
          0.5245200991630554,
          1.0168544054031372,
          0.5576881170272827,
          0.5543212890625,
          1.0350804328918457,
          0.5039413571357727,
          0.7608696818351746,
          0.48958876729011536,
          0.7903795838356018,
          1.317003607749939,
          1.1589384078979492,
          0.6015319228172302,
          0.8972984552383423,
          0.8277238607406616,
          0.4387747049331665,
          1.2287049293518066,
          1.117870569229126,
          0.8251309990882874,
          0.9021881818771362,
          1.279436707496643,
          1.596712589263916,
          0.28389450907707214,
          0.38376519083976746,
          0.7289811372756958,
          0.7588712573051453,
          1.1400752067565918,
          0.454147070646286,
          1.1233553886413574,
          0.9124239087104797,
          0.7234928011894226,
          0.6615377068519592,
          1.2205522060394287,
          0.5415858626365662,
          1.1034249067306519,
          0.47336545586586,
          1.1164458990097046,
          0.4872016906738281,
          0.4238688051700592,
          0.9263368248939514,
          0.5984073877334595,
          0.8190910816192627,
          1.1303297281265259,
          0.5796324014663696,
          0.419646292924881,
          1.341952919960022,
          0.6032356023788452,
          1.2527467012405396,
          0.9397428631782532,
          1.229168176651001,
          1.3533543348312378,
          1.2313443422317505,
          1.054446816444397,
          0.6828846335411072,
          0.42983072996139526,
          0.6728625297546387,
          0.710496723651886,
          1.4609348773956299,
          1.119743824005127,
          0.8514248132705688,
          0.2069634199142456,
          1.0180805921554565,
          0.41660162806510925,
          0.41549915075302124,
          0.5315811038017273
        ],
        [
          0.06733371317386627,
          -0.09122292697429657,
          -0.07728972285985947,
          0.07414557784795761,
          0.022707216441631317,
          -0.09412713348865509,
          0.013144228607416153,
          0.04366496950387955,
          -0.1327049732208252,
          -0.0016856120200827718,
          0.004099044483155012,
          -0.02765754796564579,
          0.08842730522155762,
          -0.10127584636211395,
          0.04366948828101158,
          -0.09912904351949692,
          -0.1358311027288437,
          0.06488782167434692,
          -0.08587461709976196,
          -0.01585547998547554,
          0.04254481941461563,
          -0.1287059485912323,
          -0.1270962655544281,
          0.02499573864042759,
          0.08418051153421402,
          -0.03818270564079285,
          0.06734727323055267,
          0.022126752883195877,
          0.006711437366902828,
          -0.10354895144701004,
          0.09622141718864441,
          0.03164387121796608,
          -0.001918923924677074,
          0.062015682458877563,
          -0.1351618468761444,
          0.0003460193984210491,
          -0.08035143464803696,
          -0.03126801550388336,
          0.014427089132368565,
          0.03178662434220314,
          0.0007379889721050858,
          -0.11588625609874725,
          -0.09567087888717651,
          -0.017115382477641106,
          -0.044476453214883804,
          -0.12524275481700897,
          0.09924642741680145,
          -0.0037329623010009527,
          -0.10731291025876999,
          0.024848084896802902,
          0.028824124485254288,
          -0.0843200534582138,
          0.038133084774017334,
          -0.09719455242156982,
          0.021539725363254547,
          0.09224668145179749,
          0.05655938759446144,
          0.03469152748584747,
          -0.04775207117199898,
          0.0005459042731672525,
          0.0202393289655447,
          0.01196528971195221,
          -0.04471598565578461,
          -0.005569567438215017
        ],
        [
          0.3412877321243286,
          0.8421074748039246,
          0.35243627429008484,
          0.47490352392196655,
          0.810406506061554,
          0.5670604705810547,
          0.6937081217765808,
          0.3961782455444336,
          0.6203550696372986,
          1.199923038482666,
          1.1717160940170288,
          0.4470672011375427,
          0.9161826968193054,
          0.8609654307365417,
          0.5338736176490784,
          1.1738195419311523,
          1.2569156885147095,
          0.9229560494422913,
          1.0378978252410889,
          1.2012531757354736,
          1.6170440912246704,
          0.31713199615478516,
          0.2951585650444031,
          0.7439326047897339,
          0.7773778438568115,
          1.0241574048995972,
          0.4090672731399536,
          1.2492296695709229,
          0.9724680781364441,
          0.8754848837852478,
          0.5236364006996155,
          1.2964524030685425,
          0.537433922290802,
          0.929496705532074,
          0.4855324625968933,
          1.0428987741470337,
          0.45464882254600525,
          0.5376567840576172,
          1.0196959972381592,
          0.6608478426933289,
          0.9173281192779541,
          1.2658066749572754,
          0.5802817344665527,
          0.4731704294681549,
          1.1212550401687622,
          0.4325854778289795,
          1.0831245183944702,
          0.9407849311828613,
          1.231948733329773,
          1.2917511463165283,
          1.043058156967163,
          1.0943281650543213,
          0.6099956631660461,
          0.6110917925834656,
          0.5722638964653015,
          0.6725390553474426,
          1.407780647277832,
          1.0878299474716187,
          0.7649996280670166,
          0.18436814844608307,
          0.984235942363739,
          0.4981566369533539,
          0.3477793335914612,
          0.6747004985809326
        ],
        [
          0.48221367597579956,
          0.9272251725196838,
          0.45179954171180725,
          0.6715028882026672,
          0.9506188035011292,
          0.5721280574798584,
          0.770947277545929,
          0.4246627986431122,
          0.7583689093589783,
          1.2404325008392334,
          1.1295766830444336,
          0.5400562882423401,
          0.9040364027023315,
          0.8196505308151245,
          0.5230107307434082,
          1.1584972143173218,
          1.1537226438522339,
          0.7623663544654846,
          1.0097092390060425,
          1.3382641077041626,
          1.658306360244751,
          0.24029172956943512,
          0.3685322403907776,
          0.5913352370262146,
          0.6979483962059021,
          1.0280331373214722,
          0.5890581607818604,
          1.103981375694275,
          0.8907683491706848,
          0.6988081932067871,
          0.4504711627960205,
          1.2411043643951416,
          0.5209506154060364,
          0.9985417127609253,
          0.6602474451065063,
          1.039038896560669,
          0.5996773838996887,
          0.49166053533554077,
          0.9940263628959656,
          0.6872146725654602,
          0.7637319564819336,
          1.2796777486801147,
          0.5823874473571777,
          0.34877848625183105,
          1.1798291206359863,
          0.40263983607292175,
          1.0003098249435425,
          0.8799589276313782,
          1.1721855401992798,
          1.18356192111969,
          1.1340506076812744,
          1.0186412334442139,
          0.6271105408668518,
          0.6193890571594238,
          0.5279500484466553,
          0.7513963580131531,
          1.4146771430969238,
          1.1613895893096924,
          0.8645846247673035,
          0.16869911551475525,
          1.0981578826904297,
          0.3480091989040375,
          0.4190137982368469,
          0.6597793698310852
        ],
        [
          0.3394491672515869,
          0.8271546363830566,
          0.3621978461742401,
          0.6520599126815796,
          0.8970284461975098,
          0.5733137130737305,
          0.6949007511138916,
          0.390207439661026,
          0.7115706205368042,
          1.2862058877944946,
          1.2872899770736694,
          0.515670120716095,
          0.8735917210578918,
          0.8133125901222229,
          0.6056181192398071,
          1.089131474494934,
          1.2178148031234741,
          0.822199821472168,
          0.9804974794387817,
          1.2141650915145874,
          1.5825694799423218,
          0.2709786593914032,
          0.483646959066391,
          0.7082949876785278,
          0.8598838448524475,
          0.9986539483070374,
          0.6062277555465698,
          1.163358211517334,
          0.8681983351707458,
          0.787113606929779,
          0.5204475522041321,
          1.2135487794876099,
          0.5097418427467346,
          1.010408878326416,
          0.4969504475593567,
          1.0276763439178467,
          0.4003845155239105,
          0.5190159678459167,
          1.0945148468017578,
          0.6372151374816895,
          0.8142318725585938,
          1.0924047231674194,
          0.5791083574295044,
          0.5033820271492004,
          1.2826323509216309,
          0.5069858431816101,
          1.1472185850143433,
          0.9935674071311951,
          1.1653032302856445,
          1.1491987705230713,
          0.971043586730957,
          1.1621601581573486,
          0.7442945837974548,
          0.6420246362686157,
          0.5872687101364136,
          0.7824463248252869,
          1.271161675453186,
          1.0343623161315918,
          0.889552891254425,
          0.1626293957233429,
          1.1666744947433472,
          0.45052456855773926,
          0.37848150730133057,
          0.6281359195709229
        ],
        [
          0.3777518570423126,
          0.9858279824256897,
          0.47326597571372986,
          0.49723806977272034,
          0.9321804046630859,
          0.5482149124145508,
          0.6913360953330994,
          0.46693679690361023,
          0.7225337624549866,
          1.2635735273361206,
          1.2574645280838013,
          0.41962146759033203,
          0.9327771067619324,
          0.915077805519104,
          0.6108737587928772,
          1.325434923171997,
          1.2450848817825317,
          0.9450608491897583,
          1.0641716718673706,
          1.2279701232910156,
          1.7135591506958008,
          0.44102227687835693,
          0.48639458417892456,
          0.7662293910980225,
          0.7386971712112427,
          1.1919406652450562,
          0.45560476183891296,
          1.319520115852356,
          0.9715036153793335,
          0.8607619404792786,
          0.48390284180641174,
          1.3042182922363281,
          0.6314111948013306,
          1.1827116012573242,
          0.5624232292175293,
          1.1661053895950317,
          0.5386895537376404,
          0.3905726373195648,
          0.974821925163269,
          0.6763642430305481,
          0.8705422282218933,
          1.3272807598114014,
          0.477093368768692,
          0.39769452810287476,
          1.1343145370483398,
          0.6398422122001648,
          1.1593936681747437,
          0.8294187784194946,
          1.1783040761947632,
          1.2687866687774658,
          1.200036883354187,
          1.1736624240875244,
          0.8125331401824951,
          0.5230252742767334,
          0.6492214798927307,
          0.7502194046974182,
          1.4145972728729248,
          1.2370691299438477,
          0.8738096952438354,
          0.40805813670158386,
          1.249139666557312,
          0.3376002609729767,
          0.48248380422592163,
          0.5559641718864441
        ],
        [
          0.028677942231297493,
          -0.06143432855606079,
          0.015110659413039684,
          -0.016462557017803192,
          -0.09957006573677063,
          -0.10000910609960556,
          -0.13811786472797394,
          -0.09498336911201477,
          0.011588511988520622,
          -0.01189980749040842,
          0.07569479942321777,
          -0.13116168975830078,
          -0.014880199916660786,
          -0.1306612342596054,
          -0.019462715834379196,
          0.028244169428944588,
          -0.12750564515590668,
          0.08876063674688339,
          -0.05638911947607994,
          0.0931859165430069,
          -0.03729656711220741,
          0.05655531585216522,
          0.09005782753229141,
          -0.059442270547151566,
          -0.04380892962217331,
          0.048361726105213165,
          -0.1286802440881729,
          0.05808700993657112,
          -0.09186522662639618,
          0.09565957635641098,
          -0.10353893041610718,
          -0.07010992616415024,
          0.07044771313667297,
          -0.07094485312700272,
          0.09163329005241394,
          0.06907504796981812,
          0.09065701812505722,
          -0.14550435543060303,
          -0.017030691727995872,
          -0.0613350048661232,
          0.012494646944105625,
          -0.1093369871377945,
          0.027468863874673843,
          -0.028216272592544556,
          -0.07640444487333298,
          -0.13372200727462769,
          0.04179631546139717,
          -0.05824156478047371,
          0.08115903288125992,
          0.006440429016947746,
          0.022742966189980507,
          -0.04099709540605545,
          -0.03627428412437439,
          -0.05995385721325874,
          -0.1272389143705368,
          0.061359453946352005,
          -0.09332175552845001,
          0.055744145065546036,
          -0.06057368218898773,
          0.06408733129501343,
          0.0923055037856102,
          -0.09503728151321411,
          0.08044831454753876,
          -0.020051168277859688
        ],
        [
