{
  "layers": [
    {
      "weight": [
        [
          0.32724031805992126,
          0.2949461340904236,
          -1.0059590339660645,
          0.4350210726261139,
          -0.16994215548038483
        ],
        [
          0.05333523824810982,
          -0.07507914304733276,
          0.7565014362335205,
          0.3857119679450989,
          -0.1364808827638626
        ],
        [
          0.35782909393310547,
          -0.06585521250963211,
          0.6114271283149719,
          0.002030052477493882,
          0.1758495718240738
        ],
        [
          -0.015117639675736427,
          0.3416207730770111,
          0.23567448556423187,
          -0.2348804622888565,
          0.33900830149650574
        ],
        [
          -0.10355979204177856,
          -0.001007881830446422,
          -0.7007709741592407,
          0.2303251177072525,
          -0.05273420363664627
        ],
        [
          -0.02767416276037693,
          0.051538415253162384,
          -0.8407975435256958,
          0.011665469966828823,
          -0.07976317405700684
        ],
        [
          0.6025869846343994,
          -0.4051331877708435,
          0.8074453473091125,
          0.02166573889553547,
          -0.12369263172149658
        ],
        [
          0.30287012457847595,
          0.05287817865610123,
          0.8064457774162292,
          0.0895322933793068,
          -0.28925445675849915
        ],
        [
          0.04677458852529526,
          -0.2197345495223999,
          0.5759101510047913,
          0.4070679545402527,
          0.052112821489572525
        ],
        [
          -0.41095805168151855,
          0.4523477554321289,
          0.5298595428466797,
          0.5766182541847229,
          -0.09669506549835205
        ],
        [
          -0.42625635862350464,
          -0.14805027842521667,
          -0.9024180173873901,
          0.18795612454414368,
          0.3961447775363922
        ],
        [
          0.20295637845993042,
          0.11854337900876999,
          -0.6623058915138245,
          0.34682756662368774,
          -0.22675088047981262
        ],
        [
          -0.11344944685697556,
          -0.22305557131767273,
          0.6297527551651001,
          -0.08555188030004501,
          0.328423410654068
        ],
        [
          -0.2648898959159851,
          0.6150534152984619,
          -0.6351342797279358,
          -0.24936722218990326,
          -0.08481191843748093
        ],
        [
          0.7038317322731018,
          -0.018784930929541588,
          0.9563680291175842,
          -0.23139265179634094,
          -0.4714118242263794
        ],
        [
          -0.5842822194099426,
          -0.21496902406215668,
          0.7136635184288025,
          0.028312891721725464,
          0.6027364730834961
        ],
        [
          -0.3566305637359619,
          -0.1346566379070282,
          0.6722731590270996,
          -0.10991398245096207,
          0.46389108896255493
        ],
        [
          -0.17394575476646423,
          0.13917751610279083,
          -0.9025061726570129,
          -0.3990779221057892,
          0.27171790599823
        ],
        [
          0.04559212550520897,
          0.021452751010656357,
          0.8216090202331543,
          0.36506447196006775,
          -0.14379708468914032
        ],
        [
          -0.21045087277889252,
          0.40915799140930176,
          -0.5898885130882263,
          -0.19146277010440826,
          -0.19506359100341797
        ],
        [
          -0.3364194631576538,
          0.05305400490760803,
          -0.6278951168060303,
          -0.10678254812955856,
          0.19896860420703888
        ],
        [
          -0.07602795958518982,
          -0.09283780306577682,
          -0.8129492402076721,
          -0.10838185995817184,
          0.07146767526865005
        ],
        [
          0.5735318660736084,
          0.14263582229614258,
          0.481828898191452,
          -0.8498532176017761,
          -0.2122650295495987
        ],
        [
          -0.1120753064751625,
          0.14589649438858032,
          -0.8540833592414856,
          -0.15286266803741455,
          0.005983197595924139
        ],
        [
          -0.05409913510084152,
          -0.001332319574430585,
          0.23905104398727417,
          -0.2010355144739151,
          -0.19161975383758545
        ],
        [
          -0.26558104157447815,
          -0.1515345275402069,
          -0.6925522685050964,
          0.4950611889362335,
          0.1780547797679901
        ],
        [
          0.28531715273857117,
          0.00923723354935646,
          -0.9871249794960022,
          0.20333363115787506,
          -0.10480015724897385
        ],
        [
          -0.05547294020652771,
          -0.24655748903751373,
          -0.8666121959686279,
          0.07282201200723648,
          0.20554198324680328
        ],
        [
          0.13493482768535614,
          -0.2650071680545807,
          0.965409517288208,
          -0.23670506477355957,
          0.07157105207443237
        ],
        [
          0.3478192687034607,
          0.4477309286594391,
          0.7701177000999451,
          0.6548123359680176,
          -0.6661887168884277
        ],
        [
          0.2518259584903717,
          -1.198917269706726,
          -0.49505460262298584,
          -0.14993953704833984,
          1.1478861570358276
        ],
        [
          -0.3865271210670471,
          0.2661910951137543,
          0.6479458212852478,
          -0.1882728785276413,
          -0.025474194437265396
        ],
        [
          0.40396586060523987,
          -0.0005034595960751176,
          0.24873526394367218,
          -0.4944755733013153,
          0.26269376277923584
        ],
        [
          -0.07637999951839447,
          -0.03508097305893898,
          0.9163845777511597,
          -0.06293982267379761,
          0.00228677224367857
        ],
        [
          -0.3546638786792755,
          0.21071863174438477,
          1.173791766166687,
          -0.26491203904151917,
          -0.0643094927072525
        ],
        [
          -0.064839668571949,
          -0.08449634909629822,
          0.6212248802185059,
          0.1563519835472107,
          -0.15768560767173767
        ],
        [
          0.129251629114151,
          0.18198572099208832,
          0.34893640875816345,
          -0.1588197648525238,
          0.3700804114341736
        ],
        [
          0.16454529762268066,
          0.04396848753094673,
          -0.8226543664932251,
          -0.053015850484371185,
          0.02340671233832836
        ],
        [
          -0.26528769731521606,
          -0.08735229820013046,
          0.7127371430397034,
          0.597215473651886,
          0.10148344933986664
        ],
        [
          -0.045036591589450836,
          -0.17617207765579224,
          -0.33032718300819397,
          -0.2104557305574417,
          0.37143751978874207
        ],
        [
          -0.48612159490585327,
          0.07964004576206207,
          0.8872492909431458,
          0.02519761398434639,
          0.26049235463142395
        ],
        [
          -0.2510652542114258,
          -0.2184271514415741,
          -0.7884531617164612,
          0.023289399221539497,
          0.3910020887851715
        ],
        [
          0.33000749349594116,
          0.16138683259487152,
          -1.2415653467178345,
          0.01736990176141262,
          -0.004861937835812569
        ],
        [
          0.3920605778694153,
          -0.02682807482779026,
          -0.827955424785614,
          0.12190669029951096,
          -0.17785866558551788
        ],
        [
          -0.2376120686531067,
          0.3393940031528473,
          -0.7000907063484192,
          -0.17344947159290314,
          -0.1733819842338562
        ],
        [
          0.4993760585784912,
          0.5538030862808228,
          0.6330839991569519,
          -0.3672928214073181,
          -0.7064569592475891
        ],
        [
          -0.44006216526031494,
          0.26098254323005676,
          0.49148979783058167,
          0.4230962097644806,
          0.22910696268081665
        ],
        [
          0.20731183886528015,
          0.06708605587482452,
          -0.8533821702003479,
          -0.1985369771718979,
          -0.1825762540102005
        ],
        [
          0.16734132170677185,
          -0.23349900543689728,
          -0.6947970390319824,
          -0.010883113369345665,
          0.05962022393941879
        ],
        [
          -0.4053148925304413,
          -0.1263364851474762,
          0.672092080116272,
          -0.11497778445482254,
          0.49402010440826416
        ],
        [
          -0.2621813118457794,
          -0.16698911786079407,
          0.18254134058952332,
          -0.24658328294754028,
          0.027637630701065063
        ],
        [
          -0.9603821039199829,
          0.6922376155853271,
          -0.6382964849472046,
          0.5600193738937378,
          0.4294464588165283
        ],
        [
          0.39670026302337646,
          -0.6295977830886841,
          0.6585254073143005,
          -0.5893173813819885,
          0.37536805868148804
        ],
        [
          0.2690174877643585,
          -0.047067392617464066,
          0.5280044674873352,
          -0.15867014229297638,
          -0.35381171107292175
        ],
        [
          0.13275015354156494,
          -0.46799150109291077,
          0.5877835750579834,
          0.2972966134548187,
          0.29756808280944824
        ],
        [
          0.03216185420751572,
          -0.013071081601083279,
          0.8913654685020447,
          0.13949477672576904,
          -0.11272506415843964
        ],
        [
          -0.20027008652687073,
          -0.1103319376707077,
          0.15360113978385925,
          -0.2151024341583252,
          -0.05095667392015457
        ],
        [
          -0.15057383477687836,
          -0.1655040830373764,
          0.8717366456985474,
          0.1190548986196518,
          0.1875229775905609
        ],
        [
          -0.17313066124916077,
          -0.19862478971481323,
          -0.970230758190155,
          -0.07164676487445831,
          0.3036715090274811
        ],
        [
          -0.12114378809928894,
          -0.09614790976047516,
          -0.5748734474182129,
          0.0007807730580680072,
          0.16544675827026367
        ],
        [
          -0.03154876455664635,
          -0.07784249633550644,
          -0.7673556804656982,
          -0.1166212409734726,
          -0.16305063664913177
        ],
        [
          0.38110679388046265,
          -0.1555747240781784,
          0.44171470403671265,
          -0.06922820210456848,
          0.04724198952317238
        ],
        [
          0.19410580396652222,
          -0.06292987614870071,
          -1.1560585498809814,
          0.1504880040884018,
          0.1751912534236908
        ],
        [
          0.06955242156982422,
          0.18492548167705536,
          0.7558091282844543,
          -0.12407554686069489,
          0.08208313584327698
        ]
      ],
      "bias": [
        1.351520299911499,
        1.4941010475158691,
        1.9901337623596191,
        1.8516889810562134,
        1.3845889568328857,
        1.234015941619873,
        1.3233027458190918,
        1.2217768430709839,
        1.3561581373214722,
        1.505823016166687,
        1.9735075235366821,
        1.7331141233444214,
        1.303311824798584,
        1.4039335250854492,
        1.7642221450805664,
        1.2455168962478638,
        1.5444979667663574,
        1.865828275680542,
        1.3578444719314575,
        1.598223090171814,
        1.5406574010849,
        1.4858009815216064,
        1.4066994190216064,
        1.2699413299560547,
        1.1474305391311646,
        1.4750152826309204,
        2.078756809234619,
        1.4771835803985596,
        1.2429653406143188,
        1.6484334468841553,
        1.7605916261672974,
        1.8167238235473633,
        2.001157522201538,
        1.7977796792984009,
        0.9586244821548462,
        1.587874412536621,
        1.9217604398727417,
        1.6889442205429077,
        1.3856360912322998,
        1.8461692333221436,
        1.3892110586166382,
        1.4426329135894775,
        1.2613962888717651,
        1.7104905843734741,
        1.8247865438461304,
        1.5807299613952637,
        1.7577756643295288,
        1.3042024374008179,
        1.2241637706756592,
        1.606752872467041,
        1.9539053440093994,
        1.9632095098495483,
        1.3973528146743774,
        1.4798836708068848,
        1.3751726150512695,
        1.2398653030395508,
        1.6083298921585083,
        1.8301013708114624,
        2.010599136352539,
        1.0748767852783203,
        1.8581912517547607,
        1.3798598051071167,
        1.867567777633667,
        1.9914612770080566
      ]
    },
    {
      "weight": [
        [
          0.7276302576065063,
          0.9821079969406128,
          0.8434908986091614,
          1.0503859519958496,
          0.842498779296875,
          0.5668079257011414,
          0.8976762294769287,
          0.6883481740951538,
          0.8364155888557434,
          1.0392141342163086,
          1.1383745670318604,
          0.9434365630149841,
          0.8064439296722412,
          0.9333900809288025,
          1.0502619743347168,
          0.8351932168006897,
          0.9424462914466858,
          1.1599980592727661,
          0.8541786670684814,
          0.9011418223381042,
          1.041542887687683,
          0.539112389087677,
          0.7337625622749329,
          0.6247698068618774,
          0.5868763327598572,
          0.9762839078903198,
          0.9561549425125122,
          0.8014328479766846,
          0.8369895815849304,
          1.0143108367919922,
          1.2195621728897095,
          0.9436073899269104,
          0.9336036443710327,
          1.021850824356079,
          0.5252898931503296,
          0.7170270085334778,
          1.0277220010757446,
          0.9438127875328064,
          0.7934856414794922,
          1.3162795305252075,
          0.9212673306465149,
          0.9065743684768677,
          0.7917168140411377,
          0.8442636728286743,
          0.9188326001167297,
          1.0678107738494873,
          1.0418781042099,
          0.6634499430656433,
          0.7683703899383545,
          1.0401262044906616,
          0.8992043733596802,
          1.2104976177215576,
          0.8218860626220703,
          1.0041835308074951,
          0.767292320728302,
          0.6574325561523438,
          0.8689791560173035,
          1.0600186586380005,
          1.0603959560394287,
          0.7775169014930725,
          1.1320744752883911,
          0.8518758416175842,
          0.7729244232177734,
          1.1032888889312744
        ],
        [
          0.097951740026474,
          -0.11291719228029251,
          -0.020845789462327957,
          -0.13925385475158691,
          -0.11979854106903076,
          0.0051940553821623325,
          0.01697969064116478,
          0.020492132753133774,
          -0.03402058780193329,
          0.10014806687831879,
          4.1606373997638e-05,
          -0.08645888417959213,
          -0.02454153448343277,
          0.013955437578260899,
          0.02512463368475437,
          -0.10574504733085632,
          0.027962449938058853,
          -0.08193910866975784,
          -0.12064604461193085,
          -0.08715974539518356,
          0.10171352326869965,
          0.08777745813131332,
          0.09321527183055878,
          0.055756907910108566,
          0.074669249355793,
          -0.03202056512236595,
          -0.08326051384210587,
          0.0447235032916069,
          -0.08414120972156525,
          -0.10013919323682785,
          -0.05902800336480141,
          0.007523826789110899,
          0.04684669151902199,
          -0.06707432866096497,
          -0.09310642629861832,
          -0.001792017836123705,
          -0.0875144898891449,
          -0.08694150298833847,
          0.05192950740456581,
          -0.03949013724923134,
          0.0960189551115036,
          0.10349433124065399,
          0.024446234107017517,
          0.03716637194156647,
          0.010384129360318184,
          -0.016333986073732376,
          -0.02036665752530098,
          -0.01752505823969841,
          0.029801782220602036,
          0.09679862856864929,
          -0.0511283352971077,
          -0.06943210959434509,
          -0.04613716900348663,
          -0.07919029891490936,
          0.02125483751296997,
          0.07488113641738892,
          0.0786556601524353,
          0.03918881341814995,
          -0.11092443019151688,
          -0.08616776764392853,
          -0.04605071246623993,
          -0.02859940007328987,
          0.0019743209704756737,
          -0.13176770508289337
        ],
        [
          0.7458715438842773,
          0.7548098564147949,
          0.8452697992324829,
          0.9693089127540588,
          0.862481415271759,
          0.46145838499069214,
          0.9999874234199524,
          0.7240282893180847,
          0.7206352949142456,
          1.0371735095977783,
          1.0604820251464844,
          1.070710301399231,
          0.9847044944763184,
          0.7948146462440491,
          1.035693645477295,
          0.9032414555549622,
          0.9831511378288269,
          1.068852186203003,
          0.8623753190040588,
          0.8149537444114685,
          1.0316133499145508,
          0.7520415782928467,
          0.9185916781425476,
          0.666567325592041,
          0.5197644829750061,
          0.9226186871528625,
          0.8807411789894104,
          0.9320167303085327,
          0.6265682578086853,
          0.9396241903305054,
          1.0769661664962769,
          1.0021014213562012,
          1.0756443738937378,
          0.9637288451194763,
          0.6697252988815308,
          0.8753129839897156,
          1.1093226671218872,
          0.9257119297981262,
          0.8437597155570984,
          1.2733352184295654,
          0.7686713933944702,
          0.9247969388961792,
          0.7704046368598938,
          0.8535109758377075,
          0.9909846186637878,
          1.0313752889633179,
          1.0171715021133423,
          0.78936767578125,
          0.8961010575294495,
          1.0679823160171509,
          0.9786712527275085,
          0.9983588457107544,
          0.7641763091087341,
          0.9041205644607544,
          0.663898229598999,
          0.5639914274215698,
          0.7690181732177734,
          0.830205500125885,
          0.9612317681312561,
          0.5355371832847595,
          0.9091323018074036,
          0.9443908333778381,
          0.9431777000427246,
          0.9398608207702637
        ],
        [
          -0.046088993549346924,
          0.05157560855150223,
          -0.07721871137619019,
          -0.07398633658885956,
          0.06870826333761215,
          -0.11447153240442276,
          -0.0008542592986486852,
          0.09444816410541534,
          0.011782053858041763,
          0.020927615463733673,
          -0.08438897877931595,
          -0.017048560082912445,
          -0.004031740128993988,
          0.030679285526275635,
          0.03280172497034073,
          0.09864940494298935,
          -0.10919835418462753,
          -0.005441701505333185,
          -0.07764124125242233,
          -0.11292069405317307,
          -0.0190893467515707,
          -0.12191793322563171,
          0.07076245546340942,
          0.014476850628852844,
          -0.07640355080366135,
          0.057543981820344925,
          -0.13282574713230133,
          -0.04834990203380585,
          -0.04056718200445175,
          -0.12144222110509872,
          -0.09365276247262955,
          -0.035095877945423126,
          0.07911164313554764,
          0.10554325580596924,
          0.06677056103944778,
          -0.08942615240812302,
          -0.09714629501104355,
          0.0964607447385788,
          0.03051154501736164,
          -0.011467203497886658,
          0.0033270278945565224,
          -0.10046209394931793,
          -0.041735678911209106,
          0.10523878782987595,
          -0.04490752890706062,
          -0.022179225459694862,
          -0.11615145951509476,
          -0.07548471540212631,
          -0.008557954803109169,
          -0.09088969230651855,
          -0.030757548287510872,
          0.04112793505191803,
          -0.13813836872577667,
          0.020734934136271477,
          -0.09553971886634827,
          -0.07518725842237473,
          0.032579805701971054,
          0.08449836075305939,
          -0.04806129261851311,
          -0.05759251117706299,
          -0.12867043912410736,
          -0.07883354276418686,
          -0.12061821669340134,
          -0.044009797275066376
        ],
        [
          0.010931680910289288,
          -0.1469171941280365,
          0.08749020099639893,
          0.05742476135492325,
          -0.15038101375102997,
          -0.0890335664153099,
          0.011657360009849072,
          -0.04703224077820778,
          -0.031144635751843452,
          -0.0811506137251854,
          0.07416858524084091,
          -0.09199340641498566,
          0.07298935949802399,
          -0.012131728231906891,
          -0.004112508613616228,
          0.06517424434423447,
          -0.05064535513520241,
          -0.09353720396757126,
          -0.049592502415180206,
          0.07334882020950317,
          -0.1203746348619461,
          -0.0022207696456462145,
          -0.15074659883975983,
          0.040474362671375275,
          0.013042201288044453,
          -0.01897217147052288,
          0.032843638211488724,
          -0.025393705815076828,
          0.035730987787246704,
          -0.12488754838705063,
          -0.041929781436920166,
          0.025641536340117455,
          0.10204184055328369,
          0.03373861312866211,
          -0.12581515312194824,
          0.06540005654096603,
          -0.04826854169368744,
          -0.04311245307326317,
          -0.13941723108291626,
          -0.04635702818632126,
          0.057913873344659805,
          -0.006687235087156296,
          -0.08877502381801605,
          0.020183123648166656,
          -0.067707359790802,
          0.08744090795516968,
          -0.1275692880153656,
          -0.06783844530582428,
          -0.14236050844192505,
          -0.08127016574144363,
          0.00965998973697424,
          0.09687411785125732,
          -0.005197689402848482,
          0.09392048418521881,
          0.005122153088450432,
          0.04158562421798706,
          0.06909297406673431,
          0.07465791702270508,
          -0.09724458307027817,
          0.08605805039405823,
          0.04712195321917534,
          -0.07886061817407608,
          -0.07602047175168991,
          -0.13019384443759918
        ],
        [
          0.7142136096954346,
          0.7219971418380737,
          0.9437717199325562,
          1.0792841911315918,
          0.6226326823234558,
          0.5957346558570862,
          0.8714678287506104,
          0.767972469329834,
          0.7860165238380432,
          0.8061217665672302,
          1.1495285034179688,
          1.0663821697235107,
          0.9285120964050293,
          0.7653878331184387,
          0.9081823229789734,
          0.8249670267105103,
          0.9000004529953003,
          1.0874303579330444,
          0.8496174216270447,
          0.9457041025161743,
          0.9739173650741577,
          0.6520551443099976,
          0.857770562171936,
          0.5496500730514526,
          0.4993881583213806,
          0.8259848952293396,
          1.0154322385787964,
          0.6882216930389404,
          0.5745603442192078,
          0.9860106110572815,
          1.139534831047058,
          1.0482546091079712,
          0.8294130563735962,
          0.8280141353607178,
          0.6472803354263306,
          0.8590973615646362,
          1.0498275756835938,
          0.9605711698532104,
          0.8890658617019653,
          1.2909592390060425,
          0.6994475722312927,
          0.7869017124176025,
          0.862978994846344,
          0.823611855506897,
          0.837620198726654,
          1.0715255737304688,
          0.9702585935592651,
          0.6859256625175476,
          0.7466515302658081,
          0.9201542735099792,
          1.050703763961792,
          0.9944624900817871,
          0.8309309482574463,
          1.0139952898025513,
          0.6658623218536377,
          0.7281584143638611,
          0.7918952107429504,
          0.8827932476997375,
          0.9649860858917236,
          0.5623053908348083,
          0.829123318195343,
          0.947645902633667,
          0.8402567505836487,
          0.8255656957626343
        ],
        [
          0.5920535326004028,
          0.9341328144073486,
          0.9226451516151428,
          1.0739305019378662,
          0.6466518640518188,
          0.4981672763824463,
          0.849442720413208,
          0.6798712611198425,
          0.6196517944335938,
          0.9282296895980835,
          1.0302060842514038,
          0.932295024394989,
          0.8856462240219116,
          0.8191133737564087,
          0.9662654399871826,
          0.8987874388694763,
          0.8497256636619568,
          0.8774006962776184,
          0.8583914637565613,
          0.8631638288497925,
          0.9401822090148926,
          0.717826247215271,
          0.7453186511993408,
          0.7289515733718872,
          0.6755285263061523,
          0.7742009162902832,
          0.9944902062416077,
          0.6785606741905212,
          0.6025694608688354,
          0.8795703649520874,
          0.9709969162940979,
          1.0509272813796997,
          0.8818103075027466,
          0.9513330459594727,
          0.4639480710029602,
          0.8084707260131836,
          0.9203571081161499,
          0.8336727023124695,
          0.8556593656539917,
          1.2131147384643555,
          0.8751130104064941,
          0.7544480562210083,
          0.7043023705482483,
          0.9203799962997437,
          0.924311101436615,
          1.0115970373153687,
          0.9859026670455933,
          0.6074098348617554,
          0.8603249192237854,
          0.9986540079116821,
          0.8848053216934204,
          1.1421865224838257,
          0.8779131770133972,
          1.0514720678329468,
          0.670802116394043,
          0.5346702337265015,
          0.8025222420692444,
          0.9019017219543457,
          1.0550920963287354,
          0.5586503148078918,
          0.9964476823806763,
          0.8223404288291931,
          0.8686841130256653,
          0.9193252921104431
        ],
        [
          0.5889174342155457,
          0.7694602608680725,
          0.8437111973762512,
          1.1445084810256958,
          0.6576663255691528,
          0.5533525943756104,
          0.9226940274238586,
          0.6391212344169617,
          0.7635867595672607,
          0.8297004103660583,
          0.9966621398925781,
          0.8802347183227539,
          0.8410802483558655,
          0.8487247824668884,
          1.0108685493469238,
          0.8437830805778503,
          1.0096814632415771,
          1.1756086349487305,
          0.8557085990905762,
          0.8230282664299011,
          0.9278855323791504,
          0.6728912591934204,
          0.7581878304481506,
          0.718839168548584,
          0.6995788216590881,
          0.9584600329399109,
          1.096998929977417,
          0.9433766007423401,
          0.7143319249153137,
          0.8534136414527893,
          1.2283625602722168,
          0.9243277907371521,
          0.9114390015602112,
          1.0570672750473022,
          0.6682419180870056,
          0.8104707598686218,
          1.0262192487716675,
          0.866216778755188,
          0.8431286811828613,
          1.3519536256790161,
          0.8222512006759644,
          0.8698453307151794,
          0.766253650188446,
          0.8963991403579712,
          1.0209136009216309,
          1.0176570415496826,
          1.0464673042297363,
          0.6307336091995239,
          0.8436062335968018,
          0.9994744062423706,
          1.0028609037399292,
          1.1985728740692139,
          0.9254372119903564,
          1.091979742050171,
          0.8624321222305298,
          0.5755755305290222,
          0.7795096635818481,
          0.9705348610877991,
          1.0509669780731201,
          0.6098608374595642,
          0.9720940589904785,
          0.8885554671287537,
          0.9390211701393127,
          1.0257678031921387
        ],
        [
          -0.044386789202690125,
          -0.08002878725528717,
          -0.050206705927848816,
          -0.058249279856681824,
          0.09834344685077667,
          0.05214625224471092,
          0.08625591546297073,
          -0.013660208322107792,
          0.011149441823363304,
          0.02928616851568222,
          -0.1418728232383728,
          0.01116207242012024,
          -0.03165644407272339,
          -0.07008175551891327,
          -0.1147100180387497,
          0.08722437918186188,
          0.08300899714231491,
          0.05793358385562897,
          0.09580234438180923,
          -0.06478539854288101,
          -0.03257095813751221,
          0.03388276323676109,
          -0.03020847961306572,
          -0.0245293527841568,
          -0.1256195306777954,
          0.019523246213793755,
          -0.07554090023040771,
          -0.009513640776276588,
          0.10255879163742065,
          -0.062081508338451385,
          -0.04969026893377304,
          0.05112984776496887,
          -0.05649890378117561,
          -0.032119229435920715,
          0.09293073415756226,
          -0.0762815997004509,
          -0.1002500131726265,
          -0.06995546817779541,
          -0.057993024587631226,
          -0.07768794149160385,
          -0.08716737478971481,
          0.050493061542510986,
          0.021242216229438782,
          -0.04000769555568695,
          -0.11117332428693771,
          -0.05341688543558121,
          -0.07591509819030762,
          -0.04067736864089966,
          -0.112765371799469,
          0.008149141445755959,
          -0.10978683084249496,
          -0.09734989702701569,
          -0.11366399377584457,
          0.0381135419011116,
          -0.09588471800088882,
          -0.07901370525360107,
          0.07930659502744675,
          0.0439268983900547,
          0.06258261948823929,
          -0.13489443063735962,
          -0.10679051280021667,
          -0.04718887805938721,
          0.10326220095157623,
          -0.002768849954009056
        ],
        [
          -0.09348714351654053,
          -0.008279993198812008,
          -0.10748998820781708,
          -0.0356893427670002,
          -0.04330255463719368,
          0.10029805451631546,
          0.029828429222106934,
          -0.02987668476998806,
          0.013237455859780312,
          -0.04513143002986908,
          0.0397946797311306,
          0.04017645865678787,
          0.027562761679291725,
          -0.04872211813926697,
          0.09855454415082932,
          -0.027274873107671738,
          -0.056677546352148056,
          0.07828925549983978,
          0.0928138718008995,
          0.1164017766714096,
          0.031026799231767654,
          -0.049930837005376816,
          0.05748102813959122,
          0.10123882442712784,
          -0.12876059114933014,
          -0.023286426439881325,
          -0.09243492782115936,
          0.015811437740921974,
          0.04473920539021492,
          -0.03494597226381302,
          -0.010457143187522888,
          0.04741803929209709,
          -0.02701418846845627,
          -0.11370832473039627,
          0.09169186651706696,
          -0.07174331694841385,
          -0.013732314109802246,
          0.011790797114372253,
          -0.017219066619873047,
          -0.12680816650390625,
          0.04841344431042671,
          -0.056778937578201294,
          -0.06483244895935059,
          0.023858925327658653,
          -0.07334361225366592,
          -0.06517241895198822,
          -0.05236713960766792,
          -0.05296517163515091,
          -0.0522046834230423,
          -0.042236775159835815,
          0.024222929030656815,
          -0.1078885868191719,
          -0.08319515734910965,
          -0.005167604889720678,
          0.009397615678608418,
          0.06033039093017578,
          -0.09584247320890427,
          0.03093046322464943,
          0.06504323333501816,
          0.06221620738506317,
          -0.12442594021558762,
          -0.04770052433013916,
          -0.10744570195674896,
          -0.08813969790935516
        ],
        [
          0.7269214391708374,
          0.7834980487823486,
          0.9546321034431458,
          0.978618323802948,
          0.7150681018829346,
          0.4331648349761963,
          0.9198406934738159,
          0.6151072382926941,
          0.6508774757385254,
          0.8110692501068115,
          1.0550590753555298,
          1.082187533378601,
          0.8827241063117981,
          0.7861924171447754,
          0.974606454372406,
          0.7777540683746338,
          0.797274112701416,
          1.1244349479675293,
          0.7734497785568237,
          0.8570724725723267,
          0.9456104636192322,
          0.5222331285476685,
          0.8088734149932861,
          0.6459599733352661,
          0.5922302007675171,
          0.803137481212616,
          1.067524790763855,
          0.7575288414955139,
          0.5569368004798889,
          0.8631901741027832,
          1.207743763923645,
          0.9501585364341736,
          0.9207941889762878,
          0.8671325445175171,
          0.4730650782585144,
          0.625691294670105,
          0.8863089084625244,
          1.0077847242355347,
          0.9197268486022949,
          1.3278027772903442,
          0.6443163156509399,
          0.8753243088722229,
          0.6726043820381165,
          0.9794589877128601,
          1.003031611442566,
          1.0838570594787598,
          1.0225763320922852,
          0.6794179081916809,
          0.7368507385253906,
          0.9616251587867737,
          0.9074649810791016,
          1.1423661708831787,
          0.766323983669281,
          0.9368267059326172,
          0.6093279719352722,
          0.5192709565162659,
          0.7820652723312378,
          0.871004045009613,
          0.9418905377388,
          0.456417977809906,
          0.9698097705841064,
          0.9263087511062622,
          0.920564591884613,
          1.0331262350082397
        ],
        [
          -0.09683316946029663,
          -0.1503332406282425,
          0.015244346112012863,
          0.03149472549557686,
          -0.13008911907672882,
          0.02684858627617359,
          0.08062031865119934,
          -0.030260885134339333,
          -0.10910535603761673,
          0.057629771530628204,
          0.027660900726914406,
          0.04949140548706055,
          -0.10515627264976501,
          0.03183228522539139,
          -0.11540251225233078,
          0.0960489809513092,
          -0.07889612764120102,
          0.046310774981975555,
          -0.002195371314883232,
          -0.0023150418419390917,
          -0.04872552677989006,
          0.03399583324790001,
          -0.0748118907213211,
          -0.13618595898151398,
          -0.06281659007072449,
          0.07741859555244446,
          -0.060699086636304855,
          0.02272316999733448,
          -0.06903620809316635,
          0.057483889162540436,
          0.04979626089334488,
          0.006932627875357866,
          -0.0922047421336174,
          -0.1312868297100067,
          -0.017656248062849045,
          -0.0967852994799614,
          0.06760110706090927,
          -0.15095117688179016,
          0.02527415007352829,
          0.09444498270750046,
          0.033938612788915634,
          0.02603236585855484,
          -0.13842380046844482,
          0.0938396006822586,
          -0.05376901105046272,
          -0.1511145830154419,
          0.08047066628932953,
          -0.06746210157871246,
          -0.02042274922132492,
          0.08841445297002792,
          -0.10825247317552567,
          -0.12487899512052536,
          -0.00585752259939909,
          -0.03540358692407608,
          0.0016604430275037885,
          -0.12411174923181534,
          -0.014906969852745533,
          -0.08377088606357574,
          -0.0815206915140152,
          -0.12947051227092743,
          0.045432090759277344,
          0.0037167363334447145,
          -0.13269612193107605,
          0.06345953047275543
        ],
        [
          0.7159807085990906,
          0.8410369157791138,
          0.8108798265457153,
          1.051284670829773,
          0.847527265548706,
          0.6440775990486145,
          0.778863251209259,
          0.8216195702552795,
          0.7200785875320435,
          0.9848105907440186,
          1.1236017942428589,
          1.061726450920105,
          0.7770876884460449,
          0.983700156211853,
          0.8596235513687134,
          0.8669408559799194,
          0.8381828665733337,
          0.9822138547897339,
          0.7937273979187012,
          0.8256155252456665,
          0.9927390217781067,
          0.6148112416267395,
          0.9323728680610657,
          0.7220823168754578,
          0.6874598264694214,
          0.9353139996528625,
          1.0193116664886475,
          0.7940101623535156,
          0.6889157891273499,
          0.9346886277198792,
          0.9564856290817261,
          0.8372969627380371,
          0.9322397708892822,
          0.8630144000053406,
          0.5781285762786865,
          0.715855062007904,
          0.9875116944313049,
          1.0169726610183716,
          0.8019017577171326,
          1.2632297277450562,
          0.8737927079200745,
          0.7412075996398926,
          0.6748029589653015,
          0.8023107051849365,
          0.8305083513259888,
          0.9242415428161621,
          0.9151277542114258,
          0.6108736395835876,
          0.7339127659797668,
          0.8754691481590271,
          0.882623553276062,
          1.1844083070755005,
          0.7793923020362854,
          0.8592573404312134,
          0.8008719682693481,
          0.5956498384475708,
          0.9430694580078125,
          0.9835392236709595,
          1.104925274848938,
          0.5462599396705627,
          1.0238913297653198,
          0.979394257068634,
          0.7396863102912903,
          1.0502216815948486
        ],
        [
          0.06478342413902283,
          -0.024711469188332558,
          0.03395744785666466,
          -0.06840972602367401,
          -0.13246941566467285,
          0.012287924997508526,
          0.011371842585504055,
          -0.1077420711517334,
          0.030307462438941002,
          -0.13187538087368011,
          0.0815143808722496,
          0.09149295836687088,
          0.012604721821844578,
          -0.09898371249437332,
          0.03657596558332443,
          -0.0023269369266927242,
          0.011341237463057041,
          0.01733953133225441,
          0.06930265575647354,
          -0.07515867054462433,
          -0.047699134796857834,
          0.014071720652282238,
          -0.01007226761430502,
          0.0822945311665535,
          -0.08533825725317001,
          -0.03074985183775425,
          -0.004920676350593567,
          -0.05457781255245209,
          0.06078963726758957,
          -0.01304986234754324,
          -0.13641327619552612,
          -0.03775405138731003,
          -0.08037461340427399,
          -0.011823805049061775,
          -0.038462210446596146,
          -0.14741601049900055,
          -0.04806070774793625,
          -0.03862444683909416,
          -0.06318330764770508,
          0.08925154060125351,
          -0.050679318606853485,
          0.06136677414178848,
          0.0060946582816541195,
          -0.13507713377475739,
          0.0069074369966983795,
          0.07986781746149063,
          -0.10978292673826218,
          -0.09841005504131317,
          0.1126239150762558,
          0.07757251709699631,
          -0.09168300032615662,
          0.047604162245988846,
          -0.03918662667274475,
          -0.14688880741596222,
          -0.016291750594973564,
          0.018518922850489616,
          -0.058730076998472214,
          0.018804989755153656,
          -0.12789970636367798,
          0.06823720037937164,
          0.08491333574056625,
          0.049203503876924515,
          -0.006336392369121313,
          0.01585390605032444
        ],
        [
          0.5961005091667175,
          0.7964455485343933,
          0.8843355774879456,
          0.9760245680809021,
          0.643356204032898,
          0.6486681699752808,
          0.9689453840255737,
          0.5995277166366577,
          0.7574058175086975,
          0.9868746995925903,
          1.1614394187927246,
          1.03959059715271,
          0.9947469830513,
          0.8431463241577148,
          1.0447869300842285,
          0.9664013385772705,
          0.8158810138702393,
          0.9231389760971069,
          0.833358883857727,
          0.9203394651412964,
          0.9612677097320557,
          0.626937747001648,
          0.8154675960540771,
          0.6878291964530945,
          0.5559706091880798,
          0.9663692712783813,
          1.0198255777359009,
          0.723195493221283,
          0.6862529516220093,
          0.9212172627449036,
          1.1177726984024048,
          1.0683845281600952,
          0.9659010767936707,
          0.8955971002578735,
          0.697346031665802,
          0.70726078748703,
          0.9444426894187927,
          0.9550130367279053,
          0.7571816444396973,
          1.1936253309249878,
          0.6980725526809692,
          0.8596734404563904,
          0.7913365364074707,
          0.9318265914916992,
          0.8074427247047424,
          0.8656700849533081,
          0.9941977262496948,
          0.7556765079498291,
          0.6885223388671875,
          0.9724894762039185,
          0.8504092693328857,
          1.0850181579589844,
          0.9481867551803589,
          1.0539783239364624,
          0.6634740829467773,
          0.6864307522773743,
          0.924649715423584,
          0.917616069316864,
          1.1266705989837646,
          0.5920703411102295,
          0.9283027648925781,
          0.815995991230011,
          0.8309078812599182,
          0.9810807704925537
        ],
        [
          0.7240583300590515,
          0.7863698601722717,
          0.8773124814033508,
          1.1244800090789795,
          0.6513177752494812,
          0.5675861239433289,
          0.9041174054145813,
          0.6754176020622253,
          0.7837296724319458,
          0.9750010371208191,
          1.170685052871704,
          0.9896383881568909,
          0.8125044107437134,
          0.9973864555358887,
          1.0144939422607422,
          0.8456288576126099,
          0.8840808272361755,
          1.0888017416000366,
          0.7113921046257019,
          0.9168563485145569,
          1.123067855834961,
          0.5336056351661682,
          0.7556270360946655,
          0.587440013885498,
          0.7428159713745117,
          1.0331624746322632,
          0.9831133484840393,
          0.9571288228034973,
          0.6615412831306458,
          0.8366975784301758,
          1.15754234790802,
          1.0353741645812988,
          1.0898501873016357,
          0.9623911380767822,
          0.6882800459861755,
          0.865014910697937,
          1.1074833869934082,
          0.8511768579483032,
          0.9771785736083984,
          1.1182224750518799,
          0.9223182797431946,
          0.8707035183906555,
          0.6915658116340637,
          0.980219841003418,
          0.9253444671630859,
          0.9092051982879639,
          0.9252000451087952,
          0.6838337182998657,
          0.909119188785553,
          0.9196979999542236,
          1.058487892150879,
          1.1312193870544434,
          0.8619691729545593,
          1.0122150182724,
          0.6987395286560059,
          0.5312842130661011,
          0.8550350069999695,
          0.8397436141967773,
          0.9886490106582642,
          0.6794126629829407,
          0.9157271385192871,
          0.8493191003799438,
          0.8251916170120239,
          0.9732118844985962
        ],
        [
          -0.08465345203876495,
          -0.011362571269273758,
          -0.03533367067575455,
          0.017636336386203766,
          -0.008003121241927147,
          -0.07621312886476517,
          -0.05907631665468216,
          -0.019128959625959396,
          -0.07799816131591797,
          -0.008629963733255863,
          -0.02194252610206604,
          0.03105633147060871,
          0.016309844329953194,
          0.07847011834383011,
          -0.022106878459453583,
          -0.10261311382055283,
          0.04167100787162781,
          -0.09853964298963547,
          -0.035123493522405624,
          -0.05693730339407921,
          -0.06215124949812889,
          -0.0606602244079113,
          0.09516710788011551,
          0.05859707295894623,
          0.019541505724191666,
          0.10548864305019379,
          -0.12747928500175476,
          0.00762307271361351,
          0.0638524666428566,
          0.06412293761968613,
          -0.11300984025001526,
          0.027419934049248695,
          -0.08822692185640335,
          -0.0214061476290226,
          -0.04343968257308006,
          -0.12006759643554688,
          -0.13749364018440247,
          -0.09704958647489548,
          0.041319746524095535,
          0.04184558987617493,
          -0.12440887093544006,
          -0.05950990319252014,
          -0.010622790083289146,
          -0.12217738479375839,
          0.05470699444413185,
          0.09474845975637436,
          0.004013806581497192,
          -0.10717926174402237,
          0.01720595173537731,
          0.031129175797104836,
          0.08408872783184052,
          -0.0807899683713913,
          -0.12567536532878876,
          0.03710748255252838,
          0.0005318774492479861,
          -0.05582773685455322,
          -0.06738575547933578,
          -0.08016574382781982,
          0.08718373626470566,
          -0.03503444418311119,
          0.07493673264980316,
          0.10142505168914795,
          0.005513363517820835,
          0.008015046827495098
        ],
        [
          0.6705459952354431,
          0.905579686164856,
          0.7730837464332581,
          1.082520604133606,
          0.7066550254821777,
          0.6155315637588501,
          0.8760679960250854,
          0.6624400019645691,
          0.6981117725372314,
          0.9932211637496948,
          0.9391723871231079,
          0.8776206970214844,
          0.8445752263069153,
          0.8277275562286377,
          0.9953604936599731,
          0.9410805702209473,
          0.9120093584060669,
          1.1260164976119995,
          0.7487214803695679,
          0.770376443862915,
          0.9563016891479492,
          0.5188524127006531,
          0.7218315005302429,
          0.5373837947845459,
          0.506568193435669,
          0.917292594909668,
          0.9984997510910034,
          0.9163709282875061,
          0.7854627966880798,
          0.9051847457885742,
          1.0880069732666016,
          0.8643836975097656,
          0.9651979207992554,
          0.7940802574157715,
          0.6379408836364746,
          0.7689989805221558,
          1.0068271160125732,
          0.980558454990387,
          0.7874256372451782,
          1.2707494497299194,
          0.8357036709785461,
          0.9177915453910828,
          0.7866188287734985,
          0.9820589423179626,
          0.9832531213760376,
          1.031668782234192,
          1.0214784145355225,
          0.6181164383888245,
          0.8757274150848389,
          0.9432199597358704,
          1.0029224157333374,
          1.1823188066482544,
          0.8534737229347229,
          0.9028007984161377,
          0.7383849620819092,
          0.6399627327919006,
          0.8681694865226746,
          0.8731710314750671,
          1.0861896276474,
          0.7145432829856873,
          0.8662188053131104,
          0.8636835217475891,
          0.7889611721038818,
          0.8588623404502869
        ],
        [
          0.712240993976593,
          0.7921268343925476,
          0.8387450575828552,
          1.0118855237960815,
          0.6928799748420715,
          0.6865296959877014,
          0.9358996748924255,
          0.8393706679344177,
          0.7564932107925415,
          0.9678043127059937,
          1.0962097644805908,
          0.9931620955467224,
          0.7839836478233337,
          0.8145867586135864,
          0.9324397444725037,
          0.8680644035339355,
          0.9846966862678528,
          1.0767366886138916,
          0.9097514748573303,
          0.8809311985969543,
          0.9847176671028137,
          0.5223196148872375,
          0.7282838821411133,
          0.5837295055389404,
          0.6630336046218872,
          0.9649533033370972,
          1.0521516799926758,
          0.7721559405326843,
          0.677597165107727,
          0.8895982503890991,
          1.0830215215682983,
          0.9955055713653564,
          0.933696985244751,
          0.9336995482444763,
          0.602593183517456,
          0.8043721318244934,
          0.9494630098342896,
          0.8766689896583557,
          0.8842232823371887,
          1.1701818704605103,
          0.7293853163719177,
          0.901092529296875,
          0.7852075695991516,
          0.9017250537872314,
          0.8556985259056091,
          0.9744434356689453,
          0.8363353610038757,
          0.6793275475502014,
          0.8050454258918762,
          1.0043569803237915,
          0.9533467292785645,
          1.0913296937942505,
          0.8710016012191772,
          1.0575706958770752,
          0.7031645774841309,
          0.6868182420730591,
          0.8922809958457947,
          0.83818519115448,
          1.0525639057159424,
          0.5715047717094421,
          0.9209849834442139,
          0.824364423751831,
          0.7358150482177734,
          1.0531655550003052
        ],
        [
          0.6026901006698608,
          0.9226007461547852,
          0.8294134736061096,
          1.0750218629837036,
          0.7661318778991699,
          0.6694379448890686,
          0.8682193160057068,
          0.7644529342651367,
          0.758401095867157,
          1.0426329374313354,
          1.1002740859985352,
          1.0522968769073486,
          0.8169706463813782,
          0.8182758092880249,
          1.118450403213501,
          0.7878332138061523,
          0.9456590414047241,
          1.0531179904937744,
          0.957165539264679,
          0.857998251914978,
          0.967602014541626,
          0.6100994944572449,
          0.9044443368911743,
          0.7199846506118774,
          0.7392562627792358,
          0.9033851027488708,
          1.0443146228790283,
          0.7233183979988098,
          0.7541341781616211,
          1.0214847326278687,
          1.2029954195022583,
          0.9256414771080017,
          0.9435442090034485,
          0.999427855014801,
          0.5040792226791382,
          0.6911306977272034,
          0.9054000973701477,
          0.9867857098579407,
          0.9554330706596375,
          1.2694129943847656,
          0.8177812695503235,
          0.9194085597991943,
          0.7242258787155151,
          0.9634698629379272,
          0.9257497191429138,
          0.966046929359436,
          1.0826172828674316,
          0.571674644947052,
          0.8245732188224792,
          0.850086510181427,
          0.9881110191345215,
          1.0699727535247803,
          0.9004064202308655,
          0.9222118854522705,
          0.8598742485046387,
          0.5296928882598877,
          0.9728657007217407,
          0.8687516450881958,
          1.1250200271606445,
          0.613536536693573,
          1.0048480033874512,
          0.8768585324287415,
          0.9361280202865601,
          1.0369504690170288
        ],
        [
          -0.13151413202285767,
          -0.01548559870570898,
          -0.10844045132398605,
          0.07310201227664948,
          -0.006292587146162987,
          -0.055136848241090775,
          -0.08909586071968079,
          0.019860126078128815,
          -0.09984685480594635,
          0.03201783448457718,
          0.04358552768826485,
          0.05076396092772484,
          0.016334371641278267,
          -0.12388352304697037,
          0.06665036827325821,
          -0.06412011384963989,
          -0.05762844905257225,
          -0.026309628039598465,
          0.06359796226024628,
          0.07218221575021744,
          0.00040202736272476614,
          0.03884259611368179,
          -0.1360124945640564,
          -0.010801570490002632,
          -0.13098497688770294,
          0.018629377707839012,
          -0.11123856902122498,
          -0.06461460143327713,
          0.06567663699388504,
          0.093208447098732,
          -0.09015866369009018,
          -0.09485262632369995,
          -0.002196225104853511,
          0.024477897211909294,
          -0.04699702188372612,
          -0.06491989642381668,
          -0.10106156766414642,
          0.042165711522102356,
          0.09385912120342255,
          -0.08468863368034363,
          0.03331964462995529,
          0.0510464608669281,
          0.09390772879123688,
          -0.03677098825573921,
          -0.01972944475710392,
          0.06897690147161484,
          0.0536947101354599,
          0.10760591179132462,
          -0.04576050117611885,
          0.02676653303205967,
          0.06459282338619232,
          -0.10817457735538483,
          0.007170495111495256,
          -0.04983769729733467,
          0.05682116746902466,
          -0.08224596083164215,
          -0.01380933728069067,
          0.049578238278627396,
          -0.13050037622451782,
          -0.1234537810087204,
          -0.0863814428448677,
          0.06799238920211792,
          0.06858424842357635,
          -0.10924413800239563
        ],
        [
          0.006370190065354109,
          -0.0804109126329422,
          -0.07192074507474899,
          0.08736936002969742,
          0.042608607560396194,
          -0.05209923908114433,
          0.003266542684286833,
          0.015171277336776257,
          0.01509113423526287,
          -0.06249192729592323,
          -0.09223756194114685,
          0.06466326117515564,
          -0.01945667900145054,
          0.03121039643883705,
          -0.06305940449237823,
          0.040938444435596466,
          0.06891653686761856,
          0.05518120527267456,
          0.019826365634799004,
          0.10300976783037186,
          -0.022571589797735214,
          0.009592079557478428,
          0.09219316393136978,
          0.10133196413516998,
          -0.06829074025154114,
          0.09549855440855026,
          0.0277333315461874,
          -0.031713005155324936,
          0.08407244086265564,
          -0.08175446838140488,
          0.05111939460039139,
          0.10477359592914581,
          -0.10613828897476196,
          -0.08758488297462463,
          -0.1332109272480011,
          -0.03669030964374542,
          -0.13192668557167053,
          -0.06454050540924072,
          0.023848898708820343,
          0.06944165378808975,
          0.05574086681008339,
          0.05018490552902222,
          0.029930323362350464,
          -0.09524498879909515,
          -0.1186344176530838,
          -0.013253947719931602,
          0.0996333435177803,
          -0.011818068102002144,
          -0.06324107944965363,
          -0.10512321442365646,
          -0.07815118134021759,
          -0.11547798663377762,
          0.05495233088731766,
          -0.03561951965093613,
          -0.12396355718374252,
          8.128284389385954e-05,
          -0.007206147536635399,
          -0.0297397430986166,
          0.026189599186182022,
          0.04811704531311989,
          -0.1352744996547699,
          -0.10901225358247757,
          -0.02540895715355873,
          -0.13343216478824615
        ],
        [
          0.5910893678665161,
          0.9572671055793762,
          0.9105512499809265,
          1.0080405473709106,
          0.708829939365387,
          0.4798974394798279,
          0.9994738101959229,
          0.6983246207237244,
          0.6620749235153198,
          0.8619097471237183,
          1.1420447826385498,
          0.9721137285232544,
          0.8793524503707886,
          0.8696032762527466,
          0.922622561454773,
          0.9002469778060913,
          1.0494881868362427,
          0.9750057458877563,
          0.8311774730682373,
          0.7777202129364014,
          0.986129105091095,
          0.7398169636726379,
          0.8326813578605652,
          0.7896089553833008,
          0.6132299900054932,
          0.8475759625434875,
          0.8874776363372803,
          0.938591718673706,
          0.6034649610519409,
          1.0102734565734863,
          1.131986141204834,
          1.0136315822601318,
          1.0242295265197754,
          0.9151983261108398,
          0.6726633906364441,
          0.6753599643707275,
          0.9606260061264038,
          1.0575380325317383,
          0.9061042666435242,
          1.192386269569397,
          0.7707897424697876,
          0.7872614860534668,
          0.8710507154464722,
          0.9312320947647095,
          0.9329273104667664,
          1.0378355979919434,
          1.0509933233261108,
          0.5987417101860046,
          0.7663455009460449,
          1.031282663345337,
          1.0387847423553467,
          1.0416494607925415,
          0.7248509526252747,
          1.0017900466918945,
          0.8362355828285217,
          0.6536508202552795,
          0.9695233702659607,
          0.8425080180168152,
          1.0950711965560913,
          0.5777139067649841,
          1.0525144338607788,
          0.986767590045929,
          0.874932050704956,
          1.0740447044372559
        ],
        [
          0.6027244925498962,
          0.709457516670227,
          0.7709697484970093,
          1.1133745908737183,
          0.7738654017448425,
          0.46915680170059204,
          0.9334242343902588,
          0.8192355632781982,
          0.5929449796676636,
          1.0187989473342896,
          1.0468027591705322,
          0.9718667268753052,
          0.9790526628494263,
          0.9858807921409607,
          1.000737190246582,
          0.9475691318511963,
          0.9716110825538635,
          1.0288039445877075,
          0.6909182071685791,
          0.8639016151428223,
          0.9264899492263794,
          0.6451906561851501,
          0.8330086469650269,
          0.6535664796829224,
          0.5303825736045837,
          0.8161179423332214,
          1.0175038576126099,
          0.8637682199478149,
          0.7400923371315002,
          0.880232036113739,
          1.045351505279541,
          0.908698320388794,
          1.0068016052246094,
          0.8616293668746948,
          0.652668833732605,
          0.8347800374031067,
          0.8575647473335266,
          0.9368292093276978,
          0.8147774934768677,
          1.0963330268859863,
          0.825926661491394,
          0.824363648891449,
          0.8788774013519287,
          0.8280259370803833,
          0.9575471878051758,
          0.8696977496147156,
          0.8684448599815369,
          0.6503505706787109,
          0.8911790251731873,
          0.9758349061012268,
          0.8253711462020874,
          1.0758990049362183,
          0.7533594965934753,
          0.9543470144271851,
          0.6548304557800293,
          0.5711055994033813,
          0.9322494268417358,
          0.794342577457428,
          0.8694798350334167,
          0.6660897135734558,
          0.9617743492126465,
          0.8536220788955688,
          0.914469838142395,
          0.8666945695877075
        ],
        [
          -0.07588502764701843,
          -0.10986059159040451,
          -0.0317782498896122,
          -0.04301849752664566,
          0.05744731426239014,
          -0.02312333881855011,
          0.02517908811569214,
          -0.051944583654403687,
          0.095840223133564,
          0.08653942495584488,
          -0.12763665616512299,
          -0.037036579102277756,
          -0.12162327766418457,
          0.03462466597557068,
          -0.12023378163576126,
          -0.07708790898323059,
          0.11280626058578491,
          -0.12957563996315002,
          0.07484817504882812,
          -0.004316256381571293,
          0.08720234781503677,
          -0.07543472200632095,
          0.07285188138484955,
          -0.00405606534332037,
          -0.0033300546929240227,
          0.06807068735361099,
          -0.13014434278011322,
          -0.11855209618806839,
          0.10868372768163681,
          -0.08466417342424393,
          -0.10116002708673477,
          -0.0190969780087471,
          -0.05097497999668121,
          -0.029092388227581978,
          -0.09723243862390518,
          0.032398905605077744,
          -0.11866281181573868,
          0.010124117136001587,
          0.055107105523347855,
          0.011683973483741283,
          0.003888059640303254,
          0.002022480359300971,
          -0.03661881387233734,
          -0.023812279105186462,
          -0.06573780626058578,
          -0.09453713148832321,
          -0.0737992525100708,
          0.10882425308227539,
          -0.0399257093667984,
          0.03156842291355133,
          0.07461472600698471,
          -0.030313175171613693,
          -0.07838533073663712,
          -0.10128974169492722,
          -0.05160927772521973,
          0.03158697858452797,
          -0.11734393239021301,
          -0.02766619808971882,
          0.03520992398262024,
          0.08895733207464218,
          0.025455035269260406,
          0.02472083270549774,
          0.08557383716106415,
          0.046626269817352295
        ],
        [
          0.025257639586925507,
          -0.0513254851102829,
          -0.11798858642578125,
          -0.045207537710666656,
          -0.022670477628707886,
          0.009179651737213135,
          -0.028968844562768936,
          0.032344620674848557,
          0.06514669954776764,
          -0.06171218305826187,
          -0.12825420498847961,
          -0.08059903979301453,
          -0.07587826251983643,
          0.0708550214767456,
          -0.09803947806358337,
          -0.021573618054389954,
          -0.041911255568265915,
          -0.09223611652851105,
          0.04699455574154854,
          -0.052069440484046936,
          -0.006466522812843323,
          -0.08788558840751648,
          -0.02783052809536457,
          0.01776072382926941,
          -0.0050866007804870605,
          -0.04670596122741699,
          0.02021871879696846,
          -0.03238719701766968,
          -0.07995781302452087,
          -0.10922251641750336,
          -0.04400073364377022,
          -0.13250210881233215,
          0.08611465245485306,
          -0.07287155836820602,
          -0.05180227756500244,
          0.011554881930351257,
          0.014467686414718628,
          -0.029339374974370003,
          0.07283587753772736,
          -0.09028083086013794,
          0.04479759931564331,
          -0.0002819150686264038,
          -0.11604298651218414,
          -0.0651332214474678,
          0.03181089460849762,
          0.006976475473493338,
          0.07267322391271591,
          0.08362412452697754,
          -0.06817784905433655,
          -0.06506099551916122,
          -0.02650517225265503,
          -0.10604555904865265,
          -0.05062955990433693,
          -0.11403325945138931,
          0.030066683888435364,
          0.08844491839408875,
          0.009897053241729736,
          -0.10565964877605438,
          -0.10785079747438431,
          -0.048662394285202026,
          0.03635667264461517,
          -0.012267217971384525,
          0.005441140383481979,
          0.09982889890670776
        ],
        [
          0.04329980909824371,
          0.004366005305200815,
          -0.042842354625463486,
          0.041387997567653656,
          0.03033909946680069,
          -0.13080322742462158,
          -0.09555161744356155,
          -0.01260247640311718,
          0.033621273934841156,
          0.04205639660358429,
          -0.09101177752017975,
          -0.13991443812847137,
          -0.029166100546717644,
          -0.02672090195119381,
          0.014602762646973133,
          -0.05896948277950287,
          0.07223278284072876,
          -0.006330524105578661,
          0.06879020482301712,
          -0.10642321407794952,
          0.02756527066230774,
          -0.008080918341875076,
          -0.08149922639131546,
          0.05127815529704094,
          -0.14649346470832825,
          0.09095527976751328,
          -0.004496647510677576,
          -0.0008952487260103226,
          0.0335797518491745,
          -0.010072183795273304,
          0.03587156906723976,
          0.05678865313529968,
          -0.11478180438280106,
          0.05997905880212784,
          -0.043999455869197845,
          -0.05187003314495087,
          0.008231893181800842,
          0.08262643963098526,
          -0.08952215313911438,
          -0.10391391813755035,
          0.05374261364340782,
          -0.0726800411939621,
          0.024336835369467735,
          -0.03306615352630615,
          0.014395049773156643,
          0.0755850225687027,
          -0.08076244592666626,
          -0.07750865817070007,
          0.050809286534786224,
          -0.017304621636867523,
          -0.036609139293432236,
          -0.12374017387628555,
          0.08614086359739304,
          -0.02322516031563282,
          -0.0376426987349987,
          -0.07372930645942688,
          -0.04809736832976341,
          0.03807494044303894,
          -0.021503228694200516,
          0.08502247929573059,
          -0.029154757037758827,
          -0.0324198380112648,
          0.055744703859090805,
          -0.023286396637558937
        ],
        [
          0.6612150073051453,
          0.8692364692687988,
          0.9946549534797668,
          1.076750636100769,
          0.8221359848976135,
          0.6446472406387329,
          0.9195535778999329,
          0.7564776539802551,
          0.7577016353607178,
          0.9488972425460815,
          1.1487083435058594,
          1.082586646080017,
          0.9242966771125793,
          0.8772450089454651,
          1.0693423748016357,
          0.767126202583313,
          1.0254950523376465,
          1.089302659034729,
          0.8881481885910034,
          0.8419686555862427,
          0.9296771883964539,
          0.7012593150138855,
          0.7609636783599854,
          0.6883460283279419,
          0.693187415599823,
          0.7785731554031372,
          0.9446754455566406,
          0.7649352550506592,
          0.7732137441635132,
          0.8412932753562927,
          1.153285026550293,
          1.0295597314834595,
          0.9979767799377441,
          1.0437453985214233,
          0.6032569408416748,
          0.6409243941307068,
          1.0698950290679932,
          0.957793653011322,
          0.854656457901001,
          1.0608433485031128,
          0.7542183995246887,
          0.7855743765830994,
          0.9014883637428284,
          1.0034234523773193,
          1.005634069442749,
          1.0701205730438232,
          0.8589738011360168,
          0.5941140055656433,
          0.7504584789276123,
          0.8757860660552979,
          1.0392569303512573,
          1.1192712783813477,
          0.9318026304244995,
          0.9533713459968567,
          0.6431200504302979,
          0.572089672088623,
          0.9466487169265747,
          0.993623673915863,
          1.0439027547836304,
          0.6039462089538574,
          0.8403400778770447,
          0.8121752142906189,
          0.8776187300682068,
          0.8973336815834045
        ],
        [
          0.7414953708648682,
          0.8495043516159058,
          0.8357669115066528,
          1.107090950012207,
          0.68350750207901,
          0.5522757172584534,
          0.815093994140625,
          0.5845910906791687,
          0.7283570766448975,
          0.9559462666511536,
          0.9574823379516602,
          1.0297248363494873,
          0.7482665181159973,
          0.7498384118080139,
          0.8659592866897583,
          0.803565502166748,
          0.9103870987892151,
          0.9822898507118225,
          0.8537605404853821,
          0.725244402885437,
          1.0304070711135864,
          0.6053971648216248,
          0.8368379473686218,
          0.7714950442314148,
          0.691562831401825,
          0.8156026601791382,
          0.8192120790481567,
          0.76771479845047,
          0.6111922264099121,
          0.9526126980781555,
          1.0624128580093384,
          1.0338249206542969,
          0.9649818539619446,
          0.8875393867492676,
          0.5829471945762634,
          0.7723541259765625,
          0.9520313739776611,
          1.0337601900100708,
          0.7418060302734375,
          1.219788908958435,
          0.6952308416366577,
          0.7258610129356384,
          0.7442039251327515,
          0.9629038572311401,
          0.9812560677528381,
          1.0036449432373047,
          0.9126936197280884,
          0.6308176517486572,
          0.7384939789772034,
          0.8986639976501465,
          0.9138503670692444,
          1.162879228591919,
          0.8857465982437134,
          0.8429901599884033,
          0.7437829375267029,
          0.5264476537704468,
          0.8223983645439148,
          0.8037632703781128,
          1.0166633129119873,
          0.5553722977638245,
          1.06264328956604,
          0.9547452330589294,
          0.7169209122657776,
          0.8180912733078003
        ],
        [
          0.6958695650100708,
          0.7903782725334167,
          0.9364449977874756,
          0.9656539559364319,
          0.7909656167030334,
          0.4648047983646393,
          0.8153547048568726,
          0.647072434425354,
          0.7769784927368164,
          0.9331845641136169,
          0.9276267886161804,
          0.8987882137298584,
          0.8188941478729248,
          0.7643881440162659,
          0.9703580737113953,
          0.9051570296287537,
          0.9077664613723755,
          0.9827250838279724,
          0.804649829864502,
          0.7579201459884644,
          0.9570991396903992,
          0.6174768805503845,
          0.9287112355232239,
          0.6214913725852966,
          0.6875765919685364,
          0.8553172945976257,
          0.9114758372306824,
          0.70137619972229,
          0.7862597703933716,
          1.041695237159729,
          1.0795758962631226,
          1.030053734779358,
          1.037639856338501,
          0.9822621941566467,
          0.6481815576553345,
          0.636772632598877,
          0.8679407238960266,
          0.8535811901092529,
          0.8883558511734009,
          1.0744229555130005,
          0.6845816969871521,
          0.7972120046615601,
          0.6578325033187866,
          0.9191031455993652,
          0.9364686012268066,
          0.9138665795326233,
          1.019902229309082,
          0.6088882684707642,
          0.7631036639213562,
          1.0177348852157593,
          1.0507999658584595,
          1.069068431854248,
          0.7429451942443848,
          0.8979777097702026,
          0.7747800946235657,
          0.6857379674911499,
          0.9225456714630127,
          0.8591143488883972,
          0.8941020369529724,
          0.5473540425300598,
          0.9221982359886169,
          0.8840774893760681,
          0.7645186185836792,
          0.8497862815856934
        ],
        [
          -0.004948217887431383,
          -0.11026391386985779,
          -0.1185239925980568,
          -0.12335473299026489,
          -0.048864834010601044,
          0.09434625506401062,
          0.02538689225912094,
          -0.03863586112856865,
          -0.0002624597691465169,
          0.041300516575574875,
          -0.01564551517367363,
          -0.11685246229171753,
          -0.10552556812763214,
          -0.10003606975078583,
          -0.02230350486934185,
          -0.1320813000202179,
          -0.04307243227958679,
          -0.06399374455213547,
          0.1130824089050293,
          0.0863974392414093,
          0.05625033378601074,
          -0.009761383756995201,
          -0.06310389190912247,
          0.015738055109977722,
          -0.10275011509656906,
          -0.06870667636394501,
          -0.044191084802150726,
          -0.0459405891597271,
          -0.13806624710559845,
          0.0316009558737278,
          0.07976832240819931,
          -0.08255384117364883,
          0.011479636654257774,
          -0.029275190085172653,
          -0.013706439174711704,
          -0.007083271164447069,
          0.08587951958179474,
          -0.005990284960716963,
          -0.08912409842014313,
          -0.0639776960015297,
          0.05217223986983299,
          0.02120944857597351,
          -0.018117178231477737,
          -0.03656681627035141,
          -0.06413143128156662,
          -0.06069706007838249,
          -0.08819843083620071,
          0.0037658156361430883,
          0.01110196765512228,
          0.07660936564207077,
          -0.0451824814081192,
          -0.00707981176674366,
          0.05446347966790199,
          0.03678199648857117,
          -0.009804329834878445,
          0.02452116459608078,
          -0.010382845997810364,
          -0.12273210287094116,
          -0.013874676078557968,
          -0.0432032085955143,
          0.09669326990842819,
          0.08730142563581467,
          0.0033167970832437277,
          0.0898420587182045
        ],
        [
          0.6296695470809937,
          0.9334392547607422,
          1.0110132694244385,
          1.0420269966125488,
          0.6351972222328186,
          0.5262978076934814,
          0.8523642420768738,
          0.7162400484085083,
          0.6075743436813354,
          0.9575649499893188,
          0.988371729850769,
          0.9374505281448364,
          0.8115564584732056,
          0.8489111661911011,
          0.8434194326400757,
          0.7952883243560791,
          0.9456875324249268,
          1.1023942232131958,
          0.9186296463012695,
          0.755993127822876,
          1.0772459506988525,
          0.5440995693206787,
          0.7176381349563599,
          0.6459426879882812,
          0.5501948595046997,
          0.7923018336296082,
          0.8258072137832642,
          0.7294085621833801,
          0.7880926728248596,
          0.991858959197998,
          1.0286837816238403,
          0.865359902381897,
          0.8356344699859619,
          0.8489649891853333,
          0.5331518650054932,
          0.828606903553009,
          1.0228410959243774,
          0.8890684843063354,
          0.9344446063041687,
          1.1018121242523193,
          0.6805109977722168,
          0.8735059499740601,
          0.700677216053009,
          0.9543741941452026,
          1.0176488161087036,
          0.9284137487411499,
          0.8520641922950745,
          0.6910504102706909,
          0.6801379919052124,
          1.0330804586410522,
          0.8806799650192261,
          1.1376136541366577,
          0.7350949645042419,
          0.875210165977478,
          0.7768888473510742,
          0.6551699042320251,
          0.9533975720405579,
          1.0200061798095703,
          0.9954386353492737,
          0.6360301375389099,
          0.9778275489807129,
          0.8443676829338074,
          0.8228370547294617,
          0.8352798819541931
        ],
        [
          -0.12242932617664337,
          0.05559369549155235,
          -0.09404609352350235,
          0.0740940049290657,
          -0.013477866537868977,
          0.0012109670788049698,
          0.0838487446308136,
          -0.08648312836885452,
          -0.028792552649974823,
          -0.0051419539377093315,
          0.01736374758183956,
          -0.1458302140235901,
          0.01605621911585331,
          -0.09778119623661041,
          -0.01389743946492672,
          0.054222472012043,
          -0.04158195108175278,
          -0.029108842834830284,
          -0.039962202310562134,
          0.07480473071336746,
          0.04259372130036354,
          -0.009247934445738792,
          -0.10606616735458374,
          -0.09327780455350876,
          0.06549515575170517,
          0.06712786853313446,
          0.049926307052373886,
          -0.12187348306179047,
          0.06384000927209854,
          -0.03970278799533844,
          0.0674373060464859,
          0.07866135984659195,
          -0.009887260384857655,
          -0.08145426213741302,
          0.08053126931190491,
          -0.09531427919864655,
          0.05955820530653,
          -0.13931038975715637,
          -0.06580532342195511,
          -0.13618935644626617,
          -0.08674608170986176,
          0.028940025717020035,
          -0.10912064462900162,
          -0.12709569931030273,
          0.061152879148721695,
          0.03767010197043419,
          -0.02426978386938572,
          -0.1170428916811943,
          -0.053232595324516296,
          -0.0719228982925415,
          0.048181965947151184,
          -0.06544746458530426,
          -0.06044250354170799,
          -0.11872942745685577,
          -0.07251354306936264,
          0.037355177104473114,
          0.05001773685216904,
          -0.010812166146934032,
          -0.07434657961130142,
          0.0909968912601471,
          -0.0036150335799902678,
          -0.06147336587309837,
          -0.06157496199011803,
          -0.04455959051847458
        ],
        [
          0.7516972422599792,
          0.8787000775337219,
          0.9928831458091736,
          1.0458416938781738,
          0.8441641926765442,
          0.5178611874580383,
          0.8312352895736694,
          0.6706457138061523,
          0.6047491431236267,
          0.8599346876144409,
          0.9364726543426514,
          0.9662347435951233,
          0.8837140798568726,
          0.8561977744102478,
          0.8782656192779541,
          0.9808693528175354,
          0.8965721130371094,
          1.0889965295791626,
          0.8998280167579651,
          0.7750878930091858,
          1.0121108293533325,
          0.6897728443145752,
          0.9412798881530762,
          0.6440255045890808,
          0.7166130542755127,
          0.8051639795303345,
          0.8624308109283447,
          0.9181477427482605,
          0.6769704818725586,
          1.05122709274292,
          1.0920730829238892,
          0.9061731696128845,
          1.0540401935577393,
          1.0390211343765259,
          0.5994090437889099,
          0.6845436692237854,
          0.9811609387397766,
          0.8910455703735352,
          0.9479256272315979,
          1.1928880214691162,
          0.8133391737937927,
          0.9267990589141846,
          0.825042724609375,
          0.8420024514198303,
          1.0228227376937866,
          1.0673154592514038,
          0.8655691742897034,
          0.7466539144515991,
          0.8371211290359497,
          0.905953049659729,
          0.8588156700134277,
          1.0634996891021729,
          0.7137490510940552,
          1.0349725484848022,
          0.8497183918952942,
          0.5777065753936768,
          0.9799866080284119,
          0.8774932026863098,
          1.0329391956329346,
          0.5579909086227417,
          0.9578642845153809,
          0.9335991144180298,
          0.8728418350219727,
          0.9498768448829651
        ],
        [
          0.6262014508247375,
          0.9159221053123474,
          0.9806429743766785,
          1.0672911405563354,
          0.6795013546943665,
          0.5925082564353943,
          0.8854556083679199,
          0.8283650279045105,
          0.7374633550643921,
          0.9470152854919434,
          1.0536037683486938,
          1.0356138944625854,
          0.8783336877822876,
          0.9932634830474854,
          1.0235415697097778,
          0.7699660062789917,
          0.9341748356819153,
          0.9203299880027771,
          0.7128932476043701,
          0.8778610229492188,
          1.0532779693603516,
          0.6037371158599854,
          0.9355545043945312,
          0.5913397669792175,
          0.5714673399925232,
          0.8793533444404602,
          0.9403570294380188,
          0.8024182319641113,
          0.7981784343719482,
          0.8698281049728394,
          1.0139795541763306,
          0.9635555148124695,
          1.0250447988510132,
          0.954277515411377,
          0.652751088142395,
          0.7799361348152161,
          1.0890295505523682,
          1.0230528116226196,
          0.9423672556877136,
          1.1651124954223633,
          0.6796446442604065,
          0.7911930084228516,
          0.8242108225822449,
          1.0042803287506104,
          0.8658372163772583,
          1.089268445968628,
          0.9561158418655396,
          0.6506489515304565,
          0.8059366941452026,
          0.9045008420944214,
          1.0607019662857056,
          1.0853687524795532,
          0.9092463850975037,
          0.8546000123023987,
          0.6918927431106567,
          0.6241436004638672,
          0.9600543975830078,
          0.977975070476532,
          1.0316650867462158,
          0.5202625393867493,
          0.9614158868789673,
          0.797965943813324,
          0.7092241644859314,
          0.9662413597106934
        ],
        [
          -0.07908816635608673,
          0.1134548932313919,
          -0.06794272363185883,
          0.04028351604938507,
          0.07337035238742828,
          -0.0971546471118927,
          0.06397250294685364,
          -0.016737014055252075,
          0.06477034091949463,
          0.120966836810112,
          -0.05327068269252777,
          -0.05413798987865448,
          0.09931865334510803,
          0.01390005648136139,
          -0.012466594576835632,
          0.09483353793621063,
          -0.06039300560951233,
          -0.006172016263008118,
          0.08585947751998901,
          0.0488513708114624,
          -0.08085185289382935,
          0.03248956799507141,
          -0.09530459344387054,
          -0.0678841769695282,
          0.08037647604942322,
          -0.03331403434276581,
          -0.06366963684558868,
          0.008860290050506592,
          0.030546292662620544,
          -0.0777021050453186,
          -0.08429542183876038,
          -0.1210586428642273,
          0.03229793906211853,
          -0.08065368235111237,
          0.009526044130325317,
          -0.02795727550983429,
          -0.08173249661922455,
          -0.03988735377788544,
          -0.09608624875545502,
          -0.06616660952568054,
          -0.0038964003324508667,
          -0.10686439275741577,
          -0.10962916910648346,
          0.09363256394863129,
          0.011762261390686035,
          -0.05528172850608826,
          -0.00415608286857605,
          0.09269563853740692,
          -0.10428319871425629,
          -0.06627294421195984,
          -0.09039255976676941,
          -0.009087622165679932,
          -0.004301607608795166,
          -0.09741322696208954,
          0.0867604911327362,
          -0.09598997235298157,
          0.11670446395874023,
          -0.08604612946510315,
          -0.017130687832832336,
          0.02337336540222168,
          -0.0555596798658371,
          0.11495524644851685,
          -0.08617928624153137,
          -0.006928548216819763
        ],
        [
          0.6170972585678101,
          0.8868880867958069,
          1.0331764221191406,
          1.192350149154663,
          0.7739390730857849,
          0.5245844721794128,
          1.0285887718200684,
          0.738923966884613,
          0.821079432964325,
          0.8970935940742493,
          1.0221679210662842,
          0.8915484547615051,
          1.0109790563583374,
          0.9291096329689026,
          0.9013940691947937,
          0.8916870951652527,
          0.9065998792648315,
          1.0645428895950317,
          0.8712323307991028,
          0.8198758363723755,
          1.0814175605773926,
          0.5631031394004822,
          0.8609311580657959,
          0.5560113191604614,
          0.6623305082321167,
          1.0498789548873901,
          1.086071491241455,
          0.8867092728614807,
          0.7969351410865784,
          1.0724252462387085,
          1.1447340250015259,
          1.0264990329742432,
          0.9777736663818359,
          1.0665203332901,
          0.7068014740943909,
          0.7244675755500793,
          1.0058871507644653,
          0.9081802368164062,
          0.9177770614624023,
          1.097920536994934,
          0.8493606448173523,
          0.8440371155738831,
          0.8462194800376892,
          0.9798420071601868,
          0.8860036134719849,
          1.0810823440551758,
          1.0166425704956055,
          0.5661256909370422,
          0.9360758066177368,
          1.061583399772644,
          1.0578957796096802,
          1.0999637842178345,
          0.8981346487998962,
          0.9184702634811401,
          0.7326551079750061,
          0.6900194883346558,
          0.9471391439437866,
          0.9984471201896667,
          0.9258920550346375,
          0.7763479351997375,
          0.942928671836853,
          1.0063695907592773,
          0.9450421929359436,
          1.0258415937423706
        ],
        [
          0.8291245698928833,
          0.913102924823761,
          0.9908202886581421,
          1.0233052968978882,
          0.8640881776809692,
          0.6099587082862854,
          0.9716622233390808,
          0.6946357488632202,
          0.8204269409179688,
          1.061186671257019,
          0.9687760472297668,
          1.0875167846679688,
          0.8023542761802673,
          0.8117635846138,
          0.8734011650085449,
          0.9089810252189636,
          0.8549121618270874,
          0.9983513355255127,
          0.7572672367095947,
          0.9020154476165771,
          0.9219790697097778,
          0.5715193748474121,
          0.8264325857162476,
          0.6794615983963013,
          0.5752091407775879,
          0.9589862823486328,
          0.8788384795188904,
          0.7227821350097656,
          0.6775955557823181,
          0.8721023797988892,
          1.1734973192214966,
          0.8845657706260681,
          0.9397644400596619,
          0.9943680167198181,
          0.48359307646751404,
          0.8672658205032349,
          0.9440653920173645,
          0.9275245666503906,
          0.7866299152374268,
          1.1575262546539307,
          0.7482905983924866,
          0.7536159157752991,
          0.8347414135932922,
          0.9330477714538574,
          1.055143117904663,
          1.0895349979400635,
          1.062849998474121,
          0.6976692080497742,
          0.868525505065918,
          1.0565869808197021,
          1.065351963043213,
          1.003864049911499,
          0.8153204321861267,
          0.8542031645774841,
          0.7750521302223206,
          0.5779598355293274,
          0.9840711951255798,
          0.9554107785224915,
          1.0292092561721802,
          0.5707868337631226,
          0.8807048797607422,
          0.9087154269218445,
          0.7739574909210205,
          0.9116272926330566
        ],
        [
          0.0669541284441948,
          -0.09208790957927704,
          -0.07751424610614777,
          0.07376459240913391,
          0.02372295968234539,
          -0.09382814913988113,
          0.012201206758618355,
          0.04375110939145088,
          -0.13333356380462646,
          -0.0022054240107536316,
          0.004498691763728857,
          -0.02838420681655407,
          0.09016760438680649,
          -0.10070466250181198,
          0.042654842138290405,
          -0.09778989851474762,
          -0.13503649830818176,
          0.06478660553693771,
          -0.08686745166778564,
          -0.016681212931871414,
          0.04193567484617233,
          -0.1289064884185791,
          -0.12792792916297913,
          0.02455812692642212,
          0.08361832797527313,
          -0.03693513199687004,
          0.06709298491477966,
          0.022670423611998558,
          0.006803503260016441,
          -0.10459078103303909,
          0.09577153623104095,
          0.031070657074451447,
          -0.0022603042889386415,
          0.06174851208925247,
          -0.13590122759342194,
          0.0003712637990247458,
          -0.08059034496545792,
          -0.03144614398479462,
          0.013464869931340218,
          0.0310309287160635,
          0.0007554887561127543,
          -0.11599836498498917,
          -0.09576606750488281,
          -0.01750153861939907,
          -0.04485861584544182,
          -0.12636913359165192,
          0.09859371930360794,
          -0.004513719119131565,
          -0.10583877563476562,
          0.026194754987955093,
          0.028995996341109276,
          -0.08439288288354874,
          0.03787373751401901,
          -0.09825750440359116,
          0.021437007933855057,
          0.09253974258899689,
          0.05676989257335663,
          0.03460153192281723,
          -0.04821862652897835,
          -9.557149314787239e-05,
          0.019917426630854607,
          0.012366204522550106,
          -0.044876616448163986,
          -0.006593523547053337
        ],
        [
          0.6364031434059143,
          0.7407281994819641,
          0.7729361057281494,
          0.9320791363716125,
          0.6449737548828125,
          0.6747762560844421,
          0.8975304961204529,
          0.5961200594902039,
          0.6505281329154968,
          0.9492025375366211,
          0.9837069511413574,
          0.9196590781211853,
          0.8220164179801941,
          0.8446043729782104,
          0.9523958563804626,
          0.8589047193527222,
          0.9964044094085693,
          1.091474175453186,
          0.8964784145355225,
          0.8321529626846313,
          0.9494400024414062,
          0.5997694730758667,
          0.7262675762176514,
          0.6986551284790039,
          0.5979298949241638,
          0.8436249494552612,
          0.8213685750961304,
          0.8566896319389343,
          0.7431137561798096,
          1.0189651250839233,
          1.022194266319275,
          0.9672585725784302,
          0.925643265247345,
          0.8221622109413147,
          0.4986804723739624,
          0.8011887073516846,
          0.8999547362327576,
          1.029014229774475,
          0.8820822834968567,
          1.2015080451965332,
          0.849460244178772,
          0.894794225692749,
          0.8297422528266907,
          0.9731278419494629,
          0.8399333357810974,
          0.9036849141120911,
          0.9018015265464783,
          0.7074357867240906,
          0.87989342212677,
          0.9980899095535278,
          0.8787461519241333,
          1.0449968576431274,
          0.7399781942367554,
          1.022725224494934,
          0.6728060841560364,
          0.5464248061180115,
          0.9419211149215698,
          0.9265887141227722,
          0.9329794645309448,
          0.5473402738571167,
          0.8494980335235596,
          0.9783289432525635,
          0.6960945129394531,
          1.0430030822753906
        ],
        [
          0.7811201214790344,
          0.8257825970649719,
          0.875958263874054,
          1.132041573524475,
          0.7842748761177063,
          0.6794753074645996,
          0.9773747324943542,
          0.6267626285552979,
          0.7893540263175964,
          0.9891790151596069,
          0.942528486251831,
          1.017177939414978,
          0.8094574809074402,
          0.8038067817687988,
          0.9474540948867798,
          0.8411518931388855,
          0.8926710486412048,
          0.9332044720649719,
          0.8678364753723145,
          0.9679837822914124,
          0.990911066532135,
          0.5242960453033447,
          0.8031768202781677,
          0.5446842908859253,
          0.5171078443527222,
          0.849683940410614,
          1.0051707029342651,
          0.7109417915344238,
          0.65936678647995,
          0.8455575108528137,
          0.9530025124549866,
          0.9108635783195496,
          0.9120940566062927,
          0.8911397457122803,
          0.6716368198394775,
          0.7959277629852295,
          1.0482269525527954,
          0.9861180782318115,
          0.856636643409729,
          1.234257459640503,
          0.6947181224822998,
          0.9084000587463379,
          0.8336617946624756,
          0.8523749113082886,
          0.8982874155044556,
          0.8795772790908813,
          0.8172200918197632,
          0.6444433927536011,
          0.8170519471168518,
          0.8889904022216797,
          0.9692413806915283,
          0.9700505137443542,
          0.7573903203010559,
          1.0354715585708618,
          0.629515528678894,
          0.6239715814590454,
          0.9457144737243652,
          0.9996326565742493,
          1.037445306777954,
          0.5310455560684204,
          0.9633252620697021,
          0.8319423198699951,
          0.7700865864753723,
          1.0319799184799194
        ],
        [
          0.6360145211219788,
          0.7266334891319275,
          0.7846456170082092,
          1.1113507747650146,
          0.731123149394989,
          0.6806178092956543,
          0.9009153842926025,
          0.5905771851539612,
          0.7421210408210754,
          1.0364741086959839,
          1.1024563312530518,
          0.9907081127166748,
          0.7812260389328003,
          0.7971652746200562,
          1.0285013914108276,
          0.7739453911781311,
          0.9576479196548462,
          0.9928038716316223,
          0.8395099639892578,
          0.8463541865348816,
          0.9196140170097351,
          0.5555033683776855,
          0.9161943197250366,
          0.6629409193992615,
          0.6805310249328613,
          0.8201954364776611,
          1.0204144716262817,
          0.7722550630569458,
          0.6382096409797668,
          0.9328619837760925,
          1.0221978425979614,
          0.8858725428581238,
          0.8997263312339783,
          0.9044382572174072,
          0.5096254944801331,
          0.7861149311065674,
          0.8475587368011475,
          1.0117971897125244,
          0.9579502940177917,
          1.1828852891921997,
          0.7463825345039368,
          0.7236764430999756,
          0.8288905620574951,
          1.0049303770065308,
          1.0035805702209473,
          0.9817533493041992,
          0.9657001495361328,
          0.759846568107605,
          0.8120932579040527,
          0.855862021446228,
          0.8086248636245728,
          1.1145819425582886,
          0.8751752972602844,
          1.0568286180496216,
          0.6882166862487793,
          0.6559234261512756,
          0.8055581450462341,
          0.8741105794906616,
          1.0628347396850586,
          0.5273314118385315,
          1.034477949142456,
          0.9323570132255554,
          0.7279356718063354,
          0.9993917346000671
        ],
        [
          0.6924014687538147,
          0.879199206829071,
          0.9181183576583862,
          0.9770126342773438,
          0.7555819749832153,
          0.6542645692825317,
          0.9074115753173828,
          0.6758754253387451,
          0.7522331476211548,
          1.0012277364730835,
          1.0652239322662354,
          0.9177435040473938,
          0.8381491899490356,
          0.8988192081451416,
          1.0592154264450073,
          1.0019844770431519,
          0.9794122576713562,
          1.1225310564041138,
          0.915094256401062,
          0.8417086005210876,
          1.0322381258010864,
          0.7355356216430664,
          0.9392433166503906,
          0.7131651639938354,
          0.5522018074989319,
          1.008475422859192,
          0.891693651676178,
          0.9124038219451904,
          0.7315924167633057,
          1.0123167037963867,
          1.010416865348816,
          0.9615401029586792,
          1.0397355556488037,
          1.0727101564407349,
          0.5712313652038574,
          0.9103168845176697,
          1.0066994428634644,
          0.9062807559967041,
          0.8317937850952148,
          1.2523577213287354,
          0.7982354164123535,
          0.9461718201637268,
          0.739048182964325,
          0.9241167306900024,
          0.8421106934547424,
          1.1386789083480835,
          0.9608028531074524,
          0.5805301070213318,
          0.8102996349334717,
          0.9696373343467712,
          1.0344632863998413,
          1.1206676959991455,
          0.9484095573425293,
          0.9580013155937195,
          0.7530698776245117,
          0.6116832494735718,
          0.9290153980255127,
          1.069949746131897,
          1.0599313974380493,
          0.7760653495788574,
          1.111072301864624,
          0.8413482904434204,
          0.8520618081092834,
          0.9461786150932312
        ],
        [
          0.028461622074246407,
          -0.06283135712146759,
          0.01487711351364851,
          -0.016387147828936577,
          -0.10036075115203857,
          -0.10017874091863632,
          -0.13864384591579437,
          -0.09506609290838242,
          0.011555763892829418,
          -0.012028992176055908,
          0.07605364173650742,
          -0.13076196610927582,
          -0.014003063552081585,
          -0.12947645783424377,
          -0.01833038404583931,
          0.02642042562365532,
          -0.1276261955499649,
          0.08955562859773636,
          -0.057865794748067856,
          0.09416450560092926,
          -0.03581085801124573,
          0.055926304310560226,
          0.09045064449310303,
          -0.05888044834136963,
          -0.04423845186829567,
          0.04792451113462448,
          -0.12859153747558594,
          0.05809912458062172,
          -0.0923851728439331,
          0.09589291363954544,
          -0.1032985970377922,
          -0.06974691897630692,
          0.07016801834106445,
          -0.07169769704341888,
          0.09076932072639465,
          0.06815677881240845,
          0.090387724339962,
          -0.14597272872924805,
          -0.01835239678621292,
          -0.060762401670217514,
          0.011666996404528618,
          -0.10886989533901215,
          0.026980100199580193,
          -0.0285329632461071,
          -0.0757804811000824,
          -0.13296473026275635,
          0.042209405452013016,
          -0.05845126509666443,
          0.08280567079782486,
          0.0059769949875772,
          0.022361647337675095,
          -0.03969395533204079,
          -0.036378391087055206,
          -0.058979615569114685,
          -0.12783454358577728,
