{
  "layers": [
    {
      "weight": [
        [
          0.344235897064209,
          0.3956215977668762,
          -1.0346081256866455,
          0.3958427309989929,
          -0.044357575476169586
        ],
        [
          0.00046827434562146664,
          -0.13203124701976776,
          0.7091739177703857,
          0.3951180577278137,
          -0.22295795381069183
        ],
        [
          0.458943247795105,
          0.0784926787018776,
          0.5195331573486328,
          -0.014139155857264996,
          0.4039643108844757
        ],
        [
          0.11026805639266968,
          0.49193257093429565,
          0.18969197571277618,
          -0.09721575677394867,
          0.6064993739128113
        ],
        [
          -0.16602899134159088,
          -0.10970062017440796,
          -0.6240639090538025,
          0.22470009326934814,
          -0.19004099071025848
        ],
        [
          -0.1022133082151413,
          -0.05567649006843567,
          -0.830106794834137,
          0.014030000194907188,
          -0.24639736115932465
        ],
        [
          0.6187888979911804,
          -0.4605124592781067,
          0.8431198000907898,
          0.010096544399857521,
          -0.1551535725593567
        ],
        [
          0.3027406632900238,
          0.09912250190973282,
          0.8116763234138489,
          0.08071468025445938,
          -0.2705080509185791
        ],
        [
          0.07787924259901047,
          -0.1568852663040161,
          0.612363874912262,
          0.35842543840408325,
          0.1772688627243042
        ],
        [
          -0.44318732619285583,
          0.5030925869941711,
          0.6158782839775085,
          0.7005600333213806,
          -0.10947781801223755
        ],
        [
          -0.46192997694015503,
          -0.17921790480613708,
          -0.8642403483390808,
          0.1690189391374588,
          0.34907636046409607
        ],
        [
          0.23623593151569366,
          0.1883142590522766,
          -0.6646455526351929,
          0.34922662377357483,
          -0.09984735399484634
        ],
        [
          -0.13623042404651642,
          -0.235528364777565,
          0.6246576309204102,
          -0.12149347364902496,
          0.29050740599632263
        ],
        [
          -0.3330173194408417,
          0.5264162421226501,
          -0.6101159453392029,
          -0.30836328864097595,
          -0.18148396909236908
        ],
        [
          0.8572975993156433,
          -0.1595277190208435,
          0.9771096110343933,
          -0.21601605415344238,
          -0.5204325914382935
        ],
        [
          -0.5804857015609741,
          -0.20682939887046814,
          0.7155631184577942,
          0.005790321156382561,
          0.5914002060890198
        ],
        [
          -0.37210381031036377,
          -0.13978327810764313,
          0.6525905132293701,
          -0.15550333261489868,
          0.4394521117210388
        ],
        [
          -0.17153599858283997,
          0.16362713277339935,
          -0.8730855584144592,
          -0.32693615555763245,
          0.3991991877555847
        ],
        [
          0.02019084431231022,
          -0.03468040004372597,
          0.7757982015609741,
          0.3962686359882355,
          -0.21998398005962372
        ],
        [
          -0.28314006328582764,
          0.26195481419563293,
          -0.5158833861351013,
          -0.22169163823127747,
          -0.3262602686882019
        ],
        [
          -0.37220802903175354,
          -0.019883371889591217,
          -0.5685312747955322,
          -0.12495586276054382,
          0.11440011858940125
        ],
        [
          -0.13936495780944824,
          -0.18670175969600677,
          -0.7456111311912537,
          -0.16727130115032196,
          -0.09607422351837158
        ],
        [
          0.56629478931427,
          0.15325993299484253,
          0.5207614302635193,
          -0.8033385872840881,
          -0.16096509993076324
        ],
        [
          -0.1503342092037201,
          0.0531800203025341,
          -0.8811162114143372,
          -0.2138327807188034,
          -0.11107350140810013
        ],
        [
          -0.10866523534059525,
          -0.04285341501235962,
          0.1279742568731308,
          -0.18495528399944305,
          -0.37299636006355286
        ],
        [
          -0.3234967291355133,
          -0.2325505167245865,
          -0.6638512015342712,
          0.536620020866394,
          0.09895026683807373
        ],
        [
          0.31406381726264954,
          0.07637335360050201,
          -0.9300439953804016,
          0.17996998131275177,
          0.02629750408232212
        ],
        [
          -0.09321678429841995,
          -0.304074227809906,
          -0.8566434979438782,
          0.08073284476995468,
          0.10656753927469254
        ],
        [
          0.12340955436229706,
          -0.27704328298568726,
          0.9940540194511414,
          -0.2450636327266693,
          0.022587819024920464
        ],
        [
          0.3485252261161804,
          0.4681340456008911,
          0.8295145630836487,
          0.6485598683357239,
          -0.6656590700149536
        ],
        [
          0.2488166093826294,
          -1.049477458000183,
          -0.3893493413925171,
          -0.14791765809059143,
          1.23115873336792
        ],
        [
          -0.43854033946990967,
          0.17681817710399628,
          0.5587087869644165,
          -0.2124742567539215,
          -0.10370074212551117
        ],
        [
          0.5047812461853027,
          0.10535770654678345,
          0.25976836681365967,
          -0.37105506658554077,
          0.5127875208854675
        ],
        [
          -0.12004193663597107,
          -0.08002831786870956,
          0.826913595199585,
          -0.08735840767621994,
          -0.07411053776741028
        ],
        [
          -0.3865870237350464,
          0.17646917700767517,
          1.2207680940628052,
          -0.3035653233528137,
          -0.15325289964675903
        ],
        [
          -0.13439297676086426,
          -0.15674571692943573,
          0.4614813029766083,
          0.10911506414413452,
          -0.30225563049316406
        ],
        [
          0.24989651143550873,
          0.3304769992828369,
          0.24068239331245422,
          -0.09392359107732773,
          0.6289636492729187
        ],
        [
          0.19660058617591858,
          0.1129237487912178,
          -0.7369908690452576,
          -0.05887572467327118,
          0.15733015537261963
        ],
        [
          -0.2802918255329132,
          -0.10734035819768906,
          0.7129366397857666,
          0.6528447866439819,
          0.06429599970579147
        ],
        [
          0.14039874076843262,
          0.08337834477424622,
          -0.23157568275928497,
          -0.12407422065734863,
          0.7021651268005371
        ],
        [
          -0.501207709312439,
          0.054105494171381,
          0.9153562784194946,
          0.017041154205799103,
          0.20819202065467834
        ],
        [
          -0.2690931260585785,
          -0.25128287076950073,
          -0.8093364834785461,
          -0.001518248813226819,
          0.3366036117076874
        ],
        [
          0.335297554731369,
          0.2073158621788025,
          -1.2951037883758545,
          -0.003661764319986105,
          0.09406381100416183
        ],
        [
          0.4173469543457031,
          0.033472687005996704,
          -0.7813788652420044,
          0.10338833183050156,
          -0.06622475385665894
        ],
        [
          -0.30789443850517273,
          0.20587754249572754,
          -0.6252090334892273,
          -0.2066866159439087,
          -0.29221004247665405
        ],
        [
          0.5008549690246582,
          0.569310188293457,
          0.6850528717041016,
          -0.3339237868785858,
          -0.6424359679222107
        ],
        [
          -0.3558093011379242,
          0.40778130292892456,
          0.4863870143890381,
          0.39120444655418396,
          0.4512143135070801
        ],
        [
          0.15620501339435577,
          -0.03010384738445282,
          -0.8203330039978027,
          -0.22526095807552338,
          -0.32014715671539307
        ],
        [
          0.11629875004291534,
          -0.2786843478679657,
          -0.7064759731292725,
          -0.033622901886701584,
          -0.05427772179245949
        ],
        [
          -0.42754560708999634,
          -0.13630276918411255,
          0.6293203234672546,
          -0.1531917005777359,
          0.4605625569820404
        ],
        [
          -0.3499736785888672,
          -0.20550009608268738,
          0.15498150885105133,
          -0.23831969499588013,
          -0.1046711802482605
        ],
        [
          -0.5470980405807495,
          0.4039367139339447,
          -0.705314040184021,
          0.377766877412796,
          0.1844046264886856
        ],
        [
          0.4142672121524811,
          -0.6588419079780579,
          0.7016554474830627,
          -0.5640321969985962,
          0.47267961502075195
        ],
        [
          0.18718445301055908,
          -0.08465089648962021,
          0.44840073585510254,
          -0.16702838242053986,
          -0.49515005946159363
        ],
        [
          0.15925948321819305,
          -0.41609421372413635,
          0.560988187789917,
          0.23857828974723816,
          0.4097079932689667
        ],
        [
          -0.059162698686122894,
          -0.09429478645324707,
          0.6534752249717712,
          0.09242766350507736,
          -0.2821059823036194
        ],
        [
          -0.2784614562988281,
          -0.13195574283599854,
          0.12138049304485321,
          -0.19699594378471375,
          -0.19818361103534698
        ],
        [
          -0.18933837115764618,
          -0.196873739361763,
          0.8275922536849976,
          0.08299662172794342,
          0.13904471695423126
        ],
        [
          -0.2143031358718872,
          -0.22213409841060638,
          -0.950183629989624,
          -0.08893337845802307,
          0.24999502301216125
        ],
        [
          -0.1760183572769165,
          -0.1665656715631485,
          -0.5065707564353943,
          -0.006151318550109863,
          0.007509012706577778
        ],
        [
          -0.08373098820447922,
          -0.11996420472860336,
          -0.6739400625228882,
          -0.11958102136850357,
          -0.2752198278903961
        ],
        [
          0.460410475730896,
          -0.0675778016448021,
          0.39506229758262634,
          -0.05965103209018707,
          0.2202659398317337
        ],
        [
          0.2808755040168762,
          0.09872700273990631,
          -1.2005243301391602,
          0.25988173484802246,
          0.3978666365146637
        ],
        [
          0.1629333645105362,
          0.31470802426338196,
          0.6902388334274292,
          -0.09371928125619888,
          0.3006753623485565
        ]
      ],
      "bias": [
        1.3646217584609985,
        1.51047945022583,
        2.02851939201355,
        1.8884567022323608,
        1.4422489404678345,
        1.282285451889038,
        1.305546760559082,
        1.2297663688659668,
        1.3685544729232788,
        1.4809614419937134,
        1.9959272146224976,
        1.7308682203292847,
        1.3084527254104614,
        1.4431524276733398,
        1.735938549041748,
        1.2505698204040527,
        1.5542705059051514,
        1.889221429824829,
        1.374192237854004,
        1.646162509918213,
        1.573831558227539,
        1.542258620262146,
        1.4121066331863403,
        1.2970346212387085,
        1.212855339050293,
        1.5034925937652588,
        2.0934715270996094,
        1.508272647857666,
        1.2355502843856812,
        1.6309616565704346,
        1.7951081991195679,
        1.8407304286956787,
        2.031573534011841,
        1.8226048946380615,
        0.9483522176742554,
        1.631356954574585,
        1.9674780368804932,
        1.7135816812515259,
        1.3906556367874146,
        1.8527235984802246,
        1.3844209909439087,
        1.4586519002914429,
        1.2547227144241333,
        1.7234152555465698,
        1.866471290588379,
        1.5808051824569702,
        1.7753454446792603,
        1.3521069288253784,
        1.2520402669906616,
        1.6236861944198608,
        1.97682785987854,
        1.9408973455429077,
        1.3857803344726562,
        1.5064111948013306,
        1.4033409357070923,
        1.3114328384399414,
        1.642232894897461,
        1.8444024324417114,
        2.0274364948272705,
        1.1262133121490479,
        1.8968418836593628,
        1.4071613550186157,
        1.857553243637085,
        2.0211334228515625
      ]
    },
    {
      "weight": [
        [
          0.7188788056373596,
          0.9831907153129578,
          0.8326999545097351,
          1.034864068031311,
          0.8434058427810669,
          0.5403141379356384,
          0.9035759568214417,
          0.6903397440910339,
          0.8295880556106567,
          1.0403344631195068,
          1.1500953435897827,
          0.9391807317733765,
          0.8144226670265198,
          0.944824755191803,
          1.0408655405044556,
          0.8418696522712708,
          0.951413094997406,
          1.1564584970474243,
          0.8539578914642334,
          0.9116758704185486,
          1.0563528537750244,
          0.5268359184265137,
          0.714251697063446,
          0.6086367964744568,
          0.5793659090995789,
          0.9783654808998108,
          0.9534934163093567,
          0.8043342232704163,
          0.8360057473182678,
          1.0177196264266968,
          1.2090657949447632,
          0.9554525017738342,
          0.9186440706253052,
          1.0299879312515259,
          0.5133007168769836,
          0.7228623628616333,
          1.0129011869430542,
          0.9419059157371521,
          0.7943031787872314,
          1.3023642301559448,
          0.9186358451843262,
          0.9142234921455383,
          0.8006841540336609,
          0.8402624130249023,
          0.9303895831108093,
          1.0630449056625366,
          1.034986138343811,
          0.6548672914505005,
          0.7730068564414978,
          1.0509240627288818,
          0.9102664589881897,
          1.228034496307373,
          0.8100346922874451,
          1.0186983346939087,
          0.760325014591217,
          0.639803946018219,
          0.8783599734306335,
          1.0670820474624634,
          1.0710806846618652,
          0.7686501145362854,
          1.1429373025894165,
          0.8417925834655762,
          0.764619767665863,
          1.0962406396865845
        ],
        [
          0.097951740026474,
          -0.1128116324543953,
          -0.020799363031983376,
          -0.13922838866710663,
          -0.11976609379053116,
          0.005280623212456703,
          0.01701520010828972,
          0.020492132753133774,
          -0.03402058780193329,
          0.1001080572605133,
          3.6720415664603934e-05,
          -0.08678358793258667,
          -0.024505607783794403,
          0.014041703194379807,
          0.025325307622551918,
          -0.1057383120059967,
          0.028053829446434975,
          -0.081898532807827,
          -0.12058950215578079,
          -0.08701997250318527,
          0.10181305557489395,
          0.08787021040916443,
          0.09346573054790497,
          0.05583406984806061,
          0.07481280714273453,
          -0.03209320828318596,
          -0.083255335688591,
          0.044722914695739746,
          -0.0839405357837677,
          -0.10013719648122787,
          -0.059019364416599274,
          0.007655026391148567,
          0.04683740437030792,
          -0.06695497781038284,
          -0.09280663728713989,
          -0.0016891671111807227,
          -0.08751337230205536,
          -0.08694150298833847,
          0.0519348606467247,
          -0.039432454854249954,
          0.09615540504455566,
          0.10351017117500305,
          0.024456538259983063,
          0.03716619685292244,
          0.010481570847332478,
          -0.01610712707042694,
          -0.02038203366100788,
          -0.01740448549389839,
          0.02985350415110588,
          0.09689618647098541,
          -0.051043398678302765,
          -0.06945665925741196,
          -0.04612448439002037,
          -0.07892018556594849,
          0.02125483751296997,
          0.07498567551374435,
          0.0787559449672699,
          0.039274368435144424,
          -0.11084797978401184,
          -0.08607546985149384,
          -0.04595984145998955,
          -0.02859940007328987,
          0.001974316779524088,
          -0.13164827227592468
        ],
        [
          0.7372639775276184,
          0.7559962868690491,
          0.8346906900405884,
          0.9539453983306885,
          0.863246500492096,
          0.4352286756038666,
          1.006060242652893,
          0.7261408567428589,
          0.7139582633972168,
          1.0382230281829834,
          1.0717899799346924,
          1.0665925741195679,
          0.9923938512802124,
          0.8057021498680115,
          1.0270448923110962,
          0.9094298481941223,
          0.9917188882827759,
          1.065192461013794,
          0.8622576594352722,
          0.8251113295555115,
          1.0459545850753784,
          0.7398208975791931,
          0.8994647264480591,
          0.650424063205719,
          0.5124576687812805,
          0.9245098233222961,
          0.8781457543373108,
          0.9347392916679382,
          0.6255422234535217,
          0.9432428479194641,
          1.0663244724273682,
          1.0135791301727295,
          1.060910701751709,
          0.9717041254043579,
          0.6577762365341187,
          0.8810796141624451,
          1.094681739807129,
          0.9237884879112244,
          0.8445313572883606,
          1.2597625255584717,
          0.7658675312995911,
          0.9320661425590515,
          0.7791746258735657,
          0.8496471047401428,
          1.002166986465454,
          1.0269984006881714,
          1.010225772857666,
          0.7808434367179871,
          0.9006351828575134,
          1.0783460140228271,
          0.98946213722229,
          1.0156612396240234,
          0.7523617148399353,
          0.9185910820960999,
          0.6570101380348206,
          0.5466523766517639,
          0.7781988382339478,
          0.8370937705039978,
          0.9715763926506042,
          0.5265138745307922,
          0.9197978377342224,
          0.9345992207527161,
          0.9349719882011414,
          0.9329006671905518
        ],
        [
          -0.046088915318250656,
          0.05157547816634178,
          -0.0772186741232872,
          -0.0739864632487297,
          0.06870784610509872,
          -0.11447153240442276,
          -0.0008544593001715839,
          0.09444822371006012,
          0.011780980043113232,
          0.020927663892507553,
          -0.08438905328512192,
          -0.01704806089401245,
          -0.0040328907780349255,
          0.030679285526275635,
          0.032801464200019836,
          0.0986495167016983,
          -0.10919874161481857,
          -0.005443125497549772,
          -0.07764137536287308,
          -0.11292130500078201,
          -0.01908990368247032,
          -0.12191697210073471,
          0.07076244801282883,
          0.014476850628852844,
          -0.07640386372804642,
          0.05754408612847328,
          -0.13282562792301178,
          -0.04834990203380585,
          -0.04056735709309578,
          -0.12144214659929276,
          -0.0936504378914833,
          -0.035095952451229095,
          0.07911179214715958,
          0.1055433452129364,
          0.066770538687706,
          -0.08942610770463943,
          -0.09714625775814056,
          0.09646070748567581,
          0.030511293560266495,
          -0.011465592309832573,
          0.003327040933072567,
          -0.10046209394931793,
          -0.041735678911209106,
          0.10523858666419983,
          -0.04490898549556732,
          -0.022178933024406433,
          -0.11615155637264252,
          -0.07548471540212631,
          -0.008557954803109169,
          -0.09088947623968124,
          -0.030757740139961243,
          0.04112772271037102,
          -0.13813844323158264,
          0.020739523693919182,
          -0.09554018825292587,
          -0.0751839131116867,
          0.032579049468040466,
          0.08449842035770416,
          -0.04806355759501457,
          -0.05759178102016449,
          -0.12867040932178497,
          -0.0788334384560585,
          -0.1206183061003685,
          -0.04400957003235817
        ],
        [
          0.01089510228484869,
          -0.1469481736421585,
          0.08745939284563065,
          0.057405147701501846,
          -0.1503286212682724,
          -0.0889810174703598,
          0.011635616421699524,
          -0.04708518460392952,
          -0.03116685524582863,
          -0.08106569200754166,
          0.07423605024814606,
          -0.09198150783777237,
          0.07284211367368698,
          -0.0119902603328228,
          -0.004118687007576227,
          0.06499283015727997,
          -0.050720274448394775,
          -0.09342383593320847,
          -0.049617405980825424,
          0.07344244420528412,
          -0.12034448236227036,
          -0.0022327257320284843,
          -0.15073606371879578,
          0.04063182696700096,
          0.012974688783288002,
          -0.01895000785589218,
          0.032856542617082596,
          -0.025305472314357758,
          0.03566427156329155,
          -0.12488009035587311,
          -0.0419461764395237,
          0.02564195729792118,
          0.10201267898082733,
          0.033706068992614746,
          -0.12589171528816223,
          0.06536930799484253,
          -0.04829877242445946,
          -0.04314102977514267,
          -0.1394452005624771,
          -0.04632354527711868,
          0.057845961302518845,
          -0.006556784734129906,
          -0.0887594223022461,
          0.020157422870397568,
          -0.06764084845781326,
          0.08747343719005585,
          -0.12758108973503113,
          -0.06772033125162125,
          -0.14235658943653107,
          -0.08132559806108475,
          0.009649205952882767,
          0.09695359319448471,
          -0.005244116764515638,
          0.09407349675893784,
          0.005113487597554922,
          0.04152935370802879,
          0.06906450539827347,
          0.07461201399564743,
          -0.09717957675457001,
          0.08605874329805374,
          0.04714105650782585,
          -0.07887773960828781,
          -0.07603899389505386,
          -0.1302068680524826
        ],
        [
          0.7057327032089233,
          0.7230165004730225,
          0.9332399964332581,
          1.0640082359313965,
          0.623356282711029,
          0.5700613260269165,
          0.8771188259124756,
          0.7699658274650574,
          0.7794448137283325,
          0.8070383071899414,
          1.1605626344680786,
          1.062208652496338,
          0.9359596371650696,
          0.7759553790092468,
          0.8997408747673035,
          0.8310205936431885,
          0.9083417057991028,
          1.0838522911071777,
          0.8493609428405762,
          0.9556007385253906,
          0.988063395023346,
          0.6401797533035278,
          0.8389061689376831,
          0.533769428730011,
          0.4923863708972931,
          0.8278229832649231,
          1.0127310752868652,
          0.6908687353134155,
          0.5734841823577881,
          0.9893786311149597,
          1.1289690732955933,
          1.0593754053115845,
          0.814841091632843,
          0.8356882929801941,
          0.6356019377708435,
          0.8646601438522339,
          1.035291314125061,
          0.958537220954895,
          0.8897149562835693,
          1.277600646018982,
          0.6966956257820129,
          0.794013500213623,
          0.8714984655380249,
          0.8196593523025513,
          0.8485028147697449,
          1.0670785903930664,
          0.9633289575576782,
          0.6775473356246948,
          0.7510805726051331,
          0.9302498698234558,
          1.0611951351165771,
          1.0115938186645508,
          0.8192747235298157,
          1.0279724597930908,
          0.6590767502784729,
          0.7112504243850708,
          0.8008805513381958,
          0.8893899321556091,
          0.9750379323959351,
          0.5535933971405029,
          0.8394989371299744,
          0.9378803968429565,
          0.832132875919342,
          0.8185614347457886
        ],
        [
          0.5837515592575073,
          0.935129702091217,
          0.9122858643531799,
          1.058876633644104,
          0.6472967267036438,
          0.47262662649154663,
          0.8550153374671936,
          0.6819191575050354,
          0.613196074962616,
          0.9291682839393616,
          1.041139841079712,
          0.9282007813453674,
          0.8930127024650574,
          0.8296377062797546,
          0.9580405950546265,
          0.9047034978866577,
          0.8579625487327576,
          0.8739361763000488,
          0.8581239581108093,
          0.8729700446128845,
          0.9541980624198914,
          0.7059564590454102,
          0.7267102003097534,
          0.7131235599517822,
          0.6685059666633606,
          0.7759731411933899,
          0.9918367266654968,
          0.6811344027519226,
          0.6014113426208496,
          0.8830332159996033,
          0.9605446457862854,
          1.0619394779205322,
          0.8674541711807251,
          0.9589345455169678,
          0.4522753655910492,
          0.8139405846595764,
          0.9060449004173279,
          0.8316585421562195,
          0.8562652468681335,
          1.1999130249023438,
          0.8723312020301819,
          0.7614249587059021,
          0.7128075957298279,
          0.9164703488349915,
          0.9350940585136414,
          1.0073622465133667,
          0.9790802001953125,
          0.5990380048751831,
          0.8646294474601746,
          1.0086249113082886,
          0.895133912563324,
          1.159267544746399,
          0.866383969783783,
          1.065300464630127,
          0.6641197800636292,
          0.5179452300071716,
          0.8113424777984619,
          0.908428430557251,
          1.0650246143341064,
          0.5498387813568115,
          1.006690502166748,
          0.8127163052558899,
          0.8606564998626709,
          0.912443220615387
        ],
        [
          0.5802991986274719,
          0.770630955696106,
          0.8331072926521301,
          1.1291366815567017,
          0.6582829356193542,
          0.5261831879615784,
          0.9291179180145264,
          0.6414358019828796,
          0.756723940372467,
          0.8308106064796448,
          1.008074164390564,
          0.8759735822677612,
          0.8489673733711243,
          0.8603286147117615,
          1.001684546470642,
          0.8499779105186462,
          1.0184094905853271,
          1.1717424392700195,
          0.8556641936302185,
          0.833496630191803,
          0.9423301815986633,
          0.6599809527397156,
          0.7388010621070862,
          0.7022280097007751,
          0.6915212869644165,
          0.9600929021835327,
          1.0944291353225708,
          0.9459357261657715,
          0.7132928967475891,
          0.8573501110076904,
          1.217547059059143,
          0.9360750317573547,
          0.8965699672698975,
          1.0652451515197754,
          0.6558138132095337,
          0.81617271900177,
          1.011562705039978,
          0.8643704652786255,
          0.8438977003097534,
          1.3376761674880981,
          0.8191717863082886,
          0.8770648241043091,
          0.7755647897720337,
          0.8925093412399292,
          1.0324010848999023,
          1.0134880542755127,
          1.039467692375183,
          0.6219319701194763,
          0.8481411933898926,
          1.010048270225525,
          1.0136463642120361,
          1.215782642364502,
          0.9134113788604736,
          1.1067416667938232,
          0.855385959148407,
          0.5575265884399414,
          0.7885335683822632,
          0.9775795340538025,
          1.0614666938781738,
          0.6004199981689453,
          0.9828018546104431,
          0.878634512424469,
          0.930753231048584,
          1.0188790559768677
        ],
        [
          -0.044386789202690125,
          -0.07825665175914764,
          -0.04934027045965195,
          -0.05706820636987686,
          0.09918909519910812,
          0.052991870790719986,
          0.08821297436952591,
          -0.012814553454518318,
          0.011995097622275352,
          0.030131811276078224,
          -0.14005301892757416,
          0.01116207242012024,
          -0.029690122231841087,
          -0.07008175551891327,
          -0.11251524835824966,
          0.08885083347558975,
          0.08447399735450745,
          0.05793358385562897,
          0.09758716821670532,
          -0.06393973529338837,
          -0.030055290088057518,
          0.03486880660057068,
          -0.020653322339057922,
          -0.0245293527841568,
          -0.12317008525133133,
          0.020368894562125206,
          -0.07554090023040771,
          -0.008667983114719391,
          0.10405971109867096,
          -0.06021597608923912,
          -0.04885423183441162,
          0.052995529025793076,
          -0.05557136982679367,
          -0.030700355768203735,
          0.09490548074245453,
          -0.07430810481309891,
          -0.09957895427942276,
          -0.06995546817779541,
          -0.05625072494149208,
          -0.07671111077070236,
          -0.08562470227479935,
          0.050493061542510986,
          0.021242216229438782,
          -0.04000769555568695,
          -0.11032768338918686,
          -0.05257121101021767,
          -0.074151910841465,
          -0.04067736864089966,
          -0.112765371799469,
          0.009475228376686573,
          -0.10865435749292374,
          -0.09734989702701569,
          -0.1125495433807373,
          0.038959164172410965,
          -0.09450491517782211,
          -0.07681162655353546,
          0.08060932159423828,
          0.045338042080402374,
          0.06348089873790741,
          -0.13250981271266937,
          -0.10523849725723267,
          -0.04718887805938721,
          0.10326220095157623,
          -0.002215329324826598
        ],
        [
          -0.09348714351654053,
          -0.008476457558572292,
          -0.1074901595711708,
          -0.03568932041525841,
          -0.043539393693208694,
          0.10017146170139313,
          0.0297546423971653,
          -0.029876716434955597,
          0.013242240063846111,
          -0.045375578105449677,
          0.03954766318202019,
          0.03992895036935806,
          0.027562763541936874,
          -0.04872211813926697,
          0.0984412431716919,
          -0.02725294604897499,
          -0.056718889623880386,
          0.07828925549983978,
          0.0926143229007721,
          0.11624284833669662,
          0.031026799231767654,
          -0.04998297244310379,
          0.05748102813959122,
          0.10123882442712784,
          -0.12876185774803162,
          -0.023361936211586,
          -0.0924546867609024,
          0.01581321284174919,
          0.04472661390900612,
          -0.03516654297709465,
          -0.010457143187522888,
          0.04721606522798538,
          -0.02701418846845627,
          -0.11387623846530914,
          0.09154941886663437,
          -0.07192352414131165,
          -0.013732314109802246,
          0.011790797114372253,
          -0.017467014491558075,
          -0.12702533602714539,
          0.048223335295915604,
          -0.056778937578201294,
          -0.06483244895935059,
          0.023858923465013504,
          -0.07349910587072372,
          -0.06524091958999634,
          -0.052703920751810074,
          -0.05296517163515091,
          -0.0522046834230423,
          -0.04231901466846466,
          0.02410229854285717,
          -0.10794367641210556,
          -0.08319514989852905,
          -0.005166323855519295,
          0.009400852024555206,
          0.06016230955719948,
          -0.09594262391328812,
          0.030748024582862854,
          0.06504323333501816,
          0.06218767538666725,
          -0.12453906238079071,
          -0.04770052433013916,
          -0.10744570195674896,
          -0.08832453191280365
        ],
        [
          0.7178325057029724,
          0.785110592842102,
          0.9436411261558533,
          0.9626545906066895,
          0.7163115739822388,
          0.4057212769985199,
          0.9268356561660767,
          0.6173699498176575,
          0.6438804864883423,
          0.8125067353248596,
          1.0672117471694946,
          1.0779787302017212,
          0.8918734192848206,
          0.7981860041618347,
          0.965414822101593,
          0.7850891351699829,
          0.8068819642066956,
          1.120843768119812,
          0.7736883759498596,
          0.8680187463760376,
          0.9608029127120972,
          0.5094143152236938,
          0.7887709140777588,
          0.6294065117835999,
          0.5838079452514648,
          0.805332601070404,
          1.064993977546692,
          0.7606799006462097,
          0.5563682317733765,
          0.8671536445617676,
          1.1970185041427612,
          0.9626589417457581,
          0.905371367931366,
          0.8759973049163818,
          0.4609571695327759,
          0.6320164799690247,
          0.8710609078407288,
          1.0060621500015259,
          0.92091965675354,
          1.3137102127075195,
          0.6421126127243042,
          0.8833823800086975,
          0.6820394396781921,
          0.9756177067756653,
          1.0150487422943115,
          1.0791479349136353,
          1.0154532194137573,
          0.6706801056861877,
          0.7419476509094238,
          0.9730504751205444,
          0.919030487537384,
          1.1603424549102783,
          0.754104495048523,
          0.9528977274894714,
          0.6021859645843506,
          0.5008127689361572,
          0.7916377186775208,
          0.8787575364112854,
          0.9531574249267578,
          0.4471825361251831,
          0.9811810851097107,
          0.9161670804023743,
          0.9120931625366211,
          1.0260108709335327
        ],
        [
          -0.09678000211715698,
          -0.15025265514850616,
          0.015352532267570496,
          0.031674765050411224,
          -0.1301221400499344,
          0.026838039979338646,
          0.08061207085847855,
          -0.029727423563599586,
          -0.10894093662500381,
          0.057757165282964706,
          0.027623409405350685,
          0.04956725984811783,
          -0.10516730695962906,
          0.0320192314684391,
          -0.11551957577466965,
          0.09613564610481262,
          -0.0788540467619896,
          0.046298179775476456,
          -0.0020544372964650393,
          -0.0022684575524181128,
          -0.048620227724313736,
          0.033963434398174286,
          -0.07465266436338425,
          -0.13617579638957977,
          -0.06294364482164383,
          0.07742168009281158,
          -0.06068337336182594,
          0.02270837128162384,
          -0.06904254853725433,
          0.05769430473446846,
          0.049787331372499466,
          0.007084294687956572,
          -0.09211798757314682,
          -0.13118606805801392,
          -0.017657402902841568,
          -0.09677298367023468,
          0.06775055825710297,
          -0.1508924812078476,
          0.02549559809267521,
          0.09443973004817963,
          0.034118007868528366,
          0.0260009802877903,
          -0.1384314000606537,
          0.09384667128324509,
          -0.05373009666800499,
          -0.150874063372612,
          0.08068518340587616,
          -0.06748022884130478,
          -0.020470689982175827,
          0.08845432847738266,
          -0.10825073719024658,
          -0.12473294883966446,
          -0.005846831481903791,
          -0.03547666594386101,
          0.0017112547066062689,
          -0.12410715967416763,
          -0.014932524412870407,
          -0.08371032029390335,
          -0.08152448385953903,
          -0.12955601513385773,
          0.045437294989824295,
          0.0037175281904637814,
          -0.13270704448223114,
          0.06359570473432541
        ],
        [
          0.7076850533485413,
          0.841973066329956,
          0.8004502058029175,
          1.0362008810043335,
          0.8482165932655334,
          0.6184999942779541,
          0.784364640712738,
          0.8236006498336792,
          0.7135762572288513,
          0.9858051538467407,
          1.13461172580719,
          1.0575577020645142,
          0.7845041155815125,
          0.9944498538970947,
          0.8511401414871216,
          0.8729952573776245,
          0.8465114235877991,
          0.9787580966949463,
          0.7934132218360901,
          0.8355167508125305,
          1.0068700313568115,
          0.6029359102249146,
          0.9136671423912048,
          0.7062963843345642,
          0.6803665161132812,
          0.9371477961540222,
          1.0166122913360596,
          0.796608030796051,
          0.6877583861351013,
          0.9380420446395874,
          0.9460261464118958,
          0.8483762145042419,
          0.9178168773651123,
          0.8706135153770447,
          0.5664485096931458,
          0.7213015556335449,
          0.9731645584106445,
          1.014949917793274,
          0.8025104999542236,
          1.2498472929000854,
          0.8710662126541138,
          0.748278021812439,
          0.6833686232566833,
          0.7983366250991821,
          0.8413683772087097,
          0.9198354482650757,
          0.9083342552185059,
          0.6024909615516663,
          0.7382653951644897,
          0.8855435252189636,
          0.8929621577262878,
          1.2014058828353882,
          0.7678707242012024,
          0.8730062246322632,
          0.7941652536392212,
          0.5788758993148804,
          0.951882541179657,
          0.9900767207145691,
          1.1148998737335205,
          0.537530243396759,
          1.0341194868087769,
          0.9696609973907471,
          0.7316440939903259,
          1.043290376663208
        ],
        [
          0.06473620980978012,
          -0.024758299812674522,
          0.033974770456552505,
          -0.0683683380484581,
          -0.13263608515262604,
          0.012215690687298775,
          0.011440526694059372,
          -0.10772377997636795,
          0.03017474338412285,
          -0.13189037144184113,
          0.08140548318624496,
          0.09141293913125992,
          0.012639028951525688,
          -0.09890095889568329,
          0.036587193608284,
          -0.0022418994922190905,
          0.011349654756486416,
          0.01733631268143654,
          0.06926547735929489,
          -0.07518079876899719,
          -0.0477481372654438,
          0.013980258256196976,
          -0.010025626048445702,
          0.08231028914451599,
          -0.08549975603818893,
          -0.030927039682865143,
          -0.004952683579176664,
          -0.05467037484049797,
          0.06081768125295639,
          -0.013058037497103214,
          -0.13637734949588776,
          -0.03778930753469467,
          -0.08034045249223709,
          -0.011850878596305847,
          -0.038510508835315704,
          -0.14750322699546814,
          -0.04803788289427757,
          -0.03866045922040939,
          -0.06321189552545547,
          0.08922670036554337,
          -0.05069967731833458,
          0.06131037697196007,
          0.006094083189964294,
          -0.13512510061264038,
          0.006857951171696186,
          0.07988061010837555,
          -0.10980891436338425,
          -0.09843040257692337,
          0.1125858798623085,
          0.07755916565656662,
          -0.09174124896526337,
          0.047563161700963974,
          -0.039100028574466705,
          -0.14695313572883606,
          -0.01638970710337162,
          0.018401293084025383,
          -0.05881090462207794,
          0.018775692209601402,
          -0.12794122099876404,
          0.06808889657258987,
          0.0848480612039566,
          0.049257341772317886,
          -0.006361792795360088,
          0.01587875373661518
        ],
        [
          0.5878741145133972,
          0.7975065112113953,
          0.8740074634552002,
          0.960987389087677,
          0.643966794013977,
          0.6226344704627991,
          0.9747946858406067,
          0.6017395853996277,
          0.7509382367134094,
          0.9879446029663086,
          1.1725023984909058,
          1.0355623960494995,
          1.0022640228271484,
          0.8539838194847107,
          1.0362874269485474,
          0.9723818898200989,
          0.8242749571800232,
          0.9196298122406006,
          0.8331578969955444,
          0.9303083419799805,
          0.9754071235656738,
          0.6147292852401733,
          0.7967330813407898,
          0.6717317700386047,
          0.5486144423484802,
          0.9681134819984436,
          1.0172662734985352,
          0.7257202863693237,
          0.6851087212562561,
          0.924906313419342,
          1.107270359992981,
          1.079613208770752,
          0.9514870643615723,
          0.9033783078193665,
          0.6854427456855774,
          0.7127899527549744,
          0.9301420450210571,
          0.9531283378601074,
          0.7578420639038086,
          1.1801320314407349,
          0.6952190399169922,
          0.8666729927062988,
          0.800168514251709,
          0.9280115365982056,
          0.8184041976928711,
          0.8615004420280457,
          0.9874311089515686,
          0.7471361756324768,
          0.6928292512893677,
          0.9826399683952332,
          0.8608239889144897,
          1.1021207571029663,
          0.9366058111190796,
          1.068031907081604,
          0.6567866206169128,
          0.6693564057350159,
          0.9334822297096252,
          0.9243035912513733,
          1.1367409229278564,
          0.5830171704292297,
          0.9386324882507324,
          0.8063947558403015,
          0.8229069709777832,
          0.9742727279663086
        ],
        [
          0.7156036496162415,
          0.7875133156776428,
          0.8667775988578796,
          1.1092222929000854,
          0.6520538330078125,
          0.5411840081214905,
          0.9100832343101501,
          0.6775652766227722,
          0.7770979404449463,
          0.9761385917663574,
          1.1820900440216064,
          0.985495924949646,
          0.8202779293060303,
          1.0085729360580444,
          1.005524754524231,
          0.8519906401634216,
          0.8927931785583496,
          1.08522367477417,
          0.7112536430358887,
          0.9271319508552551,
          1.1375195980072021,
          0.5212787985801697,
          0.7364895939826965,
          0.5712301731109619,
          0.7352996468544006,
          1.0350171327590942,
          0.980517566204071,
          0.9597795009613037,
          0.6605050563812256,
          0.8403104543685913,
          1.1470227241516113,
          1.0469824075698853,
          1.0751675367355347,
          0.9704124331474304,
          0.6762488484382629,
          0.8707365393638611,
          1.092947006225586,
          0.8493104577064514,
          0.9779765009880066,
          1.1044373512268066,
          0.9195973873138428,
          0.8779866695404053,
          0.7005428075790405,
          0.9763294458389282,
          0.9366316795349121,
          0.9047600626945496,
          0.9183881282806396,
          0.6752093434333801,
          0.9135519862174988,
          0.9302271008491516,
          1.0692390203475952,
          1.1485016345977783,
          0.8502481579780579,
          1.0265603065490723,
          0.6919270753860474,
          0.5139001607894897,
          0.8641409873962402,
          0.8466816544532776,
          0.9990296959877014,
          0.6704651117324829,
          0.9263309836387634,
          0.8395023345947266,
          0.8170568943023682,
          0.9662981033325195
        ],
        [
          -0.08465062826871872,
          -0.011361699551343918,
          -0.035329751670360565,
          0.017647894099354744,
          -0.008057652972638607,
          -0.07628652453422546,
          -0.059076569974422455,
          -0.019123967736959457,
          -0.07799816131591797,
          -0.008593392558395863,
          -0.02197916992008686,
          0.031082667410373688,
          0.016321364790201187,
          0.07841174304485321,
          -0.022142764180898666,
          -0.10261263698339462,
          0.04163305461406708,
          -0.09857100993394852,
          -0.03509902581572533,
          -0.05700270086526871,
          -0.06221791356801987,
          -0.06073388457298279,
          0.09515219926834106,
          0.05853619799017906,
          0.019425135105848312,
          0.10545006394386292,
          -0.12749159336090088,
          0.007573525886982679,
          0.06380540132522583,
          0.06415470689535141,
          -0.11301461607217789,
          0.027380576357245445,
          -0.088229238986969,
          -0.021459899842739105,
          -0.043513230979442596,
          -0.12013690918684006,
          -0.1374848186969757,
          -0.09704811125993729,
          0.041346918791532516,
          0.04181655868887901,
          -0.124437615275383,
          -0.05954877287149429,
          -0.010622569359838963,
          -0.12217479199171066,
          0.05464835464954376,
          0.09471947699785233,
          0.0040419320575892925,
          -0.10726405680179596,
          0.017149509862065315,
          0.03108055144548416,
          0.08402606099843979,
          -0.08080768585205078,
          -0.1256689429283142,
          0.037028416991233826,
          0.0005321267526596785,
          -0.05592045187950134,
          -0.06745849549770355,
          -0.0802115947008133,
          0.08713420480489731,
          -0.03512487933039665,
          0.07487208396196365,
          0.10142575949430466,
          0.005513641983270645,
          0.00802686158567667
        ],
        [
          0.6622710227966309,
          0.9066246747970581,
          0.7627363801002502,
          1.0674693584442139,
          0.7072927951812744,
          0.5899540781974792,
          0.8817687630653381,
          0.6645168662071228,
          0.6916632056236267,
          0.9942046403884888,
          0.9500797986984253,
          0.8735336065292358,
          0.8519268035888672,
          0.8382246494293213,
          0.9872006773948669,
          0.946978747844696,
          0.920208752155304,
          1.122480034828186,
          0.7485173344612122,
          0.7801708579063416,
          0.9702509045600891,
          0.5069496035575867,
          0.7032344341278076,
          0.5215005278587341,
          0.49953317642211914,
          0.919040322303772,
          0.9958533048629761,
          0.9188926219940186,
          0.784329354763031,
          0.9086960554122925,
          1.0774860382080078,
          0.8754165172576904,
          0.9508353471755981,
          0.8016981482505798,
          0.6262202858924866,
          0.7745000123977661,
          0.9925203919410706,
          0.9785509705543518,
          0.7880703210830688,
          1.2575372457504272,
          0.8328818082809448,
          0.9247016310691833,
          0.7951406836509705,
          0.9781755208969116,
          0.9940217137336731,
          1.0274674892425537,
          1.0146492719650269,
          0.6097257137298584,
          0.8800164461135864,
          0.9531682133674622,
          1.01323664188385,
          1.1993434429168701,
          0.8419254422187805,
          0.9167250394821167,
          0.731713593006134,
          0.6232460737228394,
          0.8769732117652893,
          0.8797101974487305,
          1.0960980653762817,
          0.7057053446769714,
          0.8764563202857971,
          0.8540909886360168,
          0.7809410095214844,
          0.8519721031188965
        ],
        [
          0.7037542462348938,
          0.7930906414985657,
          0.8281488418579102,
          0.9966329336166382,
          0.6936611533164978,
          0.6607500910758972,
          0.9414744973182678,
          0.8412789702415466,
          0.7498363256454468,
          0.9688190817832947,
          1.1074696779251099,
          0.9889432191848755,
          0.7915656566619873,
          0.8255228996276855,
          0.9237127304077148,
          0.8743459582328796,
          0.993218183517456,
          1.0732700824737549,
          0.9094460606575012,
          0.8910338878631592,
          0.9990850687026978,
          0.510379433631897,
          0.7093077301979065,
          0.5678961277008057,
          0.6558672785758972,
          0.9669113159179688,
          1.0494438409805298,
          0.7748798131942749,
          0.6764978766441345,
          0.8928876519203186,
          1.0725634098052979,
          1.006815791130066,
          0.9190789461135864,
          0.9414405822753906,
          0.590854823589325,
          0.8099293112754822,
          0.9349250197410583,
          0.874666154384613,
          0.8848951458930969,
          1.1567171812057495,
          0.7267115712165833,
          0.9083670973777771,
          0.7938399910926819,
          0.8977179527282715,
          0.8667765855789185,
          0.9698715806007385,
          0.8294883370399475,
          0.6709045171737671,
          0.8094920516014099,
          1.0146440267562866,
          0.9639320969581604,
          1.108534574508667,
          0.8593587279319763,
          1.0715364217758179,
          0.6963189244270325,
          0.6698093414306641,
          0.9012911915779114,
          0.8448668122291565,
          1.0627803802490234,
          0.5627381801605225,
          0.9314188957214355,
          0.8144475221633911,
          0.7276716828346252,
          1.046159267425537
        ],
        [
          0.5939429998397827,
          0.9237889647483826,
          0.8186566233634949,
          1.0594755411148071,
          0.7669793367385864,
          0.6427693963050842,
          0.8743488788604736,
          0.7665225863456726,
          0.7515467405319214,
          1.0437688827514648,
          1.1118558645248413,
          1.0480942726135254,
          0.8248634338378906,
          0.829595148563385,
          1.1092205047607422,
          0.7942996621131897,
          0.9544832110404968,
          1.0493826866149902,
          0.9570494890213013,
          0.868453860282898,
          0.9821981191635132,
          0.5976479649543762,
          0.8849455118179321,
          0.7036662101745605,
          0.731648862361908,
          0.905354380607605,
          1.0417007207870483,
          0.7260919213294983,
          0.7531523108482361,
          1.0250897407531738,
          1.1923245191574097,
          0.9374469518661499,
          0.9285743832588196,
          1.0076016187667847,
          0.49202173948287964,
          0.6970058083534241,
          0.8905616402626038,
          0.9848855137825012,
          0.9562733769416809,
          1.2554467916488647,
          0.815045952796936,
          0.9268655776977539,
          0.7332264184951782,
          0.9595438241958618,
          0.9372372031211853,
          0.961449921131134,
          1.0756460428237915,
          0.5630021691322327,
          0.829176664352417,
          0.8607616424560547,
          0.9991168975830078,
          1.0874042510986328,
          0.8884420394897461,
          0.9368809461593628,
          0.8528400659561157,
          0.5119879245758057,
          0.9821844696998596,
          0.8758264780044556,
          1.135607361793518,
          0.6045864224433899,
          1.0156941413879395,
          0.8668271899223328,
          0.9278173446655273,
          1.0299153327941895
        ],
        [
          1.1661760807037354,
          -0.7227242588996887,
          1.2283786535263062,
          1.5552023649215698,
          -1.180148959159851,
          -1.2372596263885498,
          0.27486565709114075,
          0.20926056802272797,
          0.7253528237342834,
          0.35939761996269226,
          -0.14042265713214874,
          0.8191086649894714,
          0.5204815864562988,
          -0.48624497652053833,
          0.0427464060485363,
          0.6689919233322144,
          0.533969521522522,
          1.1068055629730225,
          -0.4199788272380829,
          -1.1312360763549805,
          -0.8116616010665894,
          -1.1019524335861206,
          0.7965154051780701,
          -0.8521407842636108,
          -1.48182213306427,
          -0.7280306816101074,
          0.7948785424232483,
          -0.6503884792327881,
          0.1883920431137085,
          0.15253552794456482,
          1.3918348550796509,
          -0.9754290580749512,
          1.407778024673462,
          -0.5581145286560059,
          -0.5603955984115601,
          -1.2153875827789307,
          1.3900394439697266,
          1.182935357093811,
          -0.08787001669406891,
          1.3243430852890015,
          0.0705878734588623,
          0.1510666161775589,
          1.4180521965026855,
          0.8423029780387878,
          -1.189361333847046,
          0.2163202166557312,
          1.2744406461715698,
          -1.0097622871398926,
          -0.849299430847168,
          0.5659074187278748,
          -1.142767071723938,
          0.4177330434322357,
          1.1582249402999878,
          -1.2371844053268433,
          1.1337800025939941,
          -1.0956828594207764,
          -1.293484091758728,
          -0.11925725638866425,
          -0.33839884400367737,
          -1.209945797920227,
          -1.3152235746383667,
          1.4399380683898926,
          1.469772458076477,
          1.0942257642745972
        ],
        [
          0.006944363936781883,
          -0.08040310442447662,
          -0.07158258557319641,
          0.08759308606386185,
          0.042694784700870514,
          -0.05208003148436546,
          0.0016492914874106646,
          0.015171666629612446,
          0.01510216947644949,
          -0.06250882893800735,
          -0.0921734869480133,
          0.06518343836069107,
          -0.021705739200115204,
          0.03141693398356438,
          -0.06340482085943222,
          0.040037911385297775,
          0.06809987872838974,
          0.055453505367040634,
          0.019830865785479546,
          0.10304713249206543,
          -0.022521069273352623,
          0.009590399451553822,
          0.09400489181280136,
          0.101406030356884,
          -0.06836887449026108,
          0.09563455730676651,
          0.028062034398317337,
          -0.03164120391011238,
          0.08272276818752289,
          -0.0817386582493782,
          0.05249469354748726,
          0.104762963950634,
          -0.10571081191301346,
          -0.08751364052295685,
          -0.1329575926065445,
          -0.03665994107723236,
          -0.1316237449645996,
          -0.0626906305551529,
          0.02385575883090496,
          0.06980860978364944,
          0.055782727897167206,
          0.05023346468806267,
          0.03137059882283211,
          -0.09407250583171844,
          -0.11859653145074844,
          -0.013061514124274254,
          0.09962815046310425,
          -0.011650372296571732,
          -0.06201653555035591,
          -0.10577991604804993,
          -0.07825671881437302,
          -0.11540708690881729,
          0.055397745221853256,
          -0.03613324463367462,
          -0.12395055592060089,
          8.630636148154736e-05,
          -0.007392290513962507,
          -0.029719281941652298,
          0.026301922276616096,
          0.047785695642232895,
          -0.13518987596035004,
          -0.10606575012207031,
          -0.024791954085230827,
          -0.13343200087547302
        ],
        [
          0.5826615691184998,
          0.9584215879440308,
          0.9000784754753113,
          0.9927747845649719,
          0.709505021572113,
          0.4535442888736725,
          1.0055482387542725,
          0.7005812525749207,
          0.6555006504058838,
          0.8629588484764099,
          1.153242588043213,
          0.9680455923080444,
          0.887000560760498,
          0.880525529384613,
          0.9139449596405029,
          0.906337320804596,
          1.0580064058303833,
          0.9713563919067383,
          0.8310405015945435,
          0.7878518104553223,
          1.0004043579101562,
          0.7274590134620667,
          0.8136698007583618,
          0.7733533382415771,
          0.6057989597320557,
          0.8493511080741882,
          0.8849129676818848,
          0.9411882758140564,
          0.6023917198181152,
          1.0140119791030884,
          1.1213454008102417,
          1.0250576734542847,
          1.0095841884613037,
          0.9231473803520203,
          0.6606383323669434,
          0.6810556054115295,
          0.946100652217865,
          1.0556589365005493,
          0.9068131446838379,
          1.1786941289901733,
          0.7678992748260498,
          0.7943894863128662,
          0.8799665570259094,
          0.9274160265922546,
          0.9440644979476929,
          1.033588171005249,
          1.0441035032272339,
          0.5901440382003784,
          0.7707822918891907,
          1.0415868759155273,
          1.0494329929351807,
          1.0588669776916504,
          0.7130849361419678,
          1.0161817073822021,
          0.8294390439987183,
          0.6362911462783813,
          0.9785594940185547,
          0.8493474721908569,
          1.1053135395050049,
          0.5685853958129883,
          1.0630598068237305,
          0.9770800471305847,
          0.8667957186698914,
          1.0671559572219849
        ],
        [
          0.5943661332130432,
          0.7104637622833252,
          0.7605394124984741,
          1.0983434915542603,
          0.7746328115463257,
          0.44383615255355835,
          0.938823938369751,
          0.8210634589195251,
          0.5864062309265137,
          1.0198146104812622,
          1.057896614074707,
          0.9676517248153687,
          0.9864479303359985,
          0.9965093731880188,
          0.9924499988555908,
          0.9537310600280762,
          0.9799755215644836,
          1.025405764579773,
          0.6905718445777893,
          0.8737937808036804,
          0.9406847357749939,
          0.6335114240646362,
          0.8143491148948669,
          0.6379501223564148,
          0.5233170390129089,
          0.8180086612701416,
          1.0147651433944702,
          0.8663944602012634,
          0.7389890551567078,
          0.8834529519081116,
          1.0350004434585571,
          0.9198142290115356,
          0.992440402507782,
          0.8692280054092407,
          0.6411924958229065,
          0.8402584791183472,
          0.8432584404945374,
          0.9347651600837708,
          0.815460205078125,
          1.0832099914550781,
          0.8233651518821716,
          0.8314938545227051,
          0.8872590065002441,
          0.8240030407905579,
          0.968413770198822,
          0.8652408719062805,
          0.8616633415222168,
          0.6420654058456421,
          0.8955049514770508,
          0.9859340190887451,
          0.8357626795768738,
          1.0929241180419922,
          0.7418922781944275,
          0.9680812358856201,
          0.6481133103370667,
          0.5546064376831055,
          0.9410912394523621,
          0.8009652495384216,
          0.8795192241668701,
          0.657737135887146,
          0.9720473885536194,
          0.8438489437103271,
          0.9064367413520813,
          0.8597586750984192
        ],
        [
          -0.07588502764701843,
          -0.10893502086400986,
          -0.031778328120708466,
          -0.04303025081753731,
          0.05293988063931465,
          -0.02468288689851761,
          0.02631344087421894,
          -0.051944583654403687,
          0.095840223133564,
          0.0840100422501564,
          -0.12835028767585754,
          -0.03848176449537277,
          -0.12030601501464844,
          0.027484169229865074,
          -0.11996034532785416,
          -0.07482380419969559,
          0.11309845000505447,
          -0.12953788042068481,
          0.07581470906734467,
          -0.00543803907930851,
          0.0868338868021965,
          -0.07564891129732132,
          0.07280658930540085,
          -0.0058701494708657265,
          -0.0033317527268081903,
          0.0544423833489418,
          -0.14503443241119385,
          -0.1202884167432785,
          0.10897678136825562,
          -0.08316832035779953,
          -0.1011662408709526,
          -0.018743503838777542,
          -0.05097897723317146,
          -0.028881102800369263,
          -0.09657443314790726,
          0.03259053826332092,
          -0.11866280436515808,
          0.010124117136001587,
          0.055722687393426895,
          0.01170095894485712,
          0.004399395082145929,
          0.0008810987346805632,
          -0.03661881387233734,
          -0.023812279105186462,
          -0.06625718623399734,
          -0.0945604220032692,
          -0.07379934936761856,
          0.10705848783254623,
          -0.04521642625331879,
          0.031855788081884384,
          0.07462490350008011,
          -0.03413479030132294,
          -0.07839585095643997,
          -0.10152865946292877,
          -0.05160927772521973,
          0.03181556239724159,
          -0.11733260005712509,
          -0.027370110154151917,
          0.03483763709664345,
          0.08857414126396179,
          0.025163432583212852,
          0.02472083270549774,
          0.08557383716106415,
          0.04661789909005165
        ],
        [
          0.0252576544880867,
          -0.05132586136460304,
          -0.11798858642578125,
          -0.04520760849118233,
          -0.022670477628707886,
          0.009179651737213135,
          -0.02897404320538044,
          0.03234478086233139,
          0.06514828652143478,
          -0.061711907386779785,
          -0.12825630605220795,
          -0.08060339093208313,
          -0.07588018476963043,
          0.0708550214767456,
          -0.09804181754589081,
          -0.02157307043671608,
          -0.04190907999873161,
          -0.09223528951406479,
          0.046992767602205276,
          -0.052069440484046936,
          -0.006466522812843323,
          -0.08788558840751648,
          -0.02783365361392498,
          0.01776072382926941,
          -0.0050866007804870605,
          -0.04670596122741699,
          0.02021869271993637,
          -0.03238719701766968,
          -0.07997335493564606,
          -0.1092226654291153,
          -0.04400279372930527,
          -0.13250264525413513,
          0.08611445873975754,
          -0.07287047803401947,
          -0.05180227756500244,
          0.011554881930351257,
          0.014467624947428703,
          -0.029339442029595375,
          0.07283258438110352,
          -0.09028007090091705,
          0.04479759931564331,
          -0.0002819150686264038,
          -0.11604317277669907,
          -0.06513353437185287,
          0.03181089460849762,
          0.006978827528655529,
          0.07267338037490845,
          0.08362412452697754,
          -0.06817784905433655,
          -0.06506095826625824,
          -0.02650517225265503,
          -0.10604559630155563,
          -0.05062875896692276,
          -0.11410607397556305,
          0.03006739728152752,
          0.08844491839408875,
          0.009897053241729736,
          -0.10565925389528275,
          -0.1078660860657692,
          -0.048662394285202026,
          0.03635667264461517,
          -0.012267433106899261,
          0.005441100336611271,
          0.09982573986053467
        ],
        [
          0.04330023005604744,
          0.004345602355897427,
          -0.04282326623797417,
          0.04140002653002739,
          0.030226565897464752,
          -0.13098260760307312,
          -0.09552755951881409,
          -0.012596575543284416,
          0.03362574055790901,
          0.04200410097837448,
          -0.09106997400522232,
          -0.13993774354457855,
          -0.029192781075835228,
          -0.026714129373431206,
          0.014592725783586502,
          -0.05890114977955818,
          0.07221951335668564,
          -0.0063298046588897705,
          0.06877550482749939,
          -0.10648024082183838,
          0.027487220242619514,
          -0.008184444159269333,
          -0.08150672912597656,
          0.05157038941979408,
          -0.14658840000629425,
          0.09103047102689743,
          -0.004496372304856777,
          -0.0009372550994157791,
          0.03356136754155159,
          -0.01006346195936203,
          0.03587781637907028,
          0.05676214024424553,
          -0.11477439105510712,
          0.05995670706033707,
          -0.044051382690668106,
          -0.05192571133375168,
          0.008245429024100304,
          0.08262678235769272,
          -0.0894993245601654,
          -0.10390903800725937,
          0.05371930077672005,
          -0.072665274143219,
          0.024337420240044594,
          -0.0330657884478569,
          0.014319061301648617,
          0.07557142525911331,
          -0.0807395949959755,
          -0.07760319113731384,
          0.05080990120768547,
          -0.017321018502116203,
          -0.03666093945503235,
          -0.12373979389667511,
          0.08615900576114655,
          -0.02319459244608879,
          -0.037631288170814514,
          -0.07381732761859894,
          -0.04816722497344017,
          0.03805619478225708,
          -0.021522309631109238,
          0.08489952981472015,
          -0.02922447770833969,
          -0.03241973742842674,
          0.05574512109160423,
          -0.023263003677129745
        ],
        [
          0.6528815627098083,
          0.8702969551086426,
          0.9842345118522644,
          1.0615990161895752,
          0.8228049278259277,
          0.6186763048171997,
          0.9253808259963989,
          0.7586362361907959,
          0.7511846423149109,
          0.9499146938323975,
          1.1597843170166016,
          1.0785123109817505,
          0.931814968585968,
          0.8880387544631958,
          1.060811996459961,
          0.7731393575668335,
          1.0338865518569946,
          1.0857667922973633,
          0.8879377841949463,
          0.851948082447052,
          0.9438413977622986,
          0.6891211867332458,
          0.7421437501907349,
          0.6723021268844604,
          0.6859216690063477,
          0.7803658843040466,
          0.9420815110206604,
          0.7675267457962036,
          0.7720891237258911,
          0.8449015021324158,
          1.1427316665649414,
          1.0407847166061401,
          0.9834743142127991,
          1.0515167713165283,
          0.5913935303688049,
          0.6464920043945312,
          1.0554794073104858,
          0.9558687210083008,
          0.8553221225738525,
          1.0473496913909912,
          0.7513830661773682,
          0.792647123336792,
          0.9102513790130615,
          0.999570369720459,
          1.016601324081421,
          1.0658563375473022,
          0.8521380424499512,
          0.5856193900108337,
          0.7548285126686096,
          0.8859381079673767,
          1.0497347116470337,
          1.1363931894302368,
          0.920171320438385,
          0.9674521684646606,
          0.6363800168037415,
          0.5550169944763184,
          0.9555578827857971,
          1.0003018379211426,
          1.053989052772522,
          0.5949659943580627,
          0.85072261095047,
          0.8025057911872864,
          0.8695612549781799,
          0.8904556632041931
        ],
        [
          0.7330870628356934,
          0.8504101037979126,
          0.8252226114273071,
          1.091924786567688,
          0.6842867136001587,
          0.5271373391151428,
          0.8203853964805603,
          0.5863498449325562,
          0.7218112945556641,
          0.9568539261817932,
          0.968543291091919,
          1.0254287719726562,
          0.7556462287902832,
          0.7603960633277893,
          0.8575557470321655,
          0.809790849685669,
          0.9186659455299377,
          0.9788835048675537,
          0.8534373641014099,
          0.7350799441337585,
          1.0445383787155151,
          0.5938891172409058,
          0.818090558052063,
          0.7560124397277832,
          0.6847299933433533,
          0.8175270557403564,
          0.8163875341415405,
          0.7704585194587708,
          0.6100302934646606,
          0.9556800723075867,
          1.052024006843567,
          1.044830083847046,
          0.9505290985107422,
          0.8950732350349426,
          0.5715844631195068,
          0.7778334021568298,
          0.9375972747802734,
          1.0316165685653687,
          0.7424452304840088,
          1.206652283668518,
          0.6927448511123657,
          0.7331100702285767,
          0.7524895071983337,
          0.9587984085083008,
          0.9920522570610046,
          0.9990198016166687,
          0.9058452248573303,
          0.6225950121879578,
          0.7427657842636108,
          0.9087157249450684,
          0.9242164492607117,
          1.1799498796463013,
          0.8745176196098328,
          0.8565686345100403,
          0.7370615005493164,
          0.5099891424179077,
          0.831280529499054,
          0.8102607727050781,
          1.0266687870025635,
          0.5470896363258362,
          1.0728697776794434,
          0.9448970556259155,
          0.7088418006896973,
          0.8110331892967224
        ],
        [
          0.6875748634338379,
          0.7912713289260864,
          0.9259999990463257,
          0.9505642652511597,
          0.791691780090332,
          0.4391947090625763,
          0.8208320140838623,
          0.649010419845581,
          0.7704660892486572,
          0.934190034866333,
          0.9388214349746704,
          0.8945714235305786,
          0.8263763189315796,
          0.775193989276886,
          0.9617974162101746,
          0.9113221764564514,
          0.9161455035209656,
          0.9793553352355957,
          0.8042973875999451,
          0.7679301500320435,
          0.9712895750999451,
          0.6056166887283325,
          0.9099575281143188,
          0.6057494282722473,
          0.6803914308547974,
          0.8572894334793091,
          0.9088090062141418,
          0.7040058374404907,
          0.7851033806800842,
          1.0449658632278442,
          1.0692211389541626,
          1.0411709547042847,
          1.0232294797897339,
          0.9898324608802795,
          0.6364849805831909,
          0.642170250415802,
          0.8535894751548767,
          0.8516179919242859,
          0.8889680504798889,
          1.0610756874084473,
          0.6818608045578003,
          0.804440975189209,
          0.6664914488792419,
          0.9151539206504822,
          0.9474437236785889,
          0.9093760251998901,
          1.0131094455718994,
          0.6005698442459106,
          0.767456591129303,
          1.0278578996658325,
          1.0611963272094727,
          1.0862150192260742,
          0.7314360737800598,
          0.9118661880493164,
          0.7680640816688538,
          0.6688246130943298,
          0.9313755631446838,
          0.865646243095398,
          0.9043002724647522,
          0.5385560393333435,
          0.9324904084205627,
          0.8743059039115906,
          0.7565361857414246,
          0.8428621292114258
        ],
        [
          -0.004946797154843807,
          -0.11028305441141129,
          -0.11842586100101471,
          -0.12327545881271362,
          -0.04892132431268692,
          0.09427298605442047,
          0.02554257959127426,
          -0.03863266855478287,
          -9.317623334936798e-05,
          0.04128042235970497,
          -0.015665361657738686,
          -0.11686890572309494,
          -0.10480397939682007,
          -0.10003986954689026,
          -0.02231263928115368,
          -0.13209953904151917,
          -0.042989250272512436,
          -0.06404584646224976,
          0.11307188868522644,
          0.08633726835250854,
          0.05618778243660927,
          -0.009826559573411942,
          -0.06291639804840088,
          0.015689944848418236,
          -0.1028638705611229,
          -0.06868845224380493,
          -0.0441480427980423,
          -0.04597073048353195,
          -0.13793911039829254,
          0.031601328402757645,
          0.07992708683013916,
          -0.08260204643011093,
          0.011595495045185089,
          -0.02936141937971115,
          -0.01364401075989008,
          -0.007182549685239792,
          0.08598395437002182,
          -0.0058529735542833805,
          -0.0891311913728714,
          -0.06397274136543274,
          0.05213409289717674,
          0.021180810406804085,
          -0.017927467823028564,
          -0.03650232404470444,
          -0.06417921930551529,
          -0.06073417514562607,
          -0.08819575607776642,
          0.003706673625856638,
          0.011359384283423424,
          0.07660022377967834,
          -0.04523036628961563,
          -0.007067646831274033,
          0.05473810061812401,
          0.03670292720198631,
          -0.00958276353776455,
          0.02440166287124157,
          -0.010450374335050583,
          -0.12282714247703552,
          -0.01386647205799818,
          -0.043318815529346466,
          0.0966440960764885,
          0.08758772909641266,
          0.0034204223193228245,
          0.08989989012479782
        ],
        [
          0.6214023232460022,
          0.9342997670173645,
          1.0005691051483154,
          1.0269733667373657,
          0.6358814239501953,
          0.5006185173988342,
          0.8577526211738586,
          0.7181881666183472,
          0.601055920124054,
          0.9586309790611267,
          0.9995390176773071,
          0.9332518577575684,
          0.8190721273422241,
          0.8598389029502869,
          0.8347547650337219,
          0.8015141487121582,
          0.9541270732879639,
          1.0990413427352905,
          0.9182549715042114,
          0.766036868095398,
          1.0915143489837646,
          0.5321540832519531,
          0.698935866355896,
          0.63017737865448,
          0.542963445186615,
          0.7941485643386841,
          0.8230999708175659,
          0.7319992184638977,
          0.786934494972229,
          0.9951480627059937,
          1.0183534622192383,
          0.8765414953231812,
          0.8212244510650635,
          0.856586754322052,
          0.5214447975158691,
          0.8339908719062805,
          1.0085175037384033,
          0.887062668800354,
          0.9350494742393494,
          1.088377833366394,
          0.6778435111045837,
          0.880673348903656,
          0.7093982696533203,
          0.9503964185714722,
          1.0286140441894531,
          0.9239262342453003,
          0.8453453779220581,
          0.6826342344284058,
          0.6844729781150818,
          1.0432711839675903,
          0.8910167217254639,
          1.1546930074691772,
          0.7236351370811462,
          0.8890624046325684,
          0.7701863646507263,
          0.6382894515991211,
          0.9621566534042358,
          1.0265672206878662,
          1.0055840015411377,
          0.627295732498169,
          0.988038957118988,
          0.834568977355957,
          0.8148210048675537,
          0.8283548355102539
        ],
        [
          -0.12242837250232697,
          0.05556166172027588,
          -0.09407054632902145,
          0.07409887760877609,
          -0.013442303985357285,
          0.0011923533165827394,
          0.08377138525247574,
          -0.08648043125867844,
          -0.028792034834623337,
          -0.0050838603638112545,
          0.017426446080207825,
          -0.14578627049922943,
          0.015921996906399727,
          -0.09774917364120483,
          -0.013901752419769764,
          0.054145921021699905,
          -0.04162202030420303,
          -0.029039889574050903,
          -0.039995573461055756,
          0.07482404261827469,
          0.04259566217660904,
          -0.009287352673709393,
          -0.10609778761863708,
          -0.09322691708803177,
          0.06533017754554749,
          0.06715773046016693,
          0.04994657263159752,
          -0.12181810289621353,
          0.06377661973237991,
          -0.039666999131441116,
          0.06744949519634247,
          0.07866398990154266,
          -0.009918125346302986,
          -0.08147606998682022,
          0.08041515201330185,
          -0.09535243362188339,
          0.05954447388648987,
          -0.13930927217006683,
          -0.06579726934432983,
          -0.1361512988805771,
          -0.08678760379552841,
          0.029017619788646698,
          -0.10908615589141846,
          -0.1270841807126999,
          0.06117507815361023,
          0.0376855805516243,
          -0.024256465956568718,
          -0.11703833937644958,
          -0.053202252835035324,
          -0.07195188105106354,
          0.048169802874326706,
          -0.06539827585220337,
          -0.060505326837301254,
          -0.11863052845001221,
          -0.0725138783454895,
          0.037266019731760025,
          0.04997999221086502,
          -0.010840406641364098,
          -0.07430130988359451,
          0.09093283116817474,
          -0.0036149926017969847,
          -0.06147273629903793,
          -0.06157387048006058,
          -0.044535934925079346
        ],
        [
          0.7431927919387817,
          0.8797194957733154,
          0.9823253154754639,
          1.0305691957473755,
          0.8449398279190063,
          0.4920247793197632,
          0.836955726146698,
          0.6726340651512146,
          0.5981239676475525,
          0.8609416484832764,
          0.9476820230484009,
          0.9620434641838074,
          0.891305148601532,
          0.8670463562011719,
          0.8696112036705017,
          0.9870704412460327,
          0.9050606489181519,
          1.0854594707489014,
          0.899568498134613,
          0.7851632237434387,
          1.0264109373092651,
          0.6777892708778381,
          0.9223039746284485,
          0.6281157732009888,
          0.709469199180603,
          0.8070698976516724,
          0.8597526550292969,
          0.9208638668060303,
          0.6758950352668762,
          1.0546084642410278,
          1.0815376043319702,
          0.9174676537513733,
          1.0394247770309448,
          1.046800971031189,
          0.5876598358154297,
          0.6901547908782959,
          0.9666130542755127,
          0.889061450958252,
          0.9486052393913269,
          1.1793913841247559,
          0.8106184601783752,
          0.9340434074401855,
          0.8336858749389648,
          0.8380456566810608,
          1.033882975578308,
          1.0628151893615723,
          0.8586809039115906,
          0.738232433795929,
          0.8415785431861877,
          0.9162103533744812,
          0.8694238662719727,
          1.0806677341461182,
          0.7020825743675232,
          1.0490317344665527,
          0.8428971171379089,
          0.5606571435928345,
          0.9890310168266296,
          0.8841937780380249,
          1.0431345701217651,
          0.54917311668396,
          0.9683363437652588,
          0.9237743020057678,
          0.8647081255912781,
          0.9428945183753967
        ],
        [
          0.6177598834037781,
          0.9169541001319885,
          0.9701469540596008,
          1.0520707368850708,
          0.6802288889884949,
          0.5666790008544922,
          0.891188383102417,
          0.8304075598716736,
          0.7308948040008545,
          0.9480009078979492,
          1.0647598505020142,
          1.0314738750457764,
          0.8858665823936462,
          1.0040405988693237,
          1.0150011777877808,
          0.7760618329048157,
          0.9425989389419556,
          0.9168093204498291,
          0.7126516699790955,
          0.8878814578056335,
          1.0675348043441772,
          0.5917425155639648,
          0.916664183139801,
          0.5754283666610718,
          0.5643109679222107,
          0.8812357187271118,
          0.9377139210700989,
          0.8051252961158752,
          0.7970721125602722,
          0.8732871413230896,
          1.0034548044204712,
          0.9747920036315918,
          1.0104902982711792,
          0.9620294570922852,
          0.640969455242157,
          0.7855179905891418,
          1.0745439529418945,
          1.0210894346237183,
          0.9430326223373413,
          1.151680827140808,
          0.6768730878829956,
          0.7984145879745483,
          0.8328607082366943,
          1.0003679990768433,
          0.8768486380577087,
          1.0848795175552368,
          0.9492432475090027,
          0.6422357559204102,
          0.8103721737861633,
          0.9146853089332581,
          1.0712535381317139,
          1.1025447845458984,
          0.8976020216941833,
          0.868659257888794,
          0.685113787651062,
          0.6071119904518127,
          0.9690540432929993,
          0.9846487641334534,
          1.0418270826339722,
          0.5114407539367676,
          0.9718654155731201,
          0.788216769695282,
          0.7011237740516663,
          0.9592968225479126
        ],
        [
          -0.07908816635608673,
          0.1134548932313919,
          -0.06794272363185883,
          0.04028351604938507,
          0.07337035238742828,
          -0.0971546471118927,
          0.06397250294685364,
          -0.016737014055252075,
          0.06477034091949463,
          0.120966836810112,
          -0.05327068269252777,
          -0.05413798987865448,
          0.09931865334510803,
          0.01390005648136139,
          -0.012466594576835632,
          0.09483353793621063,
          -0.06039300560951233,
          -0.006172016263008118,
          0.08585947751998901,
          0.0488513708114624,
          -0.08085185289382935,
          0.03248956799507141,
          -0.09530459344387054,
          -0.0678841769695282,
          0.08037647604942322,
          -0.03331403434276581,
          -0.06366963684558868,
          0.008860290050506592,
          0.030546292662620544,
          -0.0777021050453186,
          -0.08429542183876038,
          -0.1210586428642273,
          0.03229793906211853,
          -0.08065368235111237,
          0.009526044130325317,
          -0.02795727550983429,
          -0.08173249661922455,
          -0.03988735377788544,
          -0.09608624875545502,
          -0.06616660952568054,
          -0.0038964003324508667,
          -0.10686439275741577,
          -0.10962916910648346,
          0.09363256394863129,
          0.011762261390686035,
          -0.05528172850608826,
          -0.00415608286857605,
          0.09269563853740692,
          -0.10428319871425629,
          -0.06627294421195984,
          -0.09039255976676941,
          -0.009087622165679932,
          -0.004301607608795166,
          -0.09741322696208954,
          0.0867604911327362,
          -0.09598997235298157,
          0.11670446395874023,
          -0.08604612946510315,
          -0.017130687832832336,
          0.02337336540222168,
          -0.0555596798658371,
          0.11495524644851685,
          -0.08617928624153137,
          -0.006928548216819763
        ],
        [
          0.6085049510002136,
          0.888020932674408,
          1.022575855255127,
          1.1769729852676392,
          0.7746980786323547,
          0.49838054180145264,
          1.034584403038025,
          0.7410138249397278,
          0.814407229423523,
          0.8981253504753113,
          1.0335092544555664,
          0.8873885869979858,
          1.0187053680419922,
          0.9400337338447571,
          0.8926083445549011,
          0.8979506492614746,
          0.9152005314826965,
          1.0608645677566528,
          0.8710737228393555,
          0.830058217048645,
          1.0957672595977783,
          0.5509127974510193,
          0.8417677879333496,
          0.5398945212364197,
          0.6549745798110962,
          1.0517810583114624,
          1.0834494829177856,
          0.8894891142845154,
          0.7958981394767761,
          1.0759570598602295,
          1.1340999603271484,
          1.0379631519317627,
          0.9630251526832581,
          1.074454665184021,
          0.6948472857475281,
          0.730180561542511,
          0.9912374019622803,
          0.9062680006027222,
          0.9185419082641602,
          1.0842578411102295,
          0.8465781211853027,
          0.8514156937599182,
          0.8550158143043518,
          0.975958526134491,
          0.8972107172012329,
          1.0765854120254517,
          1.009717583656311,
          0.5576111674308777,
          0.9406603574752808,
          1.0719778537750244,
          1.0686848163604736,
          1.1172045469284058,
          0.8863338232040405,
          0.9328495860099792,
          0.7257820963859558,
          0.6726235151290894,
          0.9563173651695251,
          1.005303978919983,
          0.9362602233886719,
          0.7674139738082886,
          0.9535837173461914,
          0.996540367603302,
          0.9368520975112915,
          1.0188707113265991
        ],
        [
          0.8205362558364868,
          0.9140821695327759,
          0.9801505208015442,
          1.0079607963562012,
          0.8649119734764099,
          0.5840999484062195,
          0.9772853255271912,
          0.6965252161026001,
          0.8137312531471252,
          1.0622103214263916,
          0.980165958404541,
          1.0832691192626953,
          0.8100030422210693,
          0.8227190971374512,
          0.8645725250244141,
          0.9153463244438171,
          0.8634690046310425,
          0.9948167204856873,
          0.7569654583930969,
          0.912228524684906,
          0.9364139437675476,
          0.559512734413147,
          0.8072980046272278,
          0.6636770367622375,
          0.5678665041923523,
          0.9610196352005005,
          0.8761191368103027,
          0.7256597876548767,
          0.6765280961990356,
          0.8753659129142761,
          1.1629867553710938,
          0.8959606885910034,
          0.9250422716140747,
          1.0021463632583618,
          0.4718763828277588,
          0.872879147529602,
          0.929423451423645,
          0.9255112409591675,
          0.7873287200927734,
          1.1439825296401978,
          0.7455971837043762,
          0.7609895467758179,
          0.8433687686920166,
          0.9290181994438171,
          1.0663368701934814,
          1.0849345922470093,
          1.055958867073059,
          0.6891384720802307,
          0.8729697465896606,
          1.0669190883636475,
          1.076026439666748,
          1.0211281776428223,
          0.8036121129989624,
          0.8682834506034851,
          0.7681833505630493,
          0.5608114004135132,
          0.9931385517120361,
          0.9621351957321167,
          1.039608120918274,
          0.5620426535606384,
          0.891240656375885,
          0.8987521529197693,
          0.7657616138458252,
          0.9045819044113159
        ],
        [
          0.06694163382053375,
          -0.09210249036550522,
          -0.0775323361158371,
          0.07375216484069824,
          0.02364983595907688,
          -0.0938502848148346,
          0.012204092927277088,
          0.04374103993177414,
          -0.13332371413707733,
          -0.0022166348062455654,
          0.004483540542423725,
          -0.028392251580953598,
          0.09013952314853668,
          -0.10071546584367752,
          0.04264044761657715,
          -0.09778394550085068,
          -0.13507020473480225,
          0.06477602571249008,
          -0.08687532693147659,
          -0.016682010143995285,
          0.04190622270107269,
          -0.12894891202449799,
          -0.12793363630771637,
          0.02459651231765747,
          0.08354503661394119,
          -0.03699324652552605,
          0.06708256900310516,
          0.022663867101073265,
          0.006770257838070393,
          -0.10459297150373459,
          0.09577064961194992,
          0.031047683209180832,
          -0.0022763919550925493,
          0.06172170862555504,
          -0.13595432043075562,
          0.0003278895455878228,
          -0.0806058868765831,
          -0.03146471083164215,
          0.013460303656756878,
          0.03102775476872921,
          0.0007241074345074594,
          -0.11596812307834625,
          -0.09578000754117966,
          -0.017512399703264236,
          -0.04487326741218567,
          -0.12637017667293549,
          0.09859644621610641,
          -0.004466429352760315,
          -0.1058608666062355,
          0.026150640100240707,
          0.02895893156528473,
          -0.08439986407756805,
          0.0378713458776474,
          -0.09817852824926376,
          0.021446818485856056,
          0.09247321635484695,
          0.05671858787536621,
          0.03457600250840187,
          -0.0482177808880806,
          -0.00015125010395422578,
          0.019897162914276123,
          0.012355190701782703,
          -0.0448901504278183,
          -0.006599285639822483
        ],
        [
          0.6280137896537781,
          0.7415907382965088,
          0.7624551653862,
          0.9170185923576355,
          0.64570552110672,
          0.6494498252868652,
          0.9028307795524597,
          0.5979069471359253,
          0.6439573764801025,
          0.9502057433128357,
          0.9948244094848633,
          0.915437638759613,
          0.8294353485107422,
          0.85537189245224,
          0.94394850730896,
          0.8650446534156799,
          1.0047669410705566,
          1.0881398916244507,
          0.8960973024368286,
          0.8420970439910889,
          0.9636613130569458,
          0.588083803653717,
          0.7075789570808411,
          0.6830773949623108,
          0.5909360647201538,
          0.8455786108970642,
          0.8185993432998657,
          0.8593813180923462,
          0.741957426071167,
          1.0221481323242188,
          1.0118777751922607,
          0.9783143401145935,
          0.9112417697906494,
          0.8296974897384644,
          0.48715659976005554,
          0.806572437286377,
          0.8856080770492554,
          1.026883602142334,
          0.8826736211776733,
          1.1883116960525513,
          0.8468394875526428,
          0.9019676446914673,
          0.8381277918815613,
          0.9690357446670532,
          0.8508211970329285,
          0.8991864919662476,
          0.8950324654579163,
          0.6991590261459351,
          0.8842453360557556,
          1.0081738233566284,
          0.8890851140022278,
          1.062069058418274,
          0.7285324931144714,
          1.0364307165145874,
          0.6660972833633423,
          0.5298054218292236,
          0.9507302045822144,
          0.9330828785896301,
          0.9430585503578186,
          0.53871089220047,
          0.8597172498703003,
          0.968504786491394,
          0.6880106329917908,
          1.0360532999038696
        ],
        [
          0.7724609375,
          0.8267825841903687,
          0.8653602600097656,
          1.1167500019073486,
          0.7850993275642395,
          0.654148519039154,
          0.9828638434410095,
          0.6285251975059509,
          0.7827004790306091,
          0.9900699257850647,
          0.9536906480789185,
          1.0129257440567017,
          0.8169037699699402,
          0.8142718076705933,
          0.9391602277755737,
          0.8473092913627625,
          0.9010305404663086,
          0.9297081828117371,
          0.8675464987754822,
          0.9779166579246521,
          1.0051944255828857,
          0.5127094984054565,
          0.7842910885810852,
          0.5291208028793335,
          0.5103346705436707,
          0.8516871333122253,
          1.0024116039276123,
          0.7137988209724426,
          0.6582964658737183,
          0.8487083315849304,
          0.9425322413444519,
          0.9219752550125122,
          0.8975241780281067,
          0.8987716436386108,
          0.6601030230522156,
          0.8015022873878479,
          1.0336480140686035,
          0.9840046763420105,
          0.8573161959648132,
          1.2211800813674927,
          0.6920849084854126,
          0.9156875610351562,
          0.8419111967086792,
          0.8483285903930664,
          0.909213662147522,
          0.8749991655349731,
          0.8102617859840393,
          0.636264979839325,
          0.8215635418891907,
          0.8990956544876099,
          0.979861319065094,
          0.9872782826423645,
          0.7457503080368042,
          1.0493824481964111,
          0.6226671934127808,
          0.607231616973877,
          0.9548335075378418,
          1.0062167644500732,
          1.047627568244934,
          0.5226216912269592,
          0.9738131165504456,
          0.822077214717865,
          0.7619048357009888,
          1.0249258279800415
        ],
        [
          0.6276277899742126,
          0.7275850772857666,
          0.7741836309432983,
          1.0962321758270264,
          0.7318607568740845,
          0.6551796197891235,
          0.9063989520072937,
          0.5924821496009827,
          0.735589325428009,
          1.0374407768249512,
          1.1135286092758179,
          0.9865349531173706,
          0.7886329293251038,
          0.8078206181526184,
          1.0201257467269897,
          0.7800396084785461,
          0.9659846425056458,
          0.9893726706504822,
          0.8391976356506348,
          0.8562467098236084,
          0.9338447451591492,
          0.5437886118888855,
          0.8974632024765015,
          0.6472554802894592,
          0.6735782027244568,
          0.8220996856689453,
          1.017714023590088,
          0.7749596834182739,
          0.63709956407547,
          0.9361627101898193,
          1.0117766857147217,
          0.896958589553833,
          0.8852901458740234,
          0.9120685458183289,
          0.49805399775505066,
          0.7916074395179749,
          0.8331708312034607,
          1.0097612142562866,
          0.9585819840431213,
          1.1696786880493164,
          0.7437295913696289,
          0.7308735847473145,
          0.8373515605926514,
          1.0009503364562988,
          1.0144517421722412,
          0.9773120880126953,
          0.9588810205459595,
          0.7515411376953125,
          0.8164771199226379,
          0.8659631013870239,
          0.8190733194351196,
          1.1316848993301392,
          0.8636452555656433,
          1.0705931186676025,
          0.681488037109375,
          0.6392200589179993,
          0.8144897818565369,
          0.8806750178337097,
          1.0728999376296997,
          0.5188940167427063,
          1.0448020696640015,
          0.9225931763648987,
          0.7198795676231384,
          0.9924377202987671
        ],
        [
          0.6837235689163208,
          0.8802317380905151,
          0.9073309898376465,
          0.9615545272827148,
          0.7564655542373657,
          0.6277056932449341,
          0.913261353969574,
          0.677838921546936,
          0.7454045414924622,
          1.0024449825286865,
          1.0769424438476562,
          0.9134970307350159,
          0.8460890650749207,
          0.9103754758834839,
          1.049704909324646,
          1.0086145401000977,
          0.9883543252944946,
          1.1189883947372437,
          0.9148415327072144,
          0.8522765040397644,
          1.0470287799835205,
          0.723160982131958,
          0.9197555184364319,
          0.6970176100730896,
          0.5445255637168884,
          1.0105605125427246,
          0.8890394568443298,
          0.9152328372001648,
          0.7305376529693604,
          1.0157232284545898,
          0.9999164938926697,
          0.9733739495277405,
          1.0247942209243774,
          1.080803394317627,
          0.5592024922370911,
          0.9160569906234741,
          0.991929292678833,
          0.9043298959732056,
          0.8325918912887573,
          1.238311767578125,
          0.7955800890922546,
          0.9537671208381653,
          0.7480661273002625,
          0.9200646281242371,
          0.8536750078201294,
          1.1338828802108765,
          0.953967809677124,
          0.57188880443573,
          0.8147764801979065,
          0.9804118871688843,
          1.0453966856002808,
          1.1380726099014282,
          0.9365823864936829,
          0.9724039435386658,
          0.7460713386535645,
          0.5940358638763428,
          0.9382354617118835,
          1.0769716501235962,
          1.0705780982971191,
          0.7671806812286377,
          1.1218208074569702,
          0.8311994671821594,
          0.8438023328781128,
          0.9391440153121948
        ],
        [
          0.02847076766192913,
          -0.06281499564647675,
          0.014892134815454483,
          -0.016383739188313484,
          -0.10040599852800369,
          -0.10022231936454773,
          -0.13864657282829285,
          -0.09505903720855713,
          0.011562773957848549,
          -0.01204773411154747,
          0.07603050023317337,
          -0.13078412413597107,
          -0.014021855778992176,
          -0.12958534061908722,
          -0.018360603600740433,
          0.026461562141776085,
          -0.12764140963554382,
          0.08952417224645615,
          -0.05784522369503975,
          0.09411037713289261,
          -0.03585756942629814,
          0.055917270481586456,
          0.0904664695262909,
          -0.0589536651968956,
          -0.04422709718346596,
          0.0478874109685421,
          -0.12859298288822174,
          0.05806448310613632,
          -0.09236335754394531,
          0.09589159488677979,
          -0.1032978743314743,
          -0.06976710259914398,
          0.07018306851387024,
          -0.07170069217681885,
          0.09078887850046158,
          0.06813925504684448,
          0.09039782732725143,
          -0.14595749974250793,
          -0.0183345228433609,
          -0.06077342480421066,
          0.011675311252474785,
          -0.10891489684581757,
          0.026995429769158363,
          -0.028515540063381195,
          -0.07582131028175354,
          -0.13299600780010223,
          0.04220050200819969,
          -0.058480020612478256,
          0.08276133239269257,
          0.005972794722765684,
          0.022352222353219986,
          -0.03972089663147926,
          -0.03636232018470764,
          -0.05904337391257286,
          -0.12782283127307892,
          0.06070747226476669,
          -0.09408702701330185,
          0.054845646023750305,
