{
  "layers": [
    {
      "weight": [
        [
          0.4540812373161316,
          0.4141830801963806,
          -0.16246214509010315,
          0.36625221371650696,
          -0.033948928117752075
        ],
        [
          0.12332260608673096,
          -0.2099444717168808,
          0.3615725338459015,
          0.3490806221961975,
          -0.28234827518463135
        ],
        [
          0.44257301092147827,
          0.08907002210617065,
          0.2866773009300232,
          0.05438566952943802,
          0.21134525537490845
        ],
        [
          -0.042929667979478836,
          0.29190298914909363,
          0.044842448085546494,
          -0.10023582726716995,
          0.0763145238161087
        ],
        [
          -0.2862337827682495,
          0.08516545593738556,
          0.02041017822921276,
          0.3722376227378845,
          -0.3517630994319916
        ],
        [
          -0.4416065812110901,
          0.061533719301223755,
          -0.40714865922927856,
          0.11647442728281021,
          -0.27893421053886414
        ],
        [
          0.4384487271308899,
          -0.3840811848640442,
          0.4772813618183136,
          0.06275443732738495,
          -0.1158050149679184
        ],
        [
          0.3895464241504669,
          0.19642455875873566,
          0.3490166664123535,
          0.02116391435265541,
          -0.17294493317604065
        ],
        [
          0.19770918786525726,
          -0.09986209869384766,
          0.3024594485759735,
          0.39571061730384827,
          0.3081431984901428
        ],
        [
          -0.06201738491654396,
          0.3582662045955658,
          0.06362123787403107,
          0.2476501762866974,
          -0.1285082846879959
        ],
        [
          -0.2625276744365692,
          -0.10194960236549377,
          -0.24779660999774933,
          0.26826369762420654,
          0.26167452335357666
        ],
        [
          0.2464975267648697,
          0.11870274692773819,
          -0.1112586110830307,
          0.28657835721969604,
          -0.2640381157398224
        ],
        [
          0.5581443309783936,
          0.07008898258209229,
          0.02361345663666725,
          0.0003601487260311842,
          0.07737652212381363
        ],
        [
          0.014410980977118015,
          0.5807077288627625,
          -0.0028937077149748802,
          -0.023772764950990677,
          0.008822592906653881
        ],
        [
          0.42461591958999634,
          0.12981174886226654,
          0.4191974699497223,
          -0.2285400927066803,
          -0.4097282886505127
        ],
        [
          -0.4129226803779602,
          0.06285914033651352,
          0.08445434272289276,
          0.14286907017230988,
          0.42587435245513916
        ],
        [
          -0.13804879784584045,
          -0.18875068426132202,
          0.3323019742965698,
          0.022399798035621643,
          0.3211069107055664
        ],
        [
          -0.036340441554784775,
          0.2660961449146271,
          -0.38159415125846863,
          -0.11185941845178604,
          0.17728106677532196
        ],
        [
          0.13024413585662842,
          -0.10020589083433151,
          0.34566381573677063,
          0.2826302647590637,
          -0.32852888107299805
        ],
        [
          -0.18011702597141266,
          0.5595396757125854,
          -0.18421126902103424,
          -0.1991184502840042,
          -0.3282104432582855
        ],
        [
          -0.3568461239337921,
          0.018093671649694443,
          -0.03667847439646721,
          -0.12410340458154678,
          0.10201288759708405
        ],
        [
          -0.4181658625602722,
          0.041538916528224945,
          -0.3509124517440796,
          -0.40278562903404236,
          -0.13613508641719818
        ],
        [
          0.4700305759906769,
          0.039349138736724854,
          0.2548877000808716,
          -0.45404234528541565,
          -0.32434043288230896
        ],
        [
          -0.3683949112892151,
          -0.15064963698387146,
          -0.34480786323547363,
          -0.019773632287979126,
          -0.19082526862621307
        ],
        [
          -0.160902738571167,
          -0.3049434423446655,
          -0.2526699900627136,
          -0.36756157875061035,
          -0.03890243545174599
        ],
        [
          -0.2431456744670868,
          -0.026166781783103943,
          -0.4124932885169983,
          0.3688267469406128,
          0.05224147439002991
        ],
        [
          0.4076758623123169,
          0.0642148032784462,
          -0.16543906927108765,
          0.1465304046869278,
          -0.12760071456432343
        ],
        [
          -0.1888870745897293,
          -0.1404639333486557,
          -0.5423306822776794,
          0.12506337463855743,
          0.017650889232754707
        ],
        [
          0.2339067906141281,
          -0.4429149627685547,
          0.31794270873069763,
          -0.3407194912433624,
          -0.06675006449222565
        ],
        [
          0.15547117590904236,
          0.21932698786258698,
          0.4629361629486084,
          0.32330918312072754,
          -0.30144232511520386
        ],
        [
          0.18926583230495453,
          -0.1877896636724472,
          -0.005592600908130407,
          -0.25855889916419983,
          0.4255927801132202
        ],
        [
          -0.25283071398735046,
          0.24385420978069305,
          0.21034379303455353,
          0.11037056148052216,
          -0.10403021425008774
        ],
        [
          0.47992804646492004,
          0.015690036118030548,
          0.036201465874910355,
          -0.3993672728538513,
          0.20614898204803467
        ],
        [
          0.1744050681591034,
          -0.10061177611351013,
          0.30759674310684204,
          0.068018838763237,
          -0.08747046440839767
        ],
        [
          -0.5209707021713257,
          -0.19318261742591858,
          0.35242149233818054,
          -0.1588287353515625,
          -0.30761826038360596
        ],
        [
          -0.11546530574560165,
          -0.17191225290298462,
          0.2508455216884613,
          0.3477921783924103,
          -0.38866856694221497
        ],
        [
          0.1732066422700882,
          0.20448781549930573,
          -0.05291586369276047,
          0.049604009836912155,
          0.2358640730381012
        ],
        [
          0.36365601420402527,
          0.18113364279270172,
          -0.19624726474285126,
          -0.04866497591137886,
          0.07916408777236938
        ],
        [
          0.045700736343860626,
          -0.029141535982489586,
          0.35771605372428894,
          0.38999417424201965,
          0.05420871451497078
        ],
        [
          -0.02599431574344635,
          -0.0014104702277109027,
          -0.024355756118893623,
          0.08768279105424881,
          0.1420586258172989
        ],
        [
          -0.5507069230079651,
          -0.11674023419618607,
          0.30187734961509705,
          0.1321948617696762,
          0.0823274627327919
        ],
        [
          -0.15401336550712585,
          -0.12812098860740662,
          -0.4950813949108124,
          -0.010451113805174828,
          0.29729336500167847
        ],
        [
          0.33137422800064087,
          0.1844274252653122,
          -0.5164889693260193,
          -0.2178291231393814,
          -0.04980291798710823
        ],
        [
          0.4774421751499176,
          0.034915585070848465,
          -0.29256919026374817,
          0.05063672363758087,
          -0.11896850168704987
        ],
        [
          -0.07477034628391266,
          0.3504698574542999,
          -0.36038389801979065,
          -0.06726211309432983,
          -0.28466153144836426
        ],
        [
          0.3531174957752228,
          0.26177069544792175,
          -0.007223955355584621,
          -0.25331464409828186,
          -0.40697622299194336
        ],
        [
          -0.2695930302143097,
          0.35251590609550476,
          0.2952946424484253,
          0.3575179874897003,
          0.31942036747932434
        ],
        [
          0.17849595844745636,
          -0.011109492741525173,
          -0.4619029760360718,
          -0.25081369280815125,
          -0.46385011076927185
        ],
        [
          0.25031155347824097,
          -0.39726772904396057,
          -0.3794902265071869,
          -0.14711610972881317,
          -0.12358036637306213
        ],
        [
          -0.12833215296268463,
          -0.08429243415594101,
          0.17319633066654205,
          0.02425970882177353,
          0.40339747071266174
        ],
        [
          0.024409126490354538,
          -0.08137620240449905,
          -0.09134737402200699,
          -0.023377414792776108,
          -0.06571373343467712
        ],
        [
          -0.4989166259765625,
          0.1572670340538025,
          -0.3041988015174866,
          0.1987505704164505,
          0.15632501244544983
        ],
        [
          0.34090572595596313,
          -0.33619943261146545,
          0.4823712408542633,
          -0.1282755583524704,
          0.1980985552072525
        ],
        [
          0.3501509428024292,
          -0.19602307677268982,
          -0.10197848826646805,
          -0.02276613377034664,
          -0.348356157541275
        ],
        [
          0.30110451579093933,
          -0.4876473844051361,
          0.2691251039505005,
          0.2651142179965973,
          0.5047817230224609
        ],
        [
          -0.3438780903816223,
          -0.20506875216960907,
          0.156627357006073,
          0.20113161206245422,
          -0.4386032521724701
        ],
        [
          0.17926888167858124,
          -0.07560526579618454,
          -0.09924586862325668,
          0.025974629446864128,
          0.0006273332401178777
        ],
        [
          0.008012844249606133,
          -0.15319690108299255,
          0.2891140282154083,
          0.36100611090660095,
          0.07619860768318176
        ],
        [
          0.042070239782333374,
          -0.09443308413028717,
          -0.3398621380329132,
          -0.21046142280101776,
          0.2095787078142166
        ],
        [
          -0.5147741436958313,
          -0.3154134154319763,
          0.1769130527973175,
          -0.1564134955406189,
          -0.10217474400997162
        ],
        [
          0.19715426862239838,
          -0.057735733687877655,
          -0.08102195709943771,
          -0.046778686344623566,
          -0.26986220479011536
        ],
        [
          0.4531157612800598,
          -0.2152433842420578,
          0.14101320505142212,
          -0.23190005123615265,
          0.09319082647562027
        ],
        [
          0.5687740445137024,
          0.2659817039966583,
          -0.3930601179599762,
          0.21624140441417694,
          0.44269102811813354
        ],
        [
          0.19970697164535522,
          0.314213365316391,
          0.4675975739955902,
          -0.0034477468580007553,
          0.1342279464006424
        ]
      ],
      "bias": [
        -0.26029813289642334,
        0.013016766868531704,
        0.5212070345878601,
        0.41982024908065796,
        -0.3684402108192444,
        -0.035937756299972534,
        -0.11877436190843582,
        -0.3137841820716858,
        -0.2409890592098236,
        0.009879255667328835,
        0.6859365701675415,
        0.24917995929718018,
        -0.7510654330253601,
        -0.6992478370666504,
        0.45424291491508484,
        -0.2497522234916687,
        0.27827367186546326,
        0.418721079826355,
        -0.09966004639863968,
        0.068088598549366,
        0.2744980752468109,
        0.27410104870796204,
        -0.06090667471289635,
        -0.5384476780891418,
        -0.32748156785964966,
        -0.18522880971431732,
        0.6686064600944519,
        -0.16345538198947906,
        -0.15292568504810333,
        0.28833988308906555,
        0.3093893826007843,
        0.525144636631012,
        0.4927988350391388,
        0.6731180548667908,
        -0.21897315979003906,
        0.10225526243448257,
        0.4677693247795105,
        0.088264599442482,
        -0.17302405834197998,
        0.6372435092926025,
        -0.06970785558223724,
        -0.08117114752531052,
        -0.26990553736686707,
        0.15064261853694916,
        0.49073877930641174,
        0.34869059920310974,
        0.25303715467453003,
        -0.12418482452630997,
        -0.03052370250225067,
        0.30113744735717773,
        0.7717218995094299,
        0.2910601794719696,
        -0.07180653512477875,
        0.30579134821891785,
        -0.13624556362628937,
        -0.3440549373626709,
        0.5297018885612488,
        0.6133800148963928,
        0.6192870736122131,
        -0.19357581436634064,
        0.7201054096221924,
        -0.129924014210701,
        0.3065219819545746,
        0.5202755331993103
      ]
    },
    {
      "weight": [
        [
          0.011908263899385929,
          0.13335096836090088,
          -0.020659856498241425,
          0.03932959958910942,
          -0.005574374925345182,
          -0.07204364985227585,
          0.00022079533664509654,
          -0.06920261681079865,
          0.08356156200170517,
          0.03350558876991272,
          0.10868638753890991,
          -0.02764158509671688,
          -0.5249378681182861,
          0.047582872211933136,
          0.12775513529777527,
          -0.06934564560651779,
          0.03466835618019104,
          0.1660427302122116,
          0.016798323020339012,
          -0.020800631493330002,
          -0.08628973364830017,
          -0.14235354959964752,
          -0.0916888564825058,
          -0.16548193991184235,
          -0.11062587797641754,
          0.02526707760989666,
          0.056593213230371475,
          -0.024575090035796165,
          0.13981367647647858,
          0.0922025516629219,
          0.1714126467704773,
          -0.012900732457637787,
          0.03736904263496399,
          0.1939849704504013,
          -0.21702931821346283,
          -0.09700678288936615,
          0.07795461267232895,
          0.01915479265153408,
          -0.10242120921611786,
          0.18863703310489655,
          0.04411548003554344,
          0.04865490645170212,
          -0.002208005404099822,
          -0.0439324751496315,
          -2.2717293177265674e-05,
          0.11626143008470535,
          0.09686651080846786,
          0.006568270269781351,
          -0.06313735991716385,
          0.15185844898223877,
          0.09054189175367355,
          0.13045638799667358,
          -0.015441394411027431,
          0.0968465805053711,
          0.0007170974859036505,
          -0.03683846443891525,
          0.1304033249616623,
          0.1790744662284851,
          0.10629484802484512,
          0.03239057585597038,
          0.3457944393157959,
          -0.056175049394369125,
          -0.017747970297932625,
          0.18771196901798248
        ],
        [
          0.06175648048520088,
          -0.08565632998943329,
          0.08076425641775131,
          -0.02315240539610386,
          -0.2003200650215149,
          -0.00611436553299427,
          0.027217229828238487,
          -0.023279568180441856,
          -0.08517405390739441,
          0.059907734394073486,
          0.11872150748968124,
          -0.04579775780439377,
          -0.4662122428417206,
          0.02416311576962471,
          0.1500721275806427,
          -0.11328063905239105,
          0.11120224744081497,
          0.023240577429533005,
          -0.1161046028137207,
          -0.12725034356117249,
          0.026175109669566154,
          0.07659953832626343,
          0.11972074210643768,
          -0.06949576735496521,
          0.05237424001097679,
          -0.06849104166030884,
          0.041502695530653,
          0.052711714059114456,
          -0.05222126096487045,
          -0.04490640014410019,
          0.0459294393658638,
          0.07932247221469879,
          0.16110140085220337,
          0.18693475425243378,
          -0.23065689206123352,
          -0.009578579105436802,
          0.011846259236335754,
          -0.03344922140240669,
          0.03426096588373184,
          0.13403823971748352,
          0.0206934604793787,
          0.13007371127605438,
          0.03152720257639885,
          0.0993037223815918,
          0.09162471443414688,
          0.10058022290468216,
          0.01376762893050909,
          0.028194835409522057,
          0.044575758278369904,
          0.21000048518180847,
          0.23739762604236603,
          0.013835340738296509,
          -0.021565912291407585,
          0.041890405118465424,
          0.0038908198475837708,
          0.02426931820809841,
          0.30489349365234375,
          0.17719122767448425,
          0.04468434676527977,
          -0.13451850414276123,
          0.27052900195121765,
          -0.056455519050359726,
          0.07759267836809158,
          -0.013339648954570293
        ],
        [
          0.05500110611319542,
          -0.07405839115381241,
          -0.0050748917274177074,
          -0.030354516580700874,
          0.034571606665849686,
          -0.17156009376049042,
          0.12741471827030182,
          -0.014284069649875164,
          -0.009107467718422413,
          0.0557413250207901,
          0.04768391326069832,
          0.12154969573020935,
          -0.2979757785797119,
          -0.07008638232946396,
          0.1299503892660141,
          0.015491880476474762,
          0.09753255546092987,
          0.08995427191257477,
          0.04500110074877739,
          -0.07969529926776886,
          -0.06225411221385002,
          0.08936568349599838,
          0.11207152158021927,
          -0.0930737778544426,
          -0.16529004275798798,
          -0.0019142383243888617,
          -0.007994105108082294,
          0.13009658455848694,
          -0.052730169147253036,
          0.03881129249930382,
          0.0447872132062912,
          0.06759181618690491,
          0.19337257742881775,
          0.14484962821006775,
          -0.054791852831840515,
          0.08265132457017899,
          0.17419973015785217,
          0.015912029892206192,
          -0.03371944651007652,
          0.1571558117866516,
          -0.08357013016939163,
          0.09133097529411316,
          -0.00549874734133482,
          -0.021698269993066788,
          0.08985238522291183,
          0.09237712621688843,
          0.09242518246173859,
          0.14861708879470825,
          0.0715126022696495,
          0.19758692383766174,
          0.16461262106895447,
          -0.06456179171800613,
          -0.05178999900817871,
          0.009868256747722626,
          -0.07969019562005997,
          -0.1118898019194603,
          0.025720302015542984,
          -0.03197437524795532,
          0.018207352608442307,
          -0.19218026101589203,
          0.11090584844350815,
          0.05992873013019562,
          0.16792652010917664,
          0.03838823363184929
        ],
        [
          -0.04536937177181244,
          0.05235166475176811,
          -0.07536298781633377,
          -0.07311352342367172,
          0.07454568147659302,
          -0.11490405350923538,
          0.0017428362043574452,
          0.09687332063913345,
          0.012400166131556034,
          0.02040702849626541,
          -0.08443092554807663,
          -0.015718141570687294,
          -3.410918725421652e-05,
          0.030679285526275635,
          0.034549254924058914,
          0.09814250469207764,
          -0.10841970145702362,
          -0.005624554585665464,
          -0.07681355625391006,
          -0.11054794490337372,
          -0.019551487639546394,
          -0.12224805355072021,
          0.07439274340867996,
          0.014476850628852844,
          -0.07337485253810883,
          0.07090190052986145,
          -0.1311124563217163,
          -0.05383656173944473,
          -0.037639252841472626,
          -0.12051993608474731,
          -0.09056384116411209,
          -0.03495020791888237,
          0.081549733877182,
          0.10644009709358215,
          0.06650233268737793,
          -0.08928967267274857,
          -0.09529756009578705,
          0.09935438632965088,
          0.0308454018086195,
          -0.0107239605858922,
          0.002717021619901061,
          -0.1039191260933876,
          -0.041735678911209106,
          0.1082826554775238,
          -0.045713189989328384,
          -0.020370004698634148,
          -0.11680779606103897,
          -0.06992588937282562,
          -0.008557764813303947,
          -0.09059770405292511,
          -0.029537035152316093,
          0.04412981495261192,
          -0.13489310443401337,
          0.02370072901248932,
          -0.09459467977285385,
          -0.07509005069732666,
          0.03377779200673103,
          0.08515680581331253,
          -0.045341987162828445,
          -0.05296287313103676,
          -0.12729093432426453,
          -0.07441572099924088,
          -0.11988663673400879,
          -0.04263559728860855
        ],
        [
          -0.2332075983285904,
          -0.15522971749305725,
          0.007258455269038677,
          0.15627887845039368,
          -0.002325360896065831,
          -0.030841588973999023,
          -0.07597117871046066,
          -0.30289754271507263,
          -0.2181275486946106,
          -0.017784209921956062,
          0.38485145568847656,
          -0.01603051647543907,
          -0.2402590662240982,
          -0.45041990280151367,
          0.12812094390392303,
          0.2457425892353058,
          0.10729342699050903,
          0.02390514500439167,
          -0.015609594993293285,
          0.11945496499538422,
          0.1712595522403717,
          0.1028863787651062,
          -0.21600976586341858,
          0.3252237141132355,
          0.010152503848075867,
          0.10336951911449432,
          0.019867800176143646,
          0.05048041790723801,
          0.016126027330756187,
          -0.06731365621089935,
          -0.09675939381122589,
          0.35341596603393555,
          0.07031888514757156,
          0.16292704641819,
          0.05923967808485031,
          0.11847072839736938,
          -0.059318531304597855,
          -0.30932796001434326,
          -0.04233066737651825,
          0.06811925023794174,
          0.29579928517341614,
          0.08445172756910324,
          -0.1518774926662445,
          -0.10606806725263596,
          0.11390678584575653,
          0.09827304631471634,
          0.023786017671227455,
          0.08591814339160919,
          -0.3998589813709259,
          0.21468977630138397,
          0.21066150069236755,
          0.3272556662559509,
          -0.08290524035692215,
          -0.021683821454644203,
          -0.10825236886739731,
          0.11534616351127625,
          0.15545520186424255,
          0.24207118153572083,
          0.04097265005111694,
          0.09338346868753433,
          0.15180158615112305,
          -0.33053529262542725,
          -0.2669551372528076,
          -0.11350466310977936
        ],
        [
          0.012179909273982048,
          -0.11855554580688477,
          0.14263297617435455,
          0.12258584052324295,
          -0.2289121299982071,
          -0.10847735404968262,
          0.007794863544404507,
          0.0001243509177584201,
          0.04160488024353981,
          -0.17857760190963745,
          0.15357552468776703,
          0.12931430339813232,
          -0.4050861895084381,
          -0.10162244737148285,
          0.05571988224983215,
          -0.10841891914606094,
          0.06936638057231903,
          0.14732185006141663,
          0.022132543846964836,
          0.03583942726254463,
          -0.13207507133483887,
          -0.050107117742300034,
          0.04579227790236473,
          -0.24430161714553833,
          -0.22437427937984467,
          -0.08923491090536118,
          0.17441831529140472,
          -0.09566647559404373,
          -0.11004418879747391,
          0.10897915065288544,
          0.14872132241725922,
          0.11816587299108505,
          -0.005384159740060568,
          0.0809076800942421,
          -0.09486787021160126,
          0.04021182656288147,
          0.16316843032836914,
          0.08022288978099823,
          0.002077138749882579,
          0.23324736952781677,
          -0.1632746458053589,
          -0.021539175882935524,
          0.08695559948682785,
          -0.00903012603521347,
          -0.0833059623837471,
          0.17218489944934845,
          0.05088871344923973,
          0.023223156109452248,
          -0.08177272975444794,
          0.10336440801620483,
          0.3309926986694336,
          -0.06504306942224503,
          0.0228965375572443,
          0.14842677116394043,
          -0.07507239282131195,
          0.03510560467839241,
          0.10230188816785812,
          0.062666155397892,
          0.071865975856781,
          -0.18865925073623657,
          0.12391003966331482,
          0.05325034260749817,
          0.103821761906147,
          -0.0277960654348135
        ],
        [
          -0.07006891071796417,
          0.14065055549144745,
          0.12731501460075378,
          0.12912598252296448,
          -0.14889131486415863,
          -0.13271617889404297,
          0.011140997521579266,
          -0.045069724321365356,
          -0.08549731969833374,
          -0.01126523595303297,
          0.07414782047271729,
          0.026388803496956825,
          -0.40343642234802246,
          -0.004365335218608379,
          0.12101540714502335,
          0.02779921144247055,
          0.019556129351258278,
          -0.047300275415182114,
          0.07436753064393997,
          0.007486811373382807,
          -0.11188347637653351,
          0.08140835165977478,
          -0.03569060564041138,
          -0.0089707151055336,
          0.008151264861226082,
          -0.10191518813371658,
          0.16239416599273682,
          -0.0728820338845253,
          -0.05494065210223198,
          0.03003574162721634,
          -0.007445300463587046,
          0.16926829516887665,
          0.05535828322172165,
          0.20246675610542297,
          -0.2316538244485855,
          0.05172474682331085,
          0.04059681296348572,
          -0.033181410282850266,
          0.011623898521065712,
          0.1652226597070694,
          0.06270762532949448,
          -0.03663869947195053,
          -0.043585602194070816,
          0.09240283071994781,
          0.06578433513641357,
          0.12554924190044403,
          0.10383330285549164,
          -0.015203304588794708,
          0.04970618337392807,
          0.18598443269729614,
          0.15909019112586975,
          0.1283922791481018,
          0.09424380213022232,
          0.1985657811164856,
          -0.042785290628671646,
          -0.10493100434541702,
          0.13527339696884155,
          0.10056844353675842,
          0.17456898093223572,
          -0.17947785556316376,
          0.28709372878074646,
          -0.038994427770376205,
          0.14316174387931824,
          0.07532978802919388
        ],
        [
          -0.13492998480796814,
          -0.08793018013238907,
          -0.11747408658266068,
          0.03566312417387962,
          -0.1053856685757637,
          -0.029544157907366753,
          0.003340071300044656,
          -0.08810009807348251,
          0.00835113599896431,
          -0.14073219895362854,
          -0.11779280751943588,
          -0.13403049111366272,
          -0.06211591139435768,
          -0.06449024379253387,
          -0.0025197069626301527,
          -0.05504383146762848,
          0.030784275382757187,
          0.08538930118083954,
          0.02601407654583454,
          -0.07056921720504761,
          -0.1403740495443344,
          0.02412198670208454,
          -0.08134059607982635,
          0.0403573103249073,
          0.06752559542655945,
          0.019030654802918434,
          0.09066273272037506,
          0.09071838110685349,
          0.004237454850226641,
          -0.11034391075372696,
          0.08206119388341904,
          -0.08057516068220139,
          -0.08667370676994324,
          0.08336354792118073,
          0.08154597878456116,
          0.018906062468886375,
          -0.020135987550020218,
          -0.13323135673999786,
          -0.0332709439098835,
          0.09188248217105865,
          0.010293117724359035,
          -0.020957449451088905,
          -0.05119195207953453,
          -0.06781933456659317,
          0.05094403773546219,
          -0.009798363782465458,
          0.05313011631369591,
          -0.044916048645973206,
          0.03212442621588707,
          0.023200184106826782,
          -0.004153965041041374,
          0.050435323268175125,
          0.05089668557047844,
          0.09649796038866043,
          0.06674975156784058,
          -0.0494244247674942,
          -0.12715506553649902,
          0.00025343571905978024,
          -0.030091729015111923,
          -0.048314232379198074,
          -0.043813858181238174,
          -0.021686965599656105,
          0.06288527697324753,
          0.012854621745646
        ],
        [
          -0.3053259551525116,
          -0.05931268259882927,
          -0.2701873183250427,
          0.1540677398443222,
          0.18597330152988434,
          0.16062362492084503,
          -0.06076021492481232,
          -0.40738818049430847,
          -0.20343580842018127,
          0.0533873587846756,
          0.24675661325454712,
          0.1407218873500824,
          0.10656338930130005,
          -0.4606843590736389,
          0.12601196765899658,
          0.24523158371448517,
          0.3120708763599396,
          0.32122257351875305,
          0.12949949502944946,
          0.030754094943404198,
          0.2636250853538513,
          0.18646235764026642,
          -0.11607853323221207,
          0.2673398554325104,
          -0.1080227717757225,
          0.13091003894805908,
          -0.10189878195524216,
          0.1146312952041626,
          0.13883349299430847,
          0.03803713247179985,
          -0.08120245486497879,
          0.4373094439506531,
          -0.18704794347286224,
          0.199483260512352,
          0.32300451397895813,
          0.018900863826274872,
          -0.20797215402126312,
          -0.5299009680747986,
          -0.0317746177315712,
          0.19145265221595764,
          0.16629448533058167,
          0.18932053446769714,
          -0.13323554396629333,
          -0.2417072355747223,
          0.17388489842414856,
          -0.0116492360830307,
          0.08412662893533707,
          0.06825200468301773,
          -0.23013752698898315,
          0.34406113624572754,
          0.2985447347164154,
          0.20752209424972534,
          -0.19153089821338654,
          -0.14763197302818298,
          -0.2885912358760834,
          0.02929721213877201,
          0.3345993459224701,
          0.2770644426345825,
          0.38821426033973694,
          -0.12132544070482254,
          0.1272905021905899,
          -0.3486643433570862,
          -0.30189603567123413,
          0.02096625044941902
        ],
        [
          -0.1083931028842926,
          0.024923596531152725,
          -0.006663292180746794,
          0.06885737180709839,
          -0.12285207211971283,
          0.07977080345153809,
          0.04994470998644829,
          -0.05149772763252258,
          -0.007610605098307133,
          -0.07653272151947021,
          0.13791047036647797,
          0.0873139277100563,
          -0.4106372892856598,
          -0.03758563473820686,
          0.20429331064224243,
          -0.030533960089087486,
          0.016096528619527817,
          0.16263343393802643,
          0.1072344034910202,
          0.08432196080684662,
          -0.03494264557957649,
          -0.06466420739889145,
          0.08216767013072968,
          -0.012057372368872166,
          -0.16176538169384003,
          -0.05239330977201462,
          0.01923387125134468,
          0.029676800593733788,
          0.07255882769823074,
          0.022130915895104408,
          0.07255848497152328,
          0.11300712823867798,
          0.07088428735733032,
          0.08127447962760925,
          -0.04736142233014107,
          -0.07555391639471054,
          0.06921695172786713,
          0.06616923958063126,
          -0.021586308255791664,
          0.020330458879470825,
          -0.016072165220975876,
          -0.043954864144325256,
          -0.05923798307776451,
          0.09376243501901627,
          -0.004834894556552172,
          0.03394666686654091,
          -0.008018221706151962,
          -0.02066400647163391,
          -0.06370490044355392,
          0.05361716076731682,
          0.24749042093753815,
          -0.0369395837187767,
          -0.05627269297838211,
          0.09977935999631882,
          0.023557908833026886,
          0.009817390702664852,
          0.09223317354917526,
          0.1488175392150879,
          0.1927516758441925,
          0.0032387925311923027,
          0.12779518961906433,
          -0.0701432079076767,
          -0.03810049220919609,
          0.018824277445673943
        ],
        [
          0.07309234887361526,
          0.00678515387699008,
          0.13213661313056946,
          0.008829805999994278,
          -0.06528234481811523,
          -0.10646478831768036,
          0.0835864320397377,
          -0.07272647321224213,
          -0.04341960325837135,
          -0.1464657038450241,
          0.07558556646108627,
          0.15575718879699707,
          -0.3663792610168457,
          -0.052044112235307693,
          0.09499340504407883,
          -0.020163925364613533,
          -0.028169097378849983,
          0.17316438257694244,
          0.01006364170461893,
          -0.009179928340017796,
          -0.12621437013149261,
          -0.07869753986597061,
          0.04467446729540825,
          -0.06824471056461334,
          0.005807394161820412,
          -0.0934072956442833,
          0.20836831629276276,
          -0.009963814169168472,
          -0.0352432057261467,
          -0.014497942291200161,
          0.19989626109600067,
          0.053484633564949036,
          0.06577792763710022,
          0.12980562448501587,
          -0.17438168823719025,
          -0.11370400339365005,
          -0.023103488609194756,
          0.13011789321899414,
          0.09269558638334274,
          0.2354002594947815,
          -0.16067004203796387,
          0.08741988241672516,
          -0.06576912105083466,
          0.13372044265270233,
          0.14765049517154694,
          0.18111009895801544,
          0.12304975092411041,
          0.11489664018154144,
          0.00411362387239933,
          0.15131203830242157,
          0.1730210930109024,
          0.10658986121416092,
          -0.012135746888816357,
          0.09369209408760071,
          -0.09194003790616989,
          -0.08938950300216675,
          0.1327477991580963,
          0.06165137141942978,
          0.03097015991806984,
          -0.16953891515731812,
          0.2514260411262512,
          0.0805521309375763,
          0.1786823570728302,
          0.15696167945861816
        ],
        [
          -0.05109656602144241,
          -0.10012613981962204,
          0.12101122736930847,
          0.14620548486709595,
          -0.18553532660007477,
          0.0074651166796684265,
          0.13105295598506927,
          -0.0023526472505182028,
          -0.07481613010168076,
          0.07305023074150085,
          0.11718682944774628,
          0.12254897505044937,
          -0.4868185520172119,
          0.1008366048336029,
          -0.003492610761895776,
          0.11985824257135391,
          0.00661883968859911,
          0.1482888162136078,
          0.0338863730430603,
          0.00660046748816967,
          -0.078034408390522,
          0.02617146261036396,
          -0.023056816309690475,
          -0.2199126034975052,
          -0.09787630289793015,
          0.07568277418613434,
          0.047846756875514984,
          0.052645258605480194,
          -0.017612610012292862,
          0.1369771957397461,
          0.14782947301864624,
          0.09129033982753754,
          0.013644612394273281,
          0.03928828611969948,
          -0.1447485387325287,
          -0.08367720246315002,
          0.17503216862678528,
          -0.06206206604838371,
          0.04731866717338562,
          0.22646208107471466,
          0.0025044367648661137,
          0.06398928165435791,
          -0.09962041676044464,
          0.18027149140834808,
          0.028511034324765205,
          -0.04066585376858711,
          0.15928052365779877,
          -0.02223672904074192,
          -0.015762533992528915,
          0.1884186565876007,
          0.08696814626455307,
          -0.03886667266488075,
          0.05168691277503967,
          0.07274097204208374,
          0.053088631480932236,
          -0.16266469657421112,
          0.16117176413536072,
          0.026749826967716217,
          0.03821706771850586,
          -0.1874753087759018,
          0.2722509205341339,
          0.03247980400919914,
          -0.042073074728250504,
          0.17546065151691437
        ],
        [
          -0.0028952276334166527,
          -0.018485670909285545,
          -0.07779613882303238,
          0.038183506578207016,
          0.19139346480369568,
          0.022806162014603615,
          -0.08007709681987762,
          0.15801775455474854,
          -0.03154146671295166,
          0.07648366689682007,
          0.12593534588813782,
          0.08504462987184525,
          -0.0873650312423706,
          -0.06840807944536209,
          -0.027307352051138878,
          0.05352812260389328,
          0.12740293145179749,
          0.027999449521303177,
          0.0007893038564361632,
          -0.040871333330869675,
          0.09016495198011398,
          -0.02612479031085968,
          0.052205946296453476,
          0.2245103418827057,
          0.0623951181769371,
          0.1411501169204712,
          0.06250590085983276,
          0.10968708992004395,
          0.05185188725590706,
          0.022608323022723198,
          -0.04018056020140648,
          -0.0819333866238594,
          0.024263564497232437,
          -0.11444083601236343,
          0.3163423538208008,
          -0.06072777509689331,
          0.06037284433841705,
          0.07114417105913162,
          -0.06299170851707458,
          0.08190683275461197,
          0.24100448191165924,
          0.11930582672357559,
          -0.10677804797887802,
          -0.12453721463680267,
          -0.1053059995174408,
          -0.08587246388196945,
          0.02492349036037922,
          -0.10216587036848068,
          -0.10347489267587662,
          0.21584534645080566,
          -0.09261821210384369,
          0.14596305787563324,
          -0.0322616845369339,
          -0.30018121004104614,
          0.037153903394937515,
          0.07909159362316132,
          0.007858701050281525,
          0.05759495496749878,
          0.15634702146053314,
          -0.009373867884278297,
          -0.0386100709438324,
          0.009062443859875202,
          -0.073440320789814,
          0.1247473880648613
        ],
        [
          0.06708116084337234,
          -0.026843225583434105,
          0.03584367409348488,
          -0.0666855126619339,
          -0.13277290761470795,
          0.08450929820537567,
          0.012104693800210953,
          -0.10590250045061111,
          0.03434280678629875,
          -0.13507936894893646,
          0.08478306233882904,
          0.09373819828033447,
          0.02015826106071472,
          -0.09666109830141068,
          0.03661646321415901,
          -0.010015206411480904,
          0.008765915408730507,
          0.018597859889268875,
          0.06746309250593185,
          -0.07664139568805695,
          -0.035353802144527435,
          0.028392620384693146,
          -0.008606355637311935,
          0.10376538336277008,
          -0.14406292140483856,
          -0.024469342082738876,
          -0.0016756887780502439,
          -0.039668671786785126,
          0.062061574310064316,
          -0.01328438799828291,
          -0.13636091351509094,
          -0.039861034601926804,
          -0.07948912680149078,
          -0.014304875396192074,
          -0.1103028953075409,
          -0.15062083303928375,
          -0.04646831378340721,
          -0.03608953207731247,
          -0.06480847299098969,
          0.09014229476451874,
          -0.05470222607254982,
          0.08819987624883652,
          0.009108693338930607,
          -0.1303933560848236,
          0.00807059183716774,
          0.07900086790323257,
          -0.10968013852834702,
          -0.0940333679318428,
          0.2009430229663849,
          0.07485853880643845,
          -0.08988717198371887,
          0.05190768837928772,
          -0.037528567016124725,
          -0.14688362181186676,
          -0.01565578393638134,
          0.01132118422538042,
          -0.052962254732847214,
          0.0170254148542881,
          -0.12480249255895615,
          0.016819532960653305,
          0.08563805371522903,
          0.04767247289419174,
          -0.003730135504156351,
          0.016827231273055077
        ],
        [
          -0.11540926992893219,
          -0.05478815361857414,
          -0.0387585386633873,
          -0.09498632699251175,
          -0.11923375725746155,
          0.059216052293777466,
          0.05874554067850113,
          -0.13494588434696198,
          0.015857545658946037,
          0.026566453278064728,
          0.0883207842707634,
          0.04582974314689636,
          0.09161114692687988,
          -0.060578927397727966,
          0.06144515424966812,
          0.07643668353557587,
          -0.14426450431346893,
          -0.13007062673568726,
          0.002448758576065302,
          0.0438215471804142,
          -0.08705504238605499,
          -0.011658383533358574,
          -0.02813153900206089,
          0.005106736905872822,
          -0.0878627672791481,
          0.03999970480799675,
          0.05446799099445343,
          -0.1181609258055687,
          -0.02326975390315056,
          -0.023799484595656395,
          0.010943981818854809,
          0.09080598503351212,
          0.008473047986626625,
          -0.05355459079146385,
          0.09517396986484528,
          -0.07223350554704666,
          -0.06373140215873718,
          -0.01913076639175415,
          -0.1179811879992485,
          -0.015267392620444298,
          -0.10633085668087006,
          -0.018790874630212784,
          -0.014064686372876167,
          -0.009657095186412334,
          -0.1326758712530136,
          -0.1433936506509781,
          0.03230645880103111,
          0.07780266553163528,
          -0.13757982850074768,
          0.019494839012622833,
          -0.12111255526542664,
          -0.020224859938025475,
          0.0895155817270279,
          0.06404472142457962,
          -0.11754368990659714,
          0.054269254207611084,
          0.03880520164966583,
          -0.02554311417043209,
          0.09007640928030014,
          -0.06980817764997482,
          -0.05860068276524544,
          -0.09098372608423233,
          -0.009999716654419899,
          0.007287484128028154
        ],
        [
          -0.0018561697797849774,
          -0.08100973814725876,
          -0.0675864964723587,
          0.02959551103413105,
          -0.12332060933113098,
          -0.03163853660225868,
          -0.0027689486742019653,
          -0.050645485520362854,
          0.038935668766498566,
          -0.00494888611137867,
          0.0721229687333107,
          -0.024331556633114815,
          -0.0788923054933548,
          0.07530739903450012,
          0.008592527359724045,
          -0.04426101595163345,
          -0.09357424080371857,
          0.0146590955555439,
          -0.12476864457130432,
          0.01900998130440712,
          0.04766933247447014,
          -0.12224803119897842,
          -0.08739050477743149,
          -0.10515034198760986,
          0.10506331920623779,
          0.08906663209199905,
          -0.006668545305728912,
          0.100710429251194,
          -0.041787996888160706,
          -0.13381817936897278,
          0.030539188534021378,
          0.030412934720516205,
          0.10984432697296143,
          -0.008371909148991108,
          0.095799520611763,
          0.06402157992124557,
          0.0774892047047615,
          -0.13676832616329193,
          0.09552199393510818,
          -0.12085525691509247,
          0.10316433012485504,
          -0.02083534747362137,
          -0.12347781658172607,
          0.021915201097726822,
          -0.04057876393198967,
          -0.1238797977566719,
          -0.05783413350582123,
          0.0009838097030296922,
          0.09735582768917084,
          -0.05127228796482086,
          0.05920859053730965,
          0.0007241421262733638,
          -0.004109272267669439,
          0.016006430611014366,
          -0.09061817079782486,
          -0.11421597748994827,
          -0.05208953097462654,
          -0.12825077772140503,
          -0.07279404997825623,
          -0.0002480332041159272,
          -0.09733948111534119,
          -0.05740790069103241,
          -0.03644835576415062,
          -0.025554601103067398
        ],
        [
          -0.08125924319028854,
          -0.011523522436618805,
          -0.03442387282848358,
          0.018254196271300316,
          -0.0082545829936862,
          -0.07700128853321075,
          -0.05843589827418327,
          -0.016688711941242218,
          -0.07799816131591797,
          -0.007008057087659836,
          -0.022806158289313316,
          0.03195686265826225,
          0.018542420119047165,
          0.07942259311676025,
          -0.022804241627454758,
          -0.10095643252134323,
          0.04006684944033623,
          -0.09883375465869904,
          -0.03470631316304207,
          -0.05786675959825516,
          -0.06455594301223755,
          -0.06282895803451538,
          0.09670837223529816,
          0.0577661395072937,
          0.01768960803747177,
          0.10516782850027084,
          -0.12825129926204681,
          0.006852257996797562,
          0.06372430175542831,
          0.06543761491775513,
          -0.11336532235145569,
          0.026677371934056282,
          -0.0882408395409584,
          -0.02336950972676277,
          -0.04465667903423309,
          -0.12230745702981949,
          -0.1358831226825714,
          -0.09424479305744171,
          0.042939022183418274,
          0.04024305194616318,
          -0.1262056529521942,
          -0.060412175953388214,
          -0.009920650161802769,
          -0.12184347957372665,
          0.05306857451796532,
          0.09454911947250366,
          0.006606091745197773,
          -0.1088051050901413,
          0.01734546758234501,
          0.02969548851251602,
          0.08195856213569641,
          -0.08035428076982498,
          -0.12532806396484375,
          0.03631759434938431,
          0.00015593421994708478,
          -0.05885215476155281,
          -0.06933452188968658,
          -0.08206294476985931,
          0.0856778547167778,
          -0.03825242072343826,
          0.07261823117733002,
          0.10084013640880585,
          0.005232944618910551,
          0.008680387400090694
        ],
        [
          0.001614600419998169,
          0.10021450370550156,
          -0.029077092185616493,
          0.13096188008785248,
          -0.09593904763460159,
          -0.03006146289408207,
          0.03346003219485283,
          -0.06976886093616486,
          -0.013427404686808586,
          0.04642322286963463,
          -0.025387652218341827,
          -0.03324716165661812,
          -0.44381681084632874,
          -0.002415030961856246,
          0.14529477059841156,
          0.05783621966838837,
          0.07916511595249176,
          0.1963842362165451,
          -0.04553280770778656,
          -0.09239181131124496,
          -0.10181950777769089,
          -0.131745383143425,
          -0.06481190770864487,
          -0.20197831094264984,
          -0.18232132494449615,
          0.03787056356668472,
          0.16071340441703796,
          0.1611875295639038,
          0.12079475075006485,
          0.04797897860407829,
          0.10365903377532959,
          -0.027097217738628387,
          0.13183929026126862,
          0.042543575167655945,
          -0.07395774871110916,
          -0.002804902847856283,
          0.12116021662950516,
          0.10923392325639725,
          -0.0661093145608902,
          0.21501751244068146,
          0.012458453886210918,
          0.12657874822616577,
          0.035746585577726364,
          0.1516878753900528,
          0.11232143640518188,
          0.1401223987340927,
          0.130027174949646,
          -0.010338318534195423,
          0.06590421497821808,
          0.1271832436323166,
          0.27182310819625854,
          0.15904772281646729,
          0.06428037583827972,
          0.0465787872672081,
          0.017957840114831924,
          -0.014868379570543766,
          0.19112780690193176,
          0.06738721579313278,
          0.19909417629241943,
          -0.027681004256010056,
          0.14981430768966675,
          -0.003415138693526387,
          0.05757458135485649,
          0.00672589335590601
        ],
        [
          0.016560819000005722,
          -0.02372397482395172,
          0.023290017619729042,
          0.04920211061835289,
          -0.1262914538383484,
          0.03937051445245743,
          0.06829139590263367,
          0.08464568853378296,
          0.0191945917904377,
          0.00026547812740318477,
          0.12254485487937927,
          0.06155886501073837,
          -0.5424507260322571,
          -0.03667941316962242,
          0.06837119907140732,
          -0.029133956879377365,
          0.13732996582984924,
          0.13151849806308746,
          0.10318759083747864,
          -0.003324998775497079,
          -0.10458425432443619,
          -0.14062219858169556,
          -0.07910154014825821,
          -0.1864788979291916,
          -0.028862839564681053,
          0.0638447031378746,
          0.20256009697914124,
          -0.0024857199750840664,
          -0.001711484044790268,
          0.015047439374029636,
          0.08191754668951035,
          0.09030479937791824,
          0.08596105873584747,
          0.1891883760690689,
          -0.12037360668182373,
          0.02126421593129635,
          0.048991717398166656,
          -0.011652057990431786,
          0.01677161268889904,
          0.10698478668928146,
          -0.11382584273815155,
          0.08502496778964996,
          0.012606993317604065,
          0.05526202172040939,
          -0.025343524292111397,
          0.07129564881324768,
          -0.07457929849624634,
          0.037072230130434036,
          -0.01745697297155857,
          0.17820297181606293,
          0.23635153472423553,
          0.052977144718170166,
          0.05927303060889244,
          0.1885583996772766,
          -0.04115556553006172,
          0.019223827868700027,
          0.22208276391029358,
          0.025334225967526436,
          0.1559474766254425,
          -0.1803549826145172,
          0.22127456963062286,
          -0.07009195536375046,
          -0.012371737509965897,
          0.18924278020858765
        ],
        [
          -0.1335800439119339,
          0.03888801857829094,
          -0.13366836309432983,
          -0.03518844395875931,
          -0.014600219205021858,
          0.07346820831298828,
          -0.06608244776725769,
          0.01554020494222641,
          -0.003002256853505969,
          0.04979656636714935,
          -0.015621217899024487,
          0.024380695074796677,
          -0.09031707793474197,
          -0.10018151998519897,
          0.09190092235803604,
          -0.11110462248325348,
          -0.03948510065674782,
          -0.03745681419968605,
          0.09794828295707703,
          -0.04427332803606987,
          -0.11332599073648453,
          -0.04984305053949356,
          0.04532245174050331,
          0.03244800493121147,
          0.08813151717185974,
          -0.04881120100617409,
          0.03678993508219719,
          -0.13921086490154266,
          0.031312573701143265,
          0.03545316308736801,
          0.059062715619802475,
          -0.09313321858644485,
          -0.05439379811286926,
          0.0098299914970994,
          -0.10296967625617981,
          -0.12148343026638031,
          -0.14132948219776154,
          -0.01414212305098772,
          0.0524105466902256,
          0.010024781338870525,
          -0.012836975045502186,
          0.020354965701699257,
          -0.09780366718769073,
          -0.0082132238894701,
          -0.05042794719338417,
          -0.08075985312461853,
          0.08532808721065521,
          -0.11664069443941116,
          0.00047313011600635946,
          -0.12832427024841309,
          -0.02516005001962185,
          -0.07774414867162704,
          0.02165260910987854,
          -0.09098578244447708,
          0.05792037770152092,
          -0.12124034762382507,
          0.05599064752459526,
          -0.11581350117921829,
          0.044418349862098694,
          -0.06476695090532303,
          -0.02119327150285244,
          -0.042770300060510635,
          0.059234317392110825,
          0.02040962316095829
        ],
        [
          -0.09490363299846649,
          0.034905221313238144,
          -0.002390627982094884,
          0.18053235113620758,
          -0.055329300463199615,
          -0.06733643263578415,
          -0.03355967253446579,
          0.03783176466822624,
          -0.07323760539293289,
          0.03217582777142525,
          0.14568161964416504,
          0.12148670107126236,
          -0.3690668046474457,
          -0.08428188413381577,
          0.17856819927692413,
          -0.039004772901535034,
          0.030498722568154335,
          0.06879023462533951,
          0.10061609745025635,
          0.07194812595844269,
          -0.0440605990588665,
          0.033717188984155655,
          -0.08456763625144958,
          -0.10385527461767197,
          -0.15091778337955475,
          0.019731558859348297,
          0.004068204667419195,
          -0.030788341537117958,
          0.11738289147615433,
          0.167014941573143,
          0.006928701885044575,
          -0.02065858244895935,
          0.10291225463151932,
          0.1903517246246338,
          -0.15460391342639923,
          -0.04784838482737541,
          0.00011675541463773698,
          0.11690141260623932,
          0.11396429687738419,
          0.0554933100938797,
          0.0025739625561982393,
          0.08795895427465439,
          0.12079691141843796,
          0.05469668284058571,
          0.05786800757050514,
          0.17546075582504272,
          0.11930878460407257,
          0.15830592811107635,
          -0.037191879004240036,
          0.13233442604541779,
          0.2861024737358093,
          -0.02595159411430359,
          0.06163541600108147,
          0.06816643476486206,
          0.10819544643163681,
          -0.10887476801872253,
          0.17281877994537354,
          0.15977711975574493,
          0.001277443254366517,
          -0.17292693257331848,
          0.16437217593193054,
          0.08896143734455109,
          0.15586601197719574,
          0.00038833849248476326
        ],
        [
          0.028279736638069153,
          -0.04486202821135521,
          0.028017213568091393,
          0.1969498097896576,
          -0.0226760171353817,
          -0.07098408043384552,
          0.039449866861104965,
          0.003300200682133436,
          0.017490185797214508,
          -0.07925768196582794,
          -6.02827021793928e-05,
          0.12232224643230438,
          -0.41010919213294983,
          0.07050812989473343,
          0.05088029429316521,
          0.05252990871667862,
          0.1620796173810959,
          0.15506167709827423,
          0.03875036537647247,
          0.08803437650203705,
          -0.07392048835754395,
          -0.005486500449478626,
          0.1429595798254013,
          0.010570503771305084,
          -0.0990939810872078,
          0.08292412757873535,
          0.13936974108219147,
          -0.003266534535214305,
          0.13521075248718262,
          -0.017528364434838295,
          0.1633964478969574,
          0.1741684228181839,
          0.0028467972297221422,
          0.11485555022954941,
          -0.271008163690567,
          -0.039364442229270935,
          -0.03073796257376671,
          0.01954754814505577,
          0.023360660299658775,
          0.21099592745304108,
          -0.003287652740254998,
          0.09058987349271774,
          0.06697174906730652,
          -0.01150442659854889,
          -0.048073671758174896,
          0.09561580419540405,
          0.15387684106826782,
          0.03677375614643097,
          -0.010778148658573627,
          0.004969891160726547,
          0.15831218659877777,
          -0.04359128326177597,
          0.12896011769771576,
          0.07838054746389389,
          -0.09270501881837845,
          -0.0476747527718544,
          0.19581715762615204,
          0.08966772258281708,
          0.15793754160404205,
          -0.0021312576718628407,
          0.13040709495544434,
          -0.09762383997440338,
          0.06447397917509079,
          -0.025160111486911774
        ],
        [
          -0.10747404396533966,
          0.12815417349338531,
          0.0702216699719429,
          0.01907389983534813,
          -0.12347949296236038,
          -0.15667584538459778,
          0.12172224372625351,
          -0.05284227058291435,
          -0.07699531316757202,
          -0.12274713814258575,
          0.1414351910352707,
          0.023946333676576614,
          -0.44112449884414673,
          0.00225241226144135,
          0.02894248627126217,
          0.0013775087427347898,
          0.17299693822860718,
          0.0047221919521689415,
          0.012173548340797424,
          -0.12282298505306244,
          -0.11742069572210312,
          0.07221981883049011,
          0.02039700746536255,
          0.014546159654855728,
          -0.07528307288885117,
          -0.07666704058647156,
          0.010562453418970108,
          0.1410026103258133,
          -0.0815308690071106,
          0.11435675621032715,
          0.10739798098802567,
          0.08570748567581177,
          0.15189877152442932,
          0.12790547311306,
          -0.05584336072206497,
          -0.12025318294763565,
          0.0348990336060524,
          0.15148583054542542,
          0.026252370327711105,
          0.0933840423822403,
          -0.0869026929140091,
          -0.04523945972323418,
          0.09052274376153946,
          0.06264737248420715,
          0.03644215315580368,
          0.10977455228567123,
          0.1257290244102478,
          -0.04503675922751427,
          -0.059412237256765366,
          0.17358018457889557,
          0.2690049111843109,
          -0.01677294820547104,
          -0.09511283785104752,
          0.11368761956691742,
          0.08798379451036453,
          -0.022972265258431435,
          0.26399508118629456,
          -0.0032428393606096506,
          0.16652019321918488,
          -0.1470935344696045,
          0.30184248089790344,
          0.09309606999158859,
          0.1066480204463005,
          0.1835532933473587
        ],
        [
          -0.09729236364364624,
          -0.1216711476445198,
          -0.13358661532402039,
          0.06333061307668686,
          0.02811535634100437,
          -0.10614190995693207,
          0.06053510308265686,
          0.11405153572559357,
          -0.13193689286708832,
          0.07412602752447128,
          0.0021236874163150787,
          -0.003916999325156212,
          0.11247414350509644,
          0.09708651155233383,
          0.04012992978096008,
          0.09876686334609985,
          0.052003055810928345,
          0.004083938430994749,
          -0.11587920039892197,
          0.0061601316556334496,
          -0.10662396997213364,
          0.02492412179708481,
          0.010585319250822067,
          -0.014279677532613277,
          -0.09230740368366241,
          -0.0923282653093338,
          0.07669597864151001,
          0.045271363109350204,
          0.06590497493743896,
          -0.052211787551641464,
          -0.03621252253651619,
          -0.049170419573783875,
          0.07127242535352707,
          -0.06430311501026154,
          0.07873310148715973,
          0.07341183722019196,
          -0.12927943468093872,
          -0.014268727041780949,
          -0.02380669116973877,
          -0.08509184420108795,
          0.05396468937397003,
          -0.02992171049118042,
          0.09427092969417572,
          -0.09310991317033768,
          0.040614403784275055,
          -0.12108775973320007,
          -0.07854506373405457,
          -0.008282103575766087,
          0.09217367321252823,
          0.06583990156650543,
          -0.11838238686323166,
          -0.002808432327583432,
          -0.08089245855808258,
          -0.009520689956843853,
          -0.11306580901145935,
          -0.04775712639093399,
          0.07266948372125626,
          -0.12451578676700592,
          -0.1355317085981369,
          0.015352261252701283,
          0.00042026667506434023,
          -0.033183321356773376,
          0.09386013448238373,
          -0.08847851306200027
        ],
        [
          -0.08992419391870499,
          -0.07364709675312042,
          0.06682450324296951,
          0.06310614943504333,
          -0.016523301601409912,
          -0.05342825502157211,
          0.059298787266016006,
          -0.08735410124063492,
          0.08073759078979492,
          0.06731665134429932,
          -0.024330196902155876,
          0.0034419791772961617,
          -0.5389890670776367,
          0.06889563053846359,
          -0.0071980818174779415,
          -0.0745590478181839,
          0.19734975695610046,
          -0.0332099050283432,
          0.09635932743549347,
          -0.0282204020768404,
          0.030415497720241547,
          -0.0976746454834938,
          0.10219015926122665,
          -0.10851209610700607,
          -0.03670904412865639,
          0.054041069000959396,
          -0.02460118755698204,
          -0.08367104828357697,
          0.13975068926811218,
          -0.024891182780265808,
          -0.004537250380963087,
          0.04987917095422745,
          0.053711146116256714,
          0.17307834327220917,
          -0.2202804684638977,
          0.02468247152864933,
          -0.019905822351574898,
          0.061574894934892654,
          0.05985255166888237,
          0.15585234761238098,
          -0.048302359879016876,
          0.04738567769527435,
          -0.031947456300258636,
          0.03732803091406822,
          -0.00037351527134887874,
          0.010421895422041416,
          -0.03314254432916641,
          0.1468830704689026,
          -0.03428921848535538,
          0.13273873925209045,
          0.321930855512619,
          0.047108035534620285,
          -0.03993437439203262,
          0.01275051198899746,
          -0.03269695118069649,
          -0.012009489350020885,
          0.08833807706832886,
          0.09440948814153671,
          0.16967780888080597,
          0.03865716978907585,
          0.31161579489707947,
          0.012609115801751614,
          0.14852438867092133,
          0.15404488146305084
        ],
        [
          0.022640695795416832,
          -0.05243084579706192,
          -0.11982525885105133,
          -0.046361032873392105,
          -0.022670477628707886,
          0.009179651737213135,
          -0.03349463269114494,
          0.030589338392019272,
          0.063227079808712,
          -0.0659046471118927,
          -0.12871646881103516,
          -0.08200281113386154,
          -0.07269985228776932,
          0.06529634445905685,
          -0.09935203939676285,
          -0.029538311064243317,
          -0.044298965483903885,
          -0.09463728964328766,
          0.046368103474378586,
          -0.05762818083167076,
          -0.01202512625604868,
          -0.08788558840751648,
          -0.02998276986181736,
          0.01776072382926941,
          -0.0050866007804870605,
          -0.04670596122741699,
          0.018515119329094887,
          -0.03238719701766968,
          -0.08290569484233856,
          -0.11116260290145874,
          -0.04602998495101929,
          -0.13394957780838013,
          0.08431053906679153,
          -0.07296863198280334,
          -0.05180227756500244,
          0.011554881930351257,
          0.012799440883100033,
          -0.0313873291015625,
          0.06860359013080597,
          -0.09206921607255936,
          0.037100836634635925,
          -0.0002819150686264038,
          -0.11602795124053955,
          -0.06698337942361832,
          0.02625218965113163,
          0.00645426893606782,
          0.07064121216535568,
          0.08362412452697754,
          -0.06817784905433655,
          -0.06963265687227249,
          -0.02650517225265503,
          -0.10693942755460739,
          -0.05314132198691368,
          -0.1185375452041626,
          0.02751009911298752,
          0.08844491839408875,
          0.009897053241729736,
          -0.10729197412729263,
          -0.10877003520727158,
          -0.048662394285202026,
          0.03635667264461517,
          -0.016791019588708878,
          0.003314339555799961,
          0.09804387390613556
        ],
        [
          0.07224679738283157,
          0.05188048258423805,
          0.046730153262615204,
          0.13423950970172882,
          -0.032165221869945526,
          -0.14125710725784302,
          -0.04902809113264084,
          -0.002624750370159745,
          0.047749560326337814,
          0.030201014131307602,
          0.0010421372717246413,
          -0.083500936627388,
          -0.3945477306842804,
          0.007559261750429869,
          0.11508635431528091,
          -0.033512864261865616,
          0.1496705710887909,
          0.08110184967517853,
          0.10007134079933167,
          -0.11256150901317596,
          -0.011779430322349072,
          -0.005442674271762371,
          -0.032777026295661926,
          -0.047361068427562714,
          -0.1609334498643875,
          0.07223232090473175,
          0.09112553298473358,
          0.021080024540424347,
          0.08648055791854858,
          0.052728522568941116,
          0.12555138766765594,
          0.1283646821975708,
          -0.02151854708790779,
          0.21731987595558167,
          -0.15988348424434662,
          -0.03487024083733559,
          0.09564804285764694,
          0.1537817120552063,
          -0.07759502530097961,
          0.019576655700802803,
          0.01719525270164013,
          -0.035604190081357956,
          0.05934193357825279,
          0.03882382810115814,
          0.09348468482494354,
          0.16913551092147827,
          -0.026550548151135445,
          -0.02000286616384983,
          0.05920517444610596,
          0.07749427855014801,
          0.16624665260314941,
          -0.054439276456832886,
          0.13722951710224152,
          0.08497612923383713,
          0.0008857271750457585,
          -0.10718877613544464,
          0.13142450153827667,
          0.1408930867910385,
          0.09941946715116501,
          0.03782281279563904,
          0.2031201273202896,
          -0.008944076485931873,
          0.13277000188827515,
          0.07168512046337128
        ],
        [
          -0.06075438857078552,
          0.012108747847378254,
          0.057867687195539474,
          -0.008626945316791534,
          0.0587444081902504,
          0.061181120574474335,
          -0.006216683425009251,
          0.011906841769814491,
          0.0037652095779776573,
          -0.012204883620142937,
          0.06728348881006241,
          0.08060597628355026,
          0.07551095634698868,
          -0.007117421831935644,
          0.07137767970561981,
          -0.1328539103269577,
          0.04772590473294258,
          0.02301179990172386,
          0.0502665676176548,
          -0.033526577055454254,
          -0.13687700033187866,
          0.05477993190288544,
          -0.0981118455529213,
          -0.0006094554555602372,
          0.04404917731881142,
          -0.147979274392128,
          -0.03192678466439247,
          -0.0783320888876915,
          0.047923266887664795,
          -0.113143190741539,
          0.030664898455142975,
          0.04265109822154045,
          0.026126278564333916,
          0.07798603922128677,
          -0.009664835408329964,
          -0.14485470950603485,
          0.04743588715791702,
          -0.030263807624578476,
          -0.023168273270130157,
          -0.1612602174282074,
          -0.0602230578660965,
          -0.10273642092943192,
          0.08723731338977814,
          0.050705019384622574,
          0.060278840363025665,
          0.04910339415073395,
          -0.11373862624168396,
          -0.0807112380862236,
          -0.10465773195028305,
          -0.0978294312953949,
          0.054966945201158524,
          0.0058177318423986435,
          0.057619065046310425,
          -0.05251414328813553,
          -0.15132761001586914,
          -0.06521011143922806,
          0.04595746845006943,
          0.03958302363753319,
          -0.006531844846904278,
          -0.06430041044950485,
          -0.15897206962108612,
          -0.11166594177484512,
          0.024472825229167938,
          -0.09044188261032104
        ],
        [
          0.06251321732997894,
          0.04621320962905884,
          0.04187305271625519,
          0.16694588959217072,
          -0.11738363653421402,
          -0.1069648489356041,
          -0.03168753162026405,
          -0.1576066017150879,
          0.008510926738381386,
          0.013780778273940086,
          0.004066136199980974,
          0.12011734396219254,
          -0.5616613030433655,
          -0.07485927641391754,
          0.028134485706686974,
          -0.08921138942241669,
          0.07775741070508957,
          0.06106674671173096,
          0.061569944024086,
          -0.13395647704601288,
          -0.031747519969940186,
          -0.05349505692720413,
          0.04416710510849953,
          0.025407273322343826,
          0.0022618109360337257,
          -0.06472009420394897,
          -0.00912005826830864,
          0.0021837239619344473,
          -0.050460781902074814,
          0.10040759295225143,
          0.07518590241670609,
          0.15043137967586517,
          0.13959769904613495,
          0.16316229104995728,
          -0.14098553359508514,
          -0.002615933772176504,
          0.07504124194383621,
          0.1667690873146057,
          -0.10959100723266602,
          0.18210017681121826,
          -0.13152459263801575,
          -0.08105842024087906,
          -0.008067320100963116,
          0.13855385780334473,
          0.11472360789775848,
          0.12299160659313202,
          0.022622091695666313,
          -0.004858556669205427,
          -0.07921124994754791,
          0.08996008336544037,
          0.217257559299469,
          0.14540643990039825,
          0.08990170806646347,
          -0.008784718811511993,
          0.01593414880335331,
          -0.144773468375206,
          0.1594109684228897,
          0.008816525340080261,
          0.13965538144111633,
          -0.2041313499212265,
          0.3795677721500397,
          0.07791367173194885,
          -0.011435987427830696,
          -0.02343311347067356
        ],
        [
          0.004877209663391113,
          -0.04824354127049446,
          0.0256000105291605,
          -0.09569908678531647,
          0.04212832450866699,
          -0.1179136112332344,
          -0.07852580398321152,
          -0.07615388929843903,
          0.05472388491034508,
          -0.013889243826270103,
          -0.12947678565979004,
          -0.08146246522665024,
          -0.06889443099498749,
          -0.11597870290279388,
          0.0035881411749869585,
          0.035628825426101685,
          -0.035332005470991135,
          -0.05753391236066818,
          -0.014131592586636543,
          -0.11121738702058792,
          -0.08842972666025162,
          -0.015425985679030418,
          0.09954052418470383,
          -0.044330816715955734,
          0.04879547655582428,
          -0.04919379949569702,
          -0.04131654277443886,
          -0.12499497830867767,
          0.09099403768777847,
          0.10947327315807343,
          -0.012214499525725842,
          0.06719227880239487,
          0.09167367964982986,
          0.04945932328701019,
          0.05109419673681259,
          -0.1321064680814743,
          -0.12734496593475342,
          -0.10194768756628036,
          0.028639622032642365,
          -0.11963298916816711,
          -0.10804342478513718,
          -0.06985839456319809,
          -0.11521066725254059,
          -0.005836772732436657,
          0.005961085204035044,
          -0.08566798269748688,
          0.072854183614254,
          -0.05957602709531784,
          -0.04306167736649513,
          0.082895427942276,
          0.09503495693206787,
          -0.021322108805179596,
          -0.10096679627895355,
          -0.07474290579557419,
          0.006292905192822218,
          0.059949588030576706,
          0.049731120467185974,
          -0.0677497461438179,
          -0.12870381772518158,
          -0.1222868338227272,
          -0.05225139111280441,
          -0.007001066580414772,
          -0.06170401722192764,
          -0.11087534576654434
        ],
        [
          0.025453971698880196,
          -0.07470953464508057,
          -0.020938066765666008,
          -0.02428503707051277,
          -0.11706265807151794,
          0.07151199877262115,
          0.07517579197883606,
          -0.026606649160385132,
          0.023561453446745872,
          0.01704847812652588,
          0.07430904358625412,
          -0.057296182960271835,
          -0.4757765829563141,
          -0.058732688426971436,
          0.0810142382979393,
          -0.12146082520484924,
          0.03876817226409912,
          0.027102386578917503,
          0.13100950419902802,
          0.0755283311009407,
          0.01767934300005436,
          -0.015843620523810387,
          -0.013737023808062077,
          -0.06574323773384094,
          -0.13007327914237976,
          -0.07687415182590485,
          0.05768637731671333,
          -0.013166665099561214,
          -0.09295280277729034,
          0.09749815613031387,
          0.1748025119304657,
          -0.017482101917266846,
          0.11080634593963623,
          0.13834820687770844,
          -0.14565345644950867,
          -0.006640393286943436,
          0.18152424693107605,
          0.07400678098201752,
          -0.08929866552352905,
          0.060843199491500854,
          -0.0038543923292309046,
          0.06325948983430862,
          0.02100423537194729,
          0.04491731896996498,
          0.003996445331722498,
          0.03404581919312477,
          -0.029271524399518967,
          0.050250906497240067,
          0.024983741343021393,
          0.17112600803375244,
          0.14507627487182617,
          0.061447057873010635,
          0.11186878383159637,
          0.14429011940956116,
          0.039874400943517685,
          -0.02130601927638054,
          0.1550721973180771,
          -0.01329027395695448,
          0.10267893970012665,
          -0.0968279168009758,
          0.3162413537502289,
          0.11939414590597153,
          0.08847413212060928,
          0.1901581585407257
        ],
        [
          -0.07303925603628159,
          0.09658250957727432,
          0.0964985191822052,
          -0.010781089775264263,
          -0.11119476705789566,
          -0.0519937165081501,
          -0.04538450762629509,
          -0.007778043393045664,
          -0.12246032804250717,
          0.01163758710026741,
          -0.0637626200914383,
          -0.04285283759236336,
          -0.07056071609258652,
          -0.02639174461364746,
          -0.1305369883775711,
          -0.07812988013029099,
          -0.00420480128377676,
          0.08190949261188507,
          0.10161957144737244,
          -0.10361982136964798,
          0.04648841544985771,
          -0.08421184867620468,
          -0.1026480495929718,
          -0.005504414439201355,
          -0.07771079242229462,
          -0.11722860485315323,
          -0.12596672773361206,
          -0.09492968767881393,
          0.08943159133195877,
          0.05785006284713745,
          -0.04948088526725769,
          -0.096636101603508,
          -0.09615522623062134,
          -0.08713088929653168,
          -0.06492150574922562,
          0.06236054003238678,
          0.034904997795820236,
          -0.0481715202331543,
          0.07438327372074127,
          -0.09018215537071228,
          -0.11523186415433884,
          0.027281269431114197,
          -0.06892511248588562,
          0.02695726975798607,
          0.09184950590133667,
          -0.0706762969493866,
          -0.09840308874845505,
          0.04705001413822174,
          -0.11289338767528534,
          0.09576267749071121,
          -0.07389237731695175,
          0.05049915984272957,
          -0.10934271663427353,
          -0.0960107073187828,
          0.0040747071616351604,
          0.03160158172249794,
          0.08175268769264221,
          0.0918639600276947,
          -0.007188946008682251,
          -0.027203135192394257,
          0.006154544651508331,
          -0.029036372900009155,
          -0.0009732661419548094,
          -0.13162489235401154
        ],
        [
          -0.35276544094085693,
          0.06616545468568802,
          -0.304265558719635,
          0.26270806789398193,
          0.09060538560152054,
          0.10360703617334366,
          -0.09237076342105865,
          -0.46049195528030396,
          -0.22127965092658997,
          -0.005771283991634846,
          0.3938552439212799,
          -0.009759504348039627,
          -0.26241663098335266,
          -0.4902116358280182,
          0.17286580801010132,
          0.23650021851062775,
          0.20598120987415314,
          0.2150477021932602,
          -0.019262732937932014,
          0.11214158684015274,
          0.2977043390274048,
          0.13547933101654053,
          -0.16320660710334778,
          0.19638308882713318,
          0.10930889844894409,
          0.17369161546230316,
          0.07040665298700333,
          -0.0031480020843446255,
          0.11927931010723114,
          0.016896706074476242,
          0.06033037602901459,
          0.34610655903816223,
          -0.049147967249155045,
          0.16760505735874176,
          0.2741166353225708,
          -0.009569068439304829,
          -0.03623057156801224,
          -0.590843915939331,
          -0.04037511721253395,
          0.15162378549575806,
          0.1297067403793335,
          0.18099747598171234,
          -0.2845380902290344,
          -0.3183281123638153,
          0.26054486632347107,
          0.034230370074510574,
          0.09679236263036728,
          0.0726606473326683,
          -0.2595145106315613,
          0.3126114010810852,
          0.4148333966732025,
          0.2138100266456604,
          -0.21085284650325775,
          -0.23759868741035461,
          -0.2878621220588684,
          0.11515697836875916,
          0.3149310052394867,
          0.22745047509670258,
          0.24719487130641937,
          0.12024350464344025,
          0.2267809361219406,
          -0.5070045590400696,
          -0.46970802545547485,
          -0.03792380541563034
        ],
        [
          0.030299203470349312,
          0.02393694408237934,
          0.06134868040680885,
          -0.033588338643312454,
          0.08546584099531174,
          -0.06527139991521835,
          -0.08541078120470047,
          -0.07273785769939423,
          -0.1451515555381775,
          -0.10208358615636826,
          -0.13462714850902557,
          -0.03244579955935478,
          -0.0197342149913311,
          -0.051772184669971466,
          -0.11268042773008347,
          0.08878286927938461,
          -0.06742700934410095,
          0.029999639838933945,
          0.06506557017564774,
          -0.1024024486541748,
          -0.037514012306928635,
          0.051542121917009354,
          0.09011265635490417,
          -0.040591202676296234,
          0.080152727663517,
          -0.11724085360765457,
          -0.10963083803653717,
          0.08088724315166473,
          -0.03470461443066597,
          0.09889960289001465,
          -0.021585991606116295,
          -0.07378257066011429,
          0.0887136459350586,
          0.08593633770942688,
          -0.005399999674409628,
          -0.09675634652376175,
          -0.03508805111050606,
          -0.09113314747810364,
          0.0699552446603775,
          -0.02196253091096878,
          0.005440930370241404,
          0.05018490552902222,
          0.012931639328598976,
          -0.10604170709848404,
          0.08345627039670944,
          0.05112864822149277,
          -0.1041552722454071,
          0.07367090880870819,
          0.0387662835419178,
          -0.050193652510643005,
          -0.11285355687141418,
          -0.04511860013008118,
          -0.15192830562591553,
          0.042380113154649734,
          0.0610169880092144,
          -0.05591851845383644,
          0.09362617880105972,
          -0.06917378306388855,
          -0.007022663485258818,
          -0.10958272218704224,
          -0.028883738443255424,
          0.018813753500580788,
          0.023897988721728325,
          -0.03267599642276764
        ],
        [
          -0.08585267513990402,
          0.05816845968365669,
          0.053125377744436264,
          -0.009500041604042053,
          -0.0735936313867569,
          0.007918736897408962,
          -0.037447284907102585,
          0.07801422476768494,
          -0.004703240469098091,
          -0.01853300631046295,
          -0.00951596163213253,
          0.04190539941191673,
          -0.029795458540320396,
          0.09006676077842712,
          0.027906671166419983,
          -0.11982033401727676,
          -0.03670315444469452,
          -0.12786473333835602,
          -0.12729966640472412,
          -0.002109567867591977,
          -0.0025485865771770477,
          -0.038102664053440094,
          0.07787061482667923,
          -0.0823272168636322,
          -0.07939537614583969,
          -0.033975277096033096,
          -0.022708710283041,
          -0.02689404785633087,
          0.07202724367380142,
          -0.08393210172653198,
          -0.0947982594370842,
          -0.021520238369703293,
          0.0635799765586853,
          -0.0073807984590530396,
          0.031929727643728256,
          -0.005360446870326996,
          0.07766976952552795,
          0.048769671469926834,
          0.06498745828866959,
          -0.045664023607969284,
          -0.1343737095594406,
          -0.07586036622524261,
          0.024862686172127724,
          0.06406079977750778,
          -0.07575962692499161,
          0.068362295627594,
          -0.009218499064445496,
          -0.023770252242684364,
          -0.03266105055809021,
          -0.05723235383629799,
          0.08374973386526108,
          -0.011659592390060425,
          0.0421731099486351,
          -0.14353536069393158,
          -0.09154725819826126,
          -0.013158663176000118,
          0.06584403663873672,
          0.027649492025375366,
          -0.0019832991529256105,
          -0.15061484277248383,
          -0.03239275515079498,
          -0.11644181609153748,
          -0.1302352100610733,
          -0.014766293577849865
        ],
        [
          -0.07908816635608673,
          0.1134548932313919,
          -0.06794272363185883,
          0.04028351604938507,
          0.07337035238742828,
          -0.0971546471118927,
          0.06397250294685364,
          -0.016737014055252075,
          0.06477034091949463,
          0.120966836810112,
          -0.05327068269252777,
          -0.05413798987865448,
          0.09931865334510803,
          0.01390005648136139,
          -0.012466594576835632,
          0.09483353793621063,
          -0.06039300560951233,
          -0.006172016263008118,
          0.08585947751998901,
          0.0488513708114624,
          -0.08085185289382935,
          0.03248956799507141,
          -0.09530459344387054,
          -0.0678841769695282,
          0.08037647604942322,
          -0.03331403434276581,
          -0.06366963684558868,
          0.008860290050506592,
          0.030546292662620544,
          -0.0777021050453186,
          -0.08429542183876038,
          -0.1210586428642273,
          0.03229793906211853,
          -0.08065368235111237,
          0.009526044130325317,
          -0.02795727550983429,
          -0.08173249661922455,
          -0.03988735377788544,
          -0.09608624875545502,
          -0.06616660952568054,
          -0.0038964003324508667,
          -0.10686439275741577,
          -0.10962916910648346,
          0.09363256394863129,
          0.011762261390686035,
          -0.05528172850608826,
          -0.00415608286857605,
          0.09269563853740692,
          -0.10428319871425629,
          -0.06627294421195984,
          -0.09039255976676941,
          -0.009087622165679932,
          -0.004301607608795166,
          -0.09741322696208954,
          0.0867604911327362,
          -0.09598997235298157,
          0.11670446395874023,
          -0.08604612946510315,
          -0.017130687832832336,
          0.02337336540222168,
          -0.0555596798658371,
          0.11495524644851685,
          -0.08617928624153137,
          -0.006928548216819763
        ],
        [
          -0.13444800674915314,
          0.037203650921583176,
          0.06646779924631119,
          0.060663070529699326,
          0.3187919557094574,
          0.31180518865585327,
          0.10097979009151459,
          -0.02548862434923649,
          0.06636859476566315,
          -0.07904743403196335,
          -0.07329896837472916,
          -0.11685560643672943,
          0.27884891629219055,
          -0.049335040152072906,
          -0.15367400646209717,
          0.13670037686824799,
          -0.04777910187840462,
          -0.023741213604807854,
          0.06848600506782532,
          -0.15616503357887268,
          -0.001563419820740819,
          -0.1449882835149765,
          0.018311023712158203,
          0.16053713858127594,
          0.025173094123601913,
          0.3064258396625519,
          0.08061928302049637,
          0.27365583181381226,
          0.09170486032962799,
          0.07220260798931122,
          0.020923584699630737,
          -0.03253167122602463,
          -0.01670951023697853,
          0.022187214344739914,
          0.29468032717704773,
          -0.03675389289855957,
          -0.04306719824671745,
          -0.09532448649406433,
          0.05825565382838249,
          -0.16892912983894348,
          0.10725491493940353,
          0.36013737320899963,
          -0.006927905138581991,
          0.016625918447971344,
          -0.20629970729351044,
          0.005980834364891052,
          0.00817141868174076,
          -0.1523367166519165,
          0.5196861028671265,
          0.10817597061395645,
          -0.03249138593673706,
          -0.04467038810253143,
          0.031168591231107712,
          -0.08463449776172638,
          -0.04768913611769676,
          0.1493951678276062,
          -0.10579180717468262,
          0.005865402054041624,
          -0.13349655270576477,
          0.4060435891151428,
          -0.24269093573093414,
          0.10012450814247131,
          0.07140392810106277,
          -0.004340651910752058
        ],
        [
          0.1167374700307846,
          0.077447310090065,
          0.16711077094078064,
          0.0486350916326046,
          0.026150913909077644,
          -0.09937793761491776,
          0.09641344100236893,
          -0.0697886273264885,
          0.070918969810009,
          0.08012904226779938,
          -0.01821017451584339,
          0.1412547528743744,
          -0.5318519473075867,
          -0.05566858500242233,
          -0.0006566365482285619,
          -0.0066727884113788605,
          0.007543460465967655,
          0.04177005589008331,
          -0.06623239070177078,
          -0.0016057795146480203,
          -0.2002117782831192,
          -0.14756372570991516,
          0.006314149592071772,
          -0.13160642981529236,
          -0.14046958088874817,
          0.039261337369680405,
          0.018354957923293114,
          -0.07435355335474014,
          -0.010724924504756927,
          -0.015943219885230064,
          0.16465067863464355,
          -0.042402710765600204,
          0.08341819792985916,
          0.23974040150642395,
          -0.26881465315818787,
          0.05701392516493797,
          0.03567948564887047,
          0.030663367360830307,
          -0.09491486847400665,
          0.08333637565374374,
          -0.11390779912471771,
          -0.05648626759648323,
          0.049798257648944855,
          0.07938128709793091,
          0.14681965112686157,
          0.17465972900390625,
          0.13555796444416046,
          0.029325289651751518,
          0.046470899134874344,
          0.23038910329341888,
          0.34380048513412476,
          -0.057794176042079926,
          -0.001965670147910714,
          -0.026141591370105743,
          0.022939732298254967,
          -0.10981760174036026,
          0.2909117043018341,
          0.1283571720123291,
          0.11681325733661652,
          -0.19615627825260162,
          0.16598735749721527,
          0.008738280273973942,
          0.014643081463873386,
          0.03809792548418045
        ],
        [
          0.1022682785987854,
          -0.04046200215816498,
          0.015949608758091927,
          0.16954509913921356,
          -0.02756226249039173,
          -0.09856286644935608,
          0.063926562666893,
          0.057359933853149414,
          -0.1096942275762558,
          -0.0064873890951275826,
          0.09037062525749207,
          0.033913590013980865,
          -0.27203065156936646,
          -0.05642694607377052,
          0.14627160131931305,
          -0.06488024443387985,
          -0.05160405859351158,
          0.1543646901845932,
          -0.0503738634288311,
          -0.01780238002538681,
          0.010856845416128635,
          -0.1222880557179451,
          -0.07753484696149826,
          -0.051177117973566055,
          0.07188877463340759,
          -0.03857656940817833,
          0.16503474116325378,
          0.05637718737125397,
          0.06415968388319016,
          -0.03753454610705376,
          0.18969394266605377,
          0.10329165309667587,
          0.09423152357339859,
          0.22038522362709045,
          -0.2471262663602829,
          0.020868098363280296,
          0.011064684018492699,
          0.04338827356696129,
          0.03219621628522873,
          0.15405042469501495,
          -0.031170615926384926,
          -0.0756945013999939,
          -0.059445563703775406,
          0.05830226466059685,
          0.028397753834724426,
          -0.03236212581396103,
          0.1596347689628601,
          0.04758567363023758,
          -0.09568480402231216,
          0.12486409395933151,
          0.21121028065681458,
          -0.012430617585778236,
          0.09494242072105408,
          0.01008019782602787,
          0.0681142508983612,
          0.06438477337360382,
          0.2185126692056656,
          0.13928429782390594,
          0.06892348825931549,
          -0.044978827238082886,
          0.2290991097688675,
          0.04055138677358627,
          0.035836778581142426,
          0.09200789779424667
        ],
        [
          -0.06334587931632996,
          -0.09405623376369476,
          -0.13773399591445923,
          -0.12411833554506302,
          -0.09384513646364212,
          0.105767160654068,
          0.002060425002127886,
          -0.13322997093200684,
          -0.08215664327144623,
          0.007203476969152689,
          -0.05565643683075905,
          -0.05488353967666626,
          -0.065916508436203,
          -0.04234881326556206,
          -0.008027961477637291,
          -0.018011383712291718,
          0.056885942816734314,
          0.0655006617307663,
          0.07931854575872421,
          -0.02049263007938862,
          -0.07429155707359314,
          -0.016789257526397705,
          -0.10058781504631042,
          0.037993114441633224,
          -0.030791427940130234,
          -0.05381025746464729,
          -0.1210927665233612,
          0.046073414385318756,
          0.0476490817964077,
          0.09070155024528503,
          -0.06239243596792221,
          0.01484692469239235,
          -0.014541872777044773,
          -0.10299830138683319,
          -0.1021411344408989,
          0.041171297430992126,
          -0.09282553941011429,
          0.08203816413879395,
          0.01901969313621521,
          0.021147912368178368,
          0.05670817941427231,
          0.04647335410118103,
          0.04209960624575615,
          0.050061292946338654,
          -0.07104361802339554,
          -0.0869923084974289,
          -0.047015104442834854,
          0.0557522214949131,
          0.07440702617168427,
          0.06930791586637497,
          -0.059323638677597046,
          -0.03328618407249451,
          -0.10732453316450119,
          0.0592176616191864,
          -0.10464439541101456,
          -0.0737435445189476,
          0.08424387872219086,
          0.00694554066285491,
          -0.06844276934862137,
          -0.1027534008026123,
          -0.10485368967056274,
          0.08592702448368073,
          -0.12598009407520294,
          0.08429478108882904
        ],
        [
          0.11509578675031662,
          0.025313036516308784,
          0.06859904527664185,
          0.17520831525325775,
          -0.0187350083142519,
          0.05208262428641319,
          0.1356806457042694,
          -0.09674327075481415,
          0.08238079398870468,
          0.042886849492788315,
          -0.02360757626593113,
          0.10389675945043564,
          -0.47707483172416687,
          -0.028895044699311256,
          0.08883276581764221,
          -0.029978126287460327,
          0.05112294480204582,
          -0.004770945757627487,
          0.07742363214492798,
          0.10592012107372284,
          -0.07371526211500168,
          -0.12191031873226166,
          0.020190389826893806,
          -0.1989366114139557,
          -0.15586942434310913,
          -0.040526483207941055,
          0.15977104008197784,
          -0.05510392040014267,
          0.0011643223697319627,
          -0.014935396611690521,
          -0.03696053475141525,
          0.0178842693567276,
          0.0731034129858017,
          0.11886918544769287,
          -0.02750038169324398,
          0.0310552716255188,
          0.15650798380374908,
          0.11122310906648636,
          0.007011078298091888,
          0.17051169276237488,
          -0.12454818189144135,
          0.10626726597547531,
          0.08240430057048798,
          0.015046002343297005,
          0.030909409746527672,
          -0.018959684297442436,
          -0.07249774038791656,
          0.020136376842856407,
          0.005182511173188686,
          0.06550869345664978,
          0.2229783982038498,
          -0.05323626846075058,
          -0.030583113431930542,
          0.17464981973171234,
          -0.0894571840763092,
          -0.0259572584182024,
          0.25981542468070984,
          0.18245252966880798,
          0.14408615231513977,
          -0.18447940051555634,
          0.22786782681941986,
          -0.032176628708839417,
          0.0327877476811409,
          0.17525827884674072
        ],
        [
          -0.10840637981891632,
          -0.15055140852928162,
          -0.14446987211704254,
          0.017152385786175728,
          0.21210269629955292,
          0.34963443875312805,
          -0.04795922711491585,
          -0.15536701679229736,
          0.04859613627195358,
          0.044443003833293915,
          -0.0074660200625658035,
          -0.059485092759132385,
          0.08614429831504822,
          -0.12682205438613892,
          -0.06466691195964813,
          0.25219640135765076,
          0.09042783826589584,
          -0.08141064643859863,
          -0.008768528699874878,
          0.04467746242880821,
          -0.06297091394662857,
          -0.021114949136972427,
          -0.07979384809732437,
          0.28854018449783325,
          0.13197898864746094,
          0.007769626099616289,
          -0.033333659172058105,
          0.03159063309431076,
          -0.19454419612884521,
          -0.05411749705672264,
          -0.0714653730392456,
          -0.10683803260326385,
          -0.045493170619010925,
          -0.23960301280021667,
          0.4374343752861023,
          0.06600161641836166,
          -0.16031768918037415,
          0.05300506576895714,
          0.06831316649913788,
          -0.11323019862174988,
          0.2977796196937561,
          -0.149454727768898,
          0.032312262803316116,
          0.02915355935692787,
          0.012019808404147625,
          -0.1393910050392151,
          -0.04404468461871147,
          0.06708424538373947,
          -0.11791092902421951,
          -0.13438117504119873,
          -0.30385294556617737,
          0.054438065737485886,
          0.03185996040701866,
          -0.12663637101650238,
          0.10163519531488419,
          0.3454858958721161,
          -0.36969974637031555,
          -0.1552066206932068,
          -0.06786170601844788,
          0.42140552401542664,
          -0.10547388345003128,
          0.10443610697984695,
          -0.14226627349853516,
          -0.00569117208942771
        ],
        [
          -0.35032787919044495,
          -0.03887278959155083,
          -0.2279295176267624,
          0.09329434484243393,
          0.05560000240802765,
          0.11775410920381546,
          -0.22405828535556793,
          -0.5767127871513367,
          -0.2304396629333496,
          0.016227874904870987,
          0.3366663455963135,
          0.02084275893867016,
          0.08463671803474426,
          -0.4403131306171417,
          0.22949331998825073,
          0.2899519205093384,
          0.16908811032772064,
          0.34619399905204773,
          0.05203118175268173,
          0.0037689167074859142,
          0.20935796201229095,
          0.12475181370973587,
          -0.06422306597232819,
          0.3316270112991333,
          -0.1526576578617096,
          0.16731710731983185,
          -0.1296161711215973,
          0.15145651996135712,
          -0.048696648329496384,
          0.09978877753019333,
          -0.08761751651763916,
          0.28679096698760986,
