{
  "layers": [
    {
      "weight": [
        [
          0.4826472997665405,
          0.43790408968925476,
          0.009904070757329464,
          0.24690447747707367,
          -0.031135421246290207
        ],
        [
          0.11526968330144882,
          -0.3721451759338379,
          0.3573063015937805,
          0.3246878385543823,
          -0.27661338448524475
        ],
        [
          0.4608142375946045,
          0.033097043633461,
          0.2940745949745178,
          0.06830225139856339,
          0.18039755523204803
        ],
        [
          -0.061396509408950806,
          0.28403255343437195,
          0.026658136397600174,
          -0.09719202667474747,
          0.052458763122558594
        ],
        [
          -0.35370081663131714,
          0.1590064913034439,
          -0.21583382785320282,
          0.3429352641105652,
          -0.13418661057949066
        ],
        [
          -0.4740016758441925,
          -0.03440510109066963,
          -0.32466456294059753,
          0.12587755918502808,
          -0.2500406503677368
        ],
        [
          0.40176117420196533,
          -0.3825896382331848,
          0.5186644792556763,
          0.0867386907339096,
          -0.16069208085536957
        ],
        [
          0.3769513964653015,
          0.27736276388168335,
          0.29762473702430725,
          -0.04707898199558258,
          -0.1929066926240921
        ],
        [
          0.18950869143009186,
          -0.09979904443025589,
          0.2301471084356308,
          0.39575883746147156,
          0.3278399705886841
        ],
        [
          -0.15022319555282593,
          0.33422142267227173,
          0.12107417732477188,
          0.19826234877109528,
          -0.20740598440170288
        ],
        [
          -0.23174896836280823,
          -0.08668442815542221,
          -0.2655879855155945,
          0.2818516492843628,
          0.280898779630661
        ],
        [
          0.2490706592798233,
          0.11619648337364197,
          -0.1181413009762764,
          0.26702532172203064,
          -0.2681174576282501
        ],
        [
          0.6972154378890991,
          0.025322485715150833,
          0.00846337154507637,
          -0.011342580430209637,
          0.07944950461387634
        ],
        [
          -0.04573366418480873,
          0.4303892254829407,
          -0.38622429966926575,
          -0.27201879024505615,
          -0.012375449761748314
        ],
        [
          0.418348491191864,
          0.11554881185293198,
          0.4091191291809082,
          -0.3121390640735626,
          -0.3791881203651428
        ],
        [
          -0.27698925137519836,
          -0.13411226868629456,
          0.16450174152851105,
          0.2028144747018814,
          0.4706059396266937
        ],
        [
          -0.11497893184423447,
          -0.2282794564962387,
          0.3148418366909027,
          -0.03952586278319359,
          0.3117871880531311
        ],
        [
          -0.043696437031030655,
          0.24402448534965515,
          -0.3215131461620331,
          -0.15713924169540405,
          0.16670632362365723
        ],
        [
          0.11294820159673691,
          -0.15231768786907196,
          0.33285000920295715,
          0.278829962015152,
          -0.38331055641174316
        ],
        [
          -0.22278843820095062,
          0.5447332262992859,
          -0.2515614330768585,
          -0.043677907437086105,
          -0.30319803953170776
        ],
        [
          -0.46869081258773804,
          0.006404687650501728,
          -0.03191496431827545,
          -0.13625921308994293,
          0.05895152688026428
        ],
        [
          -0.5352485775947571,
          0.003474360564723611,
          -0.25555455684661865,
          -0.36918434500694275,
          -0.20433838665485382
        ],
        [
          0.45410463213920593,
          0.06124799698591232,
          0.23559539020061493,
          -0.5415974855422974,
          -0.323321670293808
        ],
        [
          -0.35416677594184875,
          -0.09131290763616562,
          -0.35087111592292786,
          -0.05834425240755081,
          -0.22169102728366852
        ],
        [
          -0.2376502901315689,
          -0.08795921504497528,
          -0.10361438244581223,
          -0.3966474235057831,
          -0.18348145484924316
        ],
        [
          -0.18020150065422058,
          -0.09918254613876343,
          -0.49048468470573425,
          0.323254257440567,
          0.04007478803396225
        ],
        [
          0.4236585199832916,
          0.054065585136413574,
          -0.13817301392555237,
          0.12921151518821716,
          -0.131607323884964
        ],
        [
          -0.14809395372867584,
          -0.2835455536842346,
          -0.5521120429039001,
          0.0967102199792862,
          -0.12341366708278656
        ],
        [
          0.17473159730434418,
          -0.4993002116680145,
          0.3713293969631195,
          -0.30025503039360046,
          -0.1220310628414154
        ],
        [
          0.129847452044487,
          0.2485949695110321,
          0.4787358045578003,
          0.3096756339073181,
          -0.3036927282810211
        ],
        [
          0.1742592751979828,
          -0.20037689805030823,
          -0.03133567422628403,
          -0.18197225034236908,
          0.4152545928955078
        ],
        [
          -0.14661630988121033,
          0.18723565340042114,
          0.1439739167690277,
          -0.0037903226912021637,
          -0.004058143123984337
        ],
        [
          0.4565483629703522,
          0.05325010418891907,
          -0.04585491120815277,
          -0.2617238759994507,
          0.12584452331066132
        ],
        [
          0.1846253126859665,
          -0.1267724484205246,
          0.28047847747802734,
          0.036904267966747284,
          -0.05943567305803299
        ],
        [
          -0.5601335167884827,
          -0.17523916065692902,
          0.34013262391090393,
          -0.12116831541061401,
          -0.26606419682502747
        ],
        [
          -0.08857619017362595,
          -0.2226066291332245,
          0.2841087877750397,
          0.34271153807640076,
          -0.3815557062625885
        ],
        [
          0.1672258824110031,
          0.17589309811592102,
          -0.010860512964427471,
          0.016029655933380127,
          0.13051936030387878
        ],
        [
          0.37339144945144653,
          0.1823021024465561,
          -0.21056301891803741,
          -0.0534859374165535,
          0.10596925765275955
        ],
        [
          0.009855294600129128,
          -0.0916045680642128,
          0.36134231090545654,
          0.363094687461853,
          0.044614262878894806
        ],
        [
          -0.017961062490940094,
          0.0033822215627878904,
          -0.011332695372402668,
          0.07203906029462814,
          0.12728871405124664
        ],
        [
          -0.5086892247200012,
          -0.13856753706932068,
          0.3535182774066925,
          0.17834345996379852,
          0.13026033341884613
        ],
        [
          -0.18621568381786346,
          -0.12210199236869812,
          -0.5137081146240234,
          -0.044662956148386,
          0.2436213195323944
        ],
        [
          0.3101566433906555,
          0.19566133618354797,
          -0.532950222492218,
          -0.17444603145122528,
          -0.09121555089950562
        ],
        [
          0.47639137506484985,
          -0.0029613918159157038,
          -0.28556907176971436,
          0.061921123415231705,
          -0.12030714750289917
        ],
        [
          -0.0675196647644043,
          0.26352277398109436,
          -0.36530792713165283,
          -0.22486987709999084,
          -0.29055488109588623
        ],
        [
          0.29529887437820435,
          0.24896487593650818,
          -0.033788636326789856,
          -0.2466486543416977,
          -0.458723783493042
        ],
        [
          -0.27291861176490784,
          0.3416912853717804,
          0.27989059686660767,
          0.3461703956127167,
          0.32378384470939636
        ],
        [
          0.15560565888881683,
          -0.012785261496901512,
          -0.45645585656166077,
          -0.30607128143310547,
          -0.4901348352432251
        ],
        [
          0.1666133552789688,
          -0.4040476679801941,
          -0.43047934770584106,
          -0.008003190159797668,
          -0.14490504562854767
        ],
        [
          -0.09900858998298645,
          -0.06741664558649063,
          0.2042420208454132,
          0.05206308141350746,
          0.40332722663879395
        ],
        [
          0.020062969997525215,
          -0.07136470824480057,
          -0.07834291458129883,
          -0.04612590745091438,
          -0.07714291661977768
        ],
        [
          -0.5623751878738403,
          0.04783918708562851,
          -0.3519670367240906,
          0.16196000576019287,
          0.09170036762952805
        ],
        [
          0.34277528524398804,
          -0.34047091007232666,
          0.44172757863998413,
          -0.21233785152435303,
          0.2087412327528
        ],
        [
          0.28318795561790466,
          -0.2403509020805359,
          -0.1355077624320984,
          0.005294156726449728,
          -0.35718485713005066
        ],
        [
          0.31108519434928894,
          -0.44446662068367004,
          0.3551957905292511,
          0.2716176211833954,
          0.5243579149246216
        ],
        [
          -0.34180039167404175,
          -0.20026536285877228,
          0.3350851535797119,
          0.17375332117080688,
          -0.4192692041397095
        ],
        [
          0.19568142294883728,
          -0.0710650086402893,
          -0.1156003475189209,
          -0.021874329075217247,
          -0.03610720485448837
        ],
        [
          -0.050108470022678375,
          -0.35819754004478455,
          0.29945820569992065,
          0.253086119890213,
          0.0117645263671875
        ],
        [
          0.027795473113656044,
          -0.10183790326118469,
          -0.31696099042892456,
          -0.11080700904130936,
          0.1724783033132553
        ],
        [
          -0.6235768795013428,
          -0.08724067360162735,
          0.028347065672278404,
          -0.037547893822193146,
          -0.07632920891046524
        ],
        [
          0.22773310542106628,
          -0.0619194433093071,
          -0.09933852404356003,
          -0.05830736830830574,
          -0.27640894055366516
        ],
        [
          0.4821767210960388,
          -0.1489669680595398,
          0.1650932878255844,
          -0.14093896746635437,
          0.13613806664943695
        ],
        [
          0.5881154537200928,
          0.20971184968948364,
          -0.4298704266548157,
          0.15211854875087738,
          0.41816672682762146
        ],
        [
          0.1675647497177124,
          0.29354727268218994,
          0.4386875629425049,
          0.017357228323817253,
          0.113036148250103
        ]
      ],
      "bias": [
        -0.3363187611103058,
        0.05494023114442825,
        0.503040611743927,
        0.43745896220207214,
        -0.02302488125860691,
        -0.03888995945453644,
        -0.09853586554527283,
        -0.3344952166080475,
        -0.23288153111934662,
        -0.029750216752290726,
        0.6501032710075378,
        0.2547842562198639,
        -0.32600435614585876,
        -0.5112431049346924,
        0.4537745714187622,
        -0.29329195618629456,
        0.2888854742050171,
        0.4481293559074402,
        -0.07401745021343231,
        0.16426853835582733,
        0.17796973884105682,
        0.12686596810817719,
        -0.0795019343495369,
        -0.5239765048027039,
        -0.3658110201358795,
        -0.18047700822353363,
        0.6928615570068359,
        0.009481196291744709,
        -0.17156648635864258,
        0.25816237926483154,
        0.31544801592826843,
        0.6051217913627625,
        0.5372409820556641,
        0.6557430028915405,
        -0.27734413743019104,
        0.13791203498840332,
        0.5302010774612427,
        0.09403499960899353,
        -0.2421645224094391,
        0.6544336676597595,
        0.0005182327004149556,
        -0.12762236595153809,
        -0.2344239354133606,
        0.18143242597579956,
        0.5044590830802917,
        0.3295579254627228,
        0.27330878376960754,
        -0.12757539749145508,
        -0.026774484664201736,
        0.31508156657218933,
        0.7467839121818542,
        0.41267114877700806,
        -0.016469325870275497,
        0.31134164333343506,
        -0.12551294267177582,
        -0.12732648849487305,
        0.4535258412361145,
        0.567886471748352,
        0.6415367722511292,
        0.21257121860980988,
        0.680293083190918,
        -0.024434665217995644,
        0.35155078768730164,
        0.5580152869224548
      ]
    },
    {
      "weight": [
        [
          0.020913420245051384,
          0.1356685757637024,
          -0.020616792142391205,
          0.05381914600729942,
          0.0437127910554409,
          -0.100771963596344,
          -0.009384257718920708,
          -0.06346242874860764,
          0.08041306585073471,
          0.048139967024326324,
          0.13980364799499512,
          -0.01964578963816166,
          -0.46331971883773804,
          -0.051063358783721924,
          0.12981635332107544,
          -0.09944570064544678,
          0.04527224227786064,
          0.17267045378684998,
          0.005297438707202673,
          -0.005901473108679056,
          -0.08533544093370438,
          -0.14556020498275757,
          -0.09040219336748123,
          -0.15540114045143127,
          -0.11074227839708328,
          0.025172898545861244,
          0.06732286512851715,
          -0.013853892683982849,
          0.14334185421466827,
          0.0907423123717308,
          0.16669495403766632,
          0.03055465966463089,
          0.038135431706905365,
          0.20229598879814148,
          -0.26477479934692383,
          -0.08163405954837799,
          0.09032034873962402,
          0.01241604145616293,
          -0.09659120440483093,
          0.20040051639080048,
          0.07080169767141342,
          0.040036268532276154,
          0.005513078533113003,
          -0.04923068732023239,
          0.023377995938062668,
          0.11245844513177872,
          0.09826754778623581,
          0.0025694752112030983,
          -0.07679902017116547,
          0.17226053774356842,
          0.09178358316421509,
          0.1358564794063568,
          -0.02111559920012951,
          0.08410640060901642,
          -0.002288560848683119,
          -0.04239031672477722,
          0.13543178141117096,
          0.1941484659910202,
          0.11020255833864212,
          -0.028074758127331734,
          0.3406254053115845,
          -0.06032593920826912,
          -0.02151276171207428,
          0.19255460798740387
        ],
        [
          0.08093354851007462,
          -0.07290498912334442,
          0.08129052072763443,
          0.0015217559412121773,
          -0.14732049405574799,
          -0.03739700838923454,
          0.01672346144914627,
          -0.00889570452272892,
          -0.07799360901117325,
          0.0749373659491539,
          0.17122264206409454,
          -0.031045494601130486,
          -0.3944758474826813,
          -0.07494111359119415,
          0.14827997982501984,
          -0.15427593886852264,
          0.12539342045783997,
          0.03599730134010315,
          -0.12650811672210693,
          -0.11031854152679443,
          0.022816359996795654,
          0.07220160216093063,
          0.11582907289266586,
          -0.09059572219848633,
          0.055380385369062424,
          -0.07281576097011566,
          0.059627946466207504,
          0.07688179612159729,
          -0.04966311156749725,
          -0.04423268884420395,
          0.03590700775384903,
          0.16029244661331177,
          0.16152183711528778,
          0.19625544548034668,
          -0.29249170422554016,
          0.005337018985301256,
          0.035956721752882004,
          -0.04458524286746979,
          0.04366793483495712,
          0.15119606256484985,
          0.0348055437207222,
          0.12040365487337112,
          0.039311591535806656,
          0.0902329832315445,
          0.13396663963794708,
          0.09096097946166992,
          0.010870312340557575,
          0.02055094763636589,
          0.034737568348646164,
          0.2259839028120041,
          0.23995377123355865,
          0.022364310920238495,
          -0.03518950194120407,
          0.03467424958944321,
          0.001389651675708592,
          0.014505330473184586,
          0.32997751235961914,
          0.20940034091472626,
          0.04901447519659996,
          -0.18881675601005554,
          0.2699374854564667,
          -0.06336752325296402,
          0.07071870565414429,
          -0.0062236059457063675
        ],
        [
          0.06000322848558426,
          -0.07109667360782623,
          -0.0041336920112371445,
          -0.017945753410458565,
          0.07855972647666931,
          -0.19583503901958466,
          0.11854051798582077,
          -0.010630936361849308,
          -0.013639332726597786,
          0.0697362944483757,
          0.07491128891706467,
          0.1278921216726303,
          -0.2488311231136322,
          -0.15849462151527405,
          0.1335926204919815,
          -0.00838669016957283,
          0.10583717375993729,
          0.09579908102750778,
          0.03566679358482361,
          -0.06592515110969543,
          -0.059871114790439606,
          0.08736715465784073,
          0.11457215249538422,
          -0.07927082479000092,
          -0.16563653945922852,
          -0.0010280647547915578,
          0.001177426427602768,
          0.13810570538043976,
          -0.04874904453754425,
          0.03821484372019768,
          0.04246222600340843,
          0.10509602725505829,
          0.19511784613132477,
          0.1535021960735321,
          -0.09990186989307404,
          0.09884665161371231,
          0.18379193544387817,
          0.01090896874666214,
          -0.026931388303637505,
          0.16866132616996765,
          -0.056509584188461304,
          0.08322793245315552,
          0.0004952183226123452,
          -0.025102876126766205,
          0.11157906800508499,
          0.09213803708553314,
          0.09512364119291306,
          0.14632375538349152,
          0.06020573526620865,
          0.21690967679023743,
          0.16986183822155,
          -0.05812383443117142,
          -0.0559559166431427,
          -0.0010107576381415129,
          -0.08271115273237228,
          -0.11734318733215332,
          0.031376682221889496,
          -0.018350273370742798,
          0.02355959266424179,
          -0.251614511013031,
          0.11103463917970657,
          0.055906742811203,
          0.16571937501430511,
          0.043561551719903946
        ],
        [
          -0.0456201396882534,
          0.05229929834604263,
          -0.07564719766378403,
          -0.07329089939594269,
          0.06566772609949112,
          -0.11491432785987854,
          0.0013397029833868146,
          0.09655959904193878,
          0.011504440568387508,
          0.020398665219545364,
          -0.08436033874750137,
          -0.015897132456302643,
          -0.00026740069733932614,
          0.030679285526275635,
          0.034285206347703934,
          0.09832559525966644,
          -0.10892876982688904,
          -0.005461659282445908,
          -0.0768633484840393,
          -0.11075066030025482,
          -0.019595222547650337,
          -0.12237171828746796,
          0.07375501096248627,
          0.014476850628852844,
          -0.07337486743927002,
          0.05962500348687172,
          -0.13142074644565582,
          -0.05390356481075287,
          -0.038203153759241104,
          -0.12061343342065811,
          -0.09132688492536545,
          -0.0349668450653553,
          0.08110185712575912,
          0.10629888623952866,
          0.06635207682847977,
          -0.08929188549518585,
          -0.09563140571117401,
          0.09921346604824066,
          0.030819686129689217,
          -0.010885309427976608,
          0.002708046929910779,
          -0.1057756096124649,
          -0.041735678911209106,
          0.10789791494607925,
          -0.04572694003582001,
          -0.02063796855509281,
          -0.11685550212860107,
          -0.06992588937282562,
          -0.008557764813303947,
          -0.0910019502043724,
          -0.02982395328581333,
          0.041881244629621506,
          -0.13547585904598236,
          0.02317993901669979,
          -0.09504657983779907,
          -0.0751427561044693,
          0.0334261991083622,
          0.08504913002252579,
          -0.04623831436038017,
          -0.056406643241643906,
          -0.12754905223846436,
          -0.07493333518505096,
          -0.1199132651090622,
          -0.042837079614400864
        ],
        [
          -0.3904254734516144,
          -0.20441824197769165,
          -0.04131477326154709,
          0.15437689423561096,
          0.06107189133763313,
          0.1743585616350174,
          -0.19015125930309296,
          -0.4277953505516052,
          -0.23134437203407288,
          0.0860750824213028,
          0.3734469711780548,
          -0.1597120761871338,
          -0.4686817526817322,
          -0.2354206144809723,
          0.08442690223455429,
          0.22341904044151306,
          0.06815487146377563,
          0.01284753531217575,
          -0.043235842138528824,
          0.25395816564559937,
          0.3251991271972656,
          0.22726216912269592,
          -0.19645310938358307,
          0.41969603300094604,
          0.11551842838525772,
          0.10494782030582428,
          -0.10778532922267914,
          0.05969209969043732,
          0.029155410826206207,
          -0.07783485949039459,
          -0.05872926488518715,
          0.33933398127555847,
          0.07826024293899536,
          0.09512465447187424,
          0.2500331401824951,
          0.1559213101863861,
          -0.17449207603931427,
          -0.43196457624435425,
          -0.0448177270591259,
          0.01703714393079281,
          0.41116294264793396,
          0.12838074564933777,
          -0.22857119143009186,
          -0.1793670803308487,
          0.14390285313129425,
          0.029466865584254265,
          0.047347985208034515,
          0.05101115629076958,
          -0.30238112807273865,
          0.17347954213619232,
          0.15170055627822876,
          0.42925822734832764,
          -0.11762034147977829,
          -0.13491690158843994,
          -0.2078082263469696,
          0.21083256602287292,
          0.06530965864658356,
          0.17396236956119537,
          0.034575484693050385,
          0.287310928106308,
          0.03546036034822464,
          -0.3213997185230255,
          -0.3578113913536072,
          -0.09788136184215546
        ],
        [
          0.02456650324165821,
          -0.11645946651697159,
          0.14212745428085327,
          0.14717291295528412,
          -0.16762623190879822,
          -0.1047486662864685,
          -0.01674623228609562,
          0.005723919253796339,
          0.03567904978990555,
          -0.1608392298221588,
          0.21872848272323608,
          0.13843251764774323,
          -0.34843721985816956,
          -0.21519319713115692,
          0.06113361939787865,
          -0.13120445609092712,
          0.06790680438280106,
          0.15681634843349457,
          0.004576910752803087,
          0.05687059462070465,
          -0.13797086477279663,
          -0.036019328981637955,
          0.051742441952228546,
          -0.19889330863952637,
          -0.19566874206066132,
          -0.09319981932640076,
          0.1925513744354248,
          -0.08784916251897812,
          -0.11227791756391525,
          0.10404681414365768,
          0.145250603556633,
          0.18662616610527039,
          -0.0031730339396744967,
          0.10619399696588516,
          -0.13674569129943848,
          0.06698998063802719,
          0.17649756371974945,
          0.07069242000579834,
          0.011473331600427628,
          0.25798100233078003,
          -0.13273057341575623,
          -0.04655987024307251,
          0.09865611791610718,
          -0.0202911589294672,
          -0.027661608532071114,
          0.173366978764534,
          0.06342874467372894,
          0.03861450403928757,
          -0.08424217253923416,
          0.13442914187908173,
          0.3557190001010895,
          -0.04204658791422844,
          0.016575222834944725,
          0.12437611818313599,
          -0.08172711730003357,
          0.03553161397576332,
          0.13486699759960175,
          0.09344933182001114,
          0.08542658388614655,
          -0.25609320402145386,
          0.14340218901634216,
          0.049009110778570175,
          0.0993044450879097,
          -0.017362145707011223
        ],
        [
          -0.06350938230752945,
          0.13854509592056274,
          0.12724731862545013,
          0.14369891583919525,
          -0.10096211731433868,
          -0.14845961332321167,
          -0.0028312455397099257,
          -0.04308471083641052,
          -0.09197621047496796,
          0.003294140100479126,
          0.1083369180560112,
          0.03200912103056908,
          -0.3506101965904236,
          -0.11093833297491074,
          0.12468312680721283,
          0.0007683363510295749,
          0.025854449719190598,
          -0.04181728512048721,
          0.058303963392972946,
          0.019643839448690414,
          -0.11735096573829651,
          0.07702774554491043,
          -0.03223271667957306,
          0.012380893342196941,
          0.011165942996740341,
          -0.10556276142597198,
          0.17296643555164337,
          -0.07227222621440887,
          -0.050185106694698334,
          0.026123853400349617,
          -0.010461646132171154,
          0.2124619483947754,
          0.05657563731074333,
          0.21088479459285736,
          -0.2752617597579956,
          0.06693589687347412,
          0.050167281180620193,
          -0.039441078901290894,
          0.017009487375617027,
          0.1786804050207138,
          0.09176487475633621,
          -0.052105095237493515,
          -0.036021847277879715,
          0.08691319078207016,
          0.09284834563732147,
          0.12372012436389923,
          0.10868953168392181,
          -0.018659885972738266,
          0.030828556045889854,
          0.21133415400981903,
          0.16000007092952728,
          0.13628295063972473,
          0.09016678482294083,
          0.17920668423175812,
          -0.046722885221242905,
          -0.11361146718263626,
          0.13914301991462708,
          0.11488313972949982,
          0.18037323653697968,
          -0.20602601766586304,
          0.2815137803554535,
          -0.042571742087602615,
          0.140156090259552,
          0.08117030560970306
        ],
        [
          -0.13511326909065247,
          -0.08801966905593872,
          -0.117484450340271,
          0.03564106673002243,
          -0.10558221489191055,
          -0.029593752697110176,
          0.003785355482250452,
          -0.08811307698488235,
          0.008355960249900818,
          -0.14066298305988312,
          -0.11783298850059509,
          -0.1344475895166397,
          -0.061993859708309174,
          -0.0650765523314476,
          -0.0024060055147856474,
          -0.05216295272111893,
          0.03234199434518814,
          0.0852014347910881,
          0.025841984897851944,
          -0.07091038674116135,
          -0.139747753739357,
          0.024531710892915726,
          -0.08084842562675476,
          0.040617313235998154,
          0.07037420570850372,
          0.018934767693281174,
          0.09033859521150589,
          0.09086667001247406,
          0.005153167061507702,
          -0.11063099652528763,
          0.08215780556201935,
          -0.08049333095550537,
          -0.08671417832374573,
          0.08384402841329575,
          0.0885329321026802,
          0.01908818446099758,
          -0.020265202969312668,
          -0.1335340440273285,
          -0.033260736614465714,
          0.09192749112844467,
          0.01121759507805109,
          -0.0203554667532444,
          -0.05155632272362709,
          -0.06804493069648743,
          0.050797924399375916,
          -0.010039007291197777,
          0.053208351135253906,
          -0.04463053494691849,
          0.03261175379157066,
          0.02472773753106594,
          -0.003889888757839799,
          0.05013272538781166,
          0.05143190175294876,
          0.09644896537065506,
          0.06688817590475082,
          -0.04863808676600456,
          -0.12685233354568481,
          0.000716692244168371,
          -0.029912160709500313,
          -0.0439613051712513,
          -0.043787453323602676,
          -0.02138611301779747,
          0.06258528679609299,
          0.013021535240113735
        ],
        [
          -0.3629333972930908,
          -0.09727498143911362,
          -0.31049105525016785,
          0.14397397637367249,
          0.21744349598884583,
          0.28005072474479675,
          -0.167669877409935,
          -0.3833751380443573,
          -0.14820538461208344,
          0.1410059779882431,
          0.17705804109573364,
          -0.029857100918889046,
          -0.3825400769710541,
          -0.15633177757263184,
          -0.007709784433245659,
          0.26802945137023926,
          0.3502364754676819,
          0.3008887469768524,
          0.11965925246477127,
          0.1551114320755005,
          0.38202613592147827,
          0.2863108217716217,
          -0.1553182750940323,
          0.3339439928531647,
          0.040900956839323044,
          0.11939991265535355,
          -0.27892008423805237,
          0.12687821686267853,
          0.20774267613887787,
          0.0066648852080106735,
          -0.04406869038939476,
          0.3985605835914612,
          -0.13814009726047516,
          0.1211792379617691,
          0.48151707649230957,
          0.0389278382062912,
          -0.3483569025993347,
          -0.5930608510971069,
          0.00870058499276638,
          0.05438758805394173,
          0.25716522336006165,
          0.20275738835334778,
          -0.2363547384738922,
          -0.3136558532714844,
          0.18820805847644806,
          -0.12655238807201385,
          0.12135183066129684,
          0.1049811914563179,
          -0.2779202461242676,
          0.3874551057815552,
          0.18309001624584198,
          0.26751014590263367,
          -0.28816452622413635,
          -0.26955318450927734,
          -0.37508025765419006,
          0.11508557200431824,
          0.24016454815864563,
          0.20165441930294037,
          0.33779892325401306,
          0.07379576563835144,
          -0.024176768958568573,
          -0.4509628117084503,
          -0.35099831223487854,
          0.04652537405490875
        ],
        [
          -0.08866758644580841,
          0.03393470123410225,
          -0.006042985245585442,
          0.08677385002374649,
          -0.06948700547218323,
          0.05059397220611572,
          0.04625081643462181,
          -0.03613609820604324,
          -0.00047779857413843274,
          -0.06123430281877518,
          0.17106632888317108,
          0.1009063869714737,
          -0.3349233567714691,
          -0.13276605308055878,
          0.20436446368694305,
          -0.06276804953813553,
          0.02969667688012123,
          0.1718725711107254,
          0.09845138341188431,
          0.10229764133691788,
          -0.02881179004907608,
          -0.06560957431793213,
          0.0835924744606018,
          -0.015668151900172234,
          -0.16190055012702942,
          -0.051388293504714966,
          0.0320969820022583,
          0.04843537136912346,
          0.07847506552934647,
          0.023420650511980057,
          0.06542947143316269,
          0.1696075052022934,
          0.07155267149209976,
          0.08147280663251877,
          -0.09994808584451675,
          -0.05856933444738388,
          0.08767026662826538,
          0.05830065533518791,
          -0.013858788646757603,
          0.031144680455327034,
          0.007137182634323835,
          -0.04834903031587601,
          -0.049589186906814575,
          0.08837027847766876,
          0.020452747121453285,
          0.027669427916407585,
          -0.00892723724246025,
          -0.023937242105603218,
          -0.06937742978334427,
          0.06754909455776215,
          0.2428269386291504,
          -0.031041095033288002,
          -0.0627436563372612,
          0.09459743648767471,
          0.023730076849460602,
          0.005294250324368477,
          0.09553369134664536,
          0.16413812339305878,
          0.1951925903558731,
          -0.05203087255358696,
          0.11923197656869888,
          -0.0728251039981842,
          -0.04322201758623123,
          0.023632602766156197
        ],
        [
          0.08078327775001526,
          0.010907326824963093,
          0.13399602472782135,
          0.02535621076822281,
          -0.022847982123494148,
          -0.14993079006671906,
          0.07588881254196167,
          -0.06575231999158859,
          -0.04467665031552315,
          -0.1341833919286728,
          0.10767027735710144,
          0.1660177856683731,
          -0.2994195818901062,
          -0.14371129870414734,
          0.09674862772226334,
          -0.05591972917318344,
          -0.01831747591495514,
          0.18260379135608673,
          -0.0022655795328319073,
          0.002023667097091675,
          -0.12411175668239594,
          -0.09527207911014557,
          0.04419475048780441,
          -0.07712461054325104,
          -0.02754194661974907,
          -0.09269732236862183,
          0.2210274189710617,
          0.006753279361873865,
          -0.04325411096215248,
          -0.013515778817236423,
          0.19537891447544098,
          0.10269862413406372,
          0.06793638318777084,
          0.13512134552001953,
          -0.24814511835575104,
          -0.10576985031366348,
          -0.007461734116077423,
          0.12309226393699646,
          0.09879979491233826,
          0.24953842163085938,
          -0.14393040537834167,
          0.0805959701538086,
          -0.05972633883357048,
          0.13054606318473816,
          0.1687031388282776,
          0.17758026719093323,
          0.12135353684425354,
          0.10286200046539307,
          -0.006309831980615854,
          0.1627727597951889,
          0.17288410663604736,
          0.11133825778961182,
          -0.020708106458187103,
          0.08797752112150192,
          -0.09557066857814789,
          -0.1047518327832222,
          0.13571996986865997,
          0.07803288102149963,
          0.03625401481986046,
          -0.24467171728610992,
          0.2492891252040863,
          0.07355640828609467,
          0.17503722012043,
          0.16301754117012024
        ],
        [
          -0.044675737619400024,
          -0.09362851828336716,
          0.12257895618677139,
          0.1594139039516449,
          -0.14507833123207092,
          -0.03406022489070892,
          0.12753792107105255,
          0.004525887779891491,
          -0.07718763500452042,
          0.08619806915521622,
          0.14145775139331818,
          0.13075590133666992,
          -0.42963844537734985,
          0.015062409453094006,
          -0.0005072455969639122,
          0.09082094579935074,
          0.01847086101770401,
          0.15513046085834503,
          0.028113460168242455,
          0.018604770302772522,
          -0.07337811589241028,
          0.014945857226848602,
          -0.021953044459223747,
          -0.21917952597141266,
          -0.11729951202869415,
          0.07738117128610611,
          0.05779951810836792,
          0.06595707684755325,
          -0.012278527021408081,
          0.13839654624462128,
          0.14421039819717407,
          0.13084381818771362,
          0.015435156412422657,
          0.04679865762591362,
          -0.199549600481987,
          -0.07104797661304474,
          0.18751110136508942,
          -0.06751972436904907,
          0.05365748330950737,
          0.2378021627664566,
          0.025200236588716507,
          0.05829256772994995,
          -0.09368686378002167,
          0.17737726867198944,
          0.0447981134057045,
          -0.04269464313983917,
          0.15878015756607056,
          -0.032300397753715515,
          -0.019142944365739822,
          0.20434673130512238,
          0.08915074169635773,
          -0.03517638519406319,
          0.047252971678972244,
          0.06666307896375656,
          0.050491444766521454,
          -0.17200063169002533,
          0.16207529604434967,
          0.04095758497714996,
          0.041670866310596466,
          -0.2520536482334137,
          0.26952844858169556,
          0.027945417910814285,
          -0.0446806363761425,
          0.18086491525173187
        ],
        [
          -0.038974788039922714,
          0.007994437590241432,
          -0.12165100127458572,
          -0.007141736801713705,
          0.1342020034790039,
          0.11719118803739548,
          -0.19264231622219086,
          0.08950349688529968,
          0.030645005404949188,
          0.08861307799816132,
          0.0991494432091713,
          0.03151034936308861,
          0.45028945803642273,
          0.05143725126981735,
          -0.03668293356895447,
          0.36848464608192444,
          0.10204809159040451,
          0.03683815896511078,
          0.14669042825698853,
          -0.05801478400826454,
          0.13776107132434845,
          0.02642952837049961,
          0.3012526333332062,
          0.3634985089302063,
          0.208878755569458,
          0.26727476716041565,
          0.0011884357081726193,
          0.15729458630084991,
          0.06415572762489319,
          0.02055194042623043,
          0.042210277169942856,
          -0.15040573477745056,
          0.0299807321280241,
          -0.30048269033432007,
          0.5361008048057556,
          -0.00511238444596529,
          -0.046928856521844864,
          0.10728153586387634,
          -0.014931420795619488,
          0.019073549658060074,
          0.2646126449108124,
          0.27464476227760315,
          -0.0683976411819458,
          -0.18382301926612854,
          -0.0916706770658493,
          -0.06539491564035416,
          0.049272727221250534,
          0.007665890268981457,
          0.14135593175888062,
          0.179770365357399,
          -0.19228510558605194,
          0.18176446855068207,
          -0.008566680364310741,
          -0.3911169171333313,
          0.012353898026049137,
          0.16497589647769928,
          -0.11362316459417343,
          -0.03928908705711365,
          0.1486290544271469,
          -0.0880296602845192,
          -0.17851488292217255,
          -0.08105970919132233,
          -0.042041510343551636,
          0.09266247600317001
        ],
        [
          0.06668265908956528,
          -0.025924183428287506,
          0.035544779151678085,
          -0.06711822003126144,
          -0.13559791445732117,
          0.011875866912305355,
          0.011786551214754581,
          -0.10614803433418274,
          0.03393943980336189,
          -0.13364379107952118,
          0.08020538091659546,
          0.09304023534059525,
          0.0187508687376976,
          -0.0972464457154274,
          0.03632105886936188,
          -0.0036162424366921186,
          0.01018803846091032,
          0.016741296276450157,
          0.0679837018251419,
          -0.07649731636047363,
          -0.04862700030207634,
          0.013578482903540134,
          -0.008728090673685074,
          0.0813886821269989,
          -0.08477851003408432,
          -0.034784071147441864,
          -0.002506374381482601,
          -0.05860317125916481,
          0.06131882593035698,
          -0.013402479700744152,
          -0.1365903615951538,
          -0.04049938544631004,
          -0.07980745285749435,
          -0.01401323452591896,
          -0.04110059514641762,
          -0.1505889743566513,
          -0.046954985707998276,
          -0.03602941706776619,
          -0.06448885798454285,
          0.08885131776332855,
          -0.0533546581864357,
          0.059527844190597534,
          0.010263457894325256,
          -0.13099169731140137,
          0.004460637923330069,
          0.0798487514257431,
          -0.10899462550878525,
          -0.09917404502630234,
          0.11365775018930435,
          0.07677293568849564,
          -0.09331881254911423,
          0.04901331663131714,
          -0.03799114376306534,
          -0.14831092953681946,
          -0.016038427129387856,
          0.015471221879124641,
          -0.05975107103586197,
          0.016815146431326866,
          -0.12807464599609375,
          0.06558737903833389,
          0.08289886265993118,
          0.04755595326423645,
          -0.003956921864300966,
          0.016485849395394325
        ],
        [
          -0.11578405648469925,
          -0.055078230798244476,
          -0.039047520607709885,
          -0.09539682418107986,
          -0.11971984803676605,
          0.058570366352796555,
          0.05888691172003746,
          -0.13496220111846924,
          0.015614422969520092,
          0.026142029091715813,
          0.08799289166927338,
          0.04533969983458519,
          0.0911470353603363,
          -0.06131495535373688,
          0.06147187575697899,
          0.07620252668857574,
          -0.14423871040344238,
          -0.1305576115846634,
          0.0022584572434425354,
          0.04333719611167908,
          -0.08744589984416962,
          -0.012089092284440994,
          -0.02791455201804638,
          0.004738192074000835,
          -0.08814344555139542,
          0.03964810073375702,
          0.05392129719257355,
          -0.1182805672287941,
          -0.023201387375593185,
          -0.02409195713698864,
          0.010567110031843185,
          0.09055949747562408,
          0.008105669170618057,
          -0.05353924259543419,
          0.09486209601163864,
          -0.0724729374051094,
          -0.06418099999427795,
          -0.019521113485097885,
          -0.118380106985569,
          -0.01568170264363289,
          -0.10646182298660278,
          -0.01880202442407608,
          -0.014355880208313465,
          -0.010076601058244705,
          -0.1330089569091797,
          -0.14357708394527435,
          0.03174218535423279,
          0.07796762883663177,
          -0.138335719704628,
          0.019394654780626297,
          -0.1211220920085907,
          -0.02091868780553341,
          0.08944031596183777,
          0.06416720151901245,
          -0.11773314327001572,
          0.05398518219590187,
          0.03859119489789009,
          -0.02569570019841194,
          0.08988465368747711,
          -0.07034531235694885,
          -0.058464415371418,
          -0.09108894318342209,
          -0.010529856197535992,
          0.007040354888886213
        ],
        [
          -0.00200455030426383,
          -0.08101806044578552,
          -0.06777779012918472,
          0.029484359547495842,
          -0.1234239712357521,
          -0.031738754361867905,
          -0.0027689486742019653,
          -0.050645485520362854,
          0.03894563764333725,
          -0.004821969196200371,
          0.0718604326248169,
          -0.024527892470359802,
          -0.0788923054933548,
          0.0752568319439888,
          0.008667157031595707,
          -0.04422513023018837,
          -0.09358374774456024,
          0.014355318620800972,
          -0.1247703954577446,
          0.01891264133155346,
          0.04763059318065643,
          -0.12227848172187805,
          -0.08739092200994492,
          -0.10532097518444061,
          0.10506331920623779,
          0.08891590684652328,
          -0.007032489404082298,
          0.1006091758608818,
          -0.041787996888160706,
          -0.13368447124958038,
          0.03016752377152443,
          0.030336547642946243,
          0.10954045504331589,
          -0.008262802846729755,
          0.095799520611763,
          0.06392960995435715,
          0.07722402364015579,
          -0.13707871735095978,
          0.09547122567892075,
          -0.12116239964962006,
          0.10323042422533035,
          -0.021075407043099403,
          -0.12380339205265045,
          0.021432597190141678,
          -0.04074379429221153,
          -0.12365801632404327,
          -0.05781276151537895,
          0.0009268596768379211,
          0.09735582768917084,
          -0.051365695893764496,
          0.0590846985578537,
          0.00042001536348834634,
          -0.004222693387418985,
          0.015712488442659378,
          -0.09065195173025131,
          -0.11425111442804337,
          -0.05214935541152954,
          -0.12839606404304504,
          -0.07310251891613007,
          -0.0002476958616171032,
          -0.09743081033229828,
          -0.05740796774625778,
          -0.03683897852897644,
          -0.025451717898249626
        ],
        [
          -0.08140814304351807,
          -0.011395508423447609,
          -0.03472062572836876,
          0.018074441701173782,
          -0.008377350866794586,
          -0.0768439769744873,
          -0.05899187549948692,
          -0.016945792362093925,
          -0.07799816131591797,
          -0.007268731482326984,
          -0.02263706922531128,
          0.031841591000556946,
          0.01803489588201046,
          0.07919029146432877,
          -0.02285398729145527,
          -0.10105881839990616,
          0.04007018357515335,
          -0.09868878126144409,
          -0.0345570370554924,
          -0.05787905305624008,
          -0.06424055993556976,
          -0.06248864904046059,
          0.0962151288986206,
          0.05791096389293671,
          0.017943227663636208,
          0.10511548817157745,
          -0.12832647562026978,
          0.007043263874948025,
          0.06340129673480988,
          0.06532616913318634,
          -0.11342360824346542,
          0.026739828288555145,
          -0.0884910523891449,
          -0.023233452811837196,
          -0.04456726089119911,
          -0.12204624712467194,
          -0.1362282782793045,
          -0.09447825700044632,
          0.04290018230676651,
          0.040408696979284286,
          -0.1260477900505066,
          -0.060145940631628036,
          -0.01001738477498293,
          -0.12205323576927185,
          0.053205154836177826,
          0.09448810666799545,
          0.006325379945337772,
          -0.10862074047327042,
          0.016842657700181007,
          0.029855908825993538,
          0.08220107108354568,
          -0.08036328107118607,
          -0.12595918774604797,
          0.0362161360681057,
          -0.00013707290054298937,
          -0.05844231694936752,
          -0.06908426433801651,
          -0.08191540837287903,
          0.08592216670513153,
          -0.037840306758880615,
          0.07290662080049515,
          0.10025229305028915,
          0.0051275091245770454,
          0.008478391915559769
        ],
        [
          0.007046360056847334,
          0.09849300235509872,
          -0.028680335730314255,
          0.14608930051326752,
          -0.050841040909290314,
          -0.04360375553369522,
          0.018356995657086372,
          -0.0684480145573616,
          -0.021174514666199684,
          0.060819629579782486,
          0.010535640642046928,
          -0.028034748509526253,
          -0.39216870069503784,
          -0.10742779076099396,
          0.1503358632326126,
          0.03480885177850723,
          0.08509080111980438,
          0.2014380246400833,
          -0.06153158098459244,
          -0.07886464148759842,
          -0.1082165539264679,
          -0.1350448727607727,
          -0.06030659005045891,
          -0.1744808405637741,
          -0.1718742698431015,
          0.034271951764822006,
          0.17114074528217316,
          0.16293585300445557,
          0.12606343626976013,
          0.04383387416601181,
          0.1015775203704834,
          0.017922155559062958,
          0.13362929224967957,
          0.051876239478588104,
          -0.10870533436536789,
          0.01498902216553688,
          0.13051250576972961,
          0.10307278484106064,
          -0.06105156987905502,
          0.2290312647819519,
          0.043498195707798004,
          0.11051478236913681,
          0.04303465038537979,
          0.14590932428836823,
          0.14250405132770538,
          0.13994860649108887,
          0.1367744356393814,
          -0.011365995742380619,
          0.04465140029788017,
          0.1552596241235733,
          0.2734595835208893,
          0.16844788193702698,
          0.06125148385763168,
          0.026757853105664253,
          0.013702345080673695,
          -0.01903229020535946,
          0.19845539331436157,
          0.08380412310361862,
          0.20532357692718506,
          -0.06560251116752625,
          0.1448301076889038,
          -0.006893913261592388,
          0.054790396243333817,
          0.013529184274375439
        ],
        [
          0.026889147236943245,
          -0.02530793473124504,
          0.023047855123877525,
          0.06787053495645523,
          -0.07513760030269623,
          0.02187436819076538,
          0.052412234246730804,
          0.09068077802658081,
          0.014574754051864147,
          0.014131148345768452,
          0.16392670571804047,
          0.06856698542833328,
          -0.48192086815834045,
          -0.15143191814422607,
          0.0713997632265091,
          -0.05785447731614113,
          0.14513260126113892,
          0.1381920576095581,
          0.08460614085197449,
          0.007257553748786449,
          -0.11172602325677872,
          -0.1429785043001175,
          -0.07601827383041382,
          -0.1666412502527237,
          -0.022548172622919083,
          0.057020872831344604,
          0.2155776172876358,
          0.0008230939274653792,
          0.003215862438082695,
          0.010163876228034496,
          0.07732901722192764,
          0.14442087709903717,
          0.08705129474401474,
          0.19835737347602844,
          -0.16642962396144867,
          0.037101756781339645,
          0.0618472620844841,
          -0.019569192081689835,
          0.02146691270172596,
          0.12286737561225891,
          -0.0853472575545311,
          0.07083547860383987,
          0.02160475216805935,
          0.047209929674863815,
          0.006708038039505482,
          0.06727277487516403,
          -0.068931445479393,
          0.03525356948375702,
          -0.034973178058862686,
          0.2057725042104721,
          0.23580510914325714,
          0.06279868632555008,
          0.054167576134204865,
          0.1678646057844162,
          -0.04532420635223389,
          0.015216405503451824,
          0.2337065488100052,
          0.04366736486554146,
          0.1618896722793579,
          -0.21951578557491302,
          0.21459393203258514,
          -0.07366134971380234,
          -0.016601882874965668,
          0.19647276401519775
        ],
        [
          -0.13392363488674164,
          0.0390881784260273,
          -0.13380740582942963,
          -0.03535047173500061,
          -0.014332207851111889,
          0.07335684448480606,
          -0.06610646843910217,
          0.01532209012657404,
          -0.0033270062413066626,
          0.04997270554304123,
          -0.015628358349204063,
          0.024191781878471375,
          -0.09042923897504807,
          -0.10024600476026535,
          0.09185582399368286,
          -0.11119474470615387,
          -0.039223525673151016,
          -0.03772008791565895,
          0.09823187440633774,
          -0.0444461964070797,
          -0.11335045099258423,
          -0.04990283399820328,
          0.0453772246837616,
          0.032398536801338196,
          0.08818036317825317,
          -0.048712633550167084,
          0.03651636838912964,
          -0.13919809460639954,
          0.03141365200281143,
          0.035361435264348984,
          0.05890657752752304,
          -0.09303320944309235,
          -0.054546985775232315,
          0.009920606389641762,
          -0.10318122059106827,
          -0.12110067158937454,
          -0.14153017103672028,
          -0.01436358317732811,
          0.05249115079641342,
          0.009856337681412697,
          -0.012877697125077248,
          0.02050269953906536,
          -0.09805499762296677,
          -0.008467074483633041,
          -0.05058695748448372,
          -0.08092848211526871,
          0.08512447029352188,
          -0.11654477566480637,
          -3.823454608209431e-05,
          -0.128225177526474,
          -0.02512146532535553,
          -0.07797790318727493,
          0.021819790825247765,
          -0.09109890460968018,
          0.05775099992752075,
          -0.12111800909042358,
          0.0559685155749321,
          -0.11564610153436661,
          0.044287800788879395,
          -0.0648544505238533,
          -0.02113158442080021,
          -0.042652010917663574,
          0.05894530564546585,
          0.020338336005806923
        ],
        [
          -0.0881456658244133,
          0.04104049131274223,
          -0.0010790677042677999,
          0.19453807175159454,
          -0.0120958611369133,
          -0.09578725695610046,
          -0.039653368294239044,
          0.04338064417243004,
          -0.07530257105827332,
          0.04521035775542259,
          0.17642027139663696,
          0.13004499673843384,
          -0.3085978925228119,
          -0.17061251401901245,
          0.1811549812555313,
          -0.06733224540948868,
          0.042148150503635406,
          0.0768699198961258,
          0.09425053745508194,
          0.08715862780809402,
          -0.03489368408918381,
          0.03302974998950958,
          -0.08382606506347656,
          -0.10036535561084747,
          -0.1555563062429428,
          0.023068152368068695,
          0.014699445106089115,
          -0.011382252909243107,
          0.1202637255191803,
          0.16826869547367096,
          0.00330596836283803,
          0.02049277164041996,
          0.10481944680213928,
          0.19843003153800964,
          -0.2044399082660675,
          -0.03322373703122139,
          0.013315289281308651,
          0.11098097264766693,
          0.12080451846122742,
          0.06697319447994232,
          0.025794602930545807,
          0.08331698924303055,
          0.12727656960487366,
          0.051284242421388626,
          0.07978452742099762,
          0.17345236241817474,
          0.11913357675075531,
          0.15395516157150269,
          -0.04537588357925415,
          0.14795397222042084,
          0.28262022137641907,
          -0.01986042968928814,
          0.05543227866292,
          0.06284597516059875,
          0.10541078448295593,
          -0.11353517323732376,
          0.17746177315711975,
          0.17506298422813416,
          0.005187740083783865,
          -0.22817297279834747,
          0.1559613049030304,
          0.0833941102027893,
          0.1527911126613617,
          0.005314638838171959
        ],
        [
          0.03658966347575188,
          -0.03893613442778587,
          0.02934059128165245,
          0.21397855877876282,
          0.022008907049894333,
          -0.10510195791721344,
          0.030518917366862297,
          0.009719335474073887,
          0.015875209122896194,
          -0.06588608026504517,
          0.035120993852615356,
          0.13244733214378357,
          -0.3452361524105072,
          -0.02089414931833744,
          0.053595252335071564,
          0.01783919706940651,
          0.1761474311351776,
          0.16398677229881287,
          0.027960631996393204,
          0.10183878988027573,
          -0.06908534467220306,
          -0.010060521773993969,
          0.14225885272026062,
          0.0075685735791921616,
          -0.10700785368680954,
          0.08444955199956894,
          0.1518012434244156,
          0.014281431213021278,
          0.13703596591949463,
          -0.016385044902563095,
          0.15833482146263123,
          0.22843945026397705,
          0.0044722785241901875,
          0.12082935869693756,
          -0.32251623272895813,
          -0.025446007028222084,
          -0.015113571658730507,
          0.012223397381603718,
          0.0297598447650671,
          0.22501862049102783,
          0.020012518391013145,
          0.08522633463144302,
          0.07317542284727097,
          -0.015806760638952255,
          -0.022252652794122696,
          0.0921548381447792,
          0.1534416675567627,
          0.029264289885759354,
          -0.02372545562684536,
          0.023731062188744545,
          0.15812498331069946,
          -0.03751225396990776,
          0.12042170017957687,
          0.07022570073604584,
          -0.09643236547708511,
          -0.05486655235290527,
          0.20642633736133575,
          0.1103760227560997,
          0.16312307119369507,
          -0.05987287312746048,
          0.1267291009426117,
          -0.10473690181970596,
          0.06053393706679344,
          -0.01887046918272972
        ],
        [
          -0.09990022331476212,
          0.12817677855491638,
          0.0707399994134903,
          0.034904588013887405,
          -0.07430455833673477,
          -0.18403176963329315,
          0.10899235308170319,
          -0.04911976680159569,
          -0.08185099810361862,
          -0.10848890244960785,
          0.17632481455802917,
          0.031200353056192398,
          -0.38429102301597595,
          -0.10296070575714111,
          0.03253094106912613,
          -0.028884312137961388,
          0.18207219243049622,
          0.011514686048030853,
          -0.003043560078367591,
          -0.10960914194583893,
          -0.1202179417014122,
          0.06776416301727295,
          0.02271598018705845,
          0.02869102545082569,
          -0.07408807426691055,
          -0.07973235100507736,
          0.02225598879158497,
          0.1475863754749298,
          -0.07803245633840561,
          0.11170739680528641,
          0.10377760976552963,
          0.1332244575023651,
          0.15340165793895721,
          0.13713587820529938,
          -0.10342379659414291,
          -0.1047476977109909,
          0.046836007386446,
          0.1448245346546173,
          0.031607091426849365,
          0.1075550839304924,
          -0.05975205451250076,
          -0.05822118744254112,
          0.09778951108455658,
          0.05751139670610428,
          0.06354159861803055,
          0.10762602090835571,
          0.12903907895088196,
          -0.049052946269512177,
          -0.07343149185180664,
          0.1973717361688614,
          0.27132317423820496,
          -0.009833439253270626,
          -0.1006726399064064,
          0.09829437732696533,
          0.08418658375740051,
          -0.030284758657217026,
          0.2703864574432373,
          0.01330978237092495,
          0.17242386937141418,
          -0.2097088247537613,
          0.29854267835617065,
          0.0886579230427742,
          0.10339844971895218,
          0.18973128497600555
        ],
        [
          -0.09753777831792831,
          -0.12177572399377823,
          -0.1336430460214615,
          0.06297513842582703,
          0.02806645631790161,
          -0.10598200559616089,
          0.06053510308265686,
          0.11405153572559357,
          -0.1319558471441269,
          0.07410034537315369,
          0.0020821471698582172,
          -0.004185837227851152,
          0.11247414350509644,
          0.09662491828203201,
          0.03974570706486702,
          0.09876686334609985,
          0.052003055810928345,
          0.0038101107347756624,
          -0.11587966978549957,
          0.005896829068660736,
          -0.10693997144699097,
          0.025271890684962273,
          0.0103937778621912,
          -0.014270037412643433,
          -0.09222608804702759,
          -0.09232927113771439,
          0.07643669843673706,
          0.04538162797689438,
          0.06590497493743896,
          -0.052284110337495804,
          -0.03626181185245514,
          -0.0492682121694088,
          0.07105087488889694,
          -0.06438632309436798,
          0.07873310148715973,
          0.07336360216140747,
          -0.12958215177059174,
          -0.014541481621563435,
          -0.02380669116973877,
          -0.08535624295473099,
          0.05396468937397003,
          -0.029878435656428337,
          0.09395631402730942,
          -0.09337294101715088,
          0.040444325655698776,
          -0.12162601202726364,
          -0.07883400470018387,
          -0.008057311177253723,
          0.09194141626358032,
          0.06583990156650543,
          -0.11827363818883896,
          -0.0030294330790638924,
          -0.08089246600866318,
          -0.00974306371062994,
          -0.11304763704538345,
          -0.047921329736709595,
          0.07304616272449493,
          -0.12438487261533737,
          -0.135685533285141,
          0.015268946997821331,
          0.0004532041202764958,
          -0.033184755593538284,
          0.09362249821424484,
          -0.08871539682149887
        ],
        [
          -0.07457470148801804,
          -0.06856448203325272,
          0.06664960086345673,
          0.08051648736000061,
          0.04130689427256584,
          -0.07970762252807617,
          0.05126354098320007,
          -0.07540810108184814,
          0.08230071514844894,
          0.08395139873027802,
          0.014691155403852463,
          0.01589817740023136,
          -0.4728376269340515,
          -0.031472839415073395,
          -0.00613389490172267,
          -0.10365555435419083,
          0.20752747356891632,
          -0.024797072634100914,
          0.0846649557352066,
          -0.0106758838519454,
          0.0336013101041317,
          -0.0978354662656784,
          0.10596192628145218,
          -0.10050805658102036,
          -0.0341942124068737,
          0.057174041867256165,
          -0.008830302394926548,
          -0.06688003242015839,
          0.14637014269828796,
          -0.026087017729878426,
          -0.010163052007555962,
          0.10707888752222061,
          0.05448107421398163,
          0.17375297844409943,
          -0.2722066342830658,
          0.04305426403880119,
          -0.0048925853334367275,
          0.053890667855739594,
          0.06738045811653137,
          0.1683736890554428,
          -0.02231910452246666,
          0.03739069029688835,
          -0.021232012659311295,
          0.03250641003251076,
          0.03272108733654022,
          0.005441154353320599,
          -0.030873624607920647,
          0.1444217562675476,
          -0.0428004264831543,
          0.15153267979621887,
          0.31181323528289795,
          0.05531018599867821,
          -0.04530993476510048,
          0.0015146710211411119,
          -0.03399863839149475,
          -0.017701510339975357,
          0.09129353612661362,
          0.11008581519126892,
          0.17354430258274078,
          -0.021907292306423187,
          0.29424849152565,
          0.01037383172661066,
          0.14395128190517426,
          0.1592971384525299
        ],
        [
          0.022646451368927956,
          -0.05249552056193352,
          -0.119796983897686,
          -0.04634682089090347,
          -0.022670477628707886,
          0.009179651737213135,
          -0.03348204493522644,
          0.030599383637309074,
          0.06325627118349075,
          -0.06558804959058762,
          -0.12877468764781952,
          -0.08200140297412872,
          -0.07269266992807388,
          0.06529634445905685,
          -0.0993538349866867,
          -0.029431862756609917,
          -0.04403328150510788,
          -0.09463513642549515,
          0.04637064039707184,
          -0.05762818083167076,
          -0.01202512439340353,
          -0.08788558840751648,
          -0.029878368601202965,
          0.01776072382926941,
          -0.0050866007804870605,
          -0.04670596122741699,
          0.018523622304201126,
          -0.03238719701766968,
          -0.08290019631385803,
          -0.11113376170396805,
          -0.04599068686366081,
          -0.13402606546878815,
          0.08433686941862106,
          -0.07278026640415192,
          -0.05180227756500244,
          0.011554881930351257,
          0.012823843397200108,
          -0.031378474086523056,
          0.06860256940126419,
          -0.09206628054380417,
          0.037010494619607925,
          -0.0002819150686264038,
          -0.1160273626446724,
          -0.0669761598110199,
          0.02625218965113163,
          0.0064021386206150055,
          0.07067803293466568,
          0.08362412452697754,
          -0.06817784905433655,
          -0.0693754255771637,
          -0.02650517225265503,
          -0.10693681985139847,
          -0.053120262920856476,
          -0.11853068321943283,
          0.02754475548863411,
          0.08844491839408875,
          0.009897053241729736,
          -0.10713469982147217,
          -0.10883645713329315,
          -0.048662394285202026,
          0.03635667264461517,
          -0.016773322597146034,
          0.0033349774312227964,
          0.09808242321014404
        ],
        [
          0.07865534722805023,
          0.06031089276075363,
          0.04879038780927658,
          0.14757178723812103,
          0.011628278531134129,
          -0.1690988689661026,
          -0.05219658464193344,
          0.005972851999104023,
          0.04692825675010681,
          0.04283514618873596,
          0.02788846753537655,
          -0.07423155754804611,
          -0.33829838037490845,
          -0.07431671768426895,
          0.11816985160112381,
          -0.06122594326734543,
          0.16249282658100128,
          0.08960642665624619,
          0.0955226868391037,
          -0.09857159852981567,
          -0.0030445584561675787,
          -0.006926529575139284,
          -0.032631780952215195,
          -0.0540841780602932,
          -0.16824954748153687,
          0.07454347610473633,
          0.10187824070453644,
          0.04097192361950874,
          0.09002871066331863,
          0.05561485141515732,
          0.12236019968986511,
          0.16935355961322784,
          -0.019181687384843826,
          0.2273385375738144,
          -0.21038402616977692,
          -0.020825278013944626,
          0.10877643525600433,
          0.14879129827022552,
          -0.07029017060995102,
          0.031641967594623566,
          0.03772745281457901,
          -0.038606248795986176,
          0.06492217630147934,
          0.036786194890737534,
          0.11251937597990036,
          0.1684579998254776,
          -0.028022047132253647,
          -0.025640331208705902,
          0.05664026737213135,
          0.09054950624704361,
          0.16901390254497528,
          -0.04914592206478119,
          0.1310417801141739,
          0.08398879319429398,
          -0.0013898322358727455,
          -0.11177138239145279,
          0.13846631348133087,
          0.1564909964799881,
          0.1049884557723999,
          -0.014356258325278759,
          0.2019384801387787,
          -0.014173628762364388,
          0.13056710362434387,
          0.0768127366900444
        ],
        [
          -0.05994641035795212,
          0.0112674655392766,
          0.057780053466558456,
          -0.009052863344550133,
          0.059408556669950485,
          0.0583348274230957,
          -0.006227297242730856,
          0.007654108107089996,
          0.0026443544775247574,
          -0.015469990670681,
          0.06854084134101868,
          0.08349595963954926,
          0.09617296606302261,
          -0.009541488252580166,
          0.07100845873355865,
          -0.13317552208900452,
          0.045324668288230896,
          0.023069657385349274,
          0.049303725361824036,
          -0.0340239591896534,
          -0.13220436871051788,
          0.05607501417398453,
          -0.10018685460090637,
          0.00039957306580618024,
          0.042471591383218765,
          -0.14352631568908691,
          -0.03142336383461952,
          -0.074167400598526,
          0.04787691682577133,
          -0.11152541637420654,
          0.029384611174464226,
          0.04136781394481659,
          0.025889374315738678,
          0.0781666710972786,
          -0.0166762825101614,
          -0.14616942405700684,
          0.047117672860622406,
          -0.03015752322971821,
          -0.02447514794766903,
          -0.16103842854499817,
          -0.06238389387726784,
          -0.10057120770215988,
          0.08952857553958893,
          0.05198141932487488,
          0.060375187546014786,
          0.04987037554383278,
          -0.11329635232686996,
          -0.07423582673072815,
          -0.08923522382974625,
          -0.10177681595087051,
          0.0559680350124836,
          0.005093113984912634,
          0.055945198982954025,
          -0.048238545656204224,
          -0.15265871584415436,
          -0.06758222728967667,
          0.04789595678448677,
          0.03899547830224037,
          -0.006299230735749006,
          -0.062412481755018234,
          -0.15668119490146637,
          -0.11438492685556412,
          0.024531783536076546,
          -0.09090901911258698
        ],
        [
          0.07118116319179535,
          0.04025943949818611,
          0.04077707231044769,
          0.1851426661014557,
          -0.06696435064077377,
          -0.10795638710260391,
          -0.052425455302000046,
          -0.15622402727603912,
          0.0008866805583238602,
          0.028631314635276794,
          0.050311129540205,
          0.12619256973266602,
          -0.506817638874054,
          -0.18923598527908325,
          0.030566204339265823,
          -0.11697360128164291,
          0.0814586952328682,
          0.06712451577186584,
          0.03929899260401726,
          -0.12156182527542114,
          -0.04150472953915596,
          -0.054518137127161026,
          0.048625897616147995,
          0.054745711386203766,
          0.011086316779255867,
          -0.06921705603599548,
          0.003821303602308035,
          0.010605588555335999,
          -0.056373391300439835,
          0.09357397258281708,
          0.07345506548881531,
          0.2021092027425766,
          0.1404920369386673,
          0.17592039704322815,
          -0.1783994436264038,
          0.016654882580041885,
          0.08579261600971222,
          0.15898770093917847,
          -0.10552118718624115,
          0.1984902173280716,
          -0.10029643028974533,
          -0.09355031698942184,
          0.00030772044556215405,
          0.13084155321121216,
          0.14890369772911072,
          0.11921586096286774,
          0.030355973169207573,
          -0.006268056575208902,
          -0.09565342217683792,
          0.12028416246175766,
          0.22170837223529816,
          0.1573818325996399,
          0.0849650576710701,
          -0.034483470022678375,
          0.01088845543563366,
          -0.1403774470090866,
          0.17756237089633942,
          0.032197363674640656,
          0.14749062061309814,
          -0.25262683629989624,
          0.3784871995449066,
          0.07311024516820908,
          -0.015333910472691059,
          -0.016747165471315384
        ],
        [
          0.004877209663391113,
          -0.04833190143108368,
          0.025427116081118584,
          -0.09567217528820038,
          0.04217718914151192,
          -0.11795438826084137,
          -0.07887771725654602,
          -0.07658729702234268,
          0.05472879111766815,
          -0.013917800039052963,
          -0.12943148612976074,
          -0.08143787086009979,
          -0.06912623345851898,
          -0.11597870290279388,
          0.0034520612098276615,
          0.03564874827861786,
          -0.03540847823023796,
          -0.057517439126968384,
          -0.014214644208550453,
          -0.11125724762678146,
          -0.08844514936208725,
          -0.01549531053751707,
          0.09918476641178131,
          -0.04434189200401306,
          0.04863905906677246,
          -0.04919379949569702,
          -0.04135822877287865,
          -0.12499555200338364,
          0.09081050008535385,
          0.10939883440732956,
          -0.012357491068542004,
          0.06712557375431061,
          0.09146054089069366,
          0.049374766647815704,
          0.05102071538567543,
          -0.13219521939754486,
          -0.1274733692407608,
          -0.10194770991802216,
          0.02852259948849678,
          -0.1196431890130043,
          -0.10814135521650314,
          -0.06967692822217941,
          -0.11521066725254059,
          -0.0058367871679365635,
          0.005904590245336294,
          -0.08580832183361053,
          0.07281161844730377,
          -0.05981593579053879,
          -0.04346488416194916,
          0.0828433558344841,
          0.09494274854660034,
          -0.021302031353116035,
          -0.10123149305582047,
          -0.07518471032381058,
          0.006047961302101612,
          0.059895310550928116,
          0.04962790012359619,
          -0.06783417612314224,
          -0.12880752980709076,
          -0.12233523279428482,
          -0.05234614387154579,
          -0.007386260665953159,
          -0.06170449033379555,
          -0.1109602227807045
        ],
        [
          0.03274989873170853,
          -0.065071702003479,
          -0.01924997754395008,
          -0.010384874418377876,
          -0.07013767212629318,
          0.04756972938776016,
          0.07015107572078705,
          -0.016773022711277008,
          0.02248164266347885,
          0.03067781589925289,
          0.1041358932852745,
          -0.048009589314460754,
          -0.4174211621284485,
          -0.1467333734035492,
          0.08420463651418686,
          -0.14613136649131775,
          0.04965493455529213,
          0.03465886041522026,
          0.12495872378349304,
          0.08935216814279556,
          0.02143290638923645,
          -0.0168575718998909,
          -0.011522311717271805,
          -0.06868467479944229,
          -0.13068944215774536,
          -0.07734024524688721,
          0.06862882524728775,
          0.000718732422683388,
          -0.08746150135993958,
          0.09923259168863297,
          0.17149266600608826,
          0.02817223034799099,
          0.11290505528450012,
          0.14682097733020782,
          -0.19572924077510834,
          0.011224303394556046,
          0.1939096748828888,
          0.06862647086381912,
          -0.0809035524725914,
          0.07355739921331406,
          0.018636345863342285,
          0.057241056114435196,
          0.02705731801688671,
          0.04163925722241402,
          0.02625611238181591,
          0.03313862159848213,
          -0.02892741747200489,
          0.048921842128038406,
          0.02311002090573311,
          0.1858953982591629,
          0.15035118162631989,
          0.06796176731586456,
          0.10632491111755371,
          0.14075222611427307,
          0.037381887435913086,
          -0.026252156123518944,
          0.163399338722229,
          0.0030719100032001734,
          0.10842853784561157,
          -0.15119296312332153,
          0.3171791136264801,
          0.11517072468996048,
          0.08587674796581268,
          0.19569700956344604
        ],
        [
          -0.0730377659201622,
          0.09665002673864365,
          0.09661531448364258,
          -0.010781633667647839,
          -0.11121377348899841,
          -0.05228649079799652,
          -0.045307207852602005,
          -0.007776172831654549,
          -0.12242231518030167,
          0.011605439707636833,
          -0.06364528834819794,
          -0.042819760739803314,
          -0.07056233286857605,
          -0.02639174461364746,
          -0.13059470057487488,
          -0.07795044034719467,
          -0.004327279515564442,
          0.08190949261188507,
          0.10166914016008377,
          -0.10378226637840271,
          0.046487413346767426,
          -0.08439279347658157,
          -0.10264860093593597,
          -0.005504414439201355,
          -0.07771090418100357,
          -0.11725632846355438,
          -0.1259341984987259,
          -0.09480404108762741,
          0.089353546500206,
          0.05790313333272934,
          -0.04948088526725769,
          -0.09660729765892029,
          -0.09615522623062134,
          -0.08706692606210709,
          -0.0651780441403389,
          0.062421903014183044,
          0.03490407019853592,
          -0.0481715202331543,
          0.07445118576288223,
          -0.09006147086620331,
          -0.11519497632980347,
          0.027281269431114197,
          -0.06892511248588562,
          0.026980523020029068,
          0.09167207777500153,
          -0.07097703963518143,
          -0.09831863641738892,
          0.04705001413822174,
          -0.11289338767528534,
          0.09559860080480576,
          -0.07384728640317917,
          0.05053790658712387,
          -0.10923190414905548,
          -0.09600751101970673,
          0.004180785268545151,
          0.03166535869240761,
          0.08173707127571106,
          0.09195304661989212,
          -0.007188946008682251,
          -0.027234559878706932,
          0.0062270998023450375,
          -0.029036372900009155,
          -0.000973388843704015,
          -0.13155539333820343
        ],
        [
          -0.4965578317642212,
          0.032558780163526535,
          -0.3937288224697113,
          0.2525276243686676,
          0.1696004569530487,
          0.2834955155849457,
          -0.22765082120895386,
          -0.6242780685424805,
          -0.21214565634727478,
          0.09011242538690567,
          0.4176793396472931,
          -0.1621381938457489,
          -0.3478356599807739,
          -0.24069063365459442,
          0.052955180406570435,
          0.28082671761512756,
          0.22563445568084717,
          0.20251992344856262,
          -0.02639271691441536,
          0.26683589816093445,
          0.4582047164440155,
          0.25091350078582764,
          -0.28280407190322876,
          0.30755048990249634,
          0.20474502444267273,
          0.24734443426132202,
          -0.17061693966388702,
          0.0841764360666275,
          0.15969079732894897,
          -0.0002460740797687322,
          0.06976180523633957,
          0.4258773922920227,
          -0.12095166742801666,
          0.0834364965558052,
          0.4492778778076172,
          0.03282112628221512,
          -0.1937333643436432,
          -0.7463799118995667,
          0.008292576298117638,
          0.009364106692373753,
          0.27640920877456665,
          0.22856509685516357,
          -0.37528786063194275,
          -0.4666060507297516,
          0.35049164295196533,
          -0.09682357311248779,
          0.15399070084095,
          0.06287451088428497,
          -0.20188122987747192,
          0.2955896854400635,
          0.3448299169540405,
          0.3561422824859619,
          -0.22244222462177277,
          -0.39699989557266235,
          -0.3798680007457733,
          0.22411856055259705,
          0.20808333158493042,
          0.1955929845571518,
          0.20195965468883514,
          0.30888429284095764,
          0.05807716026902199,
          -0.5814384818077087,
          -0.5967187285423279,
          -0.04769992455840111
        ],
        [
          0.03039463609457016,
          0.023872951045632362,
          0.061398155987262726,
          -0.03373772278428078,
          0.08509233593940735,
          -0.07483867555856705,
          -0.08502620458602905,
          -0.07275166362524033,
          -0.1450999528169632,
          -0.10207834839820862,
          -0.13719500601291656,
          -0.03280281648039818,
          -0.020014004781842232,
          -0.05230410769581795,
          -0.1130240187048912,
          0.08910626173019409,
          -0.06727416813373566,
          0.02901315875351429,
          0.06507114320993423,
          -0.1046447679400444,
          -0.0421164333820343,
          0.045280344784259796,
          0.08807317167520523,
          -0.045329879969358444,
          0.05886415019631386,
          -0.11830879747867584,
          -0.11011961847543716,
          0.07324159145355225,
          -0.03682050481438637,
          0.09899283200502396,
          -0.02224692329764366,
          -0.07406551390886307,
          0.08824332058429718,
          0.08509770780801773,
          -0.00821711029857397,
          -0.0969732329249382,
          -0.03519241139292717,
          -0.09160610288381577,
          0.06988941133022308,
          -0.022450564429163933,
          0.005205049645155668,
          0.04416780546307564,
          0.010334456339478493,
          -0.10699055343866348,
          0.07908033579587936,
          0.04944918304681778,
          -0.1039736419916153,
          0.060697197914123535,
          -0.037646256387233734,
          -0.050286609679460526,
          -0.11556591093540192,
          -0.045671626925468445,
          -0.15172730386257172,
          0.03786889463663101,
          0.06114640086889267,
          -0.056280218064785004,
          0.08918134868144989,
          -0.06912899762392044,
          -0.00873584859073162,
          -0.11408016830682755,
          -0.03250173479318619,
          0.018259486183524132,
          0.02379576489329338,
          -0.0324949249625206
        ],
        [
          -0.0854547843337059,
          0.057805679738521576,
          0.053135309368371964,
          -0.009037348441779613,
          -0.07376528531312943,
          0.007476070895791054,
          -0.03770079463720322,
          0.07972405105829239,
          -0.004569902550429106,
          -0.01593448594212532,
          -0.009694238193333149,
          0.042215123772621155,
          -0.030085865408182144,
          0.09045246988534927,
          0.02868044562637806,
          -0.12029939144849777,
          -0.03601342812180519,
          -0.12713715434074402,
          -0.12701156735420227,
          0.0003395459207240492,
          -0.0014939807588234544,
          -0.038635339587926865,
          0.07910837978124619,
          -0.08266231417655945,
          -0.0795573815703392,
          -0.034037694334983826,
          -0.022376909852027893,
          -0.02713145688176155,
          0.07195499539375305,
          -0.08304911106824875,
          -0.0949799194931984,
          -0.01960860751569271,
          0.06364256143569946,
          -0.006008947268128395,
          0.03231888264417648,
          -0.005730943288654089,
          0.07779892534017563,
          0.04942987859249115,
          0.06537316739559174,
          -0.04552825912833214,
          -0.13489900529384613,
          -0.07604803889989853,
          0.024961180984973907,
          0.0641733929514885,
          -0.07426415383815765,
          0.06921501457691193,
          -0.008290206082165241,
          -0.02411103993654251,
          -0.031846169382333755,
          -0.05662616714835167,
          0.08455264568328857,
          -0.011756363324820995,
          0.041833505034446716,
          -0.14398469030857086,
          -0.0915936753153801,
          -0.013675007969141006,
          0.06662352383136749,
          0.028015246614813805,
          -0.0024922755546867847,
          -0.1517341136932373,
          -0.030802348628640175,
          -0.1166105791926384,
          -0.12991763651371002,
          -0.014548623003065586
        ],
        [
          -0.07908816635608673,
          0.1134548932313919,
          -0.06794272363185883,
          0.04028351604938507,
          0.07337035238742828,
          -0.0971546471118927,
          0.06397250294685364,
          -0.016737014055252075,
          0.06477034091949463,
          0.120966836810112,
          -0.05327068269252777,
          -0.05413798987865448,
          0.09931865334510803,
          0.01390005648136139,
          -0.012466594576835632,
          0.09483353793621063,
          -0.06039300560951233,
          -0.006172016263008118,
          0.08585947751998901,
          0.0488513708114624,
          -0.08085185289382935,
          0.03248956799507141,
          -0.09530459344387054,
          -0.0678841769695282,
          0.08037647604942322,
          -0.03331403434276581,
          -0.06366963684558868,
          0.008860290050506592,
          0.030546292662620544,
          -0.0777021050453186,
          -0.08429542183876038,
          -0.1210586428642273,
          0.03229793906211853,
          -0.08065368235111237,
          0.009526044130325317,
          -0.02795727550983429,
          -0.08173249661922455,
          -0.03988735377788544,
          -0.09608624875545502,
          -0.06616660952568054,
          -0.0038964003324508667,
          -0.10686439275741577,
          -0.10962916910648346,
          0.09363256394863129,
          0.011762261390686035,
          -0.05528172850608826,
          -0.00415608286857605,
          0.09269563853740692,
          -0.10428319871425629,
          -0.06627294421195984,
          -0.09039255976676941,
          -0.009087622165679932,
          -0.004301607608795166,
          -0.09741322696208954,
          0.0867604911327362,
          -0.09598997235298157,
          0.11670446395874023,
          -0.08604612946510315,
          -0.017130687832832336,
          0.02337336540222168,
          -0.0555596798658371,
          0.11495524644851685,
          -0.08617928624153137,
          -0.006928548216819763
        ],
        [
          -0.13279588520526886,
          0.06980836391448975,
          0.06925050914287567,
          0.06118759140372276,
          0.18117018043994904,
          0.06040117144584656,
          0.13331446051597595,
          0.06591889262199402,
          0.06998924911022186,
          0.023233644664287567,
          -0.14371491968631744,
          -0.13467401266098022,
          0.23147548735141754,
          -0.10666922479867935,
          -0.10825073719024658,
          0.18080773949623108,
          0.018426956608891487,
          -0.04501060023903847,
          0.14680714905261993,
          -0.08515234291553497,
          0.081184983253479,
          -0.2303982973098755,
          0.07412965595722198,
          0.1869744211435318,
          -0.22181253135204315,
          0.2995104491710663,
          0.05966295301914215,
          0.4027019739151001,
          0.1440335065126419,
          0.10096408426761627,
          0.05168766528367996,
          -0.034679461270570755,
          -0.01718699000775814,
          0.03576669096946716,
          0.38515520095825195,
          -0.003140963613986969,
          -0.05540335923433304,
          -0.10860654711723328,
          0.06398984044790268,
          -0.17984016239643097,
          0.062150608748197556,
          0.5024340152740479,
          -0.08575509488582611,
          -0.0032957021612674,
          -0.2234543263912201,
          0.044921934604644775,
          0.021970059722661972,
          -0.2114928811788559,
          0.6436594128608704,
          0.1515069305896759,
          -0.06936739385128021,
          -0.05306488275527954,
          0.09642107784748077,
          -0.04639917612075806,
          -0.02295837551355362,
          0.17516331374645233,
          -0.1888578087091446,
          0.011875761672854424,
          -0.14486335217952728,
          0.2660747468471527,
          -0.3157249093055725,
          0.13021491467952728,
          0.06131652742624283,
          0.008964038453996181
        ],
        [
          0.12726041674613953,
          0.0798211470246315,
          0.16545163094997406,
          0.0701373815536499,
          0.0812133327126503,
          -0.09675443917512894,
          0.0758693665266037,
          -0.0666729062795639,
          0.06522348523139954,
          0.09423007071018219,
          0.035952430218458176,
          0.14850834012031555,
          -0.47576066851615906,
          -0.1719004362821579,
          0.0033801686950027943,
          -0.030297329649329185,
          0.008003215305507183,
          0.048390213400125504,
          -0.08238859474658966,
          0.010024230927228928,
          -0.2054770439863205,
          -0.1330166906118393,
          0.00932345911860466,
          -0.0985463410615921,
          -0.13660076260566711,
          0.03231685608625412,
          0.03348400071263313,
          -0.06517377495765686,
          -0.012378699146211147,
          -0.021779123693704605,
          0.15845178067684174,
          0.021414244547486305,
          0.08367012441158295,
          0.25874850153923035,
          -0.30699223279953003,
          0.08045325428247452,
          0.0481393001973629,
          0.020313261076807976,
          -0.08718530833721161,
          0.10334590822458267,
          -0.0844031348824501,
          -0.1072976216673851,
          0.058209702372550964,
          0.06826187670230865,
          0.1902810037136078,
          0.17209380865097046,
          0.1433022916316986,
          0.020212218165397644,
          0.02873121201992035,
          0.25518402457237244,
          0.3590227961540222,
          -0.042500946670770645,
          -0.011090000160038471,
          -0.05017536133527756,
          0.01572263613343239,
          -0.11067177355289459,
          0.32302236557006836,
          0.15688343346118927,
          0.12191727757453918,
          -0.26187801361083984,
          0.1815258413553238,
          0.002018935512751341,
          0.008681226521730423,
          0.04572547599673271
        ],
        [
          0.10853679478168488,
          -0.03357505425810814,
          0.017530078068375587,
          0.18220113217830658,
          0.017363080754876137,
          -0.1245901808142662,
          0.059662435203790665,
          0.0645318403840065,
          -0.11079511791467667,
          0.006891606841236353,
          0.11542753130197525,
          0.042681556195020676,
          -0.21556968986988068,
          -0.13512250781059265,
          0.14924268424510956,
          -0.0936131551861763,
          -0.039342593401670456,
          0.1620260775089264,
          -0.055992234498262405,
          -0.004389386624097824,
          0.018600771203637123,
          -0.12276741117238998,
          -0.07702356576919556,
          -0.0568256638944149,
          0.07011833786964417,
          -0.035018038004636765,
          0.17491267621517181,
          0.07107008248567581,
          0.06781896948814392,
          -0.03524396941065788,
          0.18620939552783966,
          0.14235742390155792,
          0.09607037901878357,
          0.2304459512233734,
          -0.2979768216609955,
          0.03439956158399582,
          0.023286977782845497,
          0.038279879838228226,
          0.0400770828127861,
          0.16545680165290833,
          -0.008494886569678783,
          -0.07945846766233444,
          -0.05391446873545647,
          0.05621865764260292,
          0.046273086220026016,
          -0.033361077308654785,
          0.15837246179580688,
          0.044621556997299194,
          -0.09815677255392075,
          0.1385999470949173,
          0.21823108196258545,
          -0.008064796216785908,
          0.08859122544527054,
          0.006952787283807993,
          0.06573021411895752,
          0.06037330627441406,
          0.22800615429878235,
          0.15465599298477173,
          0.07408580183982849,
          -0.09772332012653351,
          0.23263531923294067,
          0.03533622995018959,
          0.03338099643588066,
          0.0967753529548645
        ],
        [
          -0.0633053183555603,
          -0.09391708672046661,
          -0.13758714497089386,
          -0.12387095391750336,
          -0.09413039684295654,
          0.1054525226354599,
          0.002153347246348858,
          -0.13322332501411438,
          -0.0823063775897026,
          0.0072637517005205154,
          -0.055546462535858154,
          -0.0550382174551487,
          -0.06586749851703644,
          -0.04259748384356499,
          -0.00785811897367239,
          -0.017267251387238503,
          0.05720236152410507,
          0.06543180346488953,
          0.07939796894788742,
          -0.020629918202757835,
          -0.07435442507266998,
          -0.016868114471435547,
          -0.10058876127004623,
          0.03787430748343468,
          -0.03101298213005066,
          -0.05392535403370857,
          -0.12123053520917892,
          0.045945052057504654,
          0.047731395810842514,
          0.09099245816469193,
          -0.06244942545890808,
          0.015206051990389824,
          -0.014614726416766644,
          -0.10269200056791306,
          -0.10186459869146347,
          0.041440099477767944,
          -0.09272085130214691,
          0.08204782754182816,
          0.019368313252925873,
          0.021348165348172188,
          0.057149097323417664,
          0.04634043946862221,
          0.042029205709695816,
          0.04968705773353577,
          -0.0711323469877243,
          -0.0869969055056572,
          -0.04643619805574417,
          0.05546155199408531,
          0.07401693612337112,
          0.06959250569343567,
          -0.05924282595515251,
          -0.0331282764673233,
          -0.1071728989481926,
          0.05890544503927231,
          -0.10480070859193802,
          -0.07334864139556885,
          0.08422007411718369,
          0.007255543023347855,
          -0.06850648671388626,
          -0.10234952718019485,
          -0.10479738563299179,
          0.08578948676586151,
          -0.12594425678253174,
          0.08460509032011032
        ],
        [
          0.12098614126443863,
          0.027330555021762848,
          0.0689581111073494,
          0.1887342482805252,
          0.026955366134643555,
          0.03239073231816292,
          0.12468726187944412,
          -0.09195368736982346,
          0.07717243582010269,
          0.05714555084705353,
          0.009372640401124954,
          0.10950533300638199,
          -0.4195117652416229,
          -0.12797455489635468,
          0.09216330945491791,
          -0.05099474638700485,
          0.05659062787890434,
          0.0010629588505253196,
          0.06672611087560654,
          0.11899188160896301,
          -0.07621718943119049,
          -0.12342191487550735,
          0.02433207631111145,
          -0.18010874092578888,
          -0.1538695991039276,
          -0.04318482428789139,
          0.1697636842727661,
          -0.050931625068187714,
          0.007614598143845797,
          -0.017207885161042213,
          -0.039238542318344116,
          0.05744275078177452,
          0.07480952888727188,
          0.1274159550666809,
          -0.07320695370435715,
          0.048851095139980316,
          0.1656557023525238,
          0.10583413392305374,
          0.013982433825731277,
          0.18323101103305817,
          -0.09649741649627686,
          0.09340734779834747,
          0.08973388373851776,
          0.01015358604490757,
          0.057364653795957565,
          -0.01959715411067009,
          -0.06802385300397873,
          0.019081056118011475,
          -0.009849945083260536,
          0.0872478261590004,
          0.22462689876556396,
          -0.04409851133823395,
          -0.033817585557699203,
          0.15983441472053528,
          -0.09280001372098923,
          -0.032969363033771515,
          0.26420795917510986,
          0.19577716290950775,
          0.15037234127521515,
          -0.24435162544250488,
          0.22452180087566376,
          -0.03497406840324402,
          0.030391715466976166,
          0.18074066936969757
        ],
        [
          -0.0701487734913826,
          0.06640397757291794,
          -0.09419849514961243,
          -0.009138833731412888,
          0.035659343004226685,
          0.1783016473054886,
          0.23273201286792755,
          -0.1341514140367508,
          0.046789176762104034,
          0.14580197632312775,
          0.02152439020574093,
          0.062102243304252625,
          0.40301433205604553,
          -0.15079525113105774,
          0.1698632836341858,
          0.021754901856184006,
          -0.2905319929122925,
          -0.0440877303481102,
          0.2639731168746948,
          0.009253405965864658,
          -0.14920823276042938,
          -0.13896390795707703,
          0.003442156594246626,
          0.12479230761528015,
          -0.3830735683441162,
          -0.11952546238899231,
          0.07011216878890991,
          0.0206922497600317,
          -0.3696116507053375,
          0.05968315899372101,
          0.05631466582417488,
          -0.12111248075962067,
          0.08084360510110855,
          -0.07934346050024033,
          0.12839750945568085,
          0.13152916729450226,
          -0.19922156631946564,
          0.10839968919754028,
          0.2865352928638458,
          -0.05575485900044441,
          0.11085201799869537,
          -0.19455423951148987,
          0.1178663969039917,
          0.17021991312503815,
          0.10289384424686432,
          0.038786932826042175,
          0.0028566436376422644,
          0.24097508192062378,
          0.08361805975437164,
          -0.6504393815994263,
          -0.18932867050170898,
          -0.009631680324673653,
          0.11314067244529724,
          0.2387525886297226,
          -0.033813703805208206,
          0.3044910132884979,
          -0.1189705953001976,
          -0.03270326182246208,
          0.09442918747663498,
          -0.12295299023389816,
          0.05777757987380028,
          -0.02604280412197113,
          -0.11888862401247025,
          0.01690601371228695
        ],
        [
          -0.47133469581604004,
          -0.1123197078704834,
          -0.3037624657154083,
          0.14066094160079956,
          0.10694842785596848,
          0.2432035654783249,
          -0.31424063444137573,
          -0.6942949891090393,
          -0.23252783715724945,
          0.11825823783874512,
          0.3280806243419647,
          -0.11713787168264389,
          -0.6320754885673523,
          -0.19588147103786469,
          0.1553686261177063,
          0.320781946182251,
          0.19290484488010406,
          0.3529070317745209,
          0.006337031256407499,
          0.1481124609708786,
          0.36586490273475647,
          0.21354350447654724,
          -0.13089169561862946,
          0.4328485131263733,
          -0.10785611718893051,
          0.2025841325521469,
          -0.30543026328086853,
          0.18591603636741638,
          -0.010240246541798115,
          0.04937811568379402,
          -0.08073699474334717,
          0.2599866986274719,
          -0.04877239838242531,
          0.15889456868171692,
          0.29729995131492615,
